6947 10
</s> 0.040027 0.044194 -0.038303 -0.032780 0.013666 0.030211 0.009409 0.002113 -0.036035 0.022185 
臺灣 0.113401 -2.870459 -1.730822 -1.770657 -0.369313 1.401896 1.577360 1.039288 0.860447 -0.641012 
中國 1.147092 -0.016451 -0.139684 0.729694 0.621465 1.612114 0.605499 0.708069 0.654116 -2.681864 
日本 -1.095342 -0.501814 -1.890512 -0.527297 -0.842547 4.676521 0.308377 0.095652 -0.583829 -1.378714 
臺北 0.778820 -0.613006 0.342020 0.112260 1.080648 -0.209360 1.554294 1.756921 0.617771 -0.699469 
美國 -0.190385 -2.494781 -0.755937 2.203542 1.460808 2.617583 -1.038498 3.731196 -2.105306 -0.335521 
英國 2.848064 -1.631472 -3.125148 0.874637 0.912977 -1.368580 -1.601235 1.647485 -1.825646 -1.270383 
歐洲 -0.458327 -0.569646 -2.293783 0.998688 1.544535 -1.452138 -0.993434 2.929783 -2.883756 0.505565 
法國 1.224038 -1.423897 -3.636229 3.226655 1.576421 0.829531 0.203794 1.778968 -1.704515 1.940153 
德國 -1.017066 0.082501 -2.377372 4.448612 1.255298 1.294480 -0.586021 1.637166 0.550711 -1.369347 
北京 1.185765 0.410276 -1.096642 1.328432 1.016501 1.464353 -0.507769 1.580475 0.998606 -1.304244 
義大利 -3.030227 -0.757678 -2.576944 2.281784 1.074981 -0.379315 1.140884 1.262856 -0.852069 0.888899 
羅馬 -1.882468 0.670067 -1.880649 1.039954 1.389208 -2.781104 4.723020 3.175560 -2.034961 1.055633 
蘇聯 -1.445556 -0.760275 -1.264613 3.715185 1.971636 3.708510 -3.603281 4.889434 -0.249544 -1.484333 
史 0.598104 -1.700142 -0.197595 -1.486028 0.633380 -1.190145 1.310515 1.408333 0.436372 -0.526124 
俄國 -2.092166 1.776392 -5.180206 4.089913 0.439996 3.770450 -2.817552 0.704107 -1.816066 -0.581914 
陳 0.482876 -1.927028 0.993872 -2.287620 2.639565 1.145183 1.331156 1.616166 1.579367 -1.541737 
基督教 -1.956951 0.330550 -3.347001 0.074820 -0.583567 -2.685374 0.713050 1.818686 -2.198531 -0.351768 
南 0.199930 -0.637471 -0.272902 -0.725160 0.533436 -0.705019 1.358494 1.653754 1.232996 0.588950 
埃及 1.266077 3.217412 0.809513 -2.252384 2.034212 -0.462296 -0.827629 5.497102 -1.314916 0.605068 
文明 0.176548 1.158015 0.086222 -0.433459 0.466336 -1.325421 -0.237263 4.027853 -0.817537 1.127444 
中華民國 1.312625 -0.812445 1.578054 -0.151405 0.533415 3.196490 1.573512 2.763753 -1.701505 -3.395550 
拿破崙 4.986452 2.769860 -4.711485 3.054368 1.152863 0.395900 3.527906 4.394618 -2.841343 3.386340 
荷蘭人 -1.708789 -3.167921 -5.058955 -1.745876 -1.637605 2.490243 2.291396 1.609642 -2.101235 -1.073556 
袁世凱 0.729450 3.839052 0.115206 0.496363 0.359026 2.408270 3.307385 2.686650 -1.337899 -5.055870 
希臘 -2.048137 0.570184 0.038182 0.883806 0.384695 -0.052392 2.083002 5.667075 -0.011998 3.035546 
上海 2.563561 0.799165 0.349114 0.287782 2.802557 1.590965 0.339034 1.987535 1.227083 -4.346729 
孫中山 2.475554 0.554584 -0.448259 0.054839 2.820981 2.539545 2.538091 2.220402 -2.484103 -5.739165 
荷蘭 1.323877 -2.250831 -5.755093 -0.170069 -1.386163 1.717424 -0.135604 1.169123 -2.897187 0.523346 
印度 0.384664 2.723967 -1.671626 -0.980042 -1.154965 0.797411 -3.384035 3.846024 -3.587393 -1.515643 
王 1.263057 0.960254 -2.471061 -2.719586 1.775638 -0.951435 0.747890 0.092899 0.623140 1.037495 
南京 2.891631 0.085125 -0.409948 -1.358766 2.158242 5.076185 -0.237762 0.482273 2.084584 -2.487655 
十九世紀 2.165545 -1.621782 -3.094681 1.135859 0.601730 -1.376340 1.463859 2.594412 -1.778221 0.276008 
抗日 -4.071946 -2.776450 -0.583029 0.603048 2.473122 4.579042 3.802066 0.633678 0.455081 -3.726411 
西班牙 0.614812 -0.832891 -3.700958 -0.277297 -2.153230 -0.082065 -0.646821 3.059476 -2.812667 2.021895 
鴉片 3.720342 -2.261434 -3.760893 -1.056040 -0.304132 0.368198 -4.680216 1.527737 3.095968 -7.423181 
美 -0.671137 -0.756224 -0.899534 1.566344 0.191180 2.998030 -2.272827 2.087778 -0.683416 1.020120 
佛教 -2.588154 2.759518 -0.349084 -4.846232 0.958536 0.210643 2.181589 0.815705 -3.588694 -2.539663 
殖民地 1.313098 -1.869225 -3.810612 1.915068 0.102553 -0.496778 -1.069372 3.497016 -3.689140 -2.059635 
和平 -0.157848 -0.861007 -1.896221 2.194925 0.553472 0.379911 0.831566 1.308462 -0.043497 0.330190 
毛澤東 0.181122 1.221768 2.440502 1.976055 5.208938 2.774701 2.629508 6.395030 3.174486 0.273483 
亞洲 0.148344 -1.199805 -0.755388 0.618156 -1.733052 0.773580 -0.067826 2.716847 -3.049645 -0.870597 
德意志 -0.932824 -1.119144 -4.749340 4.455446 2.085174 -1.878894 -0.923856 1.535565 1.526980 1.191982 
中世紀 -1.180157 -2.468121 -2.975580 0.978528 2.748800 -3.823657 -0.562658 3.623818 -1.380328 0.799035 
臺南 0.486453 -3.504273 -2.885432 -3.684583 -0.916315 1.649427 2.795534 1.817926 0.529677 -0.808021 
澎湖 1.896967 -3.397651 -4.663021 0.806632 -2.315738 5.052531 2.202158 2.761282 1.782354 -0.676953 
西洋 1.948538 -0.171662 -0.982365 0.119228 0.277964 -1.791290 0.062495 2.343384 0.071075 -0.128327 
德 -1.519384 0.225348 -2.219143 1.896328 -0.291624 1.483217 0.193545 1.888612 0.901118 0.383298 
建國 -2.102306 -0.227010 -0.322047 1.517340 2.519032 0.928299 0.217530 0.592721 0.785847 0.554879 
波斯 -3.973615 2.753292 -0.708826 -0.629140 -1.152747 0.765339 -1.101643 3.241473 -0.955508 0.549358 
外國 2.228785 -0.370227 -0.742293 0.644776 -0.373194 1.561990 -0.005275 1.036903 0.893011 -1.516493 
原住民族 -2.893509 -2.679568 -0.331489 -3.485599 -3.433550 0.212747 3.128455 6.125464 -0.339503 -0.621431 
李鴻章 -1.051021 1.546615 -4.526639 1.957493 0.612146 4.982656 4.209762 -0.580203 2.647197 -3.377202 
西域 -2.606531 4.134875 -4.045896 -0.395734 0.343298 -3.826177 0.598617 1.461177 4.923779 -4.024647 
廣州 3.445924 -0.839957 -2.124154 -1.167204 1.838907 1.442239 -0.128343 -0.000000 -0.618683 -5.258505 
福建 3.174220 -2.381267 -2.425887 -1.484089 1.041629 2.418639 1.515125 0.505144 1.909514 -2.027980 
普魯士 1.030002 -1.215407 -4.524866 3.534891 4.869396 -0.224089 1.710696 1.762840 0.381137 2.059593 
東北 -0.885746 2.306992 -1.686022 1.183083 0.041140 7.211992 -0.638466 2.083807 0.070607 0.069131 
香港 2.315761 -1.312871 -0.021165 2.362221 2.246818 1.009071 -0.225099 3.246049 1.773396 -2.110107 
第一次世界大戰 -2.448097 -0.880311 -1.752941 4.539870 0.229224 0.124337 1.050785 3.149919 -2.703151 -2.801652 
唐 -1.245612 1.442741 -1.506807 -5.477350 0.421953 1.737046 0.729447 -0.453919 2.989602 -2.121392 
藉由 0.283332 -1.239024 -0.642299 -1.218312 0.697527 0.099461 -0.301697 0.438753 -0.860975 0.411836 
王朝 1.566811 1.959751 -2.923285 -1.939890 1.079383 -2.466239 -1.622133 1.725736 0.214908 0.615728 
太平天國 2.635248 1.841805 -4.277134 -0.145189 2.472809 3.429724 3.763058 -0.817455 5.991579 -1.814396 
羅馬帝國 -3.452965 1.886168 -2.044453 1.678471 1.228589 -3.578844 4.127004 2.499998 -0.204884 -0.361849 
蒙古 -4.755291 0.692699 -5.110216 -1.064939 -0.078436 0.571218 -4.396587 -0.576726 -3.146109 -2.209416 
阿拉伯 -1.277422 0.912748 -0.755766 -1.514312 0.263665 -1.327297 -3.833008 3.845066 -2.799511 -1.214229 
自強運動 1.136615 2.558645 -3.027406 -0.504426 -0.527408 4.362722 3.351047 0.143815 1.873850 -1.659743 
拉丁美洲 3.191262 0.694192 -1.522984 2.862809 -0.721175 0.671010 -0.256262 8.308921 -3.821015 -0.647213 
猶太人 -5.142911 1.254308 -1.267250 0.542213 3.048754 0.850438 -2.622173 3.394101 -3.197464 0.171263 
天津 2.531441 1.857984 -3.256488 1.095443 0.868885 3.746177 -1.375953 1.054000 2.800920 -3.398729 
府 1.983026 -1.094453 -2.376342 -3.141299 1.048772 1.373006 4.168148 -0.568094 3.292688 -2.656392 
北 -0.545252 -0.062921 -1.743792 -1.295043 -2.061101 -1.578893 0.266360 1.660370 1.211407 -1.348534 
共和 1.513563 4.995221 -2.345798 1.181278 -0.501200 0.522113 4.935148 2.245646 -2.222822 -0.195463 
十七世紀 0.026187 -2.311347 -2.937290 -1.299663 0.209190 -0.254310 1.032276 2.030050 -4.102640 0.866999 
朝鮮 -3.494676 -0.582975 -3.704723 2.553671 -0.248883 4.579535 1.398749 0.603551 -2.037931 -1.123068 
奧 -0.521693 2.132955 -3.285032 4.904504 0.451879 -0.294285 -0.710816 1.999600 0.016941 -0.098701 
越南 -2.095607 -1.641114 -0.823451 0.513604 -0.177100 4.928088 0.084837 1.128877 -2.953046 -1.665778 
山東 1.126598 1.783531 -0.568352 2.461713 0.177766 1.170888 -0.094733 2.248279 0.781647 -2.029834 
西歐 -2.489716 -0.256387 -3.341893 1.816232 2.733625 -4.615148 1.394336 2.948787 -0.830481 0.261152 
南北 0.169233 -0.037253 -1.228157 -1.598511 -1.286850 1.517076 0.974040 0.354278 -1.133906 -2.951162 
土耳其 -0.895906 0.051585 -1.600077 3.362268 -0.907759 -1.462895 -0.759914 4.305949 -1.597392 0.218199 
藉此 -1.954849 -0.414113 -0.998494 0.713664 0.957697 1.101174 -0.351414 0.240621 1.207455 0.015705 
蔣中正 -0.472014 -1.699188 2.429938 -1.106435 5.570874 6.524467 0.491984 2.464077 0.840172 -2.179479 
史稱 0.513545 2.307910 -2.181092 -1.230638 0.741529 0.451407 -0.493308 -0.647142 0.996187 -0.152492 
宋 -1.678783 1.049632 -4.313965 -5.001955 -0.731905 3.693830 -3.132083 -1.424070 1.238098 -1.481694 
雅典 -4.564182 1.225581 -0.624577 -1.129274 -0.624324 2.776864 1.306000 7.322053 2.156101 4.424836 
美洲 3.643882 0.784460 -2.099272 -0.262632 -2.202793 -1.603170 -0.645305 6.231731 -4.430183 -0.268144 
開港 3.844532 -1.857249 -1.847893 -1.996940 -0.541692 2.232077 1.148984 1.348608 3.540515 -0.771120 
廣東 2.306568 -2.889367 -2.236618 -1.077018 2.037304 1.645538 1.548328 0.392984 0.705601 -5.024105 
伊斯蘭 -1.949162 -0.186573 -1.125250 -1.323484 -0.020510 -3.277016 -4.803710 8.169259 -1.646547 -1.059664 
十六世紀 0.059179 -2.084944 -1.540212 -0.613573 -1.493734 -0.867313 0.906076 2.992061 -1.926902 0.796670 
李 2.113643 -0.277784 1.585712 -1.325830 1.467126 2.694026 1.532604 1.856766 1.131297 -0.705967 
鄭 4.145117 -2.650697 -4.731872 -4.713262 0.276883 1.315765 1.164210 1.854712 0.423324 1.005448 
非洲 1.363796 0.414373 -3.458955 2.491622 -3.338759 -1.828153 -2.047717 5.856993 -3.431883 -1.446913 
基隆 0.496703 -3.060468 -4.129776 -0.341591 -1.422117 2.999895 3.651212 1.389391 1.096961 0.231988 
百科 -0.668386 -0.274718 0.145086 -1.145133 1.695537 -0.511165 0.570983 0.859186 -0.572970 0.141024 
朝廷 1.594321 0.600629 -3.448262 -1.783637 -0.306720 1.910373 -0.037305 -0.431757 1.680006 -1.331602 
二二八事件 1.523160 -5.155849 0.645201 -0.560624 3.830015 1.934054 3.666677 6.389096 0.545247 1.245175 
十八世紀 2.180762 -2.188213 -2.972135 0.136891 3.074289 -0.792997 -0.388509 1.671812 -2.033342 1.113694 
臺南市 0.753564 -2.634687 -3.587257 -3.916077 -0.274223 0.565114 3.072415 1.894132 0.843719 2.313208 
大戰 -0.059234 -1.466396 -1.809418 3.726671 0.833380 0.088920 0.066460 2.108545 -0.458310 -2.956747 
東南 1.564616 -0.851094 -2.596682 -0.112404 -2.078578 1.266075 0.682034 1.590818 3.146918 -2.914279 
甲午戰爭 -1.645286 1.163342 -4.307212 1.755208 -0.893372 4.737874 3.378292 -1.879928 -0.103655 -3.143433 
拜占庭帝國 -2.344083 0.902554 -1.639155 1.986109 0.690242 -4.642636 1.586511 4.628760 -1.375150 -1.556707 
東南亞 -0.597637 -3.158103 -2.060388 -2.445611 -2.321223 2.475125 -2.671674 2.485747 -2.746343 -3.460880 
金 -1.395535 -1.422789 -3.697876 -4.277892 0.905593 0.338016 1.362869 -1.880092 0.052931 -0.652526 
葡萄牙 0.647884 1.807250 -5.414620 0.276171 -3.610304 0.827973 -1.368894 4.101496 -3.354050 2.239792 
渭水 -0.426122 -8.019135 -2.711472 -2.624602 7.567054 0.801745 -2.486937 1.397161 1.631589 -2.514068 
希特勒 -2.413210 -0.024330 -4.142396 4.416642 4.628798 1.005380 -1.653509 2.369436 1.690135 -0.451141 
三國 -1.777850 0.210456 -4.809098 2.791662 -0.223718 0.638324 -2.541399 0.865273 -0.847989 -3.616604 
巴黎 0.390573 -0.206536 -2.918743 2.225042 3.460723 1.664042 2.182603 3.326747 -3.827883 1.277080 
秦始皇 -0.257522 3.934337 -4.911865 -0.124659 2.125577 -1.611668 -1.061321 0.447418 6.015459 0.935553 
日耳曼 -1.091998 0.950252 -4.536608 3.275281 2.010551 -3.907286 1.236976 2.487576 0.936439 0.225280 
奧國 0.648927 1.555545 -4.819124 5.501560 1.524231 -0.408129 1.420740 2.075703 0.799325 0.926141 
奧地利 -0.200435 -0.520221 -4.003531 4.524291 2.610399 -0.970318 -0.936539 0.358678 0.552910 1.221891 
國語 -3.706132 -1.602626 -0.252964 -3.749253 2.670668 0.051186 5.991910 -0.385070 0.352543 -3.996177 
魏晉 -1.200187 2.522360 1.163293 -4.733947 3.862124 -2.087080 1.481938 0.854348 1.611078 -5.518598 
法國大革命 3.220363 0.951495 -4.152666 1.748390 3.482342 1.612276 1.258038 2.835150 -4.286101 0.107277 
二次大戰 -1.645026 -1.449455 -0.431814 1.812581 -0.744537 3.515580 -0.980491 2.892915 -0.339699 0.427436 
江南 2.028077 4.957966 -1.958225 -2.609612 1.610848 1.952649 0.613073 -0.668600 0.876783 -4.175232 
慈禧太后 2.060808 5.403332 -5.931120 1.842683 -2.180340 3.320969 1.854486 1.112054 3.483595 -2.132546 
王權 1.625564 0.390455 -4.469090 -0.842910 2.467113 -1.737275 -2.108958 1.413752 -2.254000 1.944822 
英法聯軍 4.827619 1.819558 -5.090953 -0.140058 1.338993 4.615633 -0.464820 0.345112 2.769940 -0.005182 
咸豐 3.739707 1.620933 -5.524421 0.287337 2.258888 4.346992 -1.322897 -0.279403 4.445970 -1.065537 
第二次世界大戰 -1.051620 -2.579975 -1.477423 3.525936 0.599846 2.660629 -0.936416 3.093549 -0.329966 -1.762260 
平埔族 -1.303717 -3.340455 -1.200868 -3.771696 -1.220697 -0.048012 3.770994 3.582415 0.757220 -4.293458 
曹操 -6.591607 -1.101714 -4.560782 -0.969525 5.813907 0.962864 -2.341134 -1.039412 -0.020505 -5.488881 
溥儀 0.762836 3.012251 0.925011 -0.355534 -1.001517 4.566945 0.930657 3.191228 1.284766 -4.719520 
雍正 3.567443 0.690586 -4.413993 -4.020671 1.876023 -2.885344 2.852806 1.636990 4.859220 -1.152419 
東西 -1.820232 0.152087 -1.264572 0.129758 0.778364 -3.123990 -1.148498 1.471757 -0.305052 -2.037729 
鴉片戰爭 4.731034 0.324046 -2.959068 0.687326 0.818349 1.699658 -0.889631 0.663759 1.927548 -2.182250 
斯 -1.268681 -0.827601 -1.632132 -0.145184 2.428926 -2.989079 -1.451299 3.335449 1.583719 1.094976 
洛陽 -0.891286 1.359141 -3.468343 -5.014112 1.618883 -2.262032 -2.698687 -1.053793 1.538000 -5.303117 
西亞 -2.074476 4.514417 -1.725910 0.856479 -0.581495 -1.814075 0.501400 5.064650 -2.604082 -1.260892 
社會主義 2.403388 -2.512197 -0.390255 2.686788 6.445089 -0.884774 -0.263511 6.975514 -0.242690 -0.728520 
平原 -0.677588 -0.241346 -0.717078 -3.046696 -2.400575 2.043338 1.226217 4.224990 3.161423 -0.031058 
伊斯蘭教 -3.058747 2.587239 -2.270816 -0.584284 -1.455513 -3.239669 -1.427808 4.137613 -2.307175 -1.305461 
史實 -0.989737 -0.881519 -0.815289 0.075787 0.871645 0.411366 0.564596 1.363300 1.161181 -0.321735 
長安 -2.339198 3.205200 -1.831908 -3.701247 1.003970 0.806375 1.374751 -0.695346 1.104253 -2.355456 
文藝復興 -2.348541 -2.920280 -1.578527 -1.588324 1.521553 -2.752073 0.230113 5.560978 -1.300443 2.211317 
中華 0.302870 0.091852 0.610410 -1.562527 1.535110 0.625421 1.029264 0.881878 -2.205782 -2.971701 
張學良 -4.515853 0.621388 1.782951 -1.706617 2.419476 6.529865 4.477463 1.766737 0.846157 -2.420195 
西班牙人 -0.064255 -0.937236 -4.099788 -2.660507 -2.881470 1.172784 2.208041 2.924016 -4.086174 0.374479 
劉銘傳 1.608804 -2.272884 -3.773103 1.385545 0.517272 4.874935 3.908000 0.511369 3.944256 0.678460 
古巴 4.345538 -1.121702 -1.132209 1.289100 0.322595 4.767530 -4.631772 7.502733 0.123372 1.910421 
蔣介石 1.058289 2.697007 1.333701 0.704334 4.287354 4.621361 0.269392 2.940251 1.403440 -1.963589 
聖經 -2.908946 -1.162977 -3.220520 -1.218425 2.349026 -1.831183 2.475363 1.146544 -2.724137 -0.520435 
兩國 -0.121729 0.845578 -3.863640 1.535418 -0.153553 2.329721 -2.014455 0.376802 0.807797 0.009947 
諸侯 1.402473 2.281312 -3.728181 -1.417197 3.969936 -1.784811 1.870458 0.115661 2.353345 3.183141 
鄧小平 1.330808 -0.426515 1.491832 3.133346 7.395252 0.766526 1.730370 5.483312 -0.607515 -1.227586 
新石器時代 -1.336781 -1.147926 -3.194504 0.002060 -1.349278 1.704237 -3.322271 4.035443 5.716540 0.423351 
興盛 -0.335478 -0.074985 -1.088954 -2.534176 -1.880658 -1.912944 -1.100721 2.364405 -0.141774 0.031608 
沈葆楨 2.845652 -1.135306 -6.464630 -1.852471 0.966919 4.404358 2.913886 -0.193132 4.693307 1.102189 
韓戰 -1.882141 -3.165102 -0.410609 -0.048493 2.529884 6.655509 -0.560774 4.172434 -0.882133 1.620750 
西征 -3.020842 -0.297573 -2.651790 -0.882643 1.738228 -1.549384 -3.532792 -0.562361 -3.299993 -1.401855 
查理曼 -2.665828 0.489419 -5.888006 1.075554 2.029337 -2.724009 1.486960 0.657014 0.220878 3.451086 
中華人民共和國 0.520144 -2.138342 1.643476 1.321657 3.428412 3.614537 0.391797 3.560963 0.229463 -1.139246 
拜占庭 -2.713723 1.129318 -0.998348 1.497669 0.827909 -4.897854 2.141393 4.331373 0.443937 -0.598848 
曾國藩 1.191537 3.782427 -2.625787 -0.513786 1.687509 4.594247 2.579999 -1.122391 2.956614 -2.359665 
天主教 1.117939 0.105005 -3.681267 -2.238201 0.431083 -2.059904 1.281013 0.814736 -3.460616 -0.500875 
吳 1.346530 -0.476871 -0.872030 -2.308601 1.926942 -1.208758 1.547894 0.482959 3.185830 -0.787053 
周 1.454436 0.811508 0.008154 -3.145613 2.684321 -0.029033 -1.060288 2.743992 5.582716 1.924567 
亞歷山大 -4.507890 5.849721 -0.112575 -0.611950 1.017665 -0.904738 0.895589 5.097211 -0.079857 1.879651 
波蘭 -2.604201 -1.131575 -2.544233 3.417409 1.301913 0.851309 -2.398203 3.372206 -1.155093 0.883896 
以色列 -4.966125 0.263569 2.409612 -2.279876 1.136114 4.289009 -2.989289 6.133717 -1.734187 0.326246 
明白 2.042293 -0.364512 0.028571 0.089087 1.442685 0.228054 1.744276 2.914992 -0.980625 0.046876 
臺灣省 1.939811 -5.663340 1.707086 -2.260255 1.882723 3.197196 3.973461 6.808045 0.507813 0.321420 
法典 2.437510 5.117412 -2.520292 0.350695 4.205000 -3.313515 2.674563 2.455631 -3.547432 -1.148981 
太陽 -3.477624 -0.137749 -0.285902 -5.099983 1.402405 0.794106 2.072561 3.541634 -3.509382 0.350747 
安平 3.099137 -1.437527 -4.960148 -2.631596 -0.730821 3.115273 1.231858 0.928376 1.342993 0.137201 
家族 -2.206833 -0.226947 -1.516976 -2.273851 0.621720 -1.223613 0.963603 0.861478 0.685152 0.811913 
魏 -2.138316 3.820444 -3.412261 -4.223941 1.782984 -0.291206 0.126392 -1.016497 1.370644 -1.505659 
英法 1.417274 0.020184 -5.365652 2.194367 1.429387 1.592297 -2.536217 0.564391 0.515490 1.325270 
城邦 -0.510816 2.271326 -0.374285 -1.274780 -0.308061 1.833901 0.665929 5.648463 0.101857 3.652376 
抗議 0.693420 -3.400033 0.115164 1.555902 2.450911 -0.177944 -0.025158 2.562590 -1.267343 -3.258407 
乾隆 2.578756 -0.485303 -3.936751 -1.826373 -0.877159 -2.318643 3.535609 1.637768 5.211136 -2.255411 
明治維新 -0.608524 2.437723 -4.186383 1.732398 -0.121369 5.482476 2.554543 -0.310358 -2.153886 0.949616 
東亞 0.286876 -1.265586 -2.637849 -0.862996 -2.430055 3.707541 -0.168971 1.369841 -2.738973 -0.750238 
福星 -2.207761 -4.307238 -1.253465 0.420064 1.502187 3.912395 5.754498 0.532909 -0.596178 -5.427771 
秦 -1.676398 3.215454 -1.786151 -1.924542 2.094919 -1.127581 -0.298920 0.927354 4.017664 0.258412 
地中海 0.130965 3.125189 -3.250453 1.729024 -2.248812 -0.532968 1.143866 5.386857 -2.644244 2.554430 
共和國 0.786423 0.844354 -0.800420 2.548480 -0.234704 -0.198144 0.250793 4.092056 -0.093980 -1.039215 
長城 -0.916663 4.115217 -3.086233 0.713791 0.835404 1.012250 -3.277756 1.374118 5.521061 -0.973068 
玉山 -0.785228 -2.797437 0.212704 -2.771720 0.972714 0.295576 2.101795 1.651163 1.916282 -1.554377 
俄羅斯 -2.030442 2.000577 -3.406350 5.088602 1.038522 -0.028351 -1.388149 3.255043 -1.654951 -1.523967 
漢武帝 -0.311175 4.188411 -4.044687 1.065040 2.290719 -2.326464 -0.496485 0.951868 5.025966 -1.837819 
啟蒙運動 -0.292421 -2.835092 -2.352158 -1.897373 4.506776 -1.125920 -0.852110 2.723453 -3.882337 0.846775 
資本主義 1.526478 -1.515345 -0.580519 2.524266 3.108502 -0.380874 -0.045699 3.132911 -0.568009 0.307873 
北洋 -0.390511 3.919084 -5.112597 1.704520 -1.462859 5.524864 3.732371 -0.362555 0.074733 -3.642147 
陳永華 3.620506 -1.967659 -3.535666 -7.054549 2.730879 1.218280 1.549288 1.949298 -0.089407 4.114050 
陸軍 -1.410194 0.784976 -2.979550 2.665618 1.126775 3.042893 0.682642 -0.595439 -1.497607 -2.314459 
林則徐 4.012666 -0.865213 -6.267711 -1.428634 -1.082681 -0.048795 -2.702691 1.094690 3.987020 -5.669768 
中文 2.259825 0.475733 -0.362600 1.583809 1.194409 1.303444 2.280782 1.365313 1.385832 -2.037688 
美麗 -2.104676 -0.889669 -0.720150 -1.023809 0.583173 0.811414 1.583918 3.733320 -1.028968 2.493512 
西漢 -1.233514 3.832032 -3.661840 -0.820687 4.571020 -3.517659 -1.398646 0.361317 3.425403 -2.774661 
孔子 0.187055 -0.326715 -1.441961 -4.172128 6.388026 -0.229483 -0.538165 0.977179 2.542619 2.857521 
長濱 -1.062521 -4.601249 -4.331956 1.495273 -1.861270 -0.036487 2.102880 4.114664 2.503521 0.238446 
權威 -0.478065 0.260552 -2.971445 -0.379146 1.958056 -1.491450 0.641169 0.268018 -1.692775 1.087099 
祖先 -3.735390 0.128320 0.136773 -3.640561 -1.125174 0.119602 1.752948 3.615253 6.457298 -2.783754 
秦國 -1.066412 3.633616 -3.799796 -3.330754 1.507797 4.717869 -0.612692 2.121301 4.244457 4.333597 
農耕 -2.871898 -1.292480 -1.963874 -2.208874 -1.804499 -0.624611 -2.418492 1.852066 1.889233 0.586339 
蔡元培 -2.120649 3.125172 1.313627 1.858555 7.385353 -1.464741 4.486339 2.002551 4.230959 -4.400041 
羅斯福 0.337495 -1.713701 -1.192871 2.824330 0.195352 3.405873 -2.276827 3.412562 -1.277116 -1.724223 
臺北市 1.282559 -5.028693 0.362478 -1.940420 3.427451 0.262595 3.754779 5.695025 2.562775 0.928885 
五四運動 -1.560715 -1.852621 1.228755 1.565084 4.423558 -0.167498 3.174954 4.402046 -0.346759 -5.574637 
英國人 2.854265 0.158718 -6.074279 -1.123969 -0.918349 0.395732 -3.118078 1.312181 -2.671220 -1.031281 
東歐 -3.924287 -1.451486 -1.227795 4.767869 3.068681 -1.659794 -1.853731 4.449158 1.121166 -2.106632 
湖北 0.016884 0.641377 -1.971478 0.452178 5.464189 0.173925 -0.045168 -0.314207 -3.416528 -6.355643 
戊戌變法 -0.436528 5.169423 -4.944256 0.612459 -1.873614 3.065572 1.695522 -1.421903 1.050008 -1.974810 
黃帝 -0.883909 -1.226050 -2.427385 -1.799287 6.533010 -0.487183 -8.674254 4.697892 3.152262 1.981749 
孔廟 5.965176 -2.157145 -0.500344 -5.591330 3.134408 -0.642416 2.409584 5.860850 1.200778 4.150756 
牛頓 -1.326410 -3.224635 0.082556 -2.746689 4.686188 0.012204 -0.868663 1.772969 -5.038024 -0.095088 
宮 0.514408 -0.701851 -1.643999 -2.415196 1.852323 0.068642 3.269552 1.148007 1.384405 1.872947 
南洋 -1.016504 -1.711634 -1.405558 -0.658532 -1.807602 3.259421 -0.235491 1.217978 1.497222 -2.253645 
紅衛兵 0.806666 -0.107273 1.113710 3.131199 5.053858 -1.911896 2.932774 6.548729 5.750226 -0.432902 
北韓 -4.106830 -3.003971 -1.240711 1.502202 2.504240 5.998958 0.550726 3.304849 -1.962100 2.102511 
泉州 2.111994 -2.902001 -1.960933 -3.777018 1.827011 -0.361520 1.159409 0.736052 1.186911 -1.614795 
段祺瑞 -1.018820 4.072085 -1.600593 3.230110 -0.043508 1.554156 1.284970 2.609266 -1.482001 -7.529581 
卑南文化 -4.315411 2.204904 -4.181211 1.501758 -2.596165 2.144391 -1.181755 0.322597 3.600502 -2.418466 
嘉慶 3.836653 -0.233529 -2.980517 -2.836401 -1.908827 -0.946796 4.153296 3.500887 2.750926 -3.824403 
袁 -0.044110 3.818840 -0.726251 -0.638412 1.484729 2.904562 2.028375 2.739510 -2.863674 -4.546793 
廈門 3.029685 -3.109106 -3.812588 -0.720299 2.914286 1.951543 1.144604 -0.501287 1.318091 -1.950889 
抗戰 -0.279421 -0.659475 1.384550 -0.309275 3.864801 7.479547 1.160941 2.149058 1.323878 -1.664601 
耶穌會 0.562478 -0.242607 -4.608865 -2.707271 -0.363265 -2.528949 1.292272 0.697376 -2.154554 -0.666098 
二十世紀 0.727793 -1.998261 -0.176981 1.370277 0.432821 -1.648950 -0.565779 3.727892 -2.942016 -1.499445 
岳飛 -1.197538 4.007730 -8.285734 -1.842606 4.954428 1.042569 -0.353844 -4.049710 -1.089825 -1.727484 
胡人 -3.531603 1.371953 -2.679878 -5.590190 2.850337 -3.210658 -2.003132 -1.044735 3.053135 -4.021212 
四川 -0.621444 -0.636695 -0.687591 -0.641079 4.333220 -0.178724 -1.028915 -0.640593 -1.479362 -5.593075 
澈底 0.225586 -0.614160 0.994622 0.388148 1.623171 0.232039 -0.074752 1.776899 -0.428182 0.226317 
東華 4.445812 1.178608 0.716995 0.868067 2.206086 2.325847 0.935439 2.389216 2.272243 -3.893487 
維也納會議 2.517505 0.192956 -3.888236 3.972631 1.668417 -0.604047 2.501431 4.635149 -0.199062 0.038347 
長達 0.206676 -0.923592 -0.605099 -1.017924 0.582649 0.032033 0.410506 0.136469 0.006090 0.357340 
噶瑪蘭 0.950099 -1.298722 -1.124762 -4.684549 -3.806960 1.557418 3.044497 4.250867 3.817153 -5.022172 
英雄 -0.851210 0.000190 -1.056893 -0.162411 1.137614 0.186449 0.461909 2.107865 -0.088268 3.039958 
柏林 -1.175162 -0.404410 -3.277956 3.208457 0.452812 1.197260 -4.447020 3.423401 0.187563 -0.097352 
經濟大恐慌 -0.067385 -1.152869 -1.641693 3.179061 0.019266 1.509544 0.000301 2.975923 -0.452271 -1.124012 
日月潭 -3.337059 0.698706 -0.061577 -0.949273 -2.263982 6.737873 5.001822 6.566551 1.798973 0.914980 
藉口 1.814601 -0.193866 -1.292391 0.488367 1.186332 2.767729 -0.003917 -0.031568 -0.661043 -0.687375 
薩 -1.904405 1.353586 -0.858805 2.660755 1.682290 0.704912 2.338399 2.695605 0.939695 2.948541 
鹿港 0.039390 -2.615899 -1.709541 -2.031335 3.678962 -0.600666 5.520259 2.673249 2.936493 1.134675 
新竹 1.383254 -4.211086 -0.667687 -3.015208 -0.348807 1.694715 1.391641 3.053168 1.727326 -3.658508 
查士丁尼 -1.554783 3.288861 -1.981931 -3.251393 0.682234 -7.057400 3.161720 5.022650 0.020484 -3.844790 
巴比倫 -3.208260 6.348658 0.769043 0.048856 3.426898 1.810006 -0.798397 4.607625 -0.995654 -0.363160 
歐 -2.847761 2.302142 -1.397493 1.212584 0.537138 0.277482 0.706194 2.236486 -2.403583 0.905517 
新文化運動 -0.967670 1.742057 0.187340 2.553328 3.151845 -0.536226 3.740236 3.211627 1.330370 -5.829561 
張騫 -1.627201 3.420936 -5.065218 1.325988 -0.344105 -1.862468 0.704524 0.991818 5.167113 -4.470905 
宗教改革 1.808462 -1.340248 -4.927504 -3.298629 2.382824 -4.544854 1.828030 3.572318 -4.132664 0.330183 
斯巴達 -3.377729 3.209811 -0.286049 -2.246126 -1.280244 2.460734 2.660495 6.096780 2.458901 3.319037 
盛世 1.250722 2.700030 -2.179870 -3.682961 -0.395714 -0.959983 0.971014 0.700195 3.235810 -1.887185 
君士坦丁堡 -3.018292 -0.360173 -2.163446 -0.003098 -0.391558 -4.739356 1.807825 3.236362 0.059128 -2.408713 
文教 2.696831 -0.397943 -0.126616 -2.420002 0.555328 2.123742 0.815238 1.654691 0.384294 1.225019 
海洋 -0.023855 0.316983 -1.968391 -1.639572 -2.852054 2.580635 0.759144 2.255248 0.114907 0.745809 
東京 -0.709761 -2.597416 -0.519836 -0.573748 2.816135 2.925314 1.259623 0.714473 -3.361195 -4.469345 
文化大革命 0.525231 0.697679 1.493172 2.108880 4.074675 1.528285 2.591946 5.386817 3.790182 1.162879 
金字塔 5.646489 3.157803 -1.067542 -4.151355 2.005032 -1.326723 -0.603470 6.760484 -2.371355 0.658050 
長江 2.526541 1.229844 -1.159600 0.204650 3.069943 3.342914 -0.531438 -0.868759 3.425543 -3.181668 
宣言 1.934308 -0.987823 -0.872166 3.341886 0.987479 2.500828 0.267989 3.426511 -2.787241 -1.233295 
尼羅河 3.250990 3.576527 -0.210256 -2.666148 3.862893 -0.642524 -0.837304 6.231728 -0.281825 0.378888 
伽利略 -3.904048 -1.632268 -0.755993 -4.927215 3.428432 -0.936425 1.981902 1.907399 -4.495774 -0.583582 
連 0.827678 -0.994903 0.014196 -0.449290 1.564593 2.347267 -0.728004 1.935113 -0.291267 1.377432 
東德 -4.659945 -2.790284 -0.771958 1.614769 4.858629 1.190940 -4.411709 4.202098 3.796147 -3.021728 
南島 -0.434069 -3.426397 -0.140191 -4.278307 -4.124024 0.933957 -2.030309 6.566253 1.342841 -3.956293 
封鎖 1.324307 -2.306329 -2.521162 0.586549 0.265848 2.294129 -2.051528 2.493560 0.994750 0.206714 
府城 0.996932 -2.507920 -4.717559 -3.700853 -0.127823 -1.033520 4.706495 1.703731 2.168431 -0.319876 
道教 -1.849099 0.973925 -0.253919 -6.270666 4.477396 -0.786896 1.671535 -0.836984 0.858897 -5.216760 
武漢 2.557462 2.263752 1.515791 0.524592 5.501149 2.868081 -0.550921 2.530357 0.733824 -2.994679 
新石器 -2.944741 -3.797671 -1.483624 0.088524 -1.058750 2.313489 -1.511200 4.589180 3.880347 0.030933 
路易十四 -0.895518 -2.518271 -5.712456 -1.321762 5.002563 2.102432 0.406413 -0.030265 -3.054426 4.866648 
舊石器時代 -2.332147 -2.397563 -3.623000 0.411558 -1.123207 0.170160 -2.592900 4.115701 5.843684 1.032129 
太祖 3.467144 0.738641 -0.252383 -7.410722 1.188029 1.048790 -2.294180 4.073844 6.387540 0.544153 
丁尼亞 -1.400227 1.160685 -3.095662 3.223553 1.535674 1.100154 4.202487 2.955358 2.703096 2.288368 
牡丹 -0.941230 -3.159598 -3.764872 -1.653967 0.155801 2.539937 2.581550 -0.322134 1.774040 -0.441472 
匈 -1.724212 2.109594 -4.256983 3.497206 0.237973 -1.661808 -0.617661 2.730404 2.000008 -1.445341 
穆斯林 -4.463207 1.825432 -2.861156 -0.752119 -1.220045 -2.144514 -2.957080 4.004316 -2.089757 0.996177 
科學革命 -2.063696 -3.837649 -1.217165 -2.191189 3.984714 0.303216 -0.229491 2.592470 -3.577489 1.165856 
西安事變 -2.352003 0.564843 1.064261 -0.734839 4.632132 5.526249 1.404536 1.495017 2.752703 -3.121033 
白銀 4.017492 1.149632 -2.458504 -1.251803 -3.062043 1.359675 -1.041960 2.645335 -0.247206 -4.692654 
耶穌 -7.257696 1.840721 -2.681267 -1.097229 4.400595 -0.627797 4.256459 0.990692 -3.793536 -1.502221 
布 0.086424 -0.172177 -1.343551 -1.103260 -0.812915 -0.136158 2.317885 0.332699 -1.264994 -2.198217 
朝貢 2.602934 2.285513 -2.758858 -1.973804 -1.328498 0.062882 -0.394717 1.601374 0.228454 -3.373496 
史前文化 -1.128152 -1.991737 -2.216812 0.048659 -2.534369 0.987457 -1.547378 2.404681 3.208866 -1.026460 
陳獨秀 -1.406062 0.253341 -0.644030 2.951785 4.851704 -3.047752 4.993376 1.913799 0.487737 -4.027033 
曹錕 -0.132510 1.687868 -1.609414 2.903572 1.290339 1.890723 1.408088 0.770848 1.438449 -6.284246 
武則天 0.843829 1.874482 0.478184 -3.513098 1.360028 0.666677 1.632360 0.406777 1.783452 -1.677424 
滿清 2.327307 0.915619 -2.172580 -1.202414 -0.170815 1.872301 2.954175 -0.627899 -0.864425 -3.219157 
大國 2.573638 1.713317 -1.907415 2.699093 0.589213 1.675542 -1.561959 2.270624 2.116606 -1.452754 
南韓 -3.233879 -3.114851 -0.340411 0.714676 2.486581 5.601912 -0.164741 2.910610 -2.681847 2.105964 
楚 5.468390 2.774984 -2.390585 -0.655801 1.593682 2.915797 -3.799555 4.628701 1.525407 1.939881 
加里 -2.037565 0.832750 -1.826100 3.116325 0.647672 1.728516 2.598374 2.901201 1.268710 1.275036 
日語 -3.730362 -4.001925 -4.097224 -3.908141 2.769276 3.887394 4.050913 -2.273872 -0.332347 -4.679979 
伊斯蘭世界 -2.612984 0.121599 -0.930605 0.042253 -1.102897 -3.024219 -2.009304 4.604383 -2.477470 -1.574143 
史達林 -0.796822 -0.378186 -1.581712 2.456306 3.071024 4.579827 -3.990601 2.900862 -0.057740 -0.257537 
西夏 -5.130527 0.994145 -4.708438 -4.283972 -0.492751 4.027381 -3.642734 -0.442065 0.773394 -1.646044 
希臘人 -2.639867 2.489066 -1.303634 -0.135266 1.468995 -0.652488 2.468181 6.179139 0.991324 4.281620 
桃園 -0.539077 -3.331149 -0.209531 -2.015707 0.344223 1.184935 2.107338 1.983322 0.799245 -1.849997 
對外貿易 3.637205 -1.373826 -1.910502 -1.829778 -1.722020 -0.477228 -0.869250 3.198200 -0.070614 -1.233119 
施政 1.071113 -0.860482 -0.751015 -1.328170 3.046362 -0.620113 0.478347 1.030997 0.945151 1.912041 
王安石 -2.782543 1.097947 -7.875726 -2.610802 -0.847403 7.183446 -0.777002 -0.521234 2.202825 3.111735 
魯迅 -0.414122 1.081932 -1.683292 2.382363 2.950652 -4.069401 4.927815 3.646940 -0.949264 -6.466228 
廣西 2.173866 -1.363121 -1.599851 1.782845 4.125120 2.743593 0.548435 -0.050576 1.847557 -3.077725 
莊園 0.441193 -3.011378 -4.346520 2.202846 3.457943 -3.268680 2.140325 1.234353 -0.105867 -1.622844 
光緒皇帝 0.221630 5.402415 -4.448473 0.467829 -1.515868 2.686310 1.313606 0.339457 3.425794 -2.096102 
夏 -2.523468 0.747706 -2.502560 -4.669961 -1.243288 2.349268 -4.586405 2.619256 3.307189 0.537486 
邦聯 2.398697 -0.711706 -5.143970 4.474666 3.479846 0.011910 1.375925 1.703004 3.048807 -0.087891 
高達 1.542013 -0.891957 -1.087036 0.114576 -0.113091 0.997916 -0.431645 0.996206 1.163650 -0.330701 
鄂圖曼土耳其 -2.407823 0.685989 -1.587968 4.864809 -2.255249 -1.653487 0.832705 6.522008 -0.543849 -2.711462 
巴爾幹半島 -1.894969 2.262376 -3.193234 4.393865 -2.173280 0.049189 1.864027 5.040243 -0.909054 -1.049309 
山區 1.526939 -0.439878 1.092025 -1.363108 -1.439620 1.419066 0.318376 4.803549 0.920945 -0.517530 
吳佩孚 -2.905582 3.729286 -2.494311 5.621053 4.670871 4.282228 2.232778 -0.057676 4.724991 -4.042505 
金屬器時代 -2.527122 -5.148746 -0.821454 0.098044 -0.916878 1.599670 -0.046057 4.415973 3.868919 -0.354300 
梁 -0.030333 4.206334 -1.100354 -0.888751 0.206973 1.658580 1.924789 -1.086336 0.465171 -3.199492 
福州 4.011734 -1.823047 -4.880490 -2.075094 2.285720 1.520333 0.569902 -0.057780 3.251968 -1.641127 
馬關條約 -1.856566 -1.969107 -6.150337 2.281365 -1.649570 5.100942 3.026098 -0.379334 2.799389 -3.143992 
共產主義 0.100272 -1.640615 -0.087105 3.219071 3.897619 1.361603 0.101794 5.298571 0.237847 -0.275031 
太平洋 0.739126 -0.704309 -2.120826 0.925249 -4.116372 5.861483 -1.857350 3.487222 -1.011045 -2.742720 
普及 -0.928173 -0.512328 -1.142161 -1.068448 2.216413 -0.273102 1.112023 -0.498486 -0.081944 -0.254251 
道德 -1.746282 -1.546490 -1.315080 -2.419056 4.650820 -1.434128 -0.407532 0.342124 -1.004545 1.693253 
洪秀全 1.174378 1.534569 -2.689031 -0.242399 3.347656 1.242230 1.825773 -1.195428 2.732035 -0.963927 
培根 1.032862 -2.007619 -0.717576 -2.239028 5.602365 -1.329028 1.246977 3.293337 -3.421723 -0.810953 
秦漢 -0.618068 2.071719 -1.820644 -0.369805 1.919242 -1.562031 -2.116605 1.123792 2.425012 -0.989087 
天安門 -0.542623 -1.060978 1.226142 2.413488 5.980846 1.833567 1.897958 3.797040 -1.977121 -1.936962 
中法戰爭 1.257776 -1.361373 -2.869920 0.730309 -0.154004 3.068538 2.062943 -1.328997 2.243801 -1.299015 
古希臘 -2.608940 -0.713386 -0.489270 -0.370225 1.496324 -2.183433 0.056001 4.702338 -1.356727 1.979568 
高宗 1.545650 3.492764 -4.944901 -2.275578 4.161612 -0.773832 3.055943 -2.472498 -0.020199 -2.568434 
古典 -2.636175 -1.270648 -0.125268 -0.706716 2.806500 -2.158251 1.029330 3.302306 -2.048268 2.249569 
滿洲國 -0.832192 2.209399 0.708420 -0.033224 -0.953754 6.431028 1.561871 4.624166 3.133165 -3.085783 
澳門 3.266155 -1.276314 -3.381884 -0.927389 -2.170764 2.602820 0.273785 3.228179 -0.769066 -1.893095 
浙江 2.965261 2.184449 -1.874379 -0.826796 2.181912 0.918922 0.118161 0.726927 1.404660 -2.778330 
特洛伊 -1.791440 0.691441 -2.459386 -5.016199 1.662741 0.952106 1.412295 4.348674 0.524638 7.539881 
辛亥革命 2.234739 3.570263 -0.953120 0.393484 2.393638 0.211910 3.002731 1.550285 -0.678089 -5.207240 
苗栗 -2.191105 -4.706405 -1.609892 -1.213002 1.067303 2.214608 5.932312 0.943230 -1.066951 -3.843314 
亨利八世 0.414412 -0.018401 -5.912607 -0.692788 4.281516 -4.734170 1.339777 0.338786 -2.283626 0.737215 
隋 -0.790605 2.362795 -0.346859 -5.265690 0.816954 -0.243940 -1.282715 0.803288 1.787558 -1.400117 
納粹 -2.951419 -0.802216 -1.191986 3.939360 3.449436 0.607188 -2.210647 2.625898 0.058491 -0.297239 
木乃伊 3.068345 3.645950 0.073039 -2.326448 4.519940 -1.057991 -1.864136 4.290728 -1.432478 0.827247 
新教 0.478914 -0.451796 -5.525290 -2.282783 1.292976 -3.524837 1.417838 0.932308 -3.454920 0.217136 
新平 -2.158441 -4.332760 -3.199546 -3.136743 0.892443 1.585100 -0.111928 -0.155676 -1.211112 -4.967879 
君王 -1.418278 1.709787 -3.097036 -1.716264 5.408303 -0.323393 2.003110 -0.953038 -1.715169 1.628933 
加富爾 -1.953289 0.603075 -2.033888 2.691623 3.032078 1.629976 2.754883 1.012194 2.997550 0.855954 
韓國 -1.453770 -0.363212 -0.596397 -0.949360 0.604842 5.368731 -1.691935 1.454198 -1.389989 0.516387 
古埃及 1.859061 1.975872 1.078160 -2.612612 3.984825 -1.646326 -0.802683 4.796379 -1.106760 1.374760 
抗爭 -1.095449 -3.611122 -0.017571 0.142091 2.939693 -0.161628 0.448748 0.450728 -0.846151 -3.261180 
張作霖 -3.175877 4.994652 -0.708175 2.655798 3.408919 7.646077 1.159955 1.670842 1.239529 -2.468849 
歐洲各國 1.159959 -1.780082 -3.026698 1.409006 -0.322194 -0.976066 0.767305 2.562327 -2.243903 0.674935 
伏爾泰 -0.911480 -0.832902 -2.573625 0.419801 7.158698 0.716155 -0.032854 -0.083019 -3.854619 1.833038 
巴勒斯坦 -3.369486 1.916509 0.977493 -1.064256 2.338984 2.866476 -3.755273 5.230601 -3.710772 -1.773142 
李白 -4.550738 2.756274 0.377959 -6.147808 4.743444 2.648101 1.873803 -0.599535 -0.041508 -4.792693 
祖 -3.488249 -0.394733 -2.130048 -2.913178 -0.704464 -0.347443 3.320668 1.752360 6.430052 -1.702638 
中原 -1.951515 1.507375 -1.886391 -3.648407 0.783832 0.231806 -1.128172 -0.941426 2.091895 -3.066742 
黎元洪 -1.974965 5.170067 -1.959741 2.597262 0.556498 0.389701 -0.517775 3.005765 0.012087 -7.574621 
宜蘭 -0.926346 -3.886769 -1.836949 -3.293745 -1.776573 3.129124 3.037164 2.059237 0.865302 -2.424178 
佛羅倫 -4.634400 -4.080345 -2.598698 -0.272925 3.287994 -4.462701 0.315192 3.843262 1.300643 0.333171 
凡爾賽 -0.172475 -1.039000 -2.847837 6.195873 2.583820 1.495767 2.282269 3.683875 -0.424328 -1.837848 
封建制度 -0.917793 -0.288190 -2.074015 -0.182819 4.183986 -5.071579 0.507919 1.838317 3.219071 1.229679 
胡適 -1.238860 0.455743 0.892492 3.142974 3.451932 -1.550704 4.403271 4.629359 0.299318 -4.561014 
六國 -0.042605 3.929378 -3.297940 -1.309005 1.359548 1.679433 -2.743417 1.666633 2.744328 1.072237 
國際貿易 0.299533 -2.504487 -3.095232 -2.050869 -1.299844 0.517452 -1.677923 0.341400 -2.022070 -0.940030 
鹿 2.122041 -2.144706 -2.136113 -1.526853 -1.143514 0.501967 2.747444 2.604131 3.739272 1.086592 
大躍進 -2.117759 0.988374 -0.178732 2.867608 3.779156 5.379268 -0.074293 5.553928 0.114321 4.232012 
神聖羅馬帝國 -0.292726 -0.294189 -4.952016 1.448250 2.426274 -2.740808 1.438628 1.944019 0.941604 2.272305 
達悟族 -5.330781 3.610260 -2.917445 -3.700941 -5.794537 2.278485 2.026138 5.310607 -0.671096 -1.321589 
中亞 -3.322730 2.667262 -2.082335 -0.393843 -0.470177 -2.697593 -2.506191 2.146274 -0.317300 -3.472321 
契丹 -2.989499 -1.087561 -2.921478 -5.327570 0.432961 3.999117 -1.585287 -0.021010 5.718450 -1.306365 
嘉南大圳 -4.368790 -2.950321 -0.957565 -3.916265 -0.133960 5.865783 0.316676 3.861018 2.381727 0.670714 
劉邦 0.757505 2.926175 -4.613836 1.040878 4.208194 -1.219528 -3.174488 1.284352 3.065593 -0.110544 
庚子 1.606953 5.538628 -3.397808 1.211492 -2.289078 3.522389 1.428313 1.002175 -0.182901 -3.513767 
爾 0.760236 0.516785 0.674326 -1.545625 -0.429869 -0.939094 -1.702073 4.036839 -1.384651 -0.005709 
天皇 -4.450404 0.581206 -2.916900 -1.677922 1.409944 5.748510 5.516266 -1.120363 -0.334134 1.077940 
圓山 -3.832999 -1.330000 -6.663133 0.337460 -4.731492 3.442405 -0.531456 5.456290 5.181356 1.119229 
印第安人 3.258629 1.620413 -1.979947 -0.797515 -2.257147 2.087583 1.596155 5.785607 -2.735126 0.855333 
京 0.394650 1.279607 0.558209 -1.811794 0.203008 -0.534907 2.042212 2.289188 0.754262 -1.804173 
八股文 -2.156957 5.757736 -3.092818 0.889524 -2.516443 1.785706 0.674878 1.713409 -0.839593 -1.866549 
哥白尼 -3.880278 -1.148840 -0.296198 -2.901634 3.301906 -0.409215 -0.247645 3.870012 -5.077116 1.976056 
兩河 0.120243 7.458218 0.220040 0.101490 0.680744 -0.732402 -0.152148 5.655502 -2.527345 -0.440975 
趙匡胤 -0.940124 -0.999553 1.356258 -8.351126 2.815288 4.484873 -5.554221 4.260005 2.206995 -1.233387 
基督徒 -5.081426 2.189955 -3.086966 0.392725 0.120891 -0.335080 0.298091 2.054481 -2.953503 0.761234 
宗 0.992397 1.051896 -1.569475 -2.685281 0.717386 1.278089 2.526142 -0.828713 2.754621 -1.541548 
菲律賓 -0.437549 -1.239317 -2.914078 -1.035759 -3.296569 3.045218 1.147695 3.823317 -2.400270 -1.943805 
彰化縣 -1.049755 -2.764663 -3.939909 -1.201703 0.774547 -1.090115 3.558256 2.352248 5.348892 -0.004945 
高麗 0.077935 5.352848 -1.714843 -2.754324 0.627305 1.281329 -0.648078 -0.246461 -1.619519 -1.528605 
華 2.035609 0.435942 -2.285836 1.259730 0.947807 2.571950 -1.329449 1.430043 0.660569 -3.349043 
德軍 1.361128 -0.724268 -5.261832 5.787190 2.896849 4.967514 -2.016887 2.619626 0.050975 -0.296762 
馬雅 2.828496 0.400756 -0.905512 -6.311248 -0.136620 2.321933 -2.921478 7.277048 -2.241509 3.062439 
湖南 0.125490 -0.679561 0.304728 -0.523012 5.147518 0.739919 -0.734353 0.200065 -0.929487 -3.886050 
辛丑和約 1.572544 1.235721 -4.530984 3.922154 -0.495512 2.789009 1.718178 1.561332 2.293624 -3.766332 
法西斯 -2.727226 -0.732371 -1.717946 3.983506 1.345933 0.244059 1.410149 2.725044 -0.807160 0.059151 
印象派 -0.740268 0.040631 -1.073959 1.764192 1.317110 1.799958 5.220655 4.234879 -4.054765 0.371925 
黑死病 -0.007870 -3.751530 -2.657552 -1.593070 3.492925 -5.621972 -2.459862 4.097409 -1.175108 -2.920047 
王莽 -2.734272 2.685880 -3.994272 0.283551 1.748082 -1.808731 -0.704953 -0.630681 2.128344 -1.984735 
君士坦丁 -6.191523 1.478138 -0.182906 0.974499 0.226634 -2.234295 5.111794 3.100268 -0.041546 0.080092 
拉丁文 -3.020917 0.696768 -3.015927 -0.699060 1.779629 -3.828291 2.285412 1.312483 -0.927460 0.480026 
林爽文 -3.730377 -3.081354 -3.635960 -1.404399 -0.492975 -1.793068 4.247443 2.321034 5.152531 -2.023711 
古文明 2.299816 3.083541 0.440705 -1.344244 -0.745039 -0.593592 0.750562 5.582278 -2.721640 0.569745 
呂不韋 -0.178434 6.007046 -3.270044 -0.808681 1.449944 2.565274 -0.785154 2.404724 4.340880 3.324142 
政治社會運動 -2.530524 -6.362010 -1.867967 -1.723815 4.648229 2.944247 -2.441089 0.253249 0.404932 -2.416638 
班超 -1.710815 2.888094 -5.518314 2.168975 -0.019689 -3.187330 2.129289 0.068149 4.695542 -5.290327 
關聯 0.599699 -3.677241 -0.846471 1.755881 0.510417 -0.053275 -0.085033 2.479306 0.682282 -2.721932 
倫敦 0.386967 -2.947840 -3.716147 0.523894 1.505044 -1.104990 -0.658498 1.795952 -0.902725 -0.690890 
邱吉爾 1.785515 -2.952353 -5.121554 2.636857 3.711886 2.928670 -4.937544 2.332308 0.795442 -1.020300 
西化 -0.418707 -0.930433 -1.618123 2.167097 2.916601 0.459714 2.440781 0.700921 -1.529176 -2.619714 
法蘭克 -1.447992 1.120767 -5.442218 1.266454 3.084766 -3.332096 2.089365 1.233545 2.022050 1.701934 
巴 -0.984066 -1.684339 -0.833910 -1.348671 -2.213526 0.770946 0.617676 3.295353 -2.545113 -0.196957 
晉 -2.422513 3.124125 -3.358237 -5.203186 1.794950 -1.591452 0.947537 -1.416281 1.663485 -5.331250 
國教 -1.027431 -0.597629 -0.799522 -1.840281 1.183972 -2.424203 2.861663 0.707533 -2.785635 -1.123491 
士大夫 -0.040716 1.888010 -2.708160 -2.758771 -1.406948 1.010676 -1.894948 -0.676513 1.040159 -0.296529 
河南 -1.143952 2.429093 -0.517283 -2.838676 2.136279 2.356921 -4.298124 0.956897 3.348366 -2.199912 
毛 0.122616 1.604980 0.431967 1.083068 3.944232 3.199241 3.006465 4.830535 3.009595 1.708148 
馬克 -1.220204 -1.632757 -1.575934 0.481580 1.769066 -0.476765 -0.717351 1.467728 0.462206 -1.502583 
福 2.439926 -0.164271 0.657385 -2.497760 2.425848 2.638592 -0.588544 1.257442 1.427569 -0.408775 
漢口 2.413506 1.206943 -2.089525 1.119608 3.421151 1.519341 -0.993122 0.904711 0.699788 -3.870748 
馬歇爾 0.381276 -2.416404 -0.344184 0.713920 2.716630 1.582631 -3.960371 4.825715 -0.733677 -1.241596 
百科全書 -1.138874 -0.072526 -0.825378 -0.882183 4.059999 0.786557 -0.380075 1.823475 -4.702500 -0.620069 
改革開放 -1.532524 -0.042413 2.068637 2.846259 6.201658 0.501298 3.478887 5.935495 0.891793 -2.109643 
英格蘭 -0.273047 -1.520467 -7.709179 -0.273430 0.959423 -3.530612 -2.144643 0.992651 0.106020 -0.063640 
西北 -2.182788 1.680913 -0.672466 0.347769 0.823650 1.762619 -0.833700 -0.131214 2.613916 -1.642906 
朝 -1.172821 -0.836584 -1.055187 -2.925315 -0.024764 0.885177 1.578370 -0.368413 0.558019 -1.709720 
臺灣海峽 0.059627 -3.516377 -2.678975 0.833581 -0.671712 2.801932 1.175545 2.394535 1.961657 0.284885 
治安 1.063196 -2.398710 -0.878962 -0.106885 0.854329 0.403838 1.803972 0.498953 0.259283 -2.500208 
北美 3.090909 -3.272444 -4.069589 -0.052088 0.541040 1.135122 -1.235341 3.405468 -2.511012 -3.272945 
城堡 0.597931 -1.100085 -5.193260 0.179092 -0.769956 0.089450 3.294856 0.537633 -2.449339 0.143547 
光榮革命 4.967970 0.898357 -6.275602 -2.791523 1.722736 -0.343718 -1.980758 0.391670 -2.404681 0.335843 
盧梭 0.299306 -1.077802 -4.530789 -0.217376 3.425639 2.546916 0.735869 1.549533 -6.549230 -0.046405 
凡爾賽宮 -1.241872 -1.202604 -5.152753 1.834016 3.894560 1.115845 0.477540 0.129150 -0.964350 3.438298 
都市 1.348135 -1.760546 0.769990 -2.163336 0.749451 -0.916744 1.874411 4.703666 0.311747 -2.138534 
朱 1.857478 -0.366030 0.009816 -0.989773 0.281011 2.305444 4.112251 1.758363 3.474538 -1.074059 
宮殿 -0.966591 1.014586 -3.219476 -4.929402 0.987035 -2.014563 -3.837237 1.100468 0.977456 3.080666 
漢化 0.395057 -1.992768 -2.221093 -6.415329 -0.610339 -2.579394 -0.361340 0.641930 1.271195 -4.633759 
比利時 1.355351 -1.464049 -6.485439 4.775164 1.231942 1.624405 -1.256287 2.372851 -1.059678 1.615209 
國聯 0.163495 -1.042709 -0.612218 5.064729 -2.476555 0.570731 0.251800 6.585585 2.855579 -4.330613 
阿育王 -0.752891 5.977634 -1.291188 -5.513377 2.519691 1.920303 1.900754 3.053509 -6.970590 -0.861628 
英王 0.607632 -0.982709 -7.174416 -1.470224 0.843946 -2.362010 -2.913221 0.706770 -1.055624 1.958389 
敘利亞 -3.289901 3.355968 0.679026 -0.509756 0.908944 -0.415967 -2.327103 4.776592 -0.224932 -0.856402 
梅特涅 2.387185 0.782953 -3.217797 3.826600 1.215800 -0.008962 3.008592 4.080215 -0.228216 2.165311 
法蘭西 2.406430 1.753035 -4.905941 1.966179 2.327722 -0.538862 3.119412 2.170813 -1.638091 2.265473 
印尼 -0.838582 -3.055938 -0.932456 -0.032449 -3.159985 3.699147 1.834753 5.123948 -4.438601 -3.664580 
回國 -0.716185 1.548950 -1.210909 0.757275 1.086629 1.731357 1.491937 -0.708440 -1.797182 0.107276 
第三世界 -1.423731 -3.659802 2.099247 3.226580 -1.411976 0.165754 -0.437660 11.107422 -1.243085 -4.066199 
凱薩 -3.474065 -0.071364 -4.818518 1.439964 5.822867 -0.637468 -1.013788 0.161701 -2.519224 1.452434 
喀爾文 0.902994 -0.149288 -6.153124 -2.847924 2.460294 -5.110175 1.010374 1.593177 -2.067500 -0.054839 
烏克蘭 -2.185536 3.646709 -2.626868 5.061418 0.242406 2.088088 -3.853156 6.064313 -1.956454 -2.326216 
摩西 -2.741078 2.747992 1.434366 -1.405455 3.412946 0.651501 -1.284396 2.904334 -0.623427 0.072088 
門第 -3.600216 5.065485 -1.847184 -4.174893 0.380766 0.224456 0.810083 -0.130939 3.461585 -4.885235 
丁日昌 3.557231 -1.764244 -5.099992 -3.438007 2.342429 2.396784 2.964995 1.443643 2.983618 3.090027 
列寧 -1.230857 -0.425269 -0.037675 3.005785 4.549383 0.009194 -2.184339 4.399115 -0.449141 -0.258081 
江西 0.349532 2.152601 2.256029 -0.619158 2.295186 2.888602 -0.540239 2.263164 0.680171 -1.606438 
太平軍 1.116849 1.679111 -1.371827 -0.118948 0.982520 1.620697 0.611143 -0.385680 1.609262 -1.338538 
哥倫布 1.886190 1.562519 -3.757710 -1.801184 -3.556230 -0.513997 -4.655499 6.013527 -2.012334 -1.530660 
新疆 -0.818967 2.967719 -3.212715 1.555430 -0.968023 1.494408 -0.408208 1.046036 3.129623 -2.969182 
直隸 2.050019 1.922088 -3.564376 0.714850 0.387250 3.094193 2.811351 0.113392 1.630600 -0.925336 
馬克思 3.965885 -2.457085 -1.834092 1.411535 6.156362 -0.429356 -0.521893 5.836885 0.259973 1.231831 
革命黨人 1.895207 3.011159 -2.900774 2.539719 4.310441 0.046563 1.138438 0.436040 -3.136372 -5.837355 
日耳曼人 -1.609281 0.203151 -3.543281 1.560951 2.623369 -4.061197 1.892251 2.159722 1.622484 -0.420314 
宋教仁 0.386646 2.578473 1.069981 -0.686664 2.627902 2.252772 -0.618033 2.184712 -2.115001 -6.289365 
林立 -0.025818 -0.110702 -1.563013 1.427725 1.300199 -1.849982 0.920161 0.551025 1.940063 0.621912 
甲骨文 -4.515874 3.127218 0.832381 -2.115880 0.952138 0.360534 -1.377885 5.482827 10.209551 -2.395017 
越戰 -3.688031 -3.714744 -0.012119 1.103989 2.114204 6.278432 0.032874 6.313111 -3.381263 0.100623 
契約 -0.419101 -1.894566 -2.003845 -1.398068 0.753199 -3.445369 2.993924 1.631703 -3.047615 -2.261385 
烏山頭 -4.537992 -3.736253 -0.554820 -3.654625 -0.941351 6.273900 -0.135965 3.891546 2.247178 0.833001 
蘇維埃 1.446218 0.452753 -0.370020 3.362996 4.582925 1.351077 -2.315049 4.516838 -0.984972 -1.309354 
高峰 -0.644844 -0.288373 -1.216676 -1.045482 -1.138366 0.674543 0.351343 1.892326 -1.808144 -0.715075 
漢族 -1.812611 -0.328096 -1.868962 -2.132807 -1.051787 -1.346397 -0.946971 -0.050203 0.933234 -4.333755 
商鞅 -1.780941 3.801838 -2.184708 -3.385233 5.162033 3.509867 1.063031 0.695378 4.589390 4.560863 
貞德 -0.848935 -1.211636 -6.686312 -2.256027 1.293281 0.063332 -3.677077 2.752959 1.592898 5.490585 
帝王 1.133624 1.144466 -1.031062 -3.693625 2.564125 -2.192549 -0.170559 1.628032 1.719937 0.717507 
胡 -0.970572 1.491806 -1.412108 -3.569507 0.351364 -0.532769 -1.087579 0.070934 0.430640 -4.553957 
鎖國 -0.059326 1.313351 -2.662396 -1.703592 -0.755235 3.646391 4.986517 1.182221 -4.420242 0.597659 
戶口調查 -0.209924 -2.235218 -0.199952 -1.033815 0.365243 -0.174977 0.002337 1.197882 0.085893 -1.370175 
畢卡索 -1.497939 -0.721604 1.728857 -1.531641 0.791243 0.149767 1.419504 5.559652 -4.044929 -4.343757 
山西 0.751936 3.973464 -1.443212 -1.603487 -0.383395 1.077452 -2.305254 0.722624 -0.346448 -4.040879 
西安 -2.055256 1.661777 -0.859146 -0.630876 0.127028 4.335010 -0.955102 0.256058 4.806037 -1.343507 
波及 0.547974 -1.461749 -2.268271 1.734038 0.123955 2.392219 1.356132 1.272531 1.434685 -0.326185 
修正 2.390718 -0.192374 1.784951 -1.830306 2.238689 2.462556 4.349787 3.275640 -1.819970 -0.911762 
希臘正教 -2.022253 1.354928 -4.153511 1.089379 0.268465 -3.681454 0.953497 2.780751 0.761008 -1.879335 
雲南 1.869424 1.178282 -1.468780 0.330352 1.637847 2.303549 -0.241931 -1.279596 -1.931676 -2.857123 
中日戰爭 -2.974291 -1.107507 -0.594390 -0.495147 0.530416 4.746614 2.736316 0.032012 -0.683298 -2.725187 
捷克 -2.908462 -1.194183 -2.530357 4.409898 3.794942 2.033777 -2.566466 3.198126 2.048727 -2.150394 
獨立宣言 5.993878 -3.151261 -2.608352 1.699308 2.398687 2.586999 -1.527038 3.362814 -3.814792 -3.695527 
宋太祖 1.191227 -0.651704 -1.359449 -8.544013 0.825378 3.615611 -4.894678 3.158764 3.540216 -0.889885 
高明 2.929056 1.657894 -0.110979 -0.429827 1.704499 0.017655 -0.275987 1.950966 3.716323 -4.072922 
諸國 0.380452 2.887882 -2.235752 1.388976 1.998867 -2.136319 -0.369146 1.638444 1.794541 -0.465225 
沙 -0.854338 1.635051 -3.104750 -0.298373 -2.355646 -0.213428 2.278528 0.872794 0.528016 0.700188 
歐美 1.277999 0.198241 -0.678534 1.919434 -0.289113 0.760488 0.561129 1.641949 -1.336654 0.336959 
愛國 -2.291623 -0.925193 1.397499 1.649196 3.793510 0.995368 3.765304 2.031138 -0.965896 -2.882363 
馬其頓 -2.444746 3.751367 0.661432 1.332713 2.234757 -0.928853 0.875501 5.974061 1.221489 2.247606 
塞利 0.669705 2.453815 -1.533671 0.033144 3.234170 -4.108509 -1.468695 4.114362 1.643210 0.458297 
珍珠港 -1.699691 -2.764654 -1.228749 1.527723 -1.074885 6.434963 -1.177018 3.316294 -1.478957 -3.671732 
武士道 -2.162782 1.371637 -2.592610 -0.945522 2.510761 3.212416 5.217774 0.670981 -2.478786 1.792150 
文明史 -0.091587 -1.208808 0.108577 0.327891 3.320160 -1.729491 -0.207910 2.197033 -0.769452 0.664491 
劉永福 -1.086088 -2.863914 -3.893163 1.853394 1.704075 4.488316 4.193884 -0.132135 3.019872 -4.045192 
漢書 -0.063247 3.182659 -3.204521 1.058376 4.681917 -4.367426 -2.399525 2.117906 2.011025 -2.973609 
明太祖 5.954788 1.152448 -1.867159 -3.276689 3.478179 -1.376917 -0.723543 1.902743 4.456825 -4.591686 
史前 -0.430156 -5.206735 -2.200724 1.609610 -1.087935 -0.247417 -0.842308 5.541380 2.699512 -1.790652 
蔡 0.759125 -1.702963 0.688106 -2.601911 5.212584 -0.191954 -0.570038 1.290010 2.721066 -1.556029 
希伯來人 -2.323384 3.514369 -0.445328 0.537161 1.602161 -1.465005 -0.228305 2.193148 -1.050641 0.418193 
吳三桂 3.064826 2.461157 -4.378642 -3.575775 1.546768 0.519873 3.788282 -1.216540 0.099140 -1.487173 
神宗 0.126126 0.850985 -4.733453 -2.110118 -0.760434 1.611113 0.469868 -1.203864 1.713655 1.206588 
元老院 1.145840 4.995663 -3.711175 0.149890 -0.637097 0.077374 7.220244 3.427555 -2.411956 0.674637 
同盟國 -0.374354 -1.679807 -2.753340 4.173589 0.033486 3.190287 -0.133079 2.694280 -0.413813 -1.482151 
曉 2.868030 0.331299 0.913567 -0.807366 2.078103 0.829257 2.339657 1.285796 0.553683 -2.604973 
西德 -2.923992 -2.736534 -1.371598 1.902088 2.802477 0.964490 -4.534547 4.634207 1.420619 -2.045321 
富國強兵 -1.308852 2.288224 -3.410276 0.807677 3.124580 5.191763 0.847097 -0.618445 0.537157 4.840599 
澶淵 -3.913938 -1.086660 -6.084043 -3.539551 -0.161209 4.126418 -1.465039 -1.724731 4.042382 -3.604504 
北非 -1.798285 3.129632 -2.982628 1.836085 -2.385838 -0.899107 -0.617296 3.419241 -2.281756 0.503578 
鳳山 -0.238336 -4.406975 -4.931285 -4.365742 -1.130801 0.972539 3.140369 0.442356 3.571580 -2.399199 
子孫 1.212408 0.809898 -0.529193 -2.355761 -2.257556 0.156748 -0.332908 1.778160 3.207788 -0.805477 
春秋戰國 1.829100 3.820692 -2.003073 -2.169613 4.849591 0.350984 0.684746 0.618986 4.293884 1.699025 
長江流域 0.941880 2.220234 -2.477633 1.886144 1.145321 1.604403 -3.164419 0.099062 2.305112 -3.850301 
雲 0.722345 1.384095 -3.345513 -1.306095 1.143620 2.805697 -2.266224 -2.102803 0.499225 -1.260413 
路易十六 3.186102 2.378305 -4.540557 2.269858 4.953176 2.062491 4.308709 1.872158 -3.660343 1.059630 
洛克 1.725247 -2.049397 -5.168473 -3.068842 3.033865 0.157650 -1.912876 0.836551 -4.656813 -1.947351 
瑪麗 2.955765 0.640246 -7.773331 -1.061104 3.221824 -0.721133 1.458271 -0.641317 -3.018784 -0.010890 
重鎮 -0.232999 -0.178898 -0.181732 1.002972 1.126361 -2.060218 2.410044 2.815292 1.670084 -4.229259 
中國史 1.445786 1.238621 0.556614 -0.918017 0.700485 1.309519 -1.216956 0.948583 0.452380 -0.801894 
南郊 1.718071 -3.766547 -5.079032 -0.460262 4.321216 -1.587502 1.979343 0.144253 3.903219 -1.434501 
民族運動 -0.105632 -1.883121 -2.122569 2.566951 0.810347 0.313199 -0.852341 2.197387 -0.204693 0.147162 
蓬萊米 -0.792953 -3.692923 -0.724713 -1.979734 -0.279456 6.575809 -0.345043 5.380219 1.667594 1.170172 
大都 -0.730126 -1.407961 -0.782243 -0.670341 -0.663357 -0.563286 0.427824 1.389536 -0.393852 -0.165441 
猶太 -3.168278 0.698100 -0.117839 -0.050123 3.140544 -0.269117 -3.270190 4.025824 -3.681731 0.165864 
丘逢甲 -0.901789 -3.031822 -4.500282 2.492964 1.801407 4.516823 5.772306 -0.959244 2.584823 -2.143471 
基隆港 0.408332 -5.239598 -2.432917 1.212042 1.390145 2.161464 2.430095 3.781563 -0.370729 -0.351722 
耶路撒冷 -7.131645 2.580243 -0.182495 0.432784 3.354737 -1.600753 -2.554234 4.111549 -2.497188 -1.729169 
婆羅門教 -0.210068 5.433228 -2.320655 -4.629872 2.436239 2.050864 -2.112772 2.482993 -5.824311 1.367944 
古羅馬 -2.477068 0.500924 -1.377453 0.972708 3.312173 -2.021101 4.267191 1.294262 0.600085 1.676115 
永嘉 1.083221 2.976233 -2.372652 -6.420760 2.550129 -1.374176 -1.836356 0.697490 2.004645 -5.615541 
亞美利哥 -1.088335 -1.652104 -3.056553 -4.246858 -2.024114 -4.090463 -3.229437 5.536653 -4.399403 -3.726259 
永吉 0.357120 -4.482492 -0.780283 -1.960025 -0.315116 6.696258 -1.352933 6.061120 1.898477 1.558434 
卑南 -3.049349 0.502510 -2.917752 -2.278953 -3.522201 2.435860 2.122841 2.342340 3.135424 0.707828 
黃興 1.073488 0.439506 -1.119871 -0.787400 5.505144 1.599797 0.522798 1.344640 -3.670924 -7.402853 
都城 -1.067466 3.827181 -0.558563 -4.847235 0.455972 0.249058 -2.158118 1.725540 1.602380 -0.953889 
哈里發 -1.193487 2.566210 -2.421094 -2.439442 -1.192806 -3.203095 -3.284077 6.208614 0.884101 -0.597704 
漢文 -1.425625 -2.598564 -2.547663 -2.408256 1.885258 -1.632270 4.253804 -0.046393 0.791320 -2.651127 
百年戰爭 -0.478227 -1.733191 -6.861545 -0.768328 2.688869 -2.363396 -4.705547 2.245260 0.910474 3.447196 
墨西哥 3.044943 0.188903 -1.745313 1.172506 -2.927120 2.566033 -1.175755 5.494777 -1.529299 0.143533 
腓尼基人 -1.124264 3.570021 -0.089941 0.299475 1.559525 -1.081374 -0.922754 4.877913 -0.421218 2.726052 
明成祖 3.032348 1.194583 -2.098805 -2.014338 -1.032084 -0.246210 -0.909344 3.059202 2.856979 -1.464038 
柏林圍牆 -4.466235 -2.525433 -0.161890 1.148521 3.778067 0.891269 -4.604587 3.894460 0.714232 -2.873165 
河北 -2.073339 1.854107 -1.986734 -1.087746 2.979269 4.868084 -2.166848 -1.750847 0.686214 -1.011794 
臺東 -0.390175 -2.698207 -0.811180 -2.767150 -1.385322 2.468075 3.208056 2.155386 1.583664 -0.992501 
高雄市 1.465773 -3.637458 -3.616871 -4.255271 -1.835193 0.979978 0.403870 2.770509 2.875181 0.553278 
北郊 1.916641 -4.001944 -5.075824 0.023017 4.099391 -1.149025 1.524307 0.580440 4.573083 -1.368759 
君 -1.927232 0.385700 -1.766619 -1.844969 1.204710 -1.565941 0.855437 0.807335 0.177522 0.283597 
十字軍 -6.403091 0.192786 -3.270276 1.495938 1.448977 -2.798334 -1.372241 2.545681 -2.784765 -0.076579 
治國 1.928663 2.516604 0.455277 -0.033535 4.249825 1.834237 0.009810 1.071561 -1.140628 -1.119271 
革命黨 -0.392497 0.607256 -0.085267 -0.784511 2.798731 1.571260 2.113499 1.212614 -3.028700 -5.746588 
城鎮 -0.422294 -2.629765 -2.009127 0.547152 0.197565 -2.343254 -2.034899 3.784528 0.262482 -0.508693 
高雄港 0.039701 -3.914220 -2.101200 0.216205 -0.430419 1.195538 1.326988 3.843247 0.197334 -0.520034 
燕 0.785714 1.858857 -3.701805 -2.061728 2.938132 2.226592 -1.735940 0.288326 3.090144 1.192772 
太陽神 2.206454 3.403629 -1.858790 -2.593126 4.107327 -0.275646 0.839817 4.662006 -0.610571 2.578550 
羅馬公教 -1.248012 0.570672 -3.174416 -1.784264 -1.236142 -4.527743 0.286376 2.792586 -0.704934 -1.307299 
天文 -1.911213 0.462754 -1.227714 -2.934494 2.463260 -3.593114 -1.442521 2.013112 -3.396692 -0.356453 
大沽 2.975600 3.511486 -4.533794 0.921598 1.232200 5.711107 -3.183126 -0.265563 3.013986 -2.550078 
楔形文字 1.049899 6.425311 -2.788559 1.561808 3.389081 -2.344574 2.321444 3.668224 -1.536508 0.153018 
孫權 -3.202495 -0.907844 -4.141523 0.182637 2.992136 0.929350 -3.597158 -0.843005 0.095041 -6.229322 
江戶 0.256653 0.457739 -3.101599 0.184252 -0.007096 4.453352 5.728339 0.940960 -2.828198 1.823811 
西西里 -2.935110 3.062252 -3.390707 2.821431 0.517554 0.656818 3.675197 2.068749 1.896879 4.244710 
玻利瓦 3.272625 0.518523 -2.793298 1.865112 -0.574501 2.995383 1.756531 5.842743 -5.442379 -0.765840 
黃玉 -0.774629 -5.473403 -0.250768 -6.307537 4.130775 0.817462 -1.705652 3.097675 0.648908 -2.421642 
社會變遷 -0.907624 -1.965893 2.402112 -1.337019 3.404925 -1.533342 3.649617 2.562075 1.975157 -4.105229 
康 -0.955131 2.173500 -2.392075 0.007649 -2.126198 -1.027542 2.617031 0.207218 2.496614 -2.720312 
臺中市 -2.954307 -5.881889 -2.209059 -2.015044 0.115228 -0.800311 1.716501 2.308113 3.982744 -2.766922 
雲漢 3.054119 1.887202 1.291735 1.036999 2.412360 2.747566 2.100671 2.745798 0.059975 -2.500923 
長崎 0.118574 0.420466 -2.355810 -0.228763 -1.839697 5.532875 3.774817 1.808836 -4.073401 0.322183 
國民會議 3.542455 -0.804044 -2.279778 1.139864 4.953372 3.483764 4.751264 1.182404 -2.969217 -0.359662 
塞爾柱 -4.221702 1.009240 -0.670793 -1.856919 2.862198 -4.284421 -3.490115 4.800264 -1.722606 -1.896167 
光緒帝 1.771639 2.298288 -5.135252 2.099518 -1.916436 1.489717 0.934888 0.863776 2.007420 -2.254394 
索菲亞 -2.013270 2.404252 0.227687 -0.794150 0.923978 -5.386983 1.962746 5.092965 0.379691 -2.719167 
靖康 -0.635993 3.001123 -8.711026 -4.074866 2.027824 -0.847322 -0.692252 -3.752486 -1.375885 -3.254376 
藩 2.512620 -0.742436 -4.943932 -1.972137 1.136421 1.957017 3.459956 -1.718431 0.107197 -0.271707 
匈牙利 -3.179579 0.777973 -3.390449 5.406178 2.179918 -1.032644 -1.850385 3.131455 1.941574 -0.433081 
尼 2.645868 3.555419 -4.595136 0.777472 -1.968885 -3.512468 1.549083 2.447771 0.556539 -2.493186 
緬甸 -0.521819 0.152733 -1.672686 -1.171413 -1.800105 5.722376 -0.493177 1.899572 -3.707412 -2.556543 
恆春 0.037661 -2.802728 -4.602655 -2.840658 -0.083811 1.978820 2.407697 0.557949 2.101227 0.538704 
西方人 2.864668 1.991726 0.240797 -0.226974 -0.574153 -0.425692 0.024981 2.469782 -0.941749 -2.677060 
顏思齊 0.672318 -6.894799 -2.016668 1.111822 1.288786 1.077634 3.520339 5.381336 0.898201 0.047490 
寶 -2.110602 -1.818565 1.573447 -3.093156 1.131573 -2.469191 0.934755 2.487021 0.620170 -1.319027 
二次革命 1.132695 4.114574 0.905166 -1.457531 1.486242 1.867124 1.639679 1.981401 -4.758398 -4.680158 
大西洋 1.100144 2.275724 -4.164338 1.479246 -2.665058 -0.948707 -0.483987 4.932675 -2.893367 1.432943 
蔣經國 -0.528211 -3.335691 0.737801 -1.431171 1.098591 2.185677 0.995812 2.158423 -0.522014 -0.881386 
阿美族 -4.601658 -0.921968 -1.151046 -4.224605 -3.689498 0.973674 1.512587 4.614279 0.752626 -2.494614 
班固 -0.871216 3.134312 -2.933605 1.211576 5.825280 -5.448367 -1.656968 2.335869 2.219546 -3.010188 
查理一世 3.407148 1.527543 -6.803748 -2.015366 0.540284 -0.982376 -2.157594 0.406627 -1.657282 -0.365909 
鹿皮 0.369071 -3.545141 -4.388063 -2.842600 -3.177310 2.160848 -1.408784 2.063952 -1.210629 -0.685902 
小亞細亞 -2.720340 4.986309 -0.308438 -1.167456 -0.197571 0.033483 0.410967 4.891642 -0.558980 2.828817 
泰雅族 -6.743728 -2.255956 -3.119158 -4.595093 -2.075580 0.870612 1.282481 2.347907 -1.908984 -1.224621 
英文 0.026909 -1.231603 -2.496508 1.506681 2.407776 -1.423030 -0.096019 1.187259 0.056398 -1.079485 
唐太宗 -1.127757 4.347773 0.126254 -6.246518 0.507842 1.567173 1.838624 1.361811 0.875094 -2.158393 
腓特烈二世 -0.043554 -2.471410 -3.935086 0.550933 9.072727 1.404695 -0.596440 -1.088364 -1.183299 2.723526 
文武 2.120872 -0.959381 -3.774811 -3.484261 -1.451756 0.335353 1.968102 -0.276104 1.656579 -2.675490 
九一八事變 -0.896971 1.730306 0.984089 -0.316025 -0.465155 5.962090 1.437129 4.146550 2.380001 -3.368526 
新港 -1.950988 -5.109393 -4.264936 -2.678719 1.388882 -1.839534 6.518459 1.516234 -3.938143 -2.003820 
黃巢之 -0.078730 2.595185 -2.685148 -2.825525 -0.415400 1.136358 1.562791 -0.489871 3.237484 -2.126605 
光榮 -1.456570 -0.347202 -1.246393 0.886797 0.800136 -1.058992 0.075356 1.743565 1.103736 1.317799 
市民階級 -2.565007 -3.316024 -2.701468 -0.507909 2.061830 -3.580124 -3.289983 3.382311 -1.439194 0.113140 
二戰 -2.046660 -2.186564 -2.051732 1.913218 -0.011646 2.060990 -1.021328 2.114412 -2.028989 0.132834 
印度洋 0.739438 0.544015 -0.850192 -2.243709 -3.770167 1.251012 -2.766186 4.392849 -0.112147 -2.113346 
武昌 0.924713 3.331614 -1.203770 1.028981 3.924370 1.513174 -1.867598 0.603047 -1.301990 -6.109471 
嘉義 -0.513475 -4.177800 -3.400378 -4.738403 -0.780897 0.947109 3.698013 1.652160 3.816725 -0.790234 
智慧 -0.522001 0.134322 0.179533 -2.992360 3.396873 1.028376 1.106457 3.419952 -1.496919 3.916949 
臺灣島 -0.740207 -5.045262 -3.987867 -2.338717 0.108904 1.361837 -0.975551 0.878016 0.780325 1.301937 
唐三彩 -0.536019 2.184037 0.747703 -5.805461 1.084258 3.344857 0.128412 1.442454 -1.401416 -3.088929 
南北戰爭 3.823994 -4.015560 -3.926766 2.106859 3.401755 1.458892 2.735421 2.880475 -2.732891 -2.598705 
獨立戰爭 3.348892 -1.588749 -3.374424 0.377478 0.692662 1.456687 -1.897653 3.747047 -3.831912 -0.140884 
臺灣電力 -1.963224 1.310439 -1.745325 -1.507057 -2.555402 3.376537 1.890983 3.011304 2.060054 0.065280 
新大陸 2.141222 -0.857835 -3.044290 -1.763430 -2.434724 -1.445269 -2.761777 5.572771 -4.317694 -2.675856 
福爾摩沙 -0.936492 -3.405193 -2.622743 -3.757057 -1.910646 1.318707 1.288524 3.911796 -3.220208 0.954250 
花蓮 -0.614305 -2.474507 -0.929738 -3.677334 -1.703240 2.303148 3.204314 2.701347 1.854550 -1.103659 
曹 -1.680646 -2.191522 -4.193035 -2.629020 -0.900621 -0.031425 -0.236977 -1.027237 0.055586 -4.138443 
郭懷一 0.118832 -0.504150 -4.458816 -2.201103 -2.987125 0.199398 4.732846 2.159488 -2.908188 -2.345816 
莎士比亞 -5.629740 -4.087985 -5.234726 -1.261255 -0.357602 -2.629706 0.766448 2.355727 -3.279475 -1.032784 
南明 4.013325 -1.237833 -3.589323 -2.963269 2.151480 2.734866 1.866486 -1.022836 -0.161006 -0.669207 
亞述 -0.581630 6.968008 -0.708723 1.717014 4.304553 0.188192 1.486771 5.496658 0.482432 1.116546 
魏孝文帝 0.699202 0.419531 -3.764904 -6.335225 -0.906275 -3.430248 -1.419925 1.206666 -0.077204 -6.359009 
安徽 0.465953 2.679399 -0.870923 -1.229036 0.752388 0.674427 1.158106 1.030729 -0.748314 -4.480940 
立體派 -0.397784 -1.499683 2.267686 -0.531991 1.206200 0.275214 2.426600 6.497347 -3.934701 -5.104093 
摩尼教 -3.076679 3.352263 -0.277443 -2.201870 -1.093573 -0.775600 -0.504871 1.564870 0.987186 -1.625583 
玉米 0.363414 1.928308 -0.011605 -1.268482 -2.171812 1.194122 -0.742478 4.355927 -1.665999 0.445489 
屋大維 -0.255205 3.912198 -2.955153 0.002068 -0.879122 -1.164881 5.964342 2.157943 -0.958093 0.679447 
神聖 -0.655004 1.005135 -1.787332 -1.522674 0.967255 -1.112436 1.406817 1.371975 -2.636443 1.689157 
朝鮮半島 -3.122191 0.753797 -1.189890 -0.611053 -0.416095 5.231563 -0.542737 0.953971 -2.123941 0.470526 
西柏林 -1.991115 -3.142387 -2.387909 1.033092 1.202025 3.049267 -5.719284 2.666625 1.347184 -1.461323 
耶和華 -2.474573 2.278698 0.736979 -0.442291 2.003568 0.831980 -0.752156 1.884842 -0.459652 -0.156509 
孟德斯鳩 -0.315277 0.012271 -1.639766 -0.854524 3.713037 1.047148 -0.852481 1.634325 -5.386982 1.190142 
下議院 3.552923 -3.531078 -5.276303 -0.022621 3.929777 -2.214516 -4.180578 2.026581 -0.391638 -3.604376 
法老 0.711266 3.277573 1.638128 -3.565148 5.391365 -0.419349 -1.009424 6.100058 -1.139830 1.014387 
狄德羅 -1.213024 0.299189 -3.065170 -0.269683 6.190042 1.981793 -1.198502 2.327073 -5.613793 -1.420233 
杭州 2.829880 1.219515 -2.744830 -1.478360 4.453236 2.251397 0.478498 -2.240210 0.797478 -2.681502 
成吉思汗 -6.040809 2.599940 -4.365295 0.098515 -0.249600 -0.368086 -3.943069 1.544940 -2.448856 -2.714697 
河姆渡 1.532626 0.088491 -2.200497 -0.047926 3.050956 1.037768 -7.570755 1.544941 4.267515 -5.121951 
亞里斯多德 -2.993946 -0.721032 0.675215 -1.971377 3.876540 -0.973003 0.679977 4.044418 -2.471229 2.625757 
漢摩拉比法典 0.587879 6.204694 -3.096771 1.741177 4.261115 -1.951907 2.178131 2.554247 -2.887013 -0.335081 
陝西 -0.980205 1.758818 -1.121284 -1.439515 1.450507 2.178028 -3.769387 0.812936 3.262985 -1.851015 
瑞士 -0.404393 -2.245452 -1.969983 1.673355 1.334086 -1.632973 0.485651 1.628104 -0.888557 0.097123 
朝野 1.243236 1.541194 -2.778204 0.588161 -0.857939 3.757282 1.008326 0.061116 -0.530015 -2.002629 
隋文帝 1.902095 2.793509 1.479912 -6.257852 1.436693 -0.356805 0.331151 3.547708 0.084499 -3.993135 
萬曆 1.870451 -1.273997 -2.938956 -2.036361 -0.204073 0.554452 0.368497 0.379833 2.088986 0.455727 
兒玉源太郎 -1.949544 -3.499071 -2.147218 -2.609510 0.793551 1.431218 -0.228947 0.824544 -1.011777 -3.365341 
人權宣言 4.152580 -0.425493 -2.759811 0.438084 2.892999 2.022173 3.198452 1.650553 -5.080984 0.435067 
曼 -1.179632 -0.583410 -1.596211 -1.855877 -0.641087 -1.112295 -0.251054 2.746247 -1.186159 3.416827 
蘇格拉底 -3.928227 -0.339903 2.780861 -1.810045 3.912644 1.081827 0.424159 4.560675 1.366860 1.619590 
巴格達 -2.791717 1.593014 -1.120096 -2.375640 0.974022 -3.853314 -2.954087 4.495283 -2.234875 -0.065066 
王宮 0.578210 3.600840 0.064949 -1.071318 3.920371 1.077869 -2.956643 4.213404 0.722889 2.792886 
文化的發展 -0.532516 -0.268181 -1.122043 -2.808388 0.999194 -2.755426 -1.164320 1.792843 -0.666538 -2.043890 
阿美士 3.588585 2.644516 -7.396626 0.687958 -3.370674 -1.739869 2.605535 2.329690 0.574939 -4.145717 
抗衡 -0.400331 -0.677570 -0.721876 1.036470 1.548682 -0.726058 -0.139411 0.407726 -0.382260 -0.550162 
馬志尼 -3.504798 -0.481632 -2.335597 3.898462 2.942558 0.256599 3.799874 2.755587 2.809196 0.898804 
沈 0.495643 -2.384617 -3.664725 -2.517694 -0.306419 1.607459 0.584964 0.032392 0.127027 1.588465 
紐約 -0.832704 -2.059552 0.027603 0.526539 0.616910 1.483190 -2.103150 3.028740 -1.620555 -1.482649 
李登輝 -1.346377 -1.304688 1.362241 -1.663502 0.914460 2.674738 2.123255 2.855907 -0.570138 -1.005746 
慕尼黑 -0.378741 -2.911391 -3.434454 3.344915 3.861652 2.556219 -2.578470 1.545680 3.489338 -1.273774 
安撫 -1.811146 -1.283524 -1.812862 0.369868 -0.229333 1.354326 2.536676 0.120494 -0.258313 -0.767186 
斯拉夫 -3.709620 1.924608 -3.627954 4.504415 0.491627 -2.596689 0.248606 4.058475 1.417980 -0.837486 
紅毛城 2.932244 -1.260847 -4.381089 -1.012340 -3.339036 2.318892 0.739093 2.045849 -1.911210 0.313722 
穆罕默德 -2.179111 3.647721 -2.354094 -1.950405 -2.098444 -2.165407 -3.882689 5.115161 0.472350 -2.924413 
普通 -1.694931 0.066016 -2.044550 -1.907269 2.172365 1.205878 0.982046 -0.433834 1.941703 -4.835228 
瓦特 5.092165 -5.702521 -4.881524 0.882058 4.899932 -1.522154 -2.730744 4.711536 2.455124 -0.280606 
伯爵 0.842628 1.767200 -6.782420 -1.078184 -1.480684 -2.929880 -0.612339 2.142022 -1.403839 1.957907 
莫內 -1.475713 -0.574881 -0.598016 0.705923 1.764102 2.133086 4.156718 3.380773 -3.178043 0.266225 
司馬光 -3.441881 2.818690 -8.375219 -3.951973 -1.706774 3.523477 -1.012620 -0.397776 0.092069 3.998971 
三級會議 5.197968 -0.436899 -4.561508 1.015766 5.642366 1.395640 2.408401 0.880133 -2.511283 -0.423785 
海關 1.977605 -0.926331 -3.462082 -0.788970 -0.690587 1.160134 0.032847 0.797759 0.787270 -0.857301 
南京大屠殺 -0.981133 -1.734743 0.125792 -1.189863 1.687674 5.896315 0.096492 1.243254 0.760307 -2.491456 
西南 -0.073392 0.800269 -1.394408 0.200546 -0.021617 3.220279 -1.259081 0.532448 1.182092 -2.269653 
迪南 0.455093 2.746107 -7.403110 0.815695 -3.123453 -2.411037 -3.162906 3.885422 0.115270 1.192705 
臺灣地區 -0.087147 -3.506264 -3.067302 -1.177998 -0.915805 2.510410 1.411607 0.074605 1.589496 -0.905283 
景教 -4.155124 3.532890 -1.344828 -2.009689 -0.975887 -0.619187 -0.348556 0.458524 0.477283 -1.724648 
海峽 0.412855 -0.061575 -2.403337 -0.155851 -1.873634 1.637550 -2.089270 1.655882 -0.658037 -0.384089 
羅馬教會 -1.709499 1.119380 -5.168679 -2.190118 -0.056084 -5.372560 2.629977 1.403228 0.394314 -0.997512 
古老 -0.819586 -0.905375 -0.874268 -0.829395 -1.261888 -0.670095 -0.316127 2.615401 -0.195033 0.886382 
滿洲 -0.066433 2.269715 -2.562538 1.015733 -0.682277 4.260758 -1.193875 -0.484051 -0.728940 -0.909535 
福建省 1.783534 -3.056104 -2.605903 -2.559575 1.306040 -0.200336 3.021565 0.306419 1.946878 -3.489382 
科考 0.613736 0.410550 -0.674929 -2.465007 1.204649 0.689009 1.646656 -0.112977 0.813231 -1.763958 
項羽 1.330912 3.147712 -4.053167 0.303864 3.524268 -0.699028 -2.985856 1.388511 2.507592 -0.364280 
廣島 0.486739 0.286104 -1.310637 3.726036 -0.988777 7.829571 1.941760 5.340069 -1.256060 1.005243 
丹麥 0.163081 -2.332333 -6.200549 3.132517 1.878449 1.405205 -0.176376 0.046250 0.126548 1.220024 
張之洞 2.216935 1.799179 -2.846715 0.210885 2.229789 2.831959 -0.267621 -0.879503 0.276636 -5.150720 
邦國 0.708619 -0.593059 -4.332089 2.964443 2.576990 -0.082438 2.130928 2.069934 2.415423 1.212218 
孟子 1.535533 -1.511532 -2.066404 -5.945759 10.827287 0.156009 -2.806829 1.881114 1.972016 1.467669 
歸納法 -0.426074 -1.926968 0.650362 -2.456392 5.709301 0.718323 3.130419 3.784832 -3.784283 -0.634361 
開山 0.992425 -1.569205 -2.287361 -1.743649 0.464592 1.215390 1.224181 -0.370476 1.514863 -0.365361 
拉斐爾 -5.147294 -2.413503 0.065396 -4.560942 0.216632 -2.209136 1.094855 6.192893 1.243158 2.345123 
馮國璋 0.760589 5.248321 -2.825481 2.651680 -0.969400 2.113612 1.573182 2.240823 1.206518 -5.893785 
大族 -3.201332 2.866421 1.119938 -5.313340 1.787689 2.857441 2.814333 0.717809 3.268265 -1.618373 
荊州 -2.813482 -1.592146 -4.001670 -1.074964 4.685741 0.451408 -2.083318 -1.748415 -0.696429 -6.742021 
成都 -1.407208 1.463790 0.058239 -2.458228 2.949988 3.720756 -1.857483 -0.767563 2.270966 -5.276741 
希臘化 -2.376097 4.748348 -0.753776 -1.975985 0.699992 -2.656696 2.254563 5.464111 -0.512520 2.340614 
阿利安人 -1.362944 3.873368 -3.127720 -2.665997 3.272098 2.595053 -2.685772 3.637385 -3.505726 1.324013 
上臺 -2.353887 -0.251136 -0.789674 2.475832 0.812686 1.854324 0.419108 1.923501 -0.858062 -0.129433 
劉少奇 -0.883002 1.783803 1.031800 3.569399 4.060393 3.748376 -0.206718 4.708956 1.256040 0.703642 
社會秩序 0.845528 1.067526 -0.051641 1.350226 0.809801 -1.281191 1.507527 0.787275 1.446300 -1.550949 
種姓制度 0.472200 4.475280 -2.897920 -3.174887 2.013881 3.585058 -1.991322 1.260701 -4.421432 1.139064 
童 -0.828687 -1.228666 -3.082219 -4.844110 0.030330 1.938916 4.123480 -0.836437 -1.630361 -1.800561 
京城 -0.090448 1.238283 -0.644839 -2.869467 -0.214897 2.077297 1.460373 0.920890 1.872272 -0.446681 
史綱 -0.021164 0.433017 -0.044301 0.243544 0.711826 -0.832815 -0.096275 1.041314 0.168683 -1.164928 
沿海地區 3.167921 -2.426158 -2.025409 -1.128396 -1.296801 1.157181 -1.600540 2.704044 1.095221 -2.781928 
貝多芬 0.073871 0.821964 -5.187879 2.745488 0.739014 3.966973 4.708911 3.241135 -2.535657 3.561856 
中西 2.405181 1.472478 -2.337556 0.473759 -0.214283 -0.211742 -1.660002 0.786333 3.682128 -4.553299 
大屠殺 -4.862030 -1.465162 0.530326 0.954283 0.986358 1.677415 -2.042341 3.770004 -3.503793 0.942053 
立國 0.559523 0.189968 -0.594966 -3.596879 0.952977 2.474250 -3.188527 -0.083503 0.802632 -2.513624 
歸順 -1.141317 1.298654 -0.342876 0.128442 0.515235 3.694586 0.245960 0.900786 1.770073 -0.152253 
小國 3.309299 4.504697 -2.994690 0.698056 0.326119 0.385362 -2.628465 3.181844 2.222372 0.972688 
閩南語 -0.546709 -3.785148 -0.437047 -4.741358 -0.258652 2.159738 1.744805 1.824286 0.076765 -3.847900 
梁武帝 -1.480765 3.781681 -1.289584 -6.547699 3.046487 -0.087772 6.070364 0.191720 0.778587 -1.628981 
賽 -2.739507 1.329983 -1.426683 3.805189 0.713611 3.436216 -1.054466 1.441900 1.264393 1.900843 
保安 0.472371 1.294379 0.891833 -2.729803 3.543182 1.049980 8.268379 1.652599 1.653389 -0.780563 
黨爭 -1.373116 3.315539 -6.210101 -2.322736 -1.783878 4.315830 0.108790 -1.910890 1.136424 1.182560 
莊 -0.716484 -3.370904 -0.400560 -1.918513 1.619993 -1.814484 0.878181 1.826734 0.912798 -1.571379 
三民主義 1.986077 0.888193 0.409795 -0.049487 3.352521 2.885618 3.419390 1.994923 -2.530050 -3.951997 
巴爾幹 -1.550738 1.586875 -3.452962 4.906670 -0.903854 -1.606696 -0.515035 3.761789 1.959269 -0.869124 
捷克斯洛伐克 -2.015501 -2.441606 -3.371297 2.309458 4.344766 1.395164 -1.246661 0.921471 4.769496 -0.272498 
黃河 -0.692203 1.220385 -0.145164 -1.831320 3.077352 2.098490 -2.971368 1.096987 1.997268 -1.272827 
華盛頓 0.569334 -3.856668 -1.280926 1.463881 1.791311 3.304111 -2.631303 2.940675 -2.676425 -2.248723 
克麗奧佩 0.241458 5.147863 -4.194780 -4.440979 0.900001 -1.123594 1.742947 2.725415 -1.146583 2.717007 
利瑪竇 0.613843 0.807953 -5.132679 -2.296145 -1.701115 -3.714613 0.360319 1.335645 -1.730235 -1.464297 
和談 -0.606467 -0.432210 -3.412592 1.511747 1.695587 5.467944 -0.303219 -1.406517 0.617021 -2.057464 
達文西 -6.426064 -3.996030 -5.158808 -3.567010 0.613648 -2.269630 0.608420 3.501474 1.652100 2.332016 
瀋陽 -2.323821 2.954773 1.986203 -0.426169 -0.701144 6.741409 1.118927 4.381868 2.008652 -3.488740 
王后 0.173344 1.176228 -3.964665 -0.169336 3.453499 -1.668083 0.299656 0.136587 -1.564859 2.841069 
安平古堡 1.415898 -0.432503 -4.918867 -3.750586 -1.169500 0.387112 4.076292 1.855091 -3.048522 1.884431 
麥田 -0.513125 -1.730892 0.332742 -1.043251 1.671251 -1.376025 -0.880423 5.262280 -0.934265 0.354182 
廖添丁 -5.766609 -5.531736 -4.465048 1.386723 2.868455 0.238666 0.406956 3.076116 0.680731 1.360092 
澎 -2.049547 -2.036675 -2.449247 1.238406 -2.585358 4.340521 3.729255 3.056916 -1.856541 -1.692132 
通訊 0.062067 -3.733747 -1.420100 0.584200 -0.167314 -0.219298 1.654484 2.824136 -0.464156 -2.618354 
喬治 3.682015 1.070608 -3.535285 3.456767 3.501626 0.382213 -3.321884 3.082808 -1.264900 -2.859447 
中東 -2.909026 0.174838 -1.515669 -0.297927 -0.087205 -0.600183 -4.145370 2.321868 -0.844333 -0.890485 
司馬遷 0.299161 3.340059 -2.090366 0.155799 3.390630 -1.518439 -1.140635 1.375837 3.192835 -0.265903 
米開朗基羅 -4.908909 -2.263867 -3.110578 -1.355084 0.600333 -2.431445 2.053973 2.802550 2.261631 2.496394 
遼東半島 -1.988333 -0.420303 -4.558124 3.786942 -0.741866 4.433651 0.322235 -0.514759 2.757992 -3.551890 
王攘夷 2.029023 4.446715 -3.973708 0.721748 3.674215 2.981499 2.697436 0.523009 2.780007 4.060432 
新加坡 -1.128268 -4.338674 -0.033321 0.719574 -0.495118 5.219283 0.642907 4.359523 -2.627661 -4.973818 
美索不達米亞 0.032714 5.396046 0.235204 -0.112160 1.304840 0.091355 0.933250 6.209186 0.257228 -0.361760 
權利法案 5.298114 0.612620 -3.484176 -1.746148 2.201844 0.496744 0.397803 0.937600 -3.185478 0.356284 
顧問 -0.308461 -0.809628 0.070037 0.437644 1.838563 0.576856 -0.980049 1.463555 -0.313934 -1.744292 
十年建設 2.293690 1.893664 2.655928 -0.872562 3.199590 4.528821 0.824845 3.668553 0.827271 -2.412162 
太平 1.434992 1.095389 -1.872311 -2.653255 3.954360 1.848459 2.924660 -0.234313 3.870930 0.050931 
歐陸 3.458445 -0.812732 -5.902122 2.536871 1.929346 0.321368 -1.683893 1.794104 -0.562450 0.232181 
博 2.709105 0.346134 -1.467631 -1.196941 0.653679 -0.019101 0.221716 0.562952 2.032763 -4.107065 
柏拉圖 -3.284256 -1.547480 1.571336 -1.936233 4.247818 0.444333 0.450939 4.487207 -1.239102 3.093299 
甘 -0.742866 0.409093 -0.202933 -1.226511 0.499165 -0.215008 -1.025562 0.686090 1.698477 -0.767650 
伊比利半 -3.263119 2.323534 -6.089215 0.320808 -1.549136 -2.924984 -1.460801 3.337725 -1.983752 2.979934 
美的 -1.999269 -0.033150 -0.594377 -4.585807 -0.945092 0.579866 1.548649 3.568410 -2.378411 1.363624 
蘇格蘭 2.484308 -0.984035 -8.069455 -0.190608 1.118479 -2.800622 -1.577128 1.395166 0.756399 -0.761234 
阿富汗 -2.531367 3.888334 -2.718977 -0.163779 0.385243 2.984325 -6.827581 4.843810 -2.563681 -2.840333 
托勒密 -2.747871 2.855157 -0.550659 -4.546139 2.056298 -1.324839 1.773898 2.853030 -3.597812 1.839212 
朱熹 -0.408992 -0.817840 -0.667717 -5.322849 6.324334 0.676727 -2.211512 0.066912 0.475727 -0.477251 
阿里山 -1.296936 -0.501792 -1.670073 -1.481623 -0.011816 1.258397 1.079461 1.654566 0.905009 -0.272226 
吉 -0.943983 3.251854 0.106837 -1.025696 -1.463880 0.422557 1.323637 1.026597 -2.075897 -0.590166 
釋迦牟尼 0.644592 6.779938 -3.115793 -5.042818 2.845361 2.303017 -2.236730 1.732951 -6.153742 0.832574 
施 -1.843902 -3.401463 -3.702098 -2.859932 1.686101 2.745595 0.504321 -0.225359 2.857648 3.231013 
史詩 -1.987455 -0.228535 -2.328916 -3.610672 3.381198 -0.341673 0.322225 3.682348 -0.104694 5.461699 
宋元 -0.375797 0.129775 -2.636290 -3.902662 -0.972274 -0.242316 -3.807324 0.300713 0.745921 -1.010045 
三權分立 2.160973 -2.134158 -2.394331 -0.734032 2.718515 3.266657 -0.772706 1.835092 -5.796954 -0.614812 
杜魯門 0.597727 -1.922635 0.445565 0.384024 0.851526 4.630536 -3.775361 3.623943 0.186002 -1.406751 
朱元璋 2.572433 -0.309925 -0.051352 -2.523125 1.844610 0.040231 0.025672 1.293107 2.507331 -1.192465 
王爺 1.054379 -0.545965 -1.789525 -6.528835 -0.097277 -0.058412 1.598579 2.466700 4.556255 0.658076 
十二表法 -1.038761 2.950122 -1.409859 -1.488970 0.000198 -3.007407 5.541600 2.596060 -0.922991 -0.702766 
漢字 -6.398434 1.033239 1.119647 -4.555250 -1.705666 1.461258 2.718829 2.064592 2.562409 -3.622748 
蘭陽 0.964723 0.016484 -1.720518 -3.535980 -3.757692 2.186025 3.624631 3.955150 4.602217 -3.202137 
英格蘭國教 0.518972 -1.113806 -6.361524 -4.572485 1.849404 -4.448061 -0.057857 0.709519 -3.071888 -0.893864 
普羅民遮城 1.933850 -1.955132 -5.968531 -3.621710 -2.393060 1.041556 4.112482 1.851375 -1.882175 1.365381 
大城市 -1.630660 0.571555 1.224819 -0.962231 1.429290 -1.231212 -1.244438 2.165407 -0.650481 -1.295899 
渡海 0.456996 -3.163147 -1.792825 -1.986365 -1.590539 1.148737 1.351539 1.446996 2.474721 -0.783608 
興城 -0.054740 4.173654 0.394930 -5.354077 0.300548 -0.019030 0.672084 2.075827 0.461682 -2.451080 
唐玄宗 -1.334593 3.106445 -0.562227 -3.790980 1.905394 1.980335 1.931925 -0.606661 0.676404 -0.869726 
王維 -2.140867 0.100099 -1.512847 -7.116809 8.024607 4.722975 2.115694 0.763043 -0.700993 0.494916 
印加 1.916304 1.765326 -1.507769 -3.866227 -3.434968 -0.092394 1.432511 6.368275 -4.324073 -0.074383 
鄂圖曼土耳其人 -2.608501 0.931200 -1.493371 0.012033 0.619240 -4.430121 -1.123930 3.895292 -1.560533 -1.191696 
蘇軾 -3.697426 1.885453 -5.982950 -4.744282 -1.251747 2.365557 -2.511902 0.099582 1.446995 2.572512 
北平 1.001995 0.287770 0.719636 -1.153994 0.767820 5.817019 -0.204644 1.009755 0.991339 -0.661398 
三皇 -0.931444 0.488811 -4.882215 0.462027 2.106709 -0.239965 -6.242826 3.686495 4.220984 1.928787 
張靜江 1.284279 5.606599 -0.079951 -0.969040 6.521951 2.787064 3.347825 1.124515 0.400500 -1.499876 
壯丁 -2.877773 -3.254638 -2.489152 0.107324 0.405171 1.880567 0.760168 0.408381 -1.488592 -2.395371 
奧古斯都 -2.954473 2.267011 -3.498552 0.571591 0.135165 -0.726496 4.937336 2.707898 0.302328 1.303697 
君權神授 1.952346 -0.224953 -5.628513 -2.185680 3.685503 -0.275568 -0.543143 0.245067 -5.044356 0.322542 
希臘文化 -1.507337 2.892642 -0.880013 -1.082543 0.423648 -2.186532 2.508327 4.955727 0.044404 2.488141 
泉 1.041221 -3.268254 -3.331273 -0.649492 1.131119 -1.859664 2.804955 1.089403 1.990750 -1.433279 
清教徒革命 4.457471 0.261368 -6.814840 -0.629974 1.370140 0.011850 -0.116821 0.118738 -2.631395 0.749662 
張伯倫 -1.478370 -3.045148 -2.933056 3.652855 4.143458 3.236169 -1.973951 1.256366 4.893763 -1.670144 
何謂 1.185119 -0.808493 0.044094 0.003073 0.636759 -0.172314 2.219630 4.848741 -2.047537 -0.677178 
練兵 0.689523 3.711881 -3.157254 0.627701 -0.167823 3.268049 2.415625 -0.232163 0.600294 -4.994395 
歐亞 -2.834679 0.940201 -2.561853 -0.108440 -0.993980 0.169012 -2.969199 1.136841 -2.682301 -2.706602 
建安 -4.221680 -0.574221 -3.782328 -0.836146 4.260091 0.423692 -2.828643 -1.210439 -1.565640 -6.921198 
王子 -0.166723 -0.013997 -4.633424 -1.803411 1.693021 1.476613 0.510911 2.927702 -0.659771 5.288769 
範圍圖 2.518961 -1.504556 -2.664838 2.695333 -2.346053 1.675764 0.958777 3.554524 3.047348 0.890678 
卑南族 -4.634877 3.708435 -2.097585 -4.317679 -3.743801 1.666806 1.740123 2.270830 -0.128991 -0.670927 
太平洋戰爭 -0.904070 -0.472342 -1.248260 1.083228 -1.603518 5.166588 -0.038396 3.234714 -0.295729 -1.015624 
發動戰爭 1.370643 -0.262807 -2.458941 2.274857 0.717952 1.516704 -1.626935 1.196411 0.004858 0.446930 
劍橋 2.796206 -0.241303 2.226538 -1.974936 2.413630 0.266218 1.867293 2.960535 1.036862 -3.336863 
重慶 0.757336 -0.301084 -0.938707 0.919919 2.452335 5.357904 0.472095 1.410209 1.001652 -1.182170 
梵谷 -1.283958 -0.959674 -1.260597 0.107394 0.849954 1.459697 3.962071 3.037166 -3.561132 -0.288223 
華北 0.075717 1.017640 -0.363454 -0.289557 2.582237 6.580677 -0.091260 0.907032 0.822862 -0.965978 
新舊 -1.203924 0.742117 -3.733417 -1.168615 -0.498785 0.670528 0.021574 -0.226568 -0.497247 1.422103 
江 1.243432 0.969598 -1.419511 -2.421811 0.519863 1.413047 0.973164 0.388937 3.236030 -1.048800 
新約 -3.678336 0.277178 -0.646614 0.254542 0.391448 1.977193 1.934424 0.939701 -1.574243 -2.330713 
望遠鏡 -4.304958 -1.529202 -1.381321 -4.853979 2.346510 1.184027 1.030736 3.280047 -4.985266 0.424074 
立法權 1.506064 -1.433709 -1.529644 0.453239 2.351026 2.764858 3.024801 0.849208 -2.360511 -1.296394 
紫禁城 3.697957 3.810963 -0.361048 -1.518951 -1.830932 3.786172 -0.433870 3.516060 4.060523 -2.024489 
開國 0.593158 0.347336 -0.111580 -3.455241 0.406968 1.001873 -1.954711 0.733540 2.764952 -0.341334 
楊堅 2.804282 2.839273 0.178574 -5.756049 1.383561 -1.330997 0.576963 2.944235 -0.199045 -3.594791 
修道院 -1.584692 -1.786840 -4.512410 -0.324095 3.377363 -5.066957 3.168824 0.235931 0.098561 -0.701189 
愛琴海 -0.081128 1.483006 -3.285007 -0.904351 -0.429377 -0.371234 -1.840749 5.406734 1.204626 4.662259 
開皇 1.510333 3.414578 1.022781 -5.276084 1.315165 -0.113080 0.058050 3.184004 0.690439 -3.289461 
顏真卿 -0.441921 1.889781 -0.320478 -3.355559 -0.083832 0.378766 -0.747121 0.996350 -0.154820 -3.041868 
嘉南 -3.691330 -2.915022 0.727920 -3.351736 -0.331922 5.330241 -0.482322 3.443696 2.478330 1.493998 
汴京 -0.461048 2.114495 -5.387304 -2.779763 1.359037 -0.533687 -1.508982 -1.486871 0.354086 -1.216427 
尼亞 -0.682891 3.463814 -3.893985 2.641392 -2.836793 -1.230668 -0.616434 4.712178 1.568893 0.994744 
立憲派 4.733410 4.136431 -3.036119 -0.369816 0.291259 1.512288 3.506249 0.718602 -0.950284 -2.639594 
景德鎮 -0.351027 0.954863 -0.468076 -0.968714 0.360142 0.403691 -1.070937 0.211923 0.553131 -1.190625 
雅典娜 -1.161048 0.468030 -1.224218 -4.474308 2.268899 1.711947 2.344407 5.465702 0.587680 6.459385 
江青 -1.232970 2.131080 1.392663 2.123115 1.261652 2.584153 1.233807 4.739894 5.894556 0.134045 
榮耀 0.752432 0.242965 -0.690745 -2.877711 2.223892 -1.400441 1.052574 3.231240 -2.073982 3.216612 
山林 -1.218339 -1.277063 -1.639502 -1.952368 -0.171962 -0.644095 2.170774 0.512878 2.106749 -2.856693 
開元 0.193377 1.679700 -1.149736 -3.610350 1.550684 0.632547 1.418706 -0.313972 1.470852 -1.830841 
容納 -2.741923 1.083998 0.176208 -3.026254 -0.047557 -1.034138 2.848692 1.915600 1.228745 1.136518 
秦王 -0.712171 3.633340 -3.459228 -0.488193 1.636482 0.338678 -1.919628 1.204842 2.997477 2.307215 
郡縣 -0.603065 2.839441 -3.784413 0.071718 1.513533 -0.072094 -1.632515 0.558011 4.227543 0.701628 
許可 0.185525 -2.725611 -1.631703 0.335464 0.882045 1.409133 -0.740954 0.403200 -0.483884 -1.070853 
高山族 -0.885886 -3.490582 0.740306 -4.515695 -0.848406 -0.865760 1.307904 4.906648 -2.190688 -3.385438 
黃河流域 0.886207 1.727689 -1.092509 -0.039014 1.582826 1.094226 -4.109866 0.794448 2.529523 -1.170609 
隋煬帝 -0.025159 5.062108 -0.808730 -2.878601 1.710689 1.556348 0.228444 0.550055 -0.343594 -1.974144 
上古 -0.725919 2.626673 0.551425 -1.865533 1.350432 -0.801421 1.060865 1.423697 0.352085 1.064616 
行會 -2.234868 -3.427227 -3.459578 -0.833073 2.558439 -5.144445 -3.363144 2.833443 -1.841330 -4.001969 
小琉球 -1.857526 -4.749366 -4.973628 -1.452738 -0.409493 1.201535 0.734706 1.911869 -1.861366 0.442694 
笛卡兒 -1.251412 -2.812086 0.990009 -3.558923 5.966632 -0.199198 2.836155 2.950582 -4.641716 -0.195301 
馬加爾 4.949908 2.641512 -6.220994 0.368743 -1.668475 -2.346778 2.527412 2.142301 0.293807 -3.968194 
長大 -1.716725 -0.701408 -1.087811 0.809350 1.784271 -2.261260 1.246249 2.605493 -0.544475 1.974390 
加拿大 1.149318 -2.778662 -2.920609 1.293487 -0.120127 2.582037 -1.784425 2.546255 -1.391585 -1.636914 
馬尼拉 0.169238 -1.036617 -4.390159 -1.487270 -4.114931 2.518887 0.922239 2.003200 -3.084995 -1.213966 
猶太教 -6.178101 5.279877 -0.891468 0.345310 2.630590 -0.965859 2.408737 2.782520 -3.872366 -1.777437 
中英 6.139104 -0.572932 -3.112000 -0.300604 0.706709 3.035829 -2.265723 1.082102 1.427574 -2.548370 
西拉雅 -3.210310 -4.346826 -1.569945 -2.322750 -1.906655 -1.342680 4.670888 3.670607 -0.712803 -2.633165 
伊斯坦堡 -2.504591 1.254063 0.755769 2.596457 0.226544 -4.130948 1.340939 6.160587 0.318964 0.308364 
羅伯斯比 3.133907 3.966289 -2.483560 1.916512 4.328403 0.764245 3.350035 2.188844 -3.157595 0.316324 
欽 -0.172628 1.938654 -3.529025 0.292564 2.394009 -1.365038 -0.554667 -1.134287 -1.849255 -1.981937 
林彪 1.383325 2.958246 0.919851 0.980269 4.110848 3.983306 -0.195336 4.249878 2.233214 2.915075 
蘭嶼 -4.524609 0.245406 -1.334687 -2.888046 -5.199967 1.299622 1.273409 4.766129 -0.289274 -1.344716 
中斷 -0.659576 1.001080 -1.430215 0.939856 -1.550733 -0.643510 -0.258222 1.287777 0.612522 -0.851546 
祕魯 3.212830 0.654006 -1.197329 0.818311 -3.485214 3.375424 -1.091555 5.839582 -2.617887 -3.114137 
墨 0.217150 2.090646 1.269614 -1.715800 2.959833 -0.267300 -0.125859 3.139368 2.800960 1.489179 
魯 -0.659061 0.075811 -1.371268 -0.335286 1.673145 -0.131122 1.799834 -1.164109 -0.513184 -0.523717 
永曆 3.370255 -3.321172 -2.952657 -3.554372 2.037843 1.730694 1.894944 0.211701 0.116408 0.449966 
紐 -2.179175 -1.499930 -1.841795 3.095304 -1.049667 1.505172 0.813445 3.625437 1.921444 0.134424 
玄奘 -1.716825 1.696748 -1.126886 -1.223482 -0.481379 -0.829008 -0.569381 1.071215 -0.137062 -1.389357 
史前時代 -3.053311 -3.856648 -3.107490 -1.600196 -3.163652 0.198003 -1.308115 3.473763 2.036890 -1.456362 
遠古 -1.768015 -1.777999 -3.165410 -0.569436 0.791760 -0.408172 -5.082849 4.158050 4.486404 0.673330 
廈 2.306048 -3.886914 -4.558745 -1.732286 3.179937 -0.592597 2.614012 -0.131343 0.046362 -0.983821 
東寧 4.315426 -1.374713 -4.038608 -3.804205 -0.626340 0.468706 2.962985 1.251694 -0.159762 1.025345 
寧漢 1.122763 0.723586 1.850324 -0.516807 4.022053 3.742656 -1.063893 2.429192 0.599008 -2.134330 
費正清 3.624394 -0.253719 2.527632 -1.652286 4.045358 2.866457 1.112809 3.773097 2.817814 -2.557827 
新興國家 -2.800822 -0.864263 -0.153018 0.614425 -1.070181 0.281466 0.666032 5.818841 -0.117826 -2.690023 
李斯 -0.425863 3.410893 -3.198581 -0.974859 3.340393 -0.436138 -2.179112 -0.064589 3.445484 2.996627 
沙皇 -1.492043 2.200357 -1.459563 3.943145 2.855320 -0.486435 -1.213784 2.240747 -0.831663 -0.193079 
太后 -1.837226 4.032718 -4.481180 -0.883486 -1.114153 1.995366 -0.722495 1.042695 4.656172 0.348319 
美德 0.540059 -0.187015 -1.496453 0.594873 2.689533 -2.169154 3.080244 1.728099 -1.682165 0.301999 
諸如 -0.753580 -0.136305 1.559246 -2.296314 0.660995 0.312517 -0.233143 2.069006 -1.619368 -2.097867 
白話文 -1.547347 0.845968 -2.308021 0.918927 2.246731 -2.342767 4.631043 2.526906 0.386193 -6.007975 
三山 -1.251017 -2.329449 -0.669702 -3.763454 1.091346 -1.571630 3.397016 2.881947 4.275057 -1.538382 
藩鎮 1.404330 1.469020 -0.373027 -4.527361 0.663599 2.173752 -1.450534 2.425550 2.757516 -1.146517 
腓力 1.379329 2.262136 -3.684194 2.934164 1.306669 1.532079 1.730775 1.890128 -0.834405 3.270235 
格林威治 -3.249509 -4.311104 -2.655788 -3.009799 -1.209063 -0.311732 1.087355 2.968927 -2.861985 -3.549583 
大百科全書 -0.461471 -2.891134 -2.257442 0.755826 2.245153 -0.159308 0.323550 1.100161 -0.704271 1.079719 
莫斯科 -1.497778 -0.454013 -0.063715 2.892836 3.770106 2.066682 -2.876137 2.959300 -0.783400 -0.971290 
蘇臺德 -1.597061 -0.912452 -2.162839 1.301419 4.201603 1.663844 -2.083434 0.935610 3.309089 -1.177650 
福祉 0.626315 0.301984 -1.767734 -1.231744 3.733348 -0.417598 0.458562 -0.408443 -1.616583 0.965969 
漳州 1.431158 -2.768829 -2.637122 -2.598093 1.705381 -0.698655 2.927411 0.113681 2.533054 -3.570250 
阿拔斯 -1.867155 3.278994 -1.802791 -3.813453 1.405847 -3.555935 -2.493878 3.958802 -0.813835 0.066863 
反革命 1.319373 1.797137 -0.232390 3.239684 3.865500 0.827289 3.865729 3.071339 -0.701123 0.906073 
鐵木真 -6.515818 2.010840 -6.148088 -1.282851 1.018932 -0.062304 -1.059747 -0.207021 -5.361351 -2.377639 
關羽 -2.291632 1.574986 -3.122742 -0.278111 2.425364 -1.173315 -2.396887 -0.170651 -0.592335 -5.667449 
塔利班 -1.168719 4.796117 -1.704174 -0.791371 0.526472 3.541592 -5.921304 5.032928 -1.701764 -1.964956 
馬基維利 -2.708833 -3.011120 -2.860202 0.235907 3.914163 -2.753226 0.535121 1.966126 0.404060 0.978076 
狄奧多西 -4.913110 1.139028 -0.833066 0.260181 0.911970 -2.374451 3.615041 2.343780 0.803853 -0.542076 
南美洲 0.709455 -1.781952 -1.276064 -1.709559 -2.195713 0.941969 -1.614954 4.961728 -2.397147 -2.682723 
十月革命 0.166038 0.537048 -0.154645 2.269981 2.930295 0.510133 0.143445 3.277309 -1.463445 -1.793530 
廖 2.412295 0.373145 -0.975890 -0.829195 0.615367 0.399567 1.585277 1.029773 2.124457 -2.733878 
陳述 -0.896162 -0.973509 -0.320204 -0.446856 0.660927 1.412557 1.316507 1.957667 -1.387094 1.693373 
祆教 -2.723429 6.652184 -0.901174 -0.942232 -0.596264 -0.765830 0.788734 2.995530 -0.901344 -1.818482 
龍山文化 -0.947811 1.839227 -3.279873 0.092022 1.168834 1.013863 -8.461996 5.337390 5.498357 0.313775 
蔡鍔 0.834619 3.884748 -0.270342 -1.743537 3.182052 3.212307 0.549174 2.664422 -5.080658 -4.264490 
民國初年 -0.432815 1.912692 1.108488 0.934365 1.715246 1.168912 1.689277 2.000635 2.635513 -4.755609 
倫巴 -0.546337 1.302173 -2.898581 0.983410 -0.124510 -1.679691 1.987287 1.180184 0.391164 1.460702 
區域衝突 -4.186767 -1.671581 -0.275009 0.945878 1.219166 2.777305 -1.773056 4.318639 -2.175802 2.287851 
桂 2.789885 -0.104828 -0.691972 -0.537054 2.823251 2.245077 0.677980 -0.387744 0.835231 -2.023550 
藍波 -3.563082 1.803237 -2.021819 -4.496073 -2.252589 0.292989 1.393607 2.199337 -0.120814 -1.680106 
關懷 -3.841562 -4.454378 2.519668 -2.215713 4.174854 0.457360 1.769615 3.573611 -0.059677 -1.074448 
同安 2.701313 -2.230438 -2.203094 -3.491104 1.353032 -0.648729 4.172544 2.862613 3.272921 0.253492 
保加利亞 -3.192650 1.013249 -1.733819 3.976092 0.475834 -0.879119 -2.196197 4.488606 1.790043 0.459867 
敦煌 -1.119598 3.668050 -2.539158 -1.861699 2.686152 -2.888522 0.366999 2.248709 4.636441 -4.904309 
德國人 -1.180115 -0.217031 -4.014566 4.760010 1.259615 2.198697 -0.530893 2.018081 0.948172 -1.137926 
賽德克族 -3.884223 -1.827592 -2.494196 -1.517318 -1.907307 1.436856 3.825711 1.422397 -2.194898 -2.070119 
徵召 -4.119024 1.317707 -1.316303 -0.185410 0.051693 3.927193 3.218500 0.193374 -0.250959 -2.162125 
江蘇 2.551022 1.350212 -0.408374 -1.354705 2.530694 1.325091 0.089889 0.184162 1.852034 -4.135270 
巴士底 1.426938 -1.604005 -4.109916 2.094164 3.657572 2.451170 4.171061 0.205387 -2.894037 0.046408 
七七事變 -0.693996 -0.699217 0.344389 -0.930663 3.678219 6.275889 0.208708 1.456148 1.050439 -2.708873 
神農 -0.091339 -1.485696 -7.022270 -2.913186 0.097991 -0.999171 2.696803 3.074660 1.681711 5.162411 
黃花岡 0.563094 -0.805181 -1.918903 -0.211836 3.655811 1.596404 1.204125 -0.292827 -1.343789 -5.571504 
永發 0.642413 0.638447 2.051179 1.388808 3.075713 3.622220 0.510479 4.506070 1.665843 0.739263 
殷 -1.456146 2.444350 0.884924 -2.959554 1.911170 -0.521836 -3.031979 4.572493 6.259114 -1.587946 
印度教 -0.406170 3.955966 -3.205776 -3.253334 1.433740 0.917676 -1.466988 1.626555 -4.707473 -0.264097 
唐繼堯 1.127421 3.466060 -1.605188 0.950469 2.801448 3.865717 -0.981702 0.461439 -4.915728 -3.793462 
從政 -0.299713 0.225771 -0.454819 -1.924131 1.058970 0.309080 -0.622972 0.626085 0.757592 -1.079411 
遠東 -1.861078 1.098200 -2.675951 1.800568 -1.570077 -0.623074 -2.229129 2.025969 -2.045432 -0.746711 
伊 -2.323331 0.395935 0.077376 -2.731319 -0.821556 -1.657291 0.566486 1.626367 -0.160199 0.751565 
黎 -2.206842 2.992357 -0.688757 1.288808 1.064100 0.326306 -1.854706 2.462390 -1.091659 -4.624629 
詹姆士二世 3.491686 1.332183 -5.835921 -1.584479 1.011274 -0.903466 0.209070 -0.997451 -2.821611 -0.561547 
琿 3.090482 1.934789 -4.697353 0.712769 1.968635 5.288350 -3.787561 0.064917 2.106135 -0.207503 
明治天皇 -0.215063 1.897612 -3.964949 0.339277 -0.175126 5.528112 2.971104 0.338933 -1.036335 1.693822 
羅馬教廷 -2.276845 0.061308 -2.022870 -2.557986 -0.073893 -3.799396 1.508669 0.817047 -0.854998 -0.258176 
藩屬國 -0.176900 -0.562554 -2.316150 0.290237 0.301830 1.089653 1.446146 0.010100 0.200356 -0.457448 
西亞地區 -1.837619 3.909111 -0.807450 0.539597 1.562469 -2.416713 -0.827393 4.511190 -1.237766 -0.624102 
宇文 -0.815987 2.492869 -1.683480 -5.002628 5.111231 2.436109 1.080276 -1.247206 -0.805009 -0.351458 
哥德人 -3.724724 3.253293 -3.739803 1.598030 -0.575562 -1.231202 3.654371 3.767114 2.874737 0.499913 
海瑞罷官 0.792283 1.747881 0.591863 2.953857 1.943288 1.665883 1.807744 5.975747 3.884109 0.831002 
西臺 -1.097605 5.581911 -1.597457 0.342104 3.272641 -1.456834 -0.107087 4.394961 -0.210449 1.945468 
黑海 -2.928552 2.068838 -3.198915 2.835472 0.382086 0.627736 -2.104622 2.531679 -1.249651 0.594349 
虎門 4.775167 -0.946746 -4.469046 -1.755324 0.073911 1.422674 -1.408490 1.173915 1.916219 -3.173749 
中西文化 -0.334570 2.110916 -4.375794 -0.850803 -0.265972 -2.957794 -1.432333 0.109529 -1.406765 -2.046231 
亞當斯密 2.399298 -3.224917 -1.611834 -0.867725 2.485412 0.444893 -1.874116 3.259430 -4.708103 -2.721483 
中南美洲 1.695455 -0.601989 -1.977323 0.586590 0.044410 0.196754 0.417584 3.848233 -4.956934 0.517912 
基督 -4.305083 0.092491 -2.444611 -3.280826 0.685124 -2.049841 4.296485 1.017926 -0.529202 -0.662486 
改革派 1.233105 -0.176321 -2.445147 0.294481 1.730468 -1.675328 3.006521 0.627855 -2.135575 -2.692402 
伊莉莎白 1.036698 -1.212945 -3.668566 -0.587013 1.458060 -2.255514 -0.528095 -0.107899 -1.086942 -0.305560 
臺地 1.059780 -2.628672 -1.060685 -1.616970 -0.073718 0.854460 0.358442 2.209775 1.518639 -0.449174 
厝 -0.795119 -3.937756 -3.380293 -2.142672 1.033385 0.918145 1.694748 0.716191 3.548949 1.235428 
北齊 1.948534 2.707987 -1.901917 -4.550166 -0.126532 -3.112237 -0.112383 2.871527 -1.550278 -5.598530 
陝北 -2.998473 0.599816 2.103799 -0.266018 3.715386 5.134137 1.470714 2.055984 1.799541 -1.146245 
華麗 -0.224479 -1.655851 -1.143836 -1.330908 1.371328 -0.516148 -0.212503 1.194584 -1.814066 0.904273 
唐王 2.381351 -0.742776 -2.517749 -2.109164 2.752738 1.092119 1.550862 -1.272600 0.458931 -0.579285 
廉 1.500324 1.180897 -3.806705 1.558019 2.879064 -0.175482 -1.677993 1.230841 0.880240 0.775372 
田賦 0.548327 -1.374236 -3.415128 -1.474401 -0.697102 1.485551 1.453378 0.454972 2.439320 0.104872 
中古史 -1.102105 -0.488204 -1.171620 -1.552462 1.240753 -3.705777 1.560132 4.212281 1.664163 0.173151 
河 -0.912690 4.667587 0.379908 -1.591979 0.343706 0.345001 1.268498 2.797620 1.168200 -1.465975 
秋瑾 0.997855 4.634466 -2.471211 -0.346731 3.952582 2.374547 5.796017 -0.526094 0.461817 -1.784684 
平城 0.044049 0.684623 -3.218479 -5.172499 -1.034917 -1.922759 -0.658712 0.484337 -0.262029 -3.528626 
齊桓公 -0.458095 6.676732 -4.598086 -2.333975 6.385927 2.101327 2.809674 0.327452 2.437273 2.687416 
旅順 -1.009703 1.636857 -2.191849 2.545027 0.545918 3.851874 -2.645731 1.552368 0.669731 -1.560144 
哥哥 -1.002610 1.467672 -4.189138 0.329415 3.977061 -2.752425 -0.059101 0.619800 1.597660 0.461778 
寧靖王 3.225641 -1.619082 -1.536125 -4.021353 2.148253 2.123382 2.731080 0.485668 1.399660 -1.043641 
南陽 -3.381901 3.779323 -2.792702 -2.976927 5.252564 2.749462 -0.004653 -2.591791 -0.292430 -1.538124 
狄更斯 0.326255 -0.781938 -1.477481 1.521092 2.574128 1.050300 4.731330 2.762454 -2.966108 0.669210 
東都 4.176637 0.449413 -3.209680 -4.301808 1.704960 -1.109979 1.535215 1.551424 1.430469 2.202336 
開羅會議 -0.355568 -0.762897 -1.064809 1.475021 -0.928341 4.342437 -0.563174 1.480609 -1.603863 -0.085442 
四國 0.137748 -0.330371 -1.405597 1.402406 1.330430 2.769234 -1.625755 1.299666 0.977022 -0.639600 
人文主義 -3.697462 -2.563189 -1.348225 -2.558214 2.469320 -3.437925 0.750594 3.856914 -0.669676 1.549003 
羅漢 3.138574 -2.154735 -2.539169 -2.530359 -1.137571 2.066598 1.621933 2.571698 1.516032 -3.115587 
姚文元 -0.832378 1.629269 1.569281 3.231214 1.490281 2.404248 1.157963 6.302248 4.039259 0.496871 
拉美 4.442955 -0.053583 -3.599791 1.791620 -2.599101 2.462519 -1.372170 4.872951 0.395226 -1.068944 
愛德華 -0.331687 -1.112470 -6.393112 0.233735 1.558729 -1.817298 -2.865487 0.592113 0.626439 1.074910 
大元帥 0.729334 1.545476 -1.480204 1.918997 3.180999 3.185768 0.698255 0.955981 -2.501707 -5.312459 
達成協議 0.460613 -0.576617 -1.943945 0.567715 -0.595843 2.945887 -1.435171 1.756395 0.578120 -0.494312 
十國 -1.396439 0.572837 -0.429549 -4.945773 -0.168091 0.981338 -1.820654 1.416210 0.048306 -2.448178 
永和 0.159382 -2.538884 -2.404077 -2.909835 -1.312941 0.454475 2.348267 0.518720 0.526521 -1.949751 
長安城 -0.850440 4.275375 0.352573 -5.622744 -1.091867 0.176121 0.571866 2.271586 0.514468 -2.167738 
黎明 -0.865108 0.071903 0.390116 -0.706329 0.823679 -1.170915 -0.339292 1.502300 -0.069636 -0.292587 
武帝時 0.132899 2.919213 -2.520289 -0.171076 2.621360 -1.433581 -0.598602 0.604815 1.877470 -0.342806 
陸 0.970922 0.090480 -0.719965 0.021388 -0.998166 0.287236 1.086077 0.949226 -1.091014 -1.413811 
諸子 2.347075 2.310297 -1.539270 -2.056530 4.115802 -2.522531 0.840897 -0.239373 3.181167 0.676237 
港灣 1.639440 1.758230 -2.032153 2.313373 -0.760198 2.005423 -1.791549 1.849869 3.328010 -1.544310 
葡 1.790841 -0.688993 -2.715284 1.164776 -1.398195 1.277033 0.377718 3.561058 -4.638752 -0.851107 
大將軍 0.857644 0.700009 -2.188186 -0.087599 1.121915 3.974267 5.909073 1.633683 1.793611 1.499836 
鳳山縣 1.133089 -1.978640 -4.142960 -3.716239 -1.141106 -0.126674 4.107473 0.682063 2.391664 -2.044774 
潘 1.258860 -1.144397 1.921423 -1.561228 2.963014 2.480765 1.729991 2.233204 1.084467 0.497891 
洛林 0.425002 -0.224811 -3.272507 3.301995 1.045295 -0.947535 0.921145 1.834795 -1.498315 0.281935 
原住民族的社會 -2.177639 -3.200643 -0.806313 -2.120266 -3.522891 0.931938 -0.611973 5.948450 1.796648 -2.531313 
江澤民 1.495313 1.390779 1.317822 1.280252 4.440412 0.360090 0.643733 5.469337 -1.207091 -1.186633 
保守派 -1.900298 -0.275474 0.032861 3.842180 2.042310 0.136387 -1.558344 2.279630 -0.570586 -1.984147 
淮 -0.566154 3.649271 -1.253741 -0.291920 0.588518 2.845894 0.391008 -0.629171 3.176144 -1.756833 
田園 1.734588 -4.097051 -2.380868 -3.674615 -1.846572 1.652566 1.929773 2.247865 2.231367 -1.770256 
南非 1.223406 1.620705 -2.770626 1.126529 -1.041632 -0.534042 -2.374842 3.138254 -2.651733 -0.808965 
西林 2.990129 -0.874224 -4.368019 0.395323 3.933963 2.088539 -1.387565 1.454364 3.557454 -0.884379 
延平郡王 1.414464 -1.869651 -3.808933 -1.545862 0.438142 1.240145 2.158319 0.012946 0.412154 -0.181580 
論文 -1.612747 -3.207033 1.074613 -2.633040 2.072651 -0.909889 1.705783 3.720388 0.030677 -0.930138 
鄭克 2.981532 -2.465528 -3.090629 -3.258904 0.248463 2.919606 2.752066 1.112698 0.628828 0.838030 
張儀 0.364962 5.492846 -2.749277 -4.416148 1.482163 2.083299 0.498727 2.110088 1.861347 2.719488 
小三通 2.103123 -2.818561 -1.243764 -1.036572 -1.412430 1.824464 0.410586 3.748734 1.526599 -3.432903 
汪 0.528628 -1.771645 0.830816 -0.270058 1.409947 3.754187 1.553650 0.833034 -0.140464 -3.168496 
賽德克 -3.063396 -2.875907 -0.905629 -2.376697 -0.603744 0.998691 3.573590 1.842065 -0.347650 0.857072 
才華 -2.496846 -1.437560 -0.444962 -1.750031 4.750734 1.824249 2.653356 -0.692729 0.452067 -0.280868 
蘇秦 -1.584370 4.831896 -2.709757 -4.164877 2.964341 0.732424 -0.009472 0.890460 2.241228 1.729902 
但丁 -4.775956 -2.257286 -2.206245 -0.939018 5.234900 -1.799688 1.958644 1.376955 2.484878 1.404886 
鄂 -1.765667 1.340540 -1.380269 2.261981 1.263300 -2.062102 -0.897893 2.103920 -1.507719 -2.968886 
紅樓夢 0.123821 0.775789 -2.305371 -0.656731 0.971422 -2.501825 -2.033621 -0.056397 -0.652180 -2.492397 
英方 2.584442 -0.273195 -4.704751 -2.023254 -0.245088 0.724556 -1.161281 -0.736117 0.455147 -5.472955 
蜀漢 -3.187896 0.616859 -3.780891 -1.221400 2.581770 1.893235 -2.481800 -0.928593 1.484634 -5.938089 
公正 0.760687 -1.653060 -2.580147 1.726685 2.497557 0.495169 -0.963460 1.354463 -0.808292 0.173350 
黑龍江 1.308025 2.438122 -3.982761 1.079913 1.110364 4.429544 -3.128627 -0.030826 0.706635 -0.729353 
楚漢相爭 0.797052 3.382869 -3.401794 0.021805 4.045186 -0.962980 -2.712064 0.683439 2.698218 -0.155822 
太平道 -0.597060 1.174660 -0.628094 -5.813405 6.413813 -0.509512 1.974918 0.861464 3.215029 -4.199853 
新莊 2.267260 -2.710863 -3.479761 -1.894096 -2.119095 -2.000827 3.108282 4.662484 1.984618 -0.279327 
景美 0.967456 -2.673470 0.959439 -3.850353 2.197186 1.518794 2.682104 4.990438 0.329278 4.201978 
民主運動 -1.087234 -1.088428 1.397581 0.424597 2.265510 1.213585 2.341314 3.767481 -1.816979 -0.359803 
宋史 -1.007246 0.786325 -1.495943 -2.075245 1.944738 1.387232 -0.896841 0.300351 1.256987 0.485232 
屏東 -0.264854 -3.324263 -1.210306 -3.779710 -1.160699 1.958064 3.557231 1.855772 1.307636 -1.126569 
日增 1.329872 -1.020477 -0.244715 -1.187532 -0.995352 0.532923 -0.792862 2.837786 0.547312 -1.511191 
麥加 -4.921560 3.703837 -1.637788 -3.589971 -0.043017 -2.337564 -3.733428 6.056279 1.574015 -2.782650 
法蘭克人 -1.824565 1.874267 -4.989919 1.713753 1.634261 -1.346747 2.310551 0.601514 1.973023 1.710024 
紀傳體 -0.128166 2.015079 -1.909485 0.982587 5.378498 -3.354165 -2.988223 2.125434 1.870047 -2.446186 
咸陽 0.302013 2.656779 -1.807171 -0.333135 2.272217 -0.211838 -1.303069 2.240918 3.338991 0.971021 
陸榮廷 0.775124 0.650335 -1.971370 1.984693 5.386427 4.370992 0.598310 0.214069 -0.516449 -3.429607 
天街 -0.006795 -2.490489 -4.128105 -0.721116 2.902933 0.367584 6.754015 2.697259 2.561783 3.472278 
羅馬城 -1.668585 1.690212 -4.223459 -0.389103 0.006151 -1.471489 4.947971 1.966496 0.820532 2.163642 
大月氏 -1.825501 2.508936 -3.607608 0.078045 -0.933351 -1.857610 0.225412 1.398839 3.049100 -2.747793 
卓越 -1.384650 0.557625 0.229445 -1.778114 2.534328 -0.406318 0.550336 1.190808 -0.644375 0.710143 
巴比倫人 -1.363511 6.460919 -1.612880 1.457010 4.362264 -0.422910 1.074953 3.541685 -1.460166 -0.386566 
徵兵制 -0.080874 2.143514 -3.146003 2.445340 2.122021 1.242551 1.404497 -0.848346 -0.993556 -0.410105 
