6947 10
</s> 0.040027 0.044194 -0.038303 -0.032780 0.013666 0.030211 0.009409 0.002113 -0.036035 0.022185 
臺灣 -0.100732 -1.680110 -2.143840 0.355541 1.942525 -0.011721 1.020513 1.711943 -2.492742 -0.236167 
中國 0.665050 -0.275640 -1.137946 1.038731 0.214184 1.156917 -1.667797 1.173501 -0.636594 -0.151374 
日本 1.035648 0.188879 -0.546311 2.446563 1.691022 2.533626 -0.372731 1.660691 -2.069798 -0.289610 
臺北 -0.597004 -1.111527 -1.096844 -0.198137 0.020185 0.687248 0.273680 0.066107 -0.217538 0.213281 
美國 -0.223196 -3.031682 -0.507582 -0.793650 2.803360 5.211152 -0.051392 1.226518 0.162477 0.256318 
英國 2.244620 -0.296779 -2.732553 -1.512314 1.771935 4.579701 0.998285 -1.196847 -0.270970 -0.288805 
歐洲 -0.444845 -0.071194 0.374707 -1.333091 3.411109 2.660290 0.659074 -0.574026 -0.635795 -2.318828 
法國 -0.198339 0.464649 -1.347535 0.276651 2.208614 4.980626 2.395391 -1.207204 2.269715 0.281752 
德國 -0.099924 -0.802220 -0.020909 2.854822 1.854282 3.760992 0.340368 2.169246 2.142471 -1.548708 
北京 0.213837 0.603805 -2.528432 0.894471 0.282761 1.849262 -1.526021 0.757260 0.528506 -1.163118 
義大利 -0.761586 -0.539282 -0.667766 -0.262810 1.746144 1.233897 1.045185 -0.363555 2.720121 -1.959471 
羅馬 -1.924100 -1.435033 -1.001455 -1.778450 4.833577 -0.866948 2.700980 -1.531899 2.519616 -1.753106 
蘇聯 -0.550468 -0.111076 1.454954 1.403100 5.520515 5.205906 -2.563104 3.717730 0.583016 -0.303157 
史 -0.496758 -1.750373 -1.611629 -0.538053 0.065360 0.294478 1.024423 0.011821 -1.047320 -0.471631 
俄國 3.136657 0.931639 -1.159792 3.013383 5.322809 4.502833 -1.942095 -0.053905 0.344102 -1.671745 
陳 -1.038334 -1.523091 -1.349769 -0.294290 -0.400540 0.070720 -0.360363 1.791571 -1.125218 0.069544 
基督教 2.001359 -1.031052 -1.412040 -2.711216 3.901942 -0.594071 -0.221954 -1.430856 0.295680 -0.163372 
南 0.624729 -1.569332 -0.761660 -0.537246 1.291942 -0.836967 0.835526 0.571286 -0.454250 -0.496055 
埃及 -0.196082 -0.215838 -0.110582 -5.491475 3.745319 -1.267780 3.752705 2.282867 -0.840292 -0.704707 
文明 0.298877 -1.485071 0.921795 -2.047530 1.780404 -0.751534 0.833095 1.507623 -0.247281 -1.863675 
中華民國 -1.718343 0.502403 -2.515715 0.539383 -0.928977 3.912095 -1.697907 2.797237 -3.218993 1.428852 
拿破崙 0.427612 5.756966 0.135464 -0.044267 2.624207 4.965644 6.504367 0.338213 0.757427 -0.010123 
荷蘭人 0.262701 -1.406446 -2.543471 0.059417 3.314192 0.601422 2.037931 1.479043 -5.271617 -2.418217 
袁世凱 -1.270443 3.579273 -3.582796 1.855076 -0.809220 3.878867 -1.548190 2.115193 -1.990441 -1.453114 
希臘 1.242024 -3.037852 -0.135377 -0.243693 3.762642 0.033452 2.105131 -0.184711 0.353531 -4.185143 
上海 0.831325 0.451959 -1.817515 2.054985 1.374370 0.999129 -3.664930 1.935367 -0.985884 -1.872879 
孫中山 -0.504395 2.212909 -4.968892 1.303149 1.033141 3.581339 -3.364196 2.205187 -3.971611 0.473902 
荷蘭 2.854016 0.748910 -2.243425 -0.582302 2.597765 2.632966 3.214947 0.437277 -3.433811 -0.426225 
印度 3.687429 1.070248 1.255953 -4.016178 2.810802 2.311694 -0.790017 1.382588 -1.656134 -2.123535 
王 -1.551166 2.149858 -1.669216 -0.848557 0.072736 -0.638771 2.958781 0.496343 0.272649 -1.624601 
南京 2.416180 0.648323 -2.174694 0.539214 1.381257 1.464731 -3.953453 3.141678 -0.782275 0.897528 
十九世紀 0.519398 -0.316302 -1.979796 -0.580709 3.218792 2.217533 3.370739 -1.093557 -0.231608 0.022930 
抗日 -3.666874 -2.326154 -5.121865 3.692356 3.556984 2.097835 -0.344242 1.997831 -1.207951 2.309182 
西班牙 2.151882 -1.075880 -1.318326 -2.853748 0.109027 3.556620 3.010895 -0.506809 -0.330693 -1.145561 
鴉片 5.728668 -4.163073 -5.406072 -1.242526 -0.516196 1.985269 -3.745067 1.185030 -0.568086 -4.087325 
美 0.237961 -1.590521 1.853550 1.411252 2.239571 2.948065 0.353721 1.775959 -0.381727 -0.721173 
佛教 -0.132925 3.286179 1.614270 0.477854 2.837419 0.902286 0.264600 1.760105 -1.577867 -5.474875 
殖民地 1.698666 -1.644072 -1.557478 -1.427097 3.157650 4.920847 3.008930 0.018314 -1.183001 0.775230 
和平 -0.241657 -0.572447 -0.020455 -0.784789 1.108915 2.832907 1.541815 0.687067 2.107907 0.904278 
毛澤東 -4.007459 -1.521382 -0.979244 0.729447 2.331864 0.543250 -1.795327 6.433255 3.065638 3.262234 
亞洲 1.098525 -0.705917 0.446729 -0.962817 2.574744 2.035267 0.179468 1.351096 -3.155309 0.257232 
德意志 -0.238480 -0.858988 -1.260732 1.351471 1.873851 4.492225 2.035102 -0.977434 5.193648 -2.595929 
中世紀 -0.609470 -1.220148 -0.172357 -1.708732 2.437148 2.868348 -0.704454 -1.403407 2.432007 -4.111446 
臺南 0.064616 -2.475069 -4.644518 -1.137936 2.116544 -0.972485 2.716913 1.079515 -4.393373 0.209358 
澎湖 3.337843 -0.076058 -2.689671 2.892560 1.392239 2.235725 2.639532 4.493494 -4.034871 0.277132 
西洋 1.391867 0.207398 -0.614255 -1.486423 0.331142 1.449611 1.090966 -0.287539 1.905833 0.501850 
德 0.675635 -1.186751 0.091080 1.637116 0.656597 2.961356 2.031618 1.991271 1.247323 -2.106987 
建國 -1.712201 0.588132 -0.099393 -0.078721 1.325191 0.979112 -1.335956 1.148208 3.076507 1.091960 
波斯 3.218977 -1.151370 1.281138 -1.456798 3.774336 -1.060983 0.631214 2.321981 -0.025916 -2.498520 
外國 2.843013 -0.455806 -1.483625 0.901703 0.843943 2.378474 -1.346294 -0.003010 -0.912445 -1.517509 
原住民族 -2.880091 -1.564525 -2.404366 -0.862147 -0.474681 0.489020 3.860112 5.155354 -4.567823 -2.591868 
李鴻章 1.250908 3.036671 -5.134679 5.025291 2.398198 3.067665 0.349130 0.959291 1.351897 -0.870023 
西域 3.794322 2.564790 -0.369618 -0.103879 -0.683407 -0.120430 -0.117214 4.545133 3.015525 -7.400412 
廣州 3.203087 0.601798 -4.163487 -0.642328 1.622880 -0.569728 -3.896772 1.192499 -3.197003 0.337555 
福建 4.073153 -0.381419 -3.031360 1.012351 1.118351 -1.699996 0.706626 4.242998 -2.271525 0.428656 
普魯士 -1.763509 1.072307 -2.812371 2.209648 3.721846 4.579379 3.174420 -1.428792 2.964259 -0.497629 
東北 1.742929 1.005341 -0.906019 0.933746 1.894757 4.220948 -2.514965 3.526238 2.121025 2.292067 
香港 1.563498 -3.059154 -2.242025 0.792404 2.057725 1.577137 -1.995730 2.794938 0.762947 1.901655 
第一次世界大戰 -1.332744 -3.683682 -0.794141 2.871826 3.393663 3.822222 1.134455 0.042988 0.394229 -1.734654 
唐 0.630864 1.076535 -1.123601 -2.149687 -1.246964 -1.003590 -1.254354 3.607295 1.266692 -0.658018 
藉由 -0.321695 0.076982 -0.312733 0.403555 1.607369 -1.021457 0.874000 -0.588996 -1.656304 -0.115707 
王朝 2.743069 1.270011 -1.558740 -2.274685 0.785230 -0.584112 1.447765 0.976580 0.800842 -0.041552 
太平天國 3.658749 3.179232 -3.769160 1.931823 2.380169 -0.926079 0.117342 0.618798 4.071784 -0.986611 
羅馬帝國 -1.869763 -0.923914 -0.389089 -1.823122 4.901413 -0.439231 0.253734 -0.362224 5.386838 -2.460271 
蒙古 1.026250 1.623220 1.890742 -1.098474 5.123403 -1.805116 -5.064276 3.252092 0.275904 -2.360950 
阿拉伯 2.332444 -0.743585 0.129669 -3.248873 4.841938 0.605947 0.386987 1.201499 0.064987 0.714932 
自強運動 2.145683 4.315670 -2.758245 3.431925 1.268380 0.728066 2.067552 1.541277 -0.245573 -0.348759 
拉丁美洲 0.007750 -1.750697 1.017384 -4.714183 3.755450 5.558605 4.215817 1.989108 0.845900 2.443975 
猶太人 0.326403 -1.386376 1.565674 -3.933095 5.869473 2.261918 1.499503 1.708280 1.156503 0.620474 
天津 3.706635 0.457691 -4.866872 -0.124593 1.158051 2.095622 -3.218393 0.545201 2.360046 -1.159560 
府 1.662409 -0.452786 -6.240852 -1.335976 0.173836 -1.794511 1.809162 1.221847 -0.995565 1.365247 
北 0.239180 1.392175 0.570221 -0.574234 0.498567 -0.579112 0.168626 1.803565 -1.331560 -2.182241 
共和 -1.125128 4.314013 -0.554188 0.490558 1.646917 0.129849 3.760697 -0.039000 -0.004687 -1.175469 
十七世紀 0.070173 0.333909 -1.728507 -0.976668 1.365614 2.126996 1.735954 -1.201935 -3.231960 -3.058005 
朝鮮 -0.014967 0.535136 -2.633799 2.514207 4.854062 3.293061 0.466144 -0.048429 -0.042080 1.484949 
奧 2.033562 1.294499 0.613990 1.302627 2.055758 2.479896 2.163682 0.265305 2.805105 -1.190518 
越南 -0.655827 3.076908 0.006257 -1.002321 3.951725 3.283997 -0.580319 1.114735 -2.112136 3.203988 
山東 0.866677 0.376851 -0.329939 2.415390 0.376772 1.715170 -1.188078 1.706633 0.287703 -2.323322 
西歐 -0.315060 -1.167270 -0.855779 -0.852091 4.314364 0.591822 0.160205 -0.852219 4.747340 -3.244654 
南北 -0.861237 2.523790 -2.294502 -1.139846 -0.842420 0.577487 -1.228050 1.550168 -3.172273 -0.854591 
土耳其 3.014002 -2.800787 0.795028 1.275534 5.527112 1.760555 1.250975 -0.388867 1.286158 -0.990118 
藉此 -1.386343 -1.300217 -0.328632 1.283431 1.105184 0.376771 0.039742 2.365735 -0.020670 -1.241324 
蔣中正 -0.293130 -3.125859 -3.890278 -1.177724 3.216764 3.586299 -5.694763 2.248673 -0.448508 3.262283 
史稱 -0.023974 3.513961 -0.388015 0.299695 -0.158019 0.311544 0.108714 1.809623 1.335703 -0.168378 
宋 -0.965047 3.710896 -0.755617 -3.700515 0.167761 -0.670960 -3.216904 2.789847 0.705300 0.466302 
雅典 2.996879 -4.032311 -1.135774 1.673375 3.634080 0.218511 2.010118 2.801920 0.145065 -7.143209 
美洲 2.222186 0.498953 1.391922 -6.349113 -0.492149 5.037541 1.698775 1.042711 -1.127534 -2.331682 
開港 3.784555 -2.722973 -5.144752 0.075430 1.597778 -1.012087 0.068137 -0.095206 -2.327464 -2.028901 
廣東 2.370228 -0.403665 -5.037745 0.498392 1.925806 -0.879642 -1.302330 1.844653 -2.400247 1.034806 
伊斯蘭 4.810457 -4.180789 -0.664643 -4.938594 4.923298 1.240440 -0.543707 2.869431 1.127006 1.270591 
十六世紀 1.895111 -1.626565 -0.753652 -1.413007 -0.321076 1.614405 1.491860 -0.144201 -2.375393 -2.637982 
李 0.011303 0.306915 -2.420973 -1.587724 -1.005674 0.942602 -1.463180 2.323226 -1.113402 2.859130 
鄭 3.012522 -0.721532 -2.336860 -1.111232 4.792560 -2.279480 2.677356 3.033023 -4.209573 0.982550 
非洲 2.625276 -0.612478 2.948734 -3.606656 2.969670 5.198183 1.807099 1.827963 -0.179293 -1.533111 
基隆 1.125665 -0.792437 -3.273043 1.831509 2.041575 -0.504019 2.867479 2.142818 -3.345782 0.784805 
百科 -1.315490 0.497739 -0.659351 -0.507908 0.444051 0.209095 0.340583 0.399359 -0.429389 -0.819567 
朝廷 1.877820 2.465264 -2.808768 -0.318195 0.062563 -0.688447 -0.067020 1.814826 -0.014105 -0.222773 
二二八事件 -3.368132 -5.323411 0.096163 -0.011232 4.680140 1.467188 2.417266 5.236601 -3.458334 1.452557 
十八世紀 -0.979309 0.519764 -3.100318 -2.008036 0.863072 2.818813 2.164660 -1.545069 -0.173215 -0.977692 
臺南市 -1.026650 -0.388955 -4.978832 -2.072993 3.197103 -3.278675 3.048846 1.510955 -3.612340 1.524697 
大戰 -0.084494 -2.115623 -1.298424 1.868768 0.656503 3.468811 -0.022378 0.085414 0.486583 -1.282853 
東南 4.140393 0.344539 -2.034101 1.064728 0.259575 0.029134 -0.706742 3.200234 -1.941263 -3.243495 
甲午戰爭 0.525942 2.332921 -4.274090 4.916683 2.142093 2.450224 1.038713 0.984757 0.092139 1.044508 
拜占庭帝國 0.916230 -0.592764 0.698886 -3.600442 4.153998 0.640249 0.071311 0.476208 4.152307 -1.885495 
東南亞 1.488586 -0.906291 1.139505 -1.700914 3.272942 2.081516 -0.549725 2.920214 -4.610994 -0.418588 
金 -2.105762 1.193025 -2.193214 -0.601399 1.421527 -3.612821 0.157597 1.109117 -2.117065 -1.033709 
葡萄牙 4.926619 0.802604 -0.023810 -4.153466 0.671850 4.894332 2.110278 1.377750 -0.632917 -1.119993 
渭水 -2.827430 -7.392452 -5.584801 -2.424331 4.198423 3.013329 -4.832388 -0.994054 -0.986699 -1.840359 
希特勒 -1.058039 0.542286 -0.072384 0.648265 1.883723 6.003758 -0.195892 2.451315 5.307060 -2.326409 
三國 -1.199038 0.553512 0.478245 2.170818 2.737899 4.776883 -1.426030 0.335291 0.724715 -4.427959 
巴黎 -3.400192 2.356116 -1.402124 0.346358 2.267726 4.226458 2.639318 0.398782 0.016792 -0.817498 
秦始皇 0.529000 3.249259 -2.020847 0.421753 -3.046021 -0.449001 2.801578 5.385060 4.063004 -2.587103 
日耳曼 0.705033 0.071209 -0.862634 -0.184962 3.296875 1.718569 1.611216 -0.619668 4.824190 -1.518271 
奧國 0.119434 2.074929 -0.515092 2.064938 3.249766 3.832453 3.721292 0.420353 4.079060 -1.365750 
奧地利 -0.237895 1.658598 -0.356711 1.202659 1.722290 4.280448 1.735167 -0.752026 4.101891 -1.547489 
國語 -2.063449 -7.415781 -3.513011 -1.217751 1.855320 0.357543 2.970818 1.299502 0.014691 -1.355551 
魏晉 -4.493233 2.583550 1.060744 1.577455 0.737777 2.272537 -0.623658 3.735654 -0.682750 -5.572771 
法國大革命 -1.680572 2.869370 -2.143836 -1.079361 3.406268 4.006780 3.383588 0.201147 -0.321489 2.166452 
二次大戰 -0.204475 -2.005941 1.053109 0.607480 0.545564 3.667691 -0.282372 2.784322 -1.106578 0.774691 
江南 0.571898 5.872643 -1.405216 0.876140 1.464181 0.222820 -3.529703 3.514208 -0.410617 -1.537496 
慈禧太后 3.626341 4.485240 -5.185934 4.173667 0.573600 2.511338 1.117712 1.878519 3.885505 -1.896466 
王權 0.613053 1.129660 -2.158923 -3.658640 1.876535 2.814148 1.792340 -1.684677 1.771329 -1.077688 
英法聯軍 5.048930 0.917077 -4.439092 1.103908 3.930412 2.473524 -0.165648 -0.257703 1.559712 0.126128 
咸豐 5.657874 0.220929 -4.916623 0.335552 4.193362 1.038351 -1.624828 0.507029 3.754536 0.509658 
第二次世界大戰 -0.470619 -1.615173 1.257108 1.909670 2.559516 4.598766 -0.024421 3.450827 -0.756802 -0.748634 
平埔族 -0.520216 -2.001792 -4.119164 -1.282135 0.072216 -0.733003 3.394359 3.601856 -3.703277 -2.713997 
曹操 -8.505218 0.873939 -5.368357 -0.189796 4.010303 -0.102990 -3.646211 0.687556 1.555099 -4.161771 
溥儀 1.353662 0.974846 -4.195647 0.591956 -2.846686 4.098189 -1.797826 3.513682 -0.467634 0.164620 
雍正 4.725175 1.726807 -5.374195 -1.946010 -0.043532 -3.145445 2.271556 2.339914 1.560012 -1.139527 
東西 -0.149662 0.302798 0.709765 -1.472170 1.443014 0.186869 -2.057982 0.174161 1.423952 -2.214088 
鴉片戰爭 4.751495 -1.100713 -3.444943 1.594907 1.325019 2.360684 -0.793026 0.140232 0.823430 -0.704359 
斯 1.569121 -0.524916 -2.280331 -1.900666 -0.208620 0.489936 2.212467 -0.652919 2.276266 -3.463949 
洛陽 -4.418034 3.942741 -1.422712 -0.319672 -0.561517 -0.973342 -2.212384 3.615995 -1.140320 -5.515782 
西亞 3.185626 0.784480 2.534595 -1.805819 3.278208 -0.112718 1.827570 3.252566 0.386960 -4.978207 
社會主義 -5.174290 3.310610 -1.604364 1.092010 6.059289 2.362260 -0.737890 1.258778 -0.214458 2.128255 
平原 0.835613 -2.627802 -2.120197 -1.328527 -2.493683 1.543037 3.194382 4.086147 -1.034248 -3.186490 
伊斯蘭教 3.604475 -0.976977 0.912694 -3.225660 3.962515 -0.853928 0.749819 1.088815 1.879166 -1.520426 
史實 -2.489034 -0.819225 -0.885663 1.294123 0.786233 0.474623 -0.167886 1.911663 0.578935 -1.167240 
長安 -1.111360 3.034296 0.080092 -1.958454 0.299806 -0.354846 -1.783024 2.295681 0.442541 -3.173356 
文藝復興 0.159081 -2.172028 -2.049588 -4.813971 1.079628 1.162064 0.812501 -1.284493 1.258595 -4.927702 
中華 -1.316155 0.538686 -2.338048 -0.101864 0.727953 0.970143 -2.617184 0.732649 -3.160785 -0.386885 
張學良 -1.142728 -3.706588 -6.059383 -1.006168 1.586375 1.748757 -2.849859 1.753682 3.828295 3.935596 
西班牙人 1.128339 0.437539 -2.352190 -2.824994 0.757672 1.761033 3.824567 0.383081 -4.833516 -2.356507 
劉銘傳 2.407836 -1.405985 -5.745306 2.778452 4.056609 -0.282595 0.975821 -0.104605 -0.773176 2.476973 
古巴 -0.738520 -4.428985 2.355733 -2.516766 0.810053 5.848244 3.061372 5.564248 2.240801 0.759827 
蔣介石 0.478041 0.893901 -2.254009 1.485951 2.741256 1.659781 -3.380866 3.992290 2.171324 2.618634 
聖經 -0.147900 -1.831817 -4.163956 -3.146305 4.456359 0.027557 -0.049406 -2.056486 0.511756 0.021887 
兩國 2.255588 1.230301 -1.915855 -0.442642 2.234579 2.647823 -1.104043 -0.072826 2.415534 0.884434 
諸侯 0.546551 1.866738 -1.621966 -3.166623 -0.580434 1.018296 4.405512 1.003990 5.368167 -0.613136 
鄧小平 -6.094778 1.929438 -3.653557 1.556646 3.780802 -0.421721 -1.427565 5.596102 -1.638939 4.199933 
新石器時代 0.765113 -2.096975 -0.924795 0.901310 0.002366 -1.694938 -1.835945 8.523685 0.143229 -1.934039 
興盛 2.410212 -1.426911 0.135090 -3.065547 0.376016 -0.825322 -0.505981 1.345045 -0.436140 -1.280961 
沈葆楨 3.644129 0.364328 -6.271502 2.747632 5.044643 -3.677597 1.058741 0.996399 -0.056397 -1.893506 
韓戰 -2.344287 -2.933716 -1.177758 -1.217671 4.235659 4.390526 -0.871277 2.946528 -1.019044 4.375167 
西征 1.287711 -0.020990 0.948019 -1.468129 4.499897 -2.569968 -4.314253 2.966832 -0.925913 -2.220057 
查理曼 0.877317 1.138876 -1.754039 -0.414674 3.793777 -0.340764 3.291607 -0.583173 5.461013 -0.665721 
中華人民共和國 -2.123461 -1.550675 -1.326998 -0.019615 1.523208 2.518137 -1.998317 3.814423 -0.833991 3.766715 
拜占庭 1.023359 -1.686137 -0.181223 -2.206897 4.672784 -1.433397 0.097576 0.896992 4.383005 -2.015134 
曾國藩 2.641663 5.776680 -3.397741 2.247733 1.393689 1.161619 -1.648802 1.590175 2.387696 0.030059 
天主教 0.310885 0.116855 -3.662238 -3.510610 1.606344 1.651737 1.175411 -2.105486 -0.436920 -1.048042 
吳 -0.874632 -0.964679 -0.994304 0.357224 -0.797467 -1.373871 1.838611 2.688458 0.912415 -0.618158 
周 -1.272470 -1.054096 -1.055595 -3.210383 -3.297685 0.142636 1.034424 4.101302 3.132326 -1.627121 
亞歷山大 0.849723 1.851704 1.297683 -1.812336 4.038528 -2.403993 1.475510 2.346888 0.176137 -7.517275 
波蘭 0.237401 0.429134 2.719647 -0.078067 2.831259 4.628181 -0.298348 0.857572 1.962463 -2.541615 
以色列 -2.560157 -1.771040 2.962432 -4.414724 6.041266 1.382182 0.909518 5.304247 0.284531 3.136982 
明白 -1.483358 -0.334919 0.150581 0.016337 3.410476 1.415970 1.375728 -0.022316 -1.835711 -0.679881 
臺灣省 -1.622862 -3.872809 -0.770581 0.321055 2.100857 1.623995 3.396697 6.750127 -4.463400 1.931592 
法典 -0.681409 4.949411 0.898536 -2.995539 4.281383 1.090930 4.261428 0.983602 1.376622 -0.362051 
太陽 -4.678201 0.046722 -4.191868 -5.051281 0.391174 -1.640781 2.941483 -0.024882 -1.175056 -3.691925 
安平 3.049110 0.256681 -5.201770 -0.461803 3.325301 -0.506240 1.314335 -0.290038 -2.916973 -0.999732 
家族 0.129218 0.406189 -0.236749 -0.439948 0.308890 -1.255160 1.838909 0.873424 1.049075 -2.919070 
魏 -5.055338 5.539540 -1.252225 0.562814 0.573272 -0.725795 1.819722 3.525169 1.036283 -2.581815 
英法 3.596499 -0.086867 -2.315919 -0.308259 4.097259 5.204033 -1.002950 -1.360828 3.078676 -0.344042 
城邦 2.450542 -2.144681 0.134344 -2.516093 1.160255 0.554781 1.486138 2.091053 -0.741715 -4.253215 
抗議 -1.700027 -2.143227 -2.110477 0.085963 2.641614 2.200411 -1.197097 0.680073 -1.774238 1.773530 
乾隆 3.526300 -0.218372 -5.499558 0.629580 -0.952329 -2.721703 3.645027 2.380765 0.726552 -2.318015 
明治維新 2.275929 1.533060 -2.322078 4.207007 2.852036 3.175357 3.862034 1.744215 0.191925 1.108804 
東亞 1.863839 1.866409 0.049898 0.380223 1.331430 3.273921 0.298484 2.721411 -4.225411 -1.094340 
福星 -3.094876 1.415063 -4.732557 5.118905 3.230649 0.368003 2.084318 3.088242 -3.781204 2.282532 
秦 0.735461 2.040260 -1.159518 -1.102600 -1.373389 -1.223444 1.047798 4.899392 3.220133 -1.441535 
地中海 2.515058 0.719470 1.833052 -1.510810 4.063461 2.379789 4.440372 0.723578 0.404465 -2.538688 
共和國 0.659588 1.644357 -0.297105 0.784304 2.058469 2.097715 -0.209435 0.577732 0.707600 -0.234646 
長城 1.754235 1.337880 -1.443153 0.679850 -2.498042 1.332214 -1.037446 5.114965 4.227271 -3.193741 
玉山 -1.038951 -3.211512 -2.865272 -0.890897 0.576689 -1.031893 0.107711 1.415579 -1.540982 -0.393616 
俄羅斯 1.803512 2.765593 1.150267 1.610493 5.730295 2.974668 -1.168699 0.460441 1.950267 -2.480741 
漢武帝 0.405890 2.518122 -2.890237 2.126567 -0.933846 -1.498957 1.103390 4.819230 3.706914 -4.281817 
啟蒙運動 -2.451731 -1.454353 -3.158473 -2.567559 2.689602 3.662063 1.199224 -2.065264 -0.997889 -3.162409 
資本主義 -2.461154 2.586682 -1.201707 1.067002 1.871366 2.641885 -0.242461 -0.129171 0.937722 0.792221 
北洋 1.686158 3.369318 -7.461432 2.182260 -0.843959 3.307195 1.168409 0.654477 1.406120 0.646750 
陳永華 0.761483 0.150224 -2.142673 -2.599581 5.719830 -4.808630 2.581281 3.563909 -2.788522 3.764870 
陸軍 0.066926 2.395290 -3.744404 1.349742 -0.670848 4.044355 -0.022583 -0.189146 0.491692 -1.024241 
林則徐 7.176299 -2.151832 -4.500839 -1.915913 -0.219294 -0.350164 -1.272297 2.027706 1.160127 -3.165667 
中文 0.923589 -1.015065 -2.963069 1.789488 0.858756 2.055712 -1.295184 1.469264 1.795486 1.234451 
美麗 -1.387836 -0.894116 0.672510 -1.520078 2.133353 1.019275 2.646204 1.046624 -1.563595 -1.085267 
西漢 -1.838969 3.218513 -1.274211 0.944779 -1.630074 1.057421 1.456885 4.261629 3.261446 -6.067683 
孔子 -1.256678 -0.837638 -3.961276 -3.794630 -1.425706 -2.431113 0.926238 0.906585 2.200683 -0.044823 
長濱 0.349715 -3.109790 -0.533728 2.437653 4.194698 -1.883125 0.881327 4.814888 -1.631063 -1.902060 
權威 -0.930178 0.427267 -1.844094 -1.223660 0.442938 0.997673 1.458640 -1.338524 1.216113 -0.234756 
祖先 -2.129341 -3.845267 -3.544614 -1.945635 -2.516424 -0.427016 1.558745 4.838933 2.094920 -1.843559 
秦國 -0.685192 3.316417 -2.202500 -1.261365 -1.464786 -0.443834 3.545454 7.546490 1.691568 2.769455 
農耕 0.237960 -2.261896 1.083445 -0.515967 0.078651 -1.041866 -0.201507 3.306433 -0.516879 -2.687376 
蔡元培 -1.350489 -0.499453 -3.124897 5.601598 3.986740 -2.199000 -4.029967 3.900318 2.765558 -3.057015 
羅斯福 -0.132893 -2.147756 0.115513 -0.466226 2.209380 6.737463 -1.593450 0.854144 0.330294 0.000578 
臺北市 -1.606493 -6.289412 -2.506807 -0.894316 2.740074 -0.475310 2.085361 4.197892 -1.315349 2.640656 
五四運動 -4.524333 -2.280977 -2.549531 3.689158 3.592217 3.847263 -2.986694 2.756969 -2.308392 -3.919008 
英國人 4.911113 0.251802 -3.295908 -2.901744 2.081794 5.225534 1.570180 -2.018567 -2.300034 -2.589012 
東歐 -1.218968 0.447283 1.366975 1.100764 6.359384 2.744241 -3.320138 1.431974 4.804767 -1.929302 
湖北 -2.285220 2.662703 -7.223194 -0.400063 3.003684 0.647837 -4.668029 -0.434642 -2.027890 -1.415226 
戊戌變法 1.074068 6.133431 -3.763910 4.090927 0.133862 1.402101 0.863741 2.351815 1.735937 -0.753003 
黃帝 -1.073084 -5.594085 -4.003627 -2.889068 -0.870121 -3.140342 -4.566033 6.707398 4.610570 -2.717976 
孔廟 0.304327 -2.776638 -2.817866 -4.677953 4.284307 -4.006408 2.922693 3.495388 -1.424315 4.564655 
牛頓 -2.531525 -1.052207 -2.723428 -2.901797 0.831396 4.106867 -1.535586 -2.974341 -2.282633 -4.924091 
宮 1.893058 0.605617 -3.022608 -0.173897 1.766166 -0.692661 4.606606 0.319402 0.931572 0.155449 
南洋 2.102239 -2.104640 -1.877378 1.057866 -0.495819 2.231627 -0.272799 3.812224 -1.680190 0.273143 
紅衛兵 -3.358093 -2.907994 -1.107504 1.567592 2.918697 -2.555624 -0.893137 5.555027 5.285522 2.266436 
北韓 -2.478473 -1.729181 -1.202865 -1.253234 6.435944 3.564293 -1.109562 0.369477 -0.529455 4.642323 
泉州 4.190078 -0.656297 -1.776235 -1.107414 2.603537 -3.139726 0.521958 4.548366 -0.888862 0.634704 
段祺瑞 -0.545178 2.306396 -7.454630 0.626376 -3.020936 1.139306 -1.695063 1.724116 -1.154334 -1.829641 
卑南文化 -0.826531 2.623654 -0.471077 3.472194 0.487547 0.213109 -2.232067 6.237707 -0.170833 -2.607863 
嘉慶 3.973480 -1.011876 -6.284160 -0.420877 -1.875790 0.772340 4.823123 3.038286 -1.073147 -1.512965 
袁 -1.011104 3.494922 -4.850219 0.116921 -0.482141 2.479248 -1.628125 4.159701 -2.904128 0.050638 
廈門 3.183806 0.259538 -2.900166 1.256133 4.305837 -1.370357 -0.200257 2.267094 -1.543395 1.143970 
抗戰 0.308128 -2.253910 -3.110931 2.078462 2.183398 4.316372 -4.000507 3.731624 0.466742 2.975890 
耶穌會 1.986573 1.256980 -3.580300 -3.877498 1.195518 0.136772 0.215668 -1.979347 -0.502372 -1.547044 
二十世紀 -0.643003 -2.974054 0.814428 -1.197032 1.990755 2.874341 0.558132 -0.214399 -0.803822 -0.028095 
岳飛 -0.735867 7.879476 -3.211572 -1.651760 5.914757 -2.128492 -2.940619 2.210028 1.221798 -0.635797 
胡人 -1.360022 2.093589 -0.309281 -4.400431 -0.728158 1.592211 -4.396548 1.413967 0.975616 -6.971945 
四川 -1.635018 0.705253 -4.165502 -1.173025 3.191700 -1.661692 -5.368295 0.301965 -2.042925 -0.555597 
澈底 -0.919482 -0.542621 -0.267145 -0.770297 1.185479 1.312065 -0.209351 0.028844 0.055600 1.480783 
東華 1.756443 -0.713170 -4.231734 0.683852 -1.676837 3.118448 -2.464335 3.379489 0.039262 1.766855 
維也納會議 0.299445 0.859823 -0.889810 0.672138 4.177799 4.966825 4.637428 0.805573 2.016000 -1.357040 
長達 0.218496 -0.588753 -1.626782 -0.581238 0.353850 0.265250 -0.110456 -0.181248 -0.646674 -0.687279 
噶瑪蘭 -0.473914 -1.040014 -6.265230 -0.566399 -5.149734 1.885707 2.551426 3.384206 -2.895674 -4.079274 
英雄 -2.548277 -1.956272 -0.285426 -1.210669 1.778567 0.081444 2.199113 0.474969 2.237828 -1.315309 
柏林 0.062458 -1.466104 2.352787 1.109125 3.231719 4.525528 0.948515 2.433031 2.292133 -1.383238 
經濟大恐慌 -1.493396 -1.038194 -0.889357 0.334999 1.008609 4.803874 0.604241 1.298178 0.719837 -0.509819 
日月潭 -5.547141 -0.172540 -2.121775 -0.002311 -1.197488 6.977709 1.153730 5.101336 -3.158787 0.858459 
藉口 1.582787 0.980266 -1.541246 1.296381 1.685432 2.847194 -0.754104 0.047747 -0.793775 0.074552 
薩 -0.779575 1.077298 -1.112540 0.077603 2.038655 0.618207 1.846497 0.516100 4.473506 0.587013 
鹿港 -1.162728 -3.335799 -5.536959 -0.383820 2.249585 -2.965333 3.343709 3.096345 1.154837 1.304328 
新竹 1.106166 -4.750931 -3.700909 -0.759760 1.288877 0.378968 0.695307 2.829705 -3.548608 -0.433473 
查士丁尼 -1.022655 0.153505 1.208448 -7.316620 2.419274 2.708778 0.329167 2.386561 7.050565 0.143378 
巴比倫 0.275574 1.748441 3.332658 -1.171880 4.732457 -0.292569 2.285546 5.895104 -1.137593 -1.456844 
歐 0.125945 -0.920778 1.485685 -0.552553 3.819916 0.298397 1.740860 1.145640 0.025266 -2.340796 
新文化運動 -3.098568 -0.332546 -4.988080 4.938912 1.332487 1.428040 -2.729131 3.688036 -1.514202 -3.956553 
張騫 2.221132 2.790371 -1.874345 1.573634 -0.535357 1.387115 0.646241 2.898829 2.604932 -6.020985 
宗教改革 -0.611414 1.299081 -4.001973 -6.699183 2.549852 1.683619 1.297864 -2.824766 0.661219 -1.146201 
斯巴達 4.068534 -3.271280 -2.041557 1.125830 3.558416 -0.425202 2.907167 1.522991 -0.510855 -6.446821 
盛世 1.991160 2.318420 -1.115051 -2.059925 -1.228597 -0.538304 -0.518595 3.297947 1.384437 -1.621161 
君士坦丁堡 -0.381150 -3.030946 -1.091023 -2.259542 4.656448 -0.351709 -1.625211 -0.280012 4.212875 -1.416905 
文教 0.448024 0.492690 -0.950430 -0.640662 1.026773 -0.665216 -0.131163 3.540301 -2.542676 2.190862 
海洋 1.134474 -0.624230 -0.633901 -1.467858 0.376886 0.688744 1.520681 3.404951 -2.960462 0.097987 
東京 -1.055269 -0.264644 -3.562070 0.755098 3.126008 2.568836 -2.000816 0.333337 -4.578850 0.674671 
文化大革命 -3.584957 -1.820053 -1.047305 0.565007 1.091770 0.839834 -0.219583 5.568905 2.940399 2.914960 
金字塔 -0.358972 0.772300 -1.662073 -8.738325 1.564706 -0.252304 5.547363 2.731741 -1.861577 0.079527 
長江 2.062069 1.327873 -2.441833 1.638402 0.938155 0.624308 -3.543699 1.293372 1.049355 -0.739814 
宣言 -0.168561 -0.634610 -0.529713 0.086770 3.097597 5.362659 1.398105 0.712493 0.291536 3.229399 
尼羅河 0.103359 0.466917 -1.176085 -7.301432 2.645245 -0.576578 4.532421 2.572329 -1.209927 -0.181723 
伽利略 -2.214203 3.378255 -5.633397 -4.795847 0.286433 -1.097439 -0.000588 -1.695904 -0.711751 -4.233577 
連 -1.616451 -2.270004 -0.599586 -1.364736 -0.264185 2.041189 0.412001 2.082838 -0.157453 1.284529 
東德 -4.993233 -1.419489 2.001093 2.575823 5.883321 2.535097 1.763299 4.498296 3.621093 -2.950125 
南島 1.853705 -2.709864 -0.438388 -4.400599 -1.304035 0.405387 0.106940 7.663416 -5.601328 -2.230417 
封鎖 0.674485 -1.098665 0.619777 0.354175 2.231778 2.365841 1.229900 2.246902 -0.166814 0.648816 
府城 -1.049368 -0.763545 -6.637137 -1.075356 1.581573 -3.326352 2.985998 0.192975 -1.347905 -0.936930 
道教 -1.586938 2.544308 -1.008675 1.376942 1.660661 -1.787300 -0.508220 1.521360 -0.116321 -6.300631 
武漢 0.170975 0.640013 -1.676734 0.328502 1.488947 2.411833 -5.537344 3.367989 -0.676534 -0.389820 
新石器 -2.047727 -2.843133 -1.078557 1.040399 -0.139914 -0.070945 -1.784921 6.674538 -1.893222 -1.296149 
路易十四 -3.558775 1.871641 -4.547068 -0.400965 0.438391 4.133932 4.436973 -2.367922 -0.090834 -2.716314 
舊石器時代 -0.816389 -3.091724 -0.753931 2.205240 0.167819 -1.689936 -0.503094 8.193221 -0.118220 -1.798089 
太祖 2.658573 3.757880 -0.425369 -6.543196 -2.274473 1.549354 -1.019390 4.726619 4.903036 1.276655 
丁尼亞 -0.807109 3.585130 -2.407420 0.074699 2.305686 0.900737 2.946003 0.825165 5.914666 0.223188 
牡丹 -0.244070 -0.551369 -3.214523 2.683562 3.565590 -1.683374 1.323955 0.496943 -1.043222 -1.409536 
匈 2.672868 1.402537 0.291967 1.395399 2.938891 1.623733 0.948531 1.281786 4.040888 -2.547401 
穆斯林 5.449457 -1.138008 0.750329 -4.763414 4.224231 0.628784 -0.244153 2.148299 2.650909 0.524691 
科學革命 -2.474711 0.521422 -3.315366 -2.128458 1.110423 2.468924 -0.884014 -1.671262 -1.395834 -4.330513 
西安事變 -0.537043 -1.277631 -4.079504 2.331085 2.182928 1.633137 -4.222991 3.345329 2.366105 2.051468 
白銀 4.912062 0.928433 -2.186310 -2.144014 -0.818757 3.677022 -2.224870 1.949476 -2.778649 -3.192461 
耶穌 -0.684543 -0.900138 -4.118868 -5.368845 5.298338 -1.922321 -0.012553 -0.872019 2.353602 -1.033671 
布 0.143461 -0.020251 -2.046021 0.457092 -0.195792 1.350881 1.261365 0.745589 -1.528406 -0.007125 
朝貢 3.865521 2.547295 -1.428988 -0.955073 -0.475533 1.472163 -0.503764 2.304239 -1.192871 -3.013200 
史前文化 0.587092 -2.711303 -1.221483 0.566815 -0.124530 -0.766093 -0.651124 5.437979 -1.105388 -1.086166 
陳獨秀 -3.017690 -0.813626 -3.953965 5.313089 2.535572 -0.638355 -0.831669 0.640826 0.541954 -4.425214 
曹錕 -0.133247 0.725553 -6.292936 0.330241 -1.843914 0.554349 -2.037974 1.114646 0.018437 -1.796633 
武則天 -1.253640 2.513063 -0.124015 -1.995698 -0.669514 0.705386 -1.285421 2.410838 0.628307 -1.403707 
滿清 1.215710 1.950241 -4.295263 0.350739 0.655618 1.188110 -0.585549 0.630767 -2.130071 0.405871 
大國 3.231193 0.131586 -0.754656 0.923845 -0.053418 3.683603 -0.326213 2.716586 3.184443 -0.258322 
南韓 -1.411744 -1.635006 -2.352609 -2.191287 6.111779 2.833177 -1.658869 0.771865 -0.619534 5.320871 
楚 -0.826036 -0.658948 0.591959 -2.712736 -2.091875 4.277741 4.048445 6.224803 2.438888 0.741171 
加里 -0.676859 1.872419 -2.002276 0.350294 1.821120 0.904503 2.272035 0.434785 4.534404 0.414726 
日語 -0.815283 -7.675518 -5.838786 -0.250783 1.892027 3.275111 2.729641 0.456095 0.518690 -0.816469 
伊斯蘭世界 3.457461 -2.421763 1.307467 -2.036473 5.036518 -0.573423 -1.252130 1.850831 0.726627 -0.862891 
史達林 0.317659 0.510185 0.344206 1.042831 4.059986 5.218520 -3.981999 2.631304 1.404020 -0.414499 
西夏 -3.328892 1.763815 0.324145 -4.974993 1.334660 -0.818962 -4.297745 4.266112 1.799906 0.112920 
希臘人 0.268011 -3.242355 0.507071 -0.234588 5.013433 0.138356 4.798459 1.123858 1.912084 -5.081158 
桃園 -1.306327 -3.839177 -2.973398 0.053892 0.827493 1.036998 1.395416 1.895011 -2.063922 0.218451 
對外貿易 3.787404 -1.802103 -1.618472 -1.857218 1.926554 -0.177809 -0.123151 2.401846 -3.833410 -1.172358 
施政 -1.729934 0.144549 -1.173227 -0.192760 0.167332 -0.163850 1.456197 0.678339 0.162203 0.539013 
王安石 -2.676124 3.433191 -7.232320 -2.569538 1.912056 -0.363835 -0.833080 1.320998 4.713272 5.570009 
魯迅 -2.633470 0.448813 -4.695923 5.561164 2.616849 -2.112817 0.185580 2.298535 -0.789977 -6.478497 
廣西 1.222728 0.306403 -4.465730 0.899620 0.307666 0.738209 -1.204886 2.389069 1.151313 4.435237 
莊園 -2.220755 1.247426 -1.917238 -0.042671 1.626580 2.866377 1.065416 -1.302550 4.067247 -3.621865 
光緒皇帝 1.768788 5.105095 -4.224966 2.772214 0.243504 1.352081 0.654964 2.345891 3.069125 -2.426198 
夏 -1.429903 -0.160736 -0.456100 -4.845127 -2.901003 0.392267 -2.658778 6.074570 0.945684 -1.186201 
邦聯 -1.363714 0.103102 -3.548249 1.687356 1.321970 4.775338 3.375404 0.845597 4.799066 -0.179607 
高達 1.670983 -2.409716 -1.800947 -0.301116 0.937861 1.242166 -1.144929 0.433071 0.566417 0.244373 
鄂圖曼土耳其 3.788877 -2.327320 0.740351 0.590379 5.511051 2.088236 1.659717 2.298871 2.419413 -0.913911 
巴爾幹半島 3.143848 -1.817869 0.651358 0.509212 6.581896 2.180239 3.783597 1.576478 1.949899 -0.260526 
山區 0.548602 -1.797295 -0.890039 0.247378 0.099110 0.631220 1.240146 3.087263 -1.937722 -1.014176 
吳佩孚 -1.244693 0.187288 -8.995786 0.071630 -1.990972 3.750462 -2.527491 -0.752965 5.953141 -2.314379 
金屬器時代 -2.125963 -3.444998 -0.186857 2.033299 0.411428 0.675074 -0.990799 6.209341 -3.290410 -0.789769 
梁 -1.159559 5.190985 -2.350480 2.003141 -1.069126 1.019345 0.149907 2.392153 -0.824536 -1.702369 
福州 3.894207 -1.211916 -5.072914 0.550141 3.023841 -1.831316 -0.093426 1.349743 -0.508848 0.546139 
馬關條約 0.151444 0.116914 -5.479321 5.548576 2.298423 1.783516 0.811293 1.951099 -0.284808 -0.259887 
共產主義 -3.730358 1.024823 -0.502422 1.305488 3.875596 2.964677 -1.375274 1.611395 0.778212 0.745086 
太平洋 2.600094 -0.478557 0.741105 -1.006118 -0.019187 5.143229 -0.673021 4.435798 -2.905053 0.583729 
普及 -0.543014 -0.416695 -1.265293 0.020894 -0.164569 -0.696670 -0.014497 -0.766900 0.433493 -0.238697 
道德 -2.220666 -2.351311 -2.703152 -3.046591 0.248747 1.568539 0.681481 -1.668087 1.352774 -2.364225 
洪秀全 2.530216 1.920763 -4.207234 -0.524367 3.168187 -0.913431 -1.789014 -0.888119 3.031694 -0.874293 
培根 -0.970384 3.201729 -4.791149 -2.364833 1.626767 3.465872 -1.754314 -1.549407 -1.575916 -3.282334 
秦漢 0.260471 1.064363 -0.870910 -0.493169 -1.190961 -0.341510 -0.307001 2.275062 1.584103 -3.414803 
天安門 -5.796811 -0.675150 -3.310917 1.931207 2.587468 2.182067 -3.099972 2.442852 -2.061341 1.155617 
中法戰爭 1.126701 0.508549 -4.948346 3.064731 1.604923 -0.594954 0.271402 0.713317 0.956850 1.372129 
古希臘 -0.046336 -1.721345 -0.201156 -1.758185 4.118161 0.327823 -0.475119 -0.424691 0.992588 -4.869592 
高宗 1.359295 6.503567 -3.398830 -1.058274 2.836186 -3.190344 -0.655782 1.048545 0.491233 -1.603217 
古典 -0.979629 -1.592226 -0.493905 -2.459793 3.048656 -0.007983 -0.135911 -1.251636 1.218139 -3.430443 
滿洲國 1.395876 -1.484593 -3.132619 0.946303 -1.419460 4.974221 -1.759136 4.822567 1.621918 0.413087 
澳門 5.877758 -0.030233 -2.500172 -1.950632 0.968502 2.060947 0.176972 3.336326 -3.599166 -0.368450 
浙江 3.086366 1.881737 -2.439625 0.806982 1.709722 -1.958309 -2.488119 3.747816 -0.961692 -0.677006 
特洛伊 -0.422493 -3.388950 -1.146473 0.618424 3.455367 0.558171 6.131235 0.075016 -0.110635 -6.420173 
辛亥革命 1.067366 1.919556 -4.490975 2.230506 0.685127 0.295265 -2.980767 1.835580 -2.313916 -2.329964 
苗栗 -4.215841 -0.017083 -5.735192 2.898015 1.931508 -0.673005 3.137987 1.788895 -4.036447 0.996614 
亨利八世 -0.853577 2.519338 -5.573789 -2.277927 4.772071 0.176409 0.839953 -4.463303 2.388576 -1.402845 
隋 -0.171272 1.657396 1.149582 -2.991993 -0.631857 0.367017 -1.587528 4.133288 0.928414 -2.242404 
納粹 -0.879172 -1.029499 1.985572 0.851692 3.245139 4.345579 -0.525797 1.409083 2.698863 -1.652197 
木乃伊 -0.886479 1.062754 -0.501074 -7.226224 2.514585 -0.629728 2.960602 1.351414 -1.348167 0.525073 
新教 0.017053 1.205526 -4.204029 -4.128234 2.071688 0.746068 1.557121 -2.757950 -0.030387 -0.391705 
新平 0.157455 -4.804024 -3.822914 1.214307 3.461094 0.911501 -1.304505 0.590604 -1.143616 -2.895888 
君王 -3.285113 4.127092 -1.772984 -1.809378 0.914704 1.569682 3.049293 -1.365625 2.881556 -2.560573 
加富爾 -1.573321 2.074842 -3.134771 2.207184 1.656096 0.715271 1.487816 0.431232 4.808799 -0.402374 
韓國 -1.234215 0.946207 0.070973 -1.043228 1.337556 3.147163 0.570569 2.321193 -1.367180 2.537956 
古埃及 -1.936308 -0.711899 -0.597562 -6.055439 2.133903 -1.747892 2.694530 1.273240 -0.939443 -1.435341 
抗爭 -1.881612 -2.234795 -3.282527 0.314327 2.783643 -0.373668 -0.078170 -0.021075 -1.142016 2.591953 
張作霖 0.229903 0.754034 -5.744522 0.853381 0.884355 2.172787 -5.376890 2.537809 4.120646 1.700182 
歐洲各國 0.923309 -0.128176 -0.633871 -1.326770 1.827392 2.994572 2.988940 -0.833031 -0.836895 -0.838536 
伏爾泰 -4.426669 0.486316 -3.333382 -0.743864 2.598802 3.996118 1.561881 -3.439085 0.449868 -2.439902 
巴勒斯坦 1.502091 -0.557372 0.999183 -3.496294 6.638485 1.988123 1.062975 3.630995 0.053142 3.270248 
李白 -1.007682 3.538476 -1.900789 -4.966856 0.401470 2.358236 -4.753479 0.184276 0.727696 -4.178319 
祖 0.747211 -3.181240 -4.853018 -1.308091 -2.332347 -1.789092 2.409781 5.128531 2.670905 0.792500 
中原 -1.329620 2.062725 -0.644049 -2.419111 -1.257871 -0.501354 -2.422921 1.835520 0.520978 -2.883625 
黎元洪 0.692868 1.032450 -8.041553 -1.337664 -2.962739 1.227148 -2.400345 0.914981 0.333100 -4.630002 
宜蘭 -1.198942 -1.932005 -4.565275 0.742746 -0.357487 0.685472 2.575835 1.969180 -4.068826 -2.060922 
佛羅倫 -0.453962 -2.110986 -3.081982 -1.294511 0.199509 0.418625 0.545470 -0.315128 5.236446 -6.724820 
凡爾賽 -2.702883 -0.709535 0.242753 2.897062 2.231198 5.848771 2.853170 2.907069 1.647665 -0.938675 
封建制度 -2.485149 -0.979062 -0.872034 -2.810995 -0.562275 0.836879 1.598421 1.287303 7.127158 -2.374069 
胡適 -3.890139 -1.757330 -2.649517 5.205455 2.705924 -0.321994 -0.454784 3.683465 -0.153980 -2.263263 
六國 -1.085314 2.567007 -0.429859 0.047575 -1.105165 0.955006 2.503702 5.756364 1.423470 -0.095069 
國際貿易 1.006912 -0.145916 -0.324344 -2.533453 1.688411 1.680050 -0.362609 0.003769 -4.107693 -0.814220 
鹿 1.052903 -1.550476 -3.946049 0.126142 -1.415675 -1.528011 2.938668 4.325569 -2.105504 1.759850 
大躍進 -6.881825 -2.347424 -0.811636 -1.687371 0.752661 5.522407 -1.931775 5.667496 1.078068 2.039963 
神聖羅馬帝國 0.410805 0.757129 -2.247662 -0.006137 2.744635 1.177394 3.305670 -1.079218 4.544662 -2.237906 
達悟族 -5.415309 1.800320 -1.285997 -4.082588 -1.180276 0.671328 2.876488 7.344412 -3.666083 -0.633307 
中亞 2.474834 1.553684 1.865221 -1.206371 3.102568 0.571419 -2.871251 2.480445 0.917985 -5.246074 
契丹 -4.412533 1.835175 -4.355842 -7.342226 -2.520231 1.972582 -1.838599 1.525063 0.986767 1.059937 
嘉南大圳 -3.625747 -4.967147 -1.821580 -0.035148 -1.426317 4.324043 0.794682 4.929745 -1.094309 -1.844792 
劉邦 -2.611797 0.202027 -1.638927 -0.136385 -2.357451 3.205866 1.763857 3.836580 4.550409 -3.382915 
庚子 1.944798 4.951835 -3.454417 3.458477 -0.557513 3.055734 0.089536 2.028034 0.279217 -1.715489 
爾 1.044102 -1.120333 2.191131 -3.167578 1.166106 1.799003 0.122658 1.459883 -0.311533 -1.033012 
天皇 -1.501512 1.470565 0.532522 5.087757 2.321232 1.359844 4.373278 3.209426 -0.717720 -1.561722 
圓山 0.319837 -1.619102 -2.648571 2.992892 -0.710848 -0.498730 0.872636 9.598473 -1.318250 -2.900863 
印第安人 -1.494032 1.251913 -0.836037 -6.162202 0.580642 4.485593 4.449089 2.010530 -0.741836 0.699959 
京 0.239953 -0.488496 -1.564402 -2.569221 -0.893407 -0.183748 0.422054 1.067747 -0.176418 -1.183896 
八股文 1.096234 5.300797 -0.557862 2.218558 1.338679 1.870896 -1.503111 2.952927 2.324743 -1.190284 
哥白尼 -1.619009 1.796673 -2.866611 -2.924825 1.938705 0.315499 0.354007 -1.995092 -1.123438 -6.549999 
兩河 0.673325 1.584078 2.865702 -3.111998 3.620305 -1.971524 2.872155 5.576138 -1.898814 -3.665568 
趙匡胤 -5.077981 2.123081 2.023410 -6.667861 2.589217 1.843913 -1.384691 6.484471 1.213131 3.675734 
基督徒 2.203742 -1.067665 -1.858934 -3.236614 5.853762 0.484834 -0.339860 -0.561763 2.787956 1.256240 
宗 1.331879 2.295254 -1.671829 -0.590555 0.140798 -0.743097 -1.068461 0.352745 0.081041 -2.433996 
菲律賓 1.879437 0.681192 -0.051831 -1.343284 1.786123 2.904480 1.959623 3.401328 -4.271814 -0.905474 
彰化縣 -0.654172 -2.342181 -6.581734 1.048992 0.006567 -2.796608 2.694100 2.213140 1.634243 -0.875180 
高麗 0.468376 4.369039 1.616168 -2.043539 1.996221 1.307219 -2.117978 3.024603 -0.327149 -1.691380 
華 2.089798 0.337566 -3.039476 1.595019 0.398112 5.602654 -1.159174 1.195140 -0.255526 -1.958588 
德軍 0.145901 1.005037 -1.122300 2.653211 1.387915 8.139204 0.824576 2.452427 2.463185 -0.350708 
馬雅 -1.573600 -2.946094 -0.507681 -8.722141 -0.708207 2.858490 2.278040 3.850071 -1.737229 -2.488204 
湖南 -1.089901 0.544922 -4.394313 1.019323 3.531844 -1.918274 -4.718060 2.508538 -1.406855 0.273197 
辛丑和約 2.375603 0.759535 -4.229712 3.874169 1.358071 4.242271 -0.092159 1.472037 1.146842 -3.501606 
法西斯 -2.350929 -1.135872 -0.044825 0.989099 2.853741 2.893167 0.910325 0.691662 3.524495 -0.547225 
印象派 -4.924273 -0.382963 -1.891837 0.050636 4.117637 0.863068 4.532111 0.167247 -1.101512 0.393350 
黑死病 -1.469010 -4.336359 0.060776 -5.176844 3.557052 3.772709 -3.147917 0.216396 1.539986 -3.772866 
王莽 -3.698349 2.434567 -2.069439 0.921721 -1.366814 1.012790 1.375090 2.304573 2.402470 -3.545576 
君士坦丁 -1.871436 -2.509868 -0.786041 -1.224550 6.774722 -2.939943 0.056993 -0.757478 4.489906 -1.046152 
拉丁文 -0.727594 -0.627046 -1.863763 -3.302437 2.015507 -0.604707 2.086493 -1.594966 3.100075 -2.821097 
林爽文 -1.487021 -3.980657 -4.939771 1.694857 0.419421 -2.191225 4.267854 3.353974 2.413219 -1.709479 
古文明 -0.920758 -0.852431 2.385443 -3.505244 1.608948 -0.236916 1.951628 2.927479 -2.625459 -2.763516 
呂不韋 1.072300 4.546329 -2.425102 -0.716294 0.133675 -1.553189 2.205011 7.410506 2.407102 3.527436 
政治社會運動 -2.596147 -6.780438 -4.717680 -1.419293 1.456248 2.919469 -2.994976 0.166587 -0.947053 -1.013579 
班超 2.729061 3.607176 -3.524231 3.325297 -0.552628 0.571982 0.772940 2.189859 2.152199 -7.191014 
關聯 -1.460696 -1.218536 -1.438456 0.881165 2.168697 -0.067509 -1.920612 0.683942 -2.901378 -1.387124 
倫敦 -0.125255 -0.776757 -3.857137 -1.281105 0.103828 4.606356 0.711374 -0.498951 1.203754 -0.733702 
邱吉爾 -1.108699 0.383929 -1.112400 0.195411 1.622639 8.802102 -2.005463 1.540915 1.726053 -2.473087 
西化 -2.021909 -0.314612 -4.548821 3.336808 0.756151 4.588979 -0.742553 -0.987952 -1.692554 -3.976397 
法蘭克 -0.367377 1.388330 -2.143167 -0.958771 3.788986 -0.221602 1.368831 -0.101617 6.409145 -0.530669 
巴 0.644934 -1.126314 0.541148 -1.094791 1.816837 1.141583 2.346707 2.635422 -3.749664 0.756424 
晉 -3.227998 5.261056 -1.536663 1.503686 0.624469 -0.971767 -0.640917 2.426144 -0.765608 -5.548393 
國教 -1.526791 -0.879014 -1.371954 -1.491018 4.255183 -0.280218 0.569912 -2.298781 -0.488817 -1.082385 
士大夫 2.428187 2.752816 -2.852844 -2.733593 -0.017912 -2.435976 -2.178633 1.362171 2.587531 1.078937 
河南 -1.067440 1.932451 -0.937297 -2.383818 -1.675887 -0.747757 -4.029837 4.424043 3.229178 -1.626461 
毛 -4.026602 0.237282 -0.196082 0.617428 1.221897 2.351683 0.676546 5.223987 3.438961 2.301894 
馬克 -1.732884 -0.997878 -0.227283 0.380600 3.000030 1.728056 1.048424 0.112499 0.912559 -1.888414 
福 0.000434 -0.558274 -2.743481 -2.324813 -0.914771 0.165864 -2.207689 3.264787 -0.253867 2.204188 
漢口 2.215899 0.738863 -4.565420 0.763450 2.345602 1.606246 -3.512363 0.566813 0.690629 -0.211388 
馬歇爾 -0.715939 -1.685026 0.508623 -1.697309 3.808400 3.974368 -2.406812 2.291941 0.839530 1.474782 
百科全書 -2.345617 -0.744361 -1.942167 -2.522067 2.754676 2.193749 -0.858511 -1.142785 -1.738848 -1.212100 
改革開放 -5.582501 -0.695523 -3.364935 2.235125 2.953887 -1.246887 -2.288085 6.185978 0.189943 2.511344 
英格蘭 2.450638 1.225293 -3.809017 -3.853723 0.960891 3.900902 0.643163 -2.086925 3.425061 -2.790478 
西北 0.838413 1.797379 -0.930525 0.261116 1.728443 0.335040 -2.902959 0.874101 3.042313 -0.979635 
朝 -1.584310 0.331302 -2.525611 -2.047683 -0.343903 -1.621981 -1.168493 1.036842 -1.312745 0.843570 
臺灣海峽 1.517359 -1.983047 -1.961968 1.584099 1.990469 0.423111 0.746611 4.187202 -1.802931 1.704456 
治安 -1.396562 0.807842 -2.804751 1.672864 0.537236 0.849428 1.412912 -0.081501 -1.666383 0.669923 
北美 1.090299 -2.077950 -3.131523 -3.392397 1.455393 5.148479 2.099325 1.325196 -1.118826 1.488123 
城堡 0.854456 2.973572 -2.100881 -0.057468 2.403501 0.563074 3.062960 -1.069316 -2.123831 -1.540175 
光榮革命 3.197114 2.607518 -5.755265 -3.345681 1.117440 3.153835 3.707230 -2.245117 -2.250018 -0.255481 
盧梭 -4.922234 -0.023583 -2.130421 -3.209482 2.511865 6.295373 2.298884 -1.098148 -0.387936 -1.413961 
凡爾賽宮 -3.392833 1.107618 -3.738560 0.177473 -1.085912 3.561810 4.248369 -0.188113 2.242510 -2.232101 
都市 -2.769799 -1.885111 -1.776557 -3.178910 1.117827 0.610871 0.129563 1.752788 -2.813875 1.023398 
朱 1.298055 -0.360757 -3.426993 2.076650 -0.491458 -0.633790 0.816817 1.835276 0.479646 1.412285 
宮殿 -3.239300 0.587515 -0.822661 -5.208751 -2.544913 0.319525 1.722354 2.277238 2.400611 -1.946539 
漢化 -1.749326 1.726601 -2.128291 -0.975268 -1.370181 -1.826033 -1.330153 2.962402 -3.587399 -5.411764 
比利時 1.070048 0.760605 -0.735723 0.827822 1.457747 7.615491 2.660802 0.530461 1.790361 -1.867081 
國聯 3.610730 -5.283547 0.257891 1.785066 2.120737 4.287354 0.585318 4.031839 4.339390 -1.709112 
阿育王 0.995977 5.843459 0.760990 -1.840784 5.754574 1.835912 0.544978 1.240275 -4.503419 -5.205511 
英王 2.526055 0.731049 -4.449570 -4.018871 2.875889 3.339310 0.758067 -3.301505 1.543575 -1.010724 
敘利亞 0.221418 -0.779133 2.810239 -3.183338 4.485902 -1.051034 -0.363017 4.623912 0.907698 -0.139989 
梅特涅 0.040302 1.211186 0.563908 0.785453 3.341393 4.227639 5.150484 0.533519 2.297479 -1.186310 
法蘭西 0.466027 4.323722 -1.396221 -0.431363 4.887327 3.118392 3.623681 -1.473847 1.265338 -2.005716 
印尼 1.165172 2.338613 0.100695 -0.061666 4.482710 3.652679 1.204765 3.204647 -5.174036 2.173773 
回國 0.000837 2.589201 -1.770393 1.334670 0.915020 1.362191 1.042651 -0.596370 0.106752 -0.500167 
第三世界 -1.901369 6.041066 3.568987 -1.104549 6.311709 6.435512 -0.112479 2.408083 0.265405 -0.186732 
凱薩 -1.300331 1.976649 -3.128138 0.808827 5.872996 3.158719 -0.579902 -4.282856 1.327398 -3.138358 
喀爾文 -0.069682 1.689744 -4.741395 -4.571148 3.131820 0.796619 0.354574 -2.992071 2.341002 -1.772048 
烏克蘭 1.637748 2.411978 1.977619 1.732396 7.625309 2.193711 -3.314181 3.452844 0.696200 -1.750895 
摩西 -1.037612 0.629719 0.567231 -3.984075 3.597685 0.168045 1.652140 2.175669 0.601763 1.687767 
門第 -4.003036 4.804590 1.034171 1.430890 1.037487 1.067636 -0.437990 4.986091 0.969770 -4.902287 
丁日昌 2.105359 -0.120114 -5.731545 1.537940 4.419336 -3.764841 2.146784 1.409209 -0.247461 -0.206197 
列寧 -2.973380 0.699759 0.369023 2.241466 5.481585 2.344923 -2.328454 1.336942 1.226040 -0.228735 
江西 -0.140693 1.483645 -2.130159 0.665167 0.153685 -0.288103 -3.918667 3.679283 0.782414 1.794616 
太平軍 2.562900 1.490253 -2.593236 0.073568 1.070000 0.767794 -1.589159 0.283369 1.487717 -0.399969 
哥倫布 4.002595 -0.114049 -0.028469 -6.517382 -0.870027 4.444703 -0.938075 3.882326 0.085967 -1.289700 
新疆 2.717568 1.902274 -1.918552 2.127805 1.666906 0.385808 -2.352356 2.560362 2.467183 -2.876877 
直隸 2.687677 1.923065 -5.782151 1.149490 1.537112 0.331303 0.246045 0.217218 1.011979 0.116289 
馬克思 -2.815090 4.324720 -3.077916 0.069485 6.213278 3.290526 0.267366 -0.525540 -0.289430 3.006150 
革命黨人 -0.499449 3.724198 -6.648185 0.684904 1.566185 1.561325 -2.423731 -0.734010 -1.717480 -1.215701 
日耳曼人 -1.317904 -0.655678 -0.781506 -0.929016 2.493576 0.781196 0.493815 0.746569 6.042223 -2.290363 
宋教仁 -0.533419 2.743777 -3.303020 1.133065 0.683657 2.400563 -3.616121 3.430564 -3.729361 -2.125295 
林立 -0.437969 -0.241440 0.398474 0.758988 0.655850 -0.387082 1.008545 0.380593 3.028515 -0.664366 
甲骨文 -1.016702 -4.409205 -2.071075 -3.242421 -4.111980 0.539837 1.784014 7.483403 6.669577 -3.830622 
越戰 -3.434550 -1.150704 0.390986 -3.370388 6.612990 4.798067 0.489743 2.898888 -0.899287 4.144269 
契約 -1.452990 -1.369070 -1.288058 -2.723145 -1.383677 1.707554 3.608850 -0.537163 -0.449907 -3.829969 
烏山頭 -2.699983 -5.160172 -0.836914 0.021211 -2.078486 4.736351 0.639883 5.561743 -2.539106 -2.228276 
蘇維埃 -1.288620 1.273675 -1.484146 1.216309 4.038511 3.941715 -3.154262 0.739598 0.638938 1.099484 
高峰 0.143660 0.890288 0.616169 -1.624899 1.791844 1.024319 -0.088471 0.954519 -1.518755 -0.598935 
漢族 -0.780664 1.288661 -0.856179 -1.212302 -1.227706 -1.381263 -2.617288 2.172215 -1.001909 -3.619330 
商鞅 -1.139384 2.997187 -2.488858 -1.459796 -2.204880 0.028156 5.724856 4.549041 3.978301 1.477722 
貞德 2.437081 -0.004865 -2.373586 -5.404585 3.156850 5.736659 -1.671722 -0.640835 3.978459 0.524800 
帝王 -0.206377 2.206185 -0.847276 -4.810946 -0.738987 -1.474402 0.590063 2.612510 2.483121 -0.597460 
胡 -2.242651 3.906073 -1.532286 -1.358067 -0.551487 -0.271696 -2.942975 2.732054 -1.527295 -3.419148 
鎖國 1.540220 2.012412 -1.459731 2.034158 1.667588 2.332539 4.424781 1.643326 -3.166803 -2.290162 
戶口調查 -0.595439 -1.525582 -0.922361 0.028278 0.461619 -0.400297 -0.380777 0.817345 -1.484904 -0.608131 
畢卡索 -5.910554 -3.083650 -0.021173 -1.854090 2.801991 1.223892 3.638247 3.571750 0.723533 -0.736048 
山西 1.130504 3.949410 -2.822114 -1.849730 -1.903123 0.368896 -2.950552 1.813573 -0.176598 -3.022233 
西安 0.909987 1.156392 -1.819754 1.824069 0.057058 -0.020752 -2.990231 3.184561 3.539321 -0.612303 
波及 0.448504 -0.234586 -1.594732 1.909001 1.511425 2.037874 0.958488 0.909660 -0.757728 0.421987 
修正 -1.812346 0.039234 -2.764286 -0.702185 0.525257 2.065934 0.068608 2.302832 -3.835596 1.440828 
希臘正教 1.607050 0.924487 -2.245743 -2.120568 5.454861 0.083196 -0.841490 -0.067056 3.748290 -1.046075 
雲南 1.431420 3.536505 -3.288218 -0.010291 0.847237 0.260739 -2.012052 1.750510 -1.218642 2.045741 
中日戰爭 -0.372585 -4.268185 -2.947042 3.475553 1.813956 3.217303 0.794279 1.622340 -0.502254 0.203321 
捷克 -0.832841 -0.711318 0.676080 1.682613 3.483359 5.070216 -1.553962 3.040987 4.402688 -2.038849 
獨立宣言 -0.971148 -2.071129 -3.319067 -2.436657 0.307183 7.716384 2.621985 1.408253 0.123406 4.995910 
宋太祖 -0.742892 2.704399 0.294329 -7.112654 0.788960 0.337306 -2.001307 5.733968 2.879710 3.362509 
高明 2.311853 -0.552342 -2.589295 0.457123 -2.470249 2.023738 -1.734435 3.118591 1.400126 -1.125092 
諸國 2.021438 0.076666 0.148675 0.127103 -0.336409 1.481018 0.631865 1.874611 3.020091 -3.546629 
沙 1.462024 -0.038410 -1.519507 0.133175 0.762425 0.034872 4.566039 0.646689 1.518208 0.777697 
歐美 0.684210 -1.714574 -0.260242 1.154513 2.209893 1.333714 2.358313 0.247650 -0.166525 1.491842 
愛國 -2.961156 -1.087151 -2.108624 2.608805 3.739496 0.643848 -1.762994 0.471049 -1.220338 -0.731547 
馬其頓 1.579011 0.259277 1.455924 -0.553942 2.725159 0.941740 2.063848 1.864787 0.078853 -6.342482 
塞利 1.876369 0.827800 -1.990035 -4.084053 0.644443 -0.907482 4.967682 0.263721 2.625045 -2.485094 
珍珠港 0.870556 -2.415220 0.096149 0.291556 2.138910 6.449957 -1.492075 3.502466 -2.472844 0.451589 
武士道 -0.006717 0.509986 -1.242370 3.245211 0.962754 1.996848 6.322213 2.353957 -0.160137 -2.589812 
文明史 -1.167196 -1.382798 -0.017558 -0.810049 2.193665 1.453312 0.908130 -1.020098 -0.189732 -2.858066 
劉永福 -1.678426 1.274626 -7.331284 4.529702 2.759379 0.815301 1.657729 1.524798 1.572384 2.529160 
漢書 -0.252891 1.586754 -3.685082 0.219833 -0.629264 -3.716217 0.848030 3.944789 2.491958 -4.981200 
明太祖 5.407485 5.362711 -2.152779 -1.421043 1.215753 0.109625 -2.467079 2.316729 1.235960 -1.506540 
史前 -1.079372 -2.781038 -0.747741 1.383314 3.336714 -0.257222 -2.460239 4.848021 -4.166723 -2.260590 
蔡 -2.582053 -2.389345 -2.076909 -2.043097 -1.820203 0.362745 0.361833 2.609498 0.851647 -0.749713 
希伯來人 0.799255 -0.260335 1.975792 -2.174075 2.613878 -0.505891 2.022661 1.546650 1.003614 -1.751500 
吳三桂 2.970194 4.982480 -3.225656 -0.502107 3.736023 -3.330491 0.172224 2.243133 -0.594542 1.187451 
神宗 1.264918 1.483535 -4.814956 -2.190504 -0.025095 -2.092306 -0.149601 1.126635 1.996497 1.755101 
元老院 -3.638201 2.376476 1.113612 -0.985271 4.800042 0.261526 6.635315 1.368973 2.849130 -0.754517 
同盟國 0.138606 -2.182275 0.079185 2.490963 2.545638 5.312593 0.985121 1.745922 0.698760 -0.536381 
曉 0.461252 -0.872917 -2.128400 0.316225 -0.303112 1.301077 -1.426442 1.299041 -0.606727 -0.351891 
西德 -3.073074 -0.381371 2.001892 1.907772 5.450759 2.479239 1.610675 3.992824 1.842404 -1.256672 
富國強兵 -0.958506 4.003810 -2.621376 2.175152 0.341383 1.420804 3.696149 1.546582 2.385806 2.513481 
澶淵 -3.809908 0.781984 -4.560884 -5.470751 -0.942547 2.756754 -3.476742 0.360070 3.070639 -1.262164 
北非 3.114010 0.989765 1.573836 -1.843545 4.012822 1.400721 3.899897 1.357340 2.359162 -0.195424 
鳳山 0.918471 -3.369226 -7.570137 0.367177 0.405969 -2.323983 2.886260 2.271262 -2.295421 -2.754892 
子孫 2.568045 -0.598757 -0.893001 -2.192825 -1.237580 -1.891530 0.547170 3.074167 0.637826 0.639077 
春秋戰國 1.413329 1.635958 -2.251132 -1.851360 -2.436177 -0.218231 3.685492 5.051592 3.324095 -0.778631 
長江流域 2.763469 1.153279 -1.114610 1.850995 0.114220 0.592378 -4.204271 3.434221 1.272574 -1.763463 
雲 0.544889 1.591346 -3.505965 -1.469495 -1.275842 0.785685 -2.449844 0.476895 1.742640 1.839922 
路易十六 -3.791633 4.544902 -2.264588 -0.146466 2.234107 4.422530 5.149978 1.180391 0.515118 1.041726 
洛克 -1.448264 -0.000874 -5.299723 -4.036685 -0.501508 5.629572 2.112417 -0.708624 -1.282629 -0.781834 
瑪麗 -0.901254 3.292406 -6.952696 -2.131046 0.572609 2.915387 3.973785 -2.142252 0.119709 0.115833 
重鎮 -1.746453 -0.669440 -2.635056 1.040531 -0.073702 -0.138268 -1.383974 0.567332 -0.297877 -2.013851 
中國史 1.547170 0.257895 -0.311045 -0.955099 -0.235123 1.205377 -2.316368 2.989922 -0.596832 -0.267195 
南郊 0.581394 -0.746538 -4.070333 2.434294 4.377696 -4.699938 -0.115831 3.263071 0.396319 -1.466040 
民族運動 -0.189152 -2.036050 -0.253843 0.297954 3.388784 3.408266 0.963295 -0.331596 0.841061 -0.142207 
蓬萊米 0.065859 -4.125494 -0.651139 1.743257 0.461779 4.553422 -0.712994 5.308290 -2.024649 -3.015821 
大都 -0.319321 -0.150996 -0.093891 -0.298702 1.776158 -2.050237 -0.259352 0.577500 -0.293965 0.306220 
猶太 1.849309 -0.228136 0.485467 -3.813170 6.288431 2.488209 0.993757 0.506340 1.161512 2.380506 
丘逢甲 -0.996346 0.371587 -5.722379 5.856958 4.197424 0.602882 2.694760 0.776643 0.854476 2.690622 
基隆港 -0.714883 -2.687499 -2.792946 0.095112 4.599899 0.810124 0.084502 2.050302 -3.539603 1.363866 
耶路撒冷 1.047588 -0.925076 1.938023 -3.781381 6.201319 -1.405986 -2.049707 3.527970 2.211465 -0.583052 
婆羅門教 1.974019 5.071001 -0.114885 -6.313868 5.201219 1.650941 -0.087108 -0.102668 -3.620878 -3.422938 
古羅馬 -2.323444 -1.042703 -1.430228 -1.415759 3.300343 -0.323805 2.732635 -0.480613 4.607224 -0.667658 
永嘉 -3.659761 5.126106 -1.124820 -2.269564 -0.453625 2.707119 -1.995511 3.855128 0.464878 -4.786722 
亞美利哥 3.275014 -1.945180 -2.349586 -8.189506 -0.999320 2.321932 -2.093894 0.950703 -0.372651 -4.557884 
永吉 1.998118 -4.906531 -0.391165 1.837215 0.681788 5.625448 -2.391136 6.463078 -2.510782 -3.139499 
卑南 -1.051994 -0.722680 -3.451399 -1.226279 -1.131592 -2.992744 1.654179 5.310139 -1.205767 -0.062239 
黃興 -0.840758 2.835863 -6.080725 0.074287 3.253140 1.200465 -4.300126 1.056387 -4.774964 -0.439265 
都城 -1.853502 3.120690 1.164546 -4.069762 0.350215 -0.159354 -1.563845 4.846190 0.105512 -1.481920 
哈里發 5.163433 -1.738769 -0.699351 -2.064992 4.273729 -1.733022 2.690020 4.877131 1.424383 0.074184 
漢文 -2.012356 -3.783073 -3.798479 -2.088803 1.185577 -0.059678 2.151482 -0.013483 -0.174255 -1.173013 
百年戰爭 1.457015 -0.919147 -2.034137 -4.813884 3.059765 5.860857 -2.058520 -1.756408 4.441551 -0.308036 
墨西哥 0.769545 -1.193704 0.510870 -3.175884 -0.501836 5.095761 3.537147 3.257925 -1.766520 -0.122777 
腓尼基人 0.217914 -1.813804 2.577147 -3.778388 3.285587 0.837621 2.812777 1.598095 0.313836 -2.872240 
明成祖 3.945397 2.043236 -1.560480 -2.755747 -0.525037 1.286509 -0.547585 3.952519 1.307344 -0.777990 
柏林圍牆 -2.909679 -1.704185 2.463941 1.342323 6.905565 1.317147 0.102620 3.873598 1.586413 -0.757561 
河北 -3.301547 2.726165 -4.513041 -1.504390 -0.671644 2.195726 -2.932560 0.684408 2.407346 0.346301 
臺東 -1.087591 -1.886893 -2.953836 1.037095 -0.382690 -0.314905 1.812835 2.680780 -2.742083 -0.018847 
高雄市 1.432698 -1.885863 -3.529882 -0.605140 0.170007 -2.376936 1.443146 3.373975 -3.375085 -1.673447 
北郊 1.427558 -1.210019 -4.368440 2.686904 3.587054 -5.113038 -0.339219 3.750750 0.427937 -1.514548 
君 -1.277110 0.715003 -1.287349 -2.340862 1.374730 -2.328488 -0.502495 1.007063 2.521147 -0.613883 
十字軍 1.898597 -0.759138 -0.054740 -1.702476 5.196115 -0.972187 -2.147171 1.380696 3.364206 -2.530047 
治國 -0.133822 2.343657 -1.168735 0.667045 -0.468776 2.577884 -1.013253 1.811741 -0.164147 0.756554 
革命黨 -2.375625 1.956534 -4.291787 1.577181 1.423910 1.719807 -2.848614 1.369857 -3.025856 -0.793343 
城鎮 0.621844 -2.900746 0.209495 -1.550247 3.088907 1.947398 0.089406 -0.106669 1.143269 -0.979098 
高雄港 -0.254997 -2.584395 -2.025888 0.467648 2.381625 0.791356 0.130992 2.583807 -3.420929 -1.139398 
燕 -1.457238 2.659566 -3.129084 -1.441948 -0.991485 -0.097455 0.436309 3.749571 3.329079 1.428207 
太陽神 -1.010563 1.098137 -0.677965 -3.194085 2.220059 0.251077 6.265518 2.063468 -0.763962 -2.228184 
羅馬公教 1.802744 -0.269491 -2.298441 -4.198004 3.330571 -0.402477 -0.636582 -0.970045 2.573699 -0.380461 
天文 0.052476 1.879805 -2.063205 -4.780096 0.717077 -1.423710 -0.043311 -0.880383 -0.474299 -5.195372 
大沽 5.118071 1.210041 -5.153903 0.874277 2.700373 4.660877 -3.437806 -0.484540 3.534718 -0.691054 
楔形文字 0.970723 3.271135 1.238377 -1.087940 2.681681 -0.630230 7.029529 4.119236 -0.200620 -1.982914 
孫權 -5.326755 0.553571 -2.737832 0.205584 4.128087 1.022462 -4.513282 -0.389261 0.590321 -4.674779 
江戶 1.571535 2.493109 -1.565868 3.184150 1.472556 2.652215 5.332029 1.807850 -2.314470 -1.334077 
西西里 0.470733 3.136303 -1.121011 1.135731 3.173979 -1.133210 4.449255 0.463706 4.932724 -2.040410 
玻利瓦 -1.170859 1.245454 -0.858975 -5.207402 2.450162 5.218383 3.502387 1.225962 0.041725 2.854156 
黃玉 -2.383476 -5.608789 -1.997385 -4.834544 3.918241 0.087294 -2.749877 2.251395 -2.719199 -1.919463 
社會變遷 -3.347416 -3.488030 -3.458197 1.248448 0.699436 -0.318087 -1.529687 1.853540 -2.350615 -1.801136 
康 -0.191456 3.182465 -2.755694 3.595738 -0.867318 -2.180339 0.380707 3.959123 -0.111955 -2.195673 
臺中市 -2.179633 -5.575812 -4.328859 0.817472 -0.476858 -1.810425 1.615902 2.734770 -0.733225 -1.004786 
雲漢 0.178054 0.709121 -2.915302 1.524974 0.222347 2.452864 -2.280036 2.154185 -0.915477 1.660585 
長崎 2.904963 2.178264 -1.012064 2.311775 2.088492 3.815997 3.114330 2.653909 -3.362686 -0.589256 
國民會議 -4.775065 2.836634 -3.034254 -0.003372 1.953346 4.072774 2.300823 1.502732 0.134069 3.273997 
塞爾柱 2.933715 -2.458006 1.602576 -3.140197 4.433594 -1.453709 -2.742582 4.045332 1.168507 -1.805607 
光緒帝 2.718074 1.884051 -3.723297 2.900662 0.546415 2.757737 1.398590 1.423719 2.484070 -2.213485 
索菲亞 0.431194 -1.708852 0.340742 -5.374463 3.241470 -0.335712 -1.431196 2.233725 4.889513 -0.415323 
靖康 -0.881008 7.902315 -2.847940 -3.576291 4.183291 -3.263703 -2.575031 0.922661 0.174847 -1.941882 
藩 2.527135 3.041615 -2.428638 0.793320 4.892497 -1.582662 2.224058 1.189838 -1.452504 1.223605 
匈牙利 1.016268 1.653687 1.228703 2.914547 5.075593 2.859677 0.132905 1.560761 5.060410 -3.132712 
尼 6.227666 -0.481309 -3.012827 -0.872989 0.710886 1.957244 5.551209 0.823715 2.007243 -1.546284 
緬甸 3.378276 3.302678 -0.128111 -0.830937 4.727638 3.301686 -0.464815 3.748811 -3.310844 3.349425 
恆春 0.790565 -0.254550 -4.048727 1.000153 2.118541 -2.871244 2.091854 2.043868 -2.691775 -2.690563 
西方人 2.777657 0.092660 -1.733381 -1.111045 -0.880309 1.896813 -1.697160 1.242492 -1.941059 -2.099132 
顏思齊 -0.237904 -0.979453 -0.633073 4.364154 4.954313 -1.258337 3.166519 4.994668 -4.418743 -2.286036 
寶 -1.366383 -4.114127 -0.959516 -2.875484 0.467717 -1.730756 -0.148457 1.318939 -0.948789 -2.221478 
二次革命 -1.712134 4.897964 -3.698711 -0.336616 -0.637251 2.392509 -1.404419 2.622494 -4.663545 -0.490725 
大西洋 3.545953 1.946829 1.202239 -3.380536 0.739667 5.415745 2.599986 1.836230 0.973076 -1.358355 
蔣經國 -1.884458 -2.995692 -0.815397 -1.277890 1.985201 1.805445 -0.505444 1.963525 -2.254747 1.203053 
阿美族 -4.106557 0.083285 -3.444647 -2.321307 -2.639063 -0.406445 1.327670 5.065225 -2.181967 -2.229852 
班固 -1.135114 1.985730 -4.760250 0.743495 -0.688705 -5.072404 2.056479 3.866877 2.291494 -5.953727 
查理一世 2.900898 2.880683 -6.060438 -4.611303 -0.928466 3.137302 1.634897 -0.298719 0.449913 1.326780 
鹿皮 1.810625 -1.126663 -0.961917 -0.025391 1.741277 1.054943 1.343310 2.816202 -6.119277 -1.682392 
小亞細亞 0.345003 -1.263792 1.965757 -1.858014 5.106843 -1.559227 3.001201 2.287733 -0.206419 -3.620340 
泰雅族 -5.408991 -0.318492 -4.357782 -2.759527 0.469354 -2.314083 1.316272 2.556445 -3.444009 -2.798424 
英文 0.085368 -2.339087 -3.145822 0.139263 0.628425 2.585354 0.414829 -1.627568 1.117730 -1.193420 
唐太宗 -0.945484 3.510053 1.578711 -5.079507 -0.073098 1.687656 -1.436995 3.182607 0.999204 -3.094719 
腓特烈二世 -3.533703 2.682331 -5.354352 1.383942 4.147845 2.925529 2.088156 -4.229125 0.080040 -1.872802 
文武 0.373959 2.552301 -5.514505 -0.634562 0.280664 -2.326038 1.327606 0.529139 -2.689781 -0.638680 
九一八事變 2.008108 -0.900804 -2.402213 1.899978 0.666658 3.363997 -1.920589 5.158081 1.479573 0.534240 
新港 -1.257020 -3.669808 -4.705724 -3.438333 4.784999 0.099874 5.264612 -1.412889 -4.091516 -1.281876 
黃巢之 0.295547 4.671711 -1.033393 0.278830 0.138804 -0.363111 -0.775339 2.114953 1.337991 -2.683995 
光榮 0.364246 -1.852671 -0.212165 -0.825875 1.111143 0.420632 1.144414 0.468721 2.742475 -0.222112 
市民階級 0.016611 -3.104990 0.793118 -3.161809 2.972091 1.952372 -2.871343 -0.543253 1.793520 -4.651647 
二戰 -0.763577 -1.106112 1.116220 -0.187014 3.474514 4.142998 2.421027 0.923155 0.761544 0.538822 
印度洋 4.929889 -0.012837 1.228141 -3.927694 0.264967 1.749431 -1.254818 4.926727 -2.456702 -0.685911 
武昌 0.469624 3.397146 -4.928350 -0.396107 1.390261 0.745698 -5.102227 1.365428 -1.291535 -1.068939 
嘉義 0.084945 -3.493186 -4.974605 0.247036 -0.079855 -2.520671 3.168429 2.988754 -1.686368 -1.203000 
智慧 -1.120017 -1.996053 -0.699294 -2.642687 3.044487 0.603730 2.948061 -0.995594 -1.645219 -3.239120 
臺灣島 0.126213 -3.317445 -4.416347 -1.264827 0.252217 -0.067744 0.093770 0.346873 -3.171672 -1.397601 
唐三彩 -1.735457 0.642751 1.689063 -3.903342 0.314099 3.423795 -2.488633 3.987827 -1.410186 -2.878378 
南北戰爭 -3.744571 -3.079313 -3.185939 -2.388860 0.966816 4.502364 5.083051 1.043329 2.309829 2.146553 
獨立戰爭 -0.246080 -0.510741 -0.833223 -3.648045 0.615500 5.867560 2.732296 0.367901 -0.399702 0.523687 
臺灣電力 -2.881560 0.652579 -1.856574 -0.823531 -2.315048 4.919126 0.471098 3.431604 -1.653641 -0.296833 
新大陸 2.456763 -2.235181 -0.852592 -7.160753 -0.452134 4.453500 0.494330 2.093889 -0.900891 -1.184824 
福爾摩沙 0.050704 -0.781964 -2.627979 -3.220093 1.080961 1.814522 1.203062 1.900570 -6.124960 -2.976554 
花蓮 -1.061285 -1.153046 -3.861150 0.501080 -1.005019 -0.627549 2.970654 3.146031 -2.097146 -0.307400 
曹 -2.129558 -0.345419 -3.164322 -0.403664 0.791591 -0.263842 -0.308542 0.688207 -3.759069 -4.005657 
郭懷一 -0.877884 2.745137 -2.401983 -0.062453 1.826819 0.068878 3.565888 1.368661 -4.951516 -1.105218 
莎士比亞 -1.520611 -2.574652 -3.475928 -5.638282 -2.027009 4.075714 2.290526 -0.849492 2.152539 -4.387982 
南明 3.131232 2.467745 -3.423192 -0.158923 3.317025 -2.276730 0.554986 1.619292 -1.899132 1.643375 
亞述 -1.121303 1.380380 2.778030 0.198651 5.451096 -1.534643 4.788751 5.553166 -1.062956 -2.985015 
魏孝文帝 -3.879056 3.423806 -1.099140 -0.576488 -0.228995 0.293588 -0.605837 3.748500 -4.485637 -7.375744 
安徽 0.823852 2.244627 -3.384458 0.680864 -0.154924 0.274649 -1.482636 2.044877 -1.459219 -2.499891 
立體派 -6.885815 -3.296766 -0.668300 -0.755024 2.946878 1.577659 2.966663 3.329440 0.536690 -0.286801 
摩尼教 1.983884 0.515351 0.559210 -2.340517 0.973012 -1.260980 -0.553952 2.753463 1.361334 -2.908668 
玉米 -1.033014 -0.374782 1.006439 -3.801994 -0.545671 2.611156 0.302654 2.229627 -0.253928 -0.045116 
屋大維 -4.160340 0.817307 0.012484 -1.111041 4.626992 -1.001376 4.601375 0.757853 2.998632 -0.783357 
神聖 -0.958007 0.410005 -1.188839 -2.965069 2.717881 0.185105 2.346179 -1.056559 -0.180990 -0.292959 
朝鮮半島 -0.303407 1.272196 0.690287 -0.592833 2.610886 3.068716 -0.232860 1.762508 -0.351789 1.640947 
西柏林 -2.074675 -1.836167 3.282855 1.662945 4.581907 3.916272 1.534829 3.563280 1.045040 -1.435518 
耶和華 -0.189479 0.784348 0.759170 -2.009327 3.020143 -0.493296 0.923820 1.830057 0.312641 0.675101 
孟德斯鳩 -2.294719 -1.148924 -0.615951 -2.630399 2.971098 4.447362 1.371550 -1.919755 -1.427062 -2.970950 
下議院 0.251563 -0.163307 -5.064420 -2.477924 0.450972 8.537723 -1.293718 -1.541721 1.516616 -1.468095 
法老 -0.826051 -0.110070 -0.136567 -7.885495 3.943409 -1.252640 3.677257 2.931317 -1.030259 1.301644 
狄德羅 -4.274043 0.985136 -2.822493 -2.235613 5.096415 5.499134 -0.865480 -1.125976 -1.214907 -2.237681 
杭州 3.142063 3.291366 -2.877018 0.790265 3.163796 -2.131091 -3.421684 2.939930 0.001725 1.256154 
成吉思汗 1.957889 1.288885 1.897149 -0.852840 5.130904 -1.245677 -5.049615 5.212103 1.849957 -3.367819 
河姆渡 3.866389 -2.961642 -4.362709 -0.510730 1.344051 -1.798952 -6.996062 5.550437 0.720312 -3.366999 
亞里斯多德 -0.427544 -0.790910 -1.230024 -2.399055 2.407794 0.972461 0.262658 -1.705607 -1.571918 -6.181082 
漢摩拉比法典 -0.683525 4.813976 0.977892 -1.166480 4.165537 -0.329025 5.504706 2.991521 0.785366 -0.862708 
陝西 -0.158819 0.910951 -3.090558 -1.060266 -1.177500 0.213851 -4.679702 3.545267 2.718007 -1.407943 
瑞士 -0.951244 -1.893945 -0.979758 -1.432024 1.061592 3.313435 1.694938 -1.200052 2.374938 -1.463087 
朝野 1.633472 1.626116 -3.881479 1.498228 0.393001 1.961584 -1.114473 1.002662 0.177481 0.393535 
隋文帝 -2.446502 1.741328 1.946291 -2.443357 -0.505411 3.677011 -1.069298 5.241985 -1.073788 -4.241181 
萬曆 3.326039 0.992957 -3.524498 -2.129463 -0.330612 -1.422485 0.320524 2.159698 -0.274442 1.135959 
兒玉源太郎 -0.098427 -3.474583 -3.028651 1.085362 2.572125 0.698531 -1.085586 0.724354 -1.159254 -2.274377 
人權宣言 -3.117148 2.701520 -1.832691 -2.531524 1.211494 4.726932 4.260063 -0.516166 -0.795387 1.962847 
曼 -0.049754 -3.364903 0.811676 -2.052019 0.160085 2.320458 3.555986 0.053451 0.198191 -3.033926 
蘇格拉底 -0.708694 -3.538414 -1.743688 0.494064 1.347299 -1.409847 -1.389675 2.215954 0.851344 -6.928922 
巴格達 2.734102 -1.980917 0.617521 -4.608385 3.682663 -2.108295 -0.099580 1.930978 0.020544 -1.407194 
王宮 0.098288 0.789554 0.792174 -2.531813 3.422319 -0.531451 3.589255 1.922922 -1.020559 0.307362 
文化的發展 0.435769 -0.629677 0.425959 -3.181925 1.020816 -0.214451 -0.784154 1.581246 0.316211 -1.342271 
阿美士 5.609253 1.287502 -4.752952 0.019090 -2.601031 5.335606 5.742121 2.514876 1.266745 -2.216350 
抗衡 -0.039232 -0.861584 -0.374810 0.092047 2.500465 1.590315 -1.030845 0.004250 1.136884 0.166687 
馬志尼 -0.925389 0.592532 -3.980562 2.181128 1.940395 0.760622 2.294232 0.424082 6.133618 -0.932739 
沈 0.977802 -0.356778 -3.397185 -2.719149 1.108957 -1.578280 0.386801 0.538180 -2.838325 1.802815 
紐約 -0.381258 -2.206272 0.622669 0.097984 2.948875 2.683628 -0.762617 1.283375 -0.562618 0.930835 
李登輝 -3.013386 -2.263656 -0.822271 -1.601381 0.752865 2.156982 -0.098461 2.288348 -1.388327 1.300449 
慕尼黑 -1.527508 -0.057909 -1.035639 0.348085 -0.618625 7.041937 -1.483286 2.685133 4.705599 -2.011863 
安撫 -1.897786 -0.040466 -1.581974 1.976324 1.860846 -0.872822 0.219211 0.891879 -0.583581 -0.193564 
斯拉夫 3.415812 0.767286 0.274831 1.359539 6.320835 0.757609 0.175411 1.161277 5.682617 -1.909914 
紅毛城 2.606442 2.008706 -1.393371 -0.737222 0.765080 2.749177 1.634322 0.512365 -4.462252 -1.416940 
穆罕默德 5.778575 0.626536 -0.262336 -3.196306 3.339208 -2.151441 -0.048637 4.511552 0.763646 -0.511783 
普通 0.676488 -2.493825 -4.034501 0.319685 -0.115319 1.633847 -2.075937 1.565290 -0.055436 -3.624565 
瓦特 1.560141 1.506974 -4.875670 -1.123814 8.304147 2.892700 3.742065 -3.030915 -0.618899 3.474132 
伯爵 2.455149 0.106277 -4.095742 -3.695822 -1.312915 2.819888 4.100116 -0.728547 1.929223 -2.556272 
莫內 -4.528689 -0.043282 -2.450917 -0.542234 3.073421 0.625073 3.591309 0.513726 -0.774494 0.279356 
司馬光 -2.226811 2.955704 -4.964890 -4.902827 2.244068 -3.330613 -0.221656 2.666791 3.186317 4.591598 
三級會議 -3.590801 2.933308 -4.022924 -1.760295 1.148306 3.456642 4.633597 0.439876 0.184713 2.904415 
海關 3.546368 0.068042 -2.979172 -0.715646 0.900250 1.287993 0.047026 0.948806 -1.095742 0.248950 
南京大屠殺 1.628789 -2.621300 -1.697298 1.241705 2.388903 2.433014 -3.403470 3.929697 -1.222540 0.930967 
西南 2.710096 0.710167 -1.622125 0.857363 -0.004295 0.404295 -2.508200 3.058007 -0.400246 -0.198250 
迪南 6.847617 1.889886 -1.496889 -4.974371 2.585891 4.030168 1.018606 1.730983 3.881727 0.092851 
臺灣地區 1.650647 -2.440786 -3.708223 0.518711 0.993300 0.527445 1.478280 1.268038 -2.049625 1.350624 
景教 2.416303 1.167932 1.076865 -3.067971 0.679589 -1.126371 -1.235127 2.242461 2.446268 -3.111884 
海峽 3.423505 -0.807588 0.061360 -0.504793 0.954348 1.356044 -0.267653 1.863329 -2.046110 -1.083453 
羅馬教會 1.003517 1.143633 -3.333313 -2.140110 4.588492 -1.613603 -0.735963 -1.732131 4.981222 -1.087793 
古老 -0.284085 -1.687486 0.634773 -1.051211 0.324368 -1.150842 1.140431 2.303092 -0.825234 -1.202960 
滿洲 2.834412 2.636496 -1.603600 1.346932 1.764997 2.236168 -2.241397 0.867807 0.857990 0.066357 
福建省 0.258731 -1.281317 -7.063155 -0.104107 -0.297076 -1.004174 1.195396 1.184502 -1.252185 -0.239390 
科考 0.622914 1.373123 -1.949058 -1.348995 0.719137 -0.470586 -0.719355 0.714376 -1.081784 -0.056922 
項羽 -1.707427 0.568343 -1.376786 -0.832946 -1.897246 2.875812 1.368916 3.780828 3.863091 -2.736381 
廣島 1.782780 0.071581 0.566093 2.098861 2.744071 5.463090 2.150455 5.662633 -0.704085 4.529679 
丹麥 0.307496 -1.784121 -2.551674 1.357193 0.928466 5.093862 2.664930 -0.624899 1.824637 -1.859130 
張之洞 2.819117 2.719229 -5.705268 0.453929 0.688344 1.724032 -3.131773 0.249755 -0.539207 -0.896840 
邦國 -1.539129 0.014084 -3.089217 0.843015 1.810187 2.627116 2.600997 0.035972 4.756155 -0.092230 
孟子 -2.090169 -1.814596 -5.773353 -5.831155 -0.438442 -3.448240 -0.523230 3.122974 3.175602 0.647003 
歸納法 -1.767292 2.285064 -4.521660 -2.015639 1.258602 1.414583 -1.838023 -0.344254 -3.365297 -2.983689 
開山 0.717678 -0.235163 -2.956711 0.904232 1.203827 -1.681722 -0.016852 0.310983 -0.941948 -1.098583 
拉斐爾 0.155798 -3.918129 -3.412593 -4.358124 -1.367032 -0.602731 1.363980 0.420983 2.317910 -6.530071 
馮國璋 1.682115 2.569157 -7.643805 -1.026448 -3.643023 1.754186 0.207442 1.844798 1.938811 -2.268229 
大族 -5.083668 4.554566 1.636418 -0.881647 0.624864 3.330004 0.525531 3.403226 0.343586 -2.578045 
荊州 -5.014246 0.943898 -4.528260 -0.855010 4.903670 -2.775160 -4.382141 -0.173829 -1.184970 -3.548535 
成都 -2.887446 1.552535 -2.516547 -0.574004 -0.499342 0.330375 -5.305033 3.148197 -0.458241 -1.380159 
希臘化 -0.268719 0.676023 1.778095 -3.855901 2.998775 -1.317977 3.311343 0.667853 2.516160 -5.751749 
阿利安人 1.187423 2.629707 -0.407065 -5.724825 5.611380 1.670155 -0.217706 0.846337 -1.901357 -2.445080 
上臺 -1.246942 -0.469716 0.546079 1.709580 3.422779 0.888418 0.321215 1.345536 0.615849 -0.238355 
劉少奇 -3.051254 0.379574 -0.120673 1.642885 1.535385 3.568975 -2.242503 5.037406 2.065589 2.170876 
社會秩序 -2.156722 0.462885 -0.335937 0.086014 -0.334622 0.992726 0.514009 0.913670 1.570650 0.320510 
種姓制度 2.257945 4.172562 -0.514836 -3.999005 4.356709 2.371107 0.039045 -0.477567 -3.816923 -2.120616 
童 -0.378982 -6.169307 -3.625085 -2.896458 1.254134 2.896212 5.796082 1.064670 -0.616723 -1.635393 
京城 -0.072259 2.101817 -1.428187 -0.411092 0.382069 0.227337 0.287193 1.868555 0.371284 0.160773 
史綱 -0.862335 -0.209308 -0.322096 -0.944001 0.189588 1.276206 -1.084595 0.384072 1.526857 -0.300813 
沿海地區 3.629122 -1.274365 -1.275104 -0.978441 -0.666455 1.761031 -0.197649 2.808774 -2.599275 -1.083577 
貝多芬 -4.036306 1.846289 -3.135258 1.168041 4.295348 0.547026 6.920290 0.617015 -0.869410 1.364405 
中西 5.677602 1.779568 -1.661716 -0.670344 -1.195157 1.289854 -2.730572 3.013093 1.650217 -2.357385 
大屠殺 0.318634 -4.073799 1.085587 -0.556933 5.489073 1.658536 0.150491 1.783793 -0.330069 1.622463 
立國 -1.544989 2.842067 0.622259 -3.158319 -0.434664 1.874472 -2.256258 2.743547 1.501249 0.086272 
歸順 0.474355 -0.739810 -3.496181 -0.693230 0.628421 -0.014382 -2.374467 2.498229 1.540947 2.082891 
小國 4.041901 1.378908 -0.245158 -2.197439 -0.451016 3.286785 2.148212 4.518670 4.486194 0.660879 
閩南語 -1.908282 -2.848152 -5.910229 -1.199134 -1.013995 0.007896 0.109532 2.054586 -3.657507 -0.481233 
梁武帝 -2.651637 5.811712 0.440955 -0.363941 1.034524 2.474536 4.094722 3.126819 -0.185246 -6.145658 
賽 -2.617329 -0.762305 0.038838 0.982117 -0.433698 4.144787 0.162424 1.897127 1.918791 -0.596582 
保安 1.690472 -1.259998 -3.183274 1.471474 1.600400 -1.311832 4.782406 2.996547 2.353316 1.920903 
黨爭 -0.810432 5.078006 -5.054685 -0.761019 0.505482 -1.359146 -0.366278 1.062948 3.032015 2.449202 
莊 -1.523694 -2.696688 -2.071943 -0.595199 0.935919 -0.899992 0.415257 0.404082 0.424971 -0.799744 
三民主義 -1.165012 1.371804 -4.497365 0.735228 0.680665 3.523001 -2.250142 1.447333 -2.985590 2.343364 
巴爾幹 3.480191 -1.250099 -0.805736 2.933431 3.860023 1.699168 1.097933 0.617193 3.638482 -3.251671 
捷克斯洛伐克 -1.174174 0.372868 -1.427620 0.598640 0.021613 4.972333 -1.517052 2.247241 6.293016 -1.341613 
黃河 0.011531 -1.383072 -1.901821 -2.182798 -0.278220 -0.257235 -2.910771 3.260649 1.911695 -0.562572 
華盛頓 -0.827866 -3.078865 -0.483955 -0.860687 3.197940 5.897977 0.497634 0.631831 -0.719968 1.830815 
克麗奧佩 -4.257360 1.676898 -1.826522 -2.658705 5.659524 -1.484132 5.171515 1.562998 -0.388525 -0.886987 
利瑪竇 4.982012 1.517222 -4.350245 -5.076710 0.569237 -0.836598 -0.817748 -1.239548 -0.015395 -2.414322 
和談 1.358039 1.676936 -3.522264 0.896896 1.841872 2.863266 -2.896964 0.709394 0.977485 2.562499 
達文西 -2.538633 -3.522082 -6.070074 -4.584598 -1.138864 0.434941 1.315675 -0.149010 3.759563 -4.507747 
瀋陽 1.943266 -0.623738 -3.007949 0.533970 0.172240 3.699636 -3.068860 5.202602 1.616667 2.132996 
王后 -0.059593 2.196804 -2.395934 -1.813893 2.386861 1.602402 3.600026 -2.207147 1.345212 -1.672633 
安平古堡 0.748748 3.662461 -2.159749 -1.551595 3.956697 -0.843608 4.691684 0.371599 -4.816576 -1.840841 
麥田 -0.612706 -4.229129 -0.216418 -3.482666 3.166148 0.650949 -0.341186 2.049925 0.806364 -0.138470 
廖添丁 -5.071193 -2.725066 -4.816740 2.472503 3.788053 -1.297676 2.425019 1.811175 4.430714 -2.113005 
澎 -1.962862 1.391034 -1.746092 3.896960 1.034955 3.861845 2.402147 3.750196 -4.208067 -1.162063 
通訊 0.061607 -3.219776 -2.978085 0.224640 1.875271 1.064533 0.302032 1.595361 -3.252828 -0.035220 
喬治 2.567917 -0.567775 -3.604137 1.455424 1.310027 7.268893 1.010672 0.496172 -0.006670 0.245282 
中東 2.513743 -1.407739 0.988912 -1.742228 4.308145 0.291274 -1.005347 0.895024 0.431907 0.027155 
司馬遷 0.552559 1.191586 -1.630382 0.442062 -1.291767 -1.481672 1.762925 4.049162 2.577556 -2.087456 
米開朗基羅 -1.262778 -3.881422 -4.072945 -2.703998 -0.610036 0.688880 2.692088 -0.721990 4.625538 -3.034723 
遼東半島 0.879425 0.183687 -3.131558 5.822896 2.382592 3.715482 -0.019606 1.328839 1.113933 -0.869463 
王攘夷 2.400792 2.060305 -1.797409 0.324943 -1.018321 2.064402 6.103477 3.877651 4.071623 -0.279242 
新加坡 -0.382529 -1.083672 -1.341738 -0.105280 3.664242 4.238271 -0.546928 2.675364 -4.279584 3.575283 
美索不達米亞 -0.380330 0.564308 1.170695 -3.828146 3.313468 -1.985230 3.785862 4.897652 -0.397115 -2.465652 
權利法案 0.156886 1.658210 -3.373220 -3.154201 1.615057 3.437336 3.629301 -1.676564 -1.422868 1.589700 
顧問 1.192345 -1.273790 -1.529600 0.180898 2.201313 1.360856 -2.811717 0.889179 0.769597 0.188434 
十年建設 1.336957 -0.193684 -2.427024 0.258388 -0.018868 2.847429 -3.891814 4.587636 0.848508 2.457224 
太平 0.553850 1.422102 -2.375412 1.516458 0.781735 -0.490220 1.860704 1.034924 1.963504 -1.815870 
歐陸 0.560857 2.034740 -1.726815 -0.994965 2.040576 7.026274 1.489737 0.133013 1.247579 0.234535 
博 2.602484 -0.732166 -3.972723 -0.605898 -1.624580 1.290425 -1.231612 1.151850 0.414335 -1.721590 
柏拉圖 -1.847529 -1.872324 -1.860962 -0.517927 1.272888 1.032476 -0.945503 -0.494752 -0.437134 -7.553495 
甘 -0.226090 -1.440649 0.248336 -1.856883 -0.325285 0.156041 -0.130048 1.375258 1.384929 -1.513674 
伊比利半 3.879915 0.313192 0.164326 -4.059215 3.940945 2.009798 2.098886 0.082947 3.914258 -0.865889 
美的 -4.106195 -0.875633 -0.176059 -1.026984 0.375024 2.105657 2.007394 1.509902 -1.341305 -5.118134 
蘇格蘭 1.550166 1.272619 -6.151969 -3.108105 1.176107 3.676861 1.605185 -2.038313 3.238219 -0.150070 
阿富汗 4.944168 2.727184 0.530181 -1.835086 6.897744 2.788466 -1.530354 3.996857 1.683708 2.189490 
托勒密 -2.042327 2.128360 -2.361932 -3.693829 3.351500 -2.503327 1.611351 -0.672688 -1.463561 -4.951305 
朱熹 -0.352036 -0.153057 -3.084840 -2.685506 1.249803 -5.901474 -2.612141 4.118793 0.783749 -0.690964 
阿里山 -1.181718 -0.791396 -1.815862 -0.474710 0.436429 0.403805 1.468380 2.628598 -0.216099 -0.334086 
吉 1.108699 0.832812 0.200918 -0.642038 -0.416468 -0.401427 1.643974 0.631593 -0.578272 -2.059913 
釋迦牟尼 1.425528 6.641562 0.520114 -4.921395 4.556877 2.860274 -0.045138 0.486221 -3.874626 -3.841208 
施 -0.319233 -4.792882 -3.510147 1.665057 1.585855 0.371368 2.769139 1.152888 0.070885 -0.355551 
史詩 -0.168436 -3.781309 -1.900256 -0.315768 4.143141 -0.591882 3.190281 -0.325266 0.535980 -5.655125 
宋元 2.332822 0.814531 -0.920170 -5.079788 0.408549 -1.823862 -4.119587 3.630757 -0.120467 -0.182673 
三權分立 -2.863657 -1.321643 -2.191473 -2.914290 0.833245 5.074052 1.803272 -0.045090 -3.035339 0.764214 
杜魯門 0.621811 -2.543708 0.382957 -0.215574 2.646321 5.264212 -2.154645 2.811106 0.097833 1.637495 
朱元璋 2.327146 1.706607 -1.000871 -1.890220 -0.133637 -0.627199 -0.450818 1.629067 1.011229 -0.360070 
王爺 3.388878 -3.922126 -1.891143 -2.403637 -0.536235 -1.186705 5.016514 4.242150 1.771417 -0.212766 
十二表法 -1.124273 -0.069563 -0.344381 -3.456583 3.609432 -2.208516 4.218998 0.482044 4.253771 0.266989 
漢字 -4.041136 -3.271478 1.083581 -4.356304 -0.390806 -2.091719 0.382984 3.573734 0.866007 -2.402549 
蘭陽 1.335721 -0.938409 -5.612323 -0.246948 -3.661822 1.981544 3.795485 4.036661 -0.328714 -4.423570 
英格蘭國教 0.560107 1.304390 -5.034024 -5.758298 2.811878 1.171524 -0.280412 -3.007518 1.200079 -0.911889 
普羅民遮城 0.278218 3.625374 -3.762105 -1.634277 2.431829 -1.200297 5.184762 1.429480 -5.542000 0.155357 
大城市 0.393586 -2.334932 0.826110 -1.480269 1.868357 -0.420932 -2.920043 1.018577 -0.387050 -2.314597 
渡海 2.282724 -1.977783 -2.280071 0.189382 -0.819758 -0.213087 1.899451 3.834848 -1.819522 -0.343821 
興城 -1.549793 3.220127 2.096081 -2.873904 0.213349 1.984110 -0.908331 4.291632 0.026756 -2.600293 
唐玄宗 -0.128737 3.663305 0.218014 -2.749317 -0.087784 1.337506 -1.555018 0.917475 0.992961 -1.756531 
王維 -5.128678 2.484483 -2.574934 -6.747187 7.059769 0.774445 -1.693816 0.549832 -2.839952 1.399925 
印加 -0.739889 -0.359468 -0.730718 -7.604170 -0.912467 3.831683 4.638792 1.848116 -1.176327 -2.832241 
鄂圖曼土耳其人 1.829061 -2.059694 1.453820 -3.645063 3.275463 0.332777 -1.225835 1.329784 3.701350 -1.445390 
蘇軾 -0.950631 3.257199 -2.663930 -5.237859 2.916566 -4.159394 -2.918071 4.161904 2.512078 2.594189 
北平 2.942205 -1.631298 -0.965355 -0.277693 1.118914 2.620823 -3.648997 2.595217 -0.199493 1.173229 
三皇 0.418570 -2.143142 -0.857336 0.980796 -0.718962 -0.786091 -2.416837 6.279212 3.795732 -1.450106 
張靜江 -1.354802 4.462523 -3.191405 3.150729 1.735299 -1.926783 -0.713712 6.009073 -1.001551 2.050392 
壯丁 -0.904616 -2.533644 -2.381126 2.243213 3.413242 1.395589 1.293618 0.179365 -1.753922 -1.446939 
奧古斯都 -4.099021 -0.300035 -0.642088 -0.770175 5.387934 -0.602648 3.598668 0.708811 3.313947 -2.499464 
君權神授 -1.903549 3.295651 -5.175583 -3.265443 1.312705 3.382552 2.500387 -2.487341 -1.362611 -0.881192 
希臘文化 0.544976 -0.744931 0.247788 -2.029258 4.220184 -2.081808 3.624040 0.274870 1.299086 -4.693760 
泉 0.123520 0.428550 -3.024264 2.242551 1.476540 -3.596581 1.872066 3.788981 -1.342888 -0.869063 
清教徒革命 0.909033 3.309031 -5.293252 -1.912817 1.136697 3.811865 3.305430 -1.785828 -0.632285 1.107485 
張伯倫 -1.408815 -0.910808 -1.697084 1.012486 -1.081194 6.852802 -2.152558 3.370196 5.761924 -1.535187 
何謂 -2.225909 -0.877401 -0.237482 -0.278761 2.102926 0.827830 1.411680 1.128472 -2.547814 -0.889726 
練兵 0.932715 4.342832 -5.568690 1.938872 -0.127246 2.315434 -0.008870 1.567750 0.270881 -1.668215 
歐亞 2.777564 -0.397205 1.355175 -1.249648 3.664429 1.608937 -3.035479 2.671810 -0.696573 -2.966645 
建安 -6.449664 0.967240 -3.926462 -0.221014 4.497067 -0.315405 -4.365430 -0.165528 -0.858867 -4.963434 
王子 0.903077 0.251593 -1.107276 -1.208941 2.419323 4.655675 2.589999 -1.857732 0.789396 -4.589421 
範圍圖 2.644466 -1.126095 0.171047 4.381163 1.151645 0.888652 0.862717 3.421908 -2.302428 -4.311624 
卑南族 -4.209813 2.385475 -2.906906 -3.302614 -1.931193 -0.618281 2.455883 5.339343 -1.969824 -0.524936 
太平洋戰爭 0.115704 -0.586038 -0.144855 0.733216 0.882380 5.087236 0.330539 3.982685 -1.687709 0.429127 
發動戰爭 -0.107139 -0.922489 0.402020 0.456120 1.641595 4.353354 1.967918 0.278312 1.336092 -0.627527 
劍橋 0.332186 -1.237677 -4.579984 -0.693849 -1.771296 1.310604 -2.517148 2.632802 -1.651275 -0.327142 
重慶 1.136593 -0.759669 -1.835430 2.247207 2.490670 2.657830 -1.612685 3.111187 0.380236 1.986251 
梵谷 -4.808644 0.408124 -2.897325 -1.426654 2.043850 0.870191 3.583387 -0.075468 -1.206015 -0.406709 
華北 0.853948 -0.439076 -1.804573 0.653247 2.071826 3.701062 -3.518534 2.525182 1.115098 1.838574 
新舊 -1.419692 0.785292 -4.083145 -1.474443 0.591997 -1.481808 -0.920167 -0.213323 2.243585 1.481975 
江 2.361942 0.972781 -3.057693 -1.641184 -1.262319 -1.053810 -1.146082 2.706204 0.700745 0.334944 
新約 1.796135 -1.723664 -1.673487 -0.434546 3.805178 0.872322 -1.427853 0.036286 -1.031334 -0.097780 
望遠鏡 -2.141815 2.084630 -4.787292 -4.033043 0.633348 -0.611509 1.639750 -0.298202 -2.472019 -5.392091 
立法權 -3.101575 -0.332024 -3.240322 0.242594 1.875978 3.392877 2.914975 0.038562 -0.749633 2.061657 
紫禁城 4.929673 1.854782 -3.460897 -1.614962 -2.629884 2.845726 -1.251276 3.755630 1.906018 0.730949 
開國 0.091449 2.105319 -0.652076 -2.152545 -1.416759 -0.342691 -1.695882 2.396829 1.432761 1.067148 
楊堅 -1.540449 1.539985 2.062959 -1.475678 -1.083191 4.298385 -0.140078 4.391201 -0.601284 -5.021954 
修道院 -1.569411 -1.413395 -4.106313 -1.345948 2.949255 0.144906 -0.856106 -2.569725 5.317347 -0.803735 
愛琴海 3.639625 -2.155604 -1.017092 -1.530325 5.088229 0.602733 2.171231 0.348065 -0.412886 -4.051346 
開皇 -1.150882 2.071873 1.976540 -2.783967 -0.305294 2.390179 -1.110199 4.865597 -0.102824 -3.592028 
顏真卿 0.471091 1.230832 -0.783503 -3.014842 -0.389336 1.652884 -2.349150 1.303145 -0.039374 -3.140959 
嘉南 -2.650103 -4.699666 -0.388241 0.079263 -1.680786 4.015596 0.646602 4.102813 -0.301380 -2.642730 
汴京 0.685819 4.030792 -1.890591 -3.056650 2.358446 -2.712518 -1.882818 1.118067 1.823538 -1.166679 
尼亞 5.032454 1.451007 1.161460 -0.258096 2.001244 1.962435 2.726094 1.780399 4.018184 -2.047552 
立憲派 3.202418 3.941569 -5.344844 0.949207 0.272538 -0.059197 -0.468231 1.816126 -0.767829 -0.578308 
景德鎮 -0.612655 0.777982 -0.904562 -1.817946 -0.361178 -0.085217 -1.869733 0.687094 0.779921 -0.439879 
雅典娜 1.166357 -3.014489 -1.949619 -1.163303 4.107735 1.523709 3.651603 -0.811863 -0.995901 -6.305471 
江青 -2.388891 -0.801658 -0.862169 2.961362 -0.834673 1.850619 -0.197610 6.336470 3.763870 -0.244875 
榮耀 -1.759689 -0.982100 -0.430898 -2.088582 2.472137 0.677977 2.371963 -1.717738 -0.437317 -2.886869 
山林 -1.875530 0.242802 -3.094220 0.830952 -0.247553 -1.521332 0.408432 2.148988 -1.557951 -1.758798 
開元 0.365462 1.866183 -1.667866 -2.496727 -0.373548 -0.001444 -1.260714 1.115371 0.960354 -1.764006 
容納 -1.017023 -2.838221 -1.805612 -2.933165 2.648769 -3.209447 1.047666 0.790701 2.273443 0.568605 
秦王 -0.281067 2.683364 -1.062484 -0.277538 -1.251270 0.104773 1.828572 4.929285 2.599629 0.045111 
郡縣 0.821995 1.641258 -2.239594 1.322089 -1.452877 -0.587147 0.257275 4.719644 3.908860 -0.327380 
許可 -0.057321 -1.546479 -1.778684 0.156746 1.320207 1.079761 -0.661630 0.257126 -0.583944 0.885143 
高山族 -1.336265 -1.803384 -1.301671 -3.858542 1.130213 -0.770884 0.091449 2.269414 -4.991933 -2.616320 
黃河流域 0.548657 0.470735 -0.600871 -0.370777 -0.346555 -1.627980 -4.189473 3.969003 0.793845 -1.220224 
隋煬帝 -1.029841 3.916601 1.413464 -1.279117 1.360314 2.049327 -2.750567 3.194727 0.443106 -2.282892 
上古 -0.490013 0.407551 0.372962 -1.704133 0.791598 -0.937414 0.409190 0.648149 0.434920 -2.937693 
行會 -0.894516 -3.235738 0.127438 -3.338132 3.148156 2.823139 -4.670781 0.357770 1.419831 -5.474463 
小琉球 0.388546 -1.477139 -3.653381 -0.135265 1.525855 1.194588 2.066385 0.904717 -4.900301 -4.053857 
笛卡兒 -3.087838 1.083631 -4.993320 -2.101023 1.039403 1.489910 -1.510038 -1.886505 -4.311402 -5.023076 
馬加爾 6.828919 0.711522 -4.879745 -0.008255 -0.187268 2.477017 5.621363 1.528775 1.662434 -1.395814 
長大 -2.638571 -1.285914 -0.551825 -1.905517 1.942882 -0.113740 3.251402 -0.274823 2.924190 -0.998585 
加拿大 -0.220414 -0.952541 -0.638547 -0.551022 1.369506 4.317484 0.705822 0.768624 -1.687540 0.364577 
馬尼拉 4.013157 0.560461 -1.469993 -2.438923 1.334726 2.704488 1.819098 1.289710 -5.187521 -0.373823 
猶太教 0.995109 1.058295 0.549923 -4.533936 7.956924 -2.195007 2.349298 1.129113 1.833351 0.993771 
中英 6.609726 -0.990879 -3.642119 -0.069239 1.906397 3.106777 -1.592893 0.602176 -0.546413 0.120208 
西拉雅 -3.282964 -3.620957 -4.082523 -1.049638 -0.276547 -0.543372 3.840677 2.183911 -3.219374 -2.289666 
伊斯坦堡 0.997386 -2.882597 1.226923 0.422974 4.768456 -1.896761 -0.117191 1.127723 4.282026 -1.302662 
羅伯斯比 -2.768634 4.524665 -0.492670 -0.188571 2.481731 2.296700 4.874409 1.391350 0.484213 1.386227 
欽 2.140082 4.417107 -1.048932 -0.786522 3.455115 -1.445899 -1.550409 0.424737 0.051600 -1.470508 
林彪 -0.438126 0.114798 -0.745280 -0.907320 1.820639 0.631349 -1.258523 6.025593 4.269183 4.249239 
蘭嶼 -3.354273 0.265903 -0.104716 -3.071366 -1.279806 0.577470 1.940938 6.041281 -3.853728 -2.086500 
中斷 2.500963 0.381860 -0.559798 -0.604165 1.322667 0.378212 -0.873995 0.457136 0.777044 -1.491161 
祕魯 0.511466 0.580638 0.392698 -3.348469 -0.507215 5.879673 1.912572 2.675923 -1.819409 1.252891 
墨 0.301484 -1.249401 -0.642259 -2.188061 -1.093349 -1.044779 2.159513 2.411999 1.376193 -1.928304 
魯 -1.574419 2.261546 -2.443094 1.046221 0.911652 -1.329664 2.212721 -0.109374 0.008265 -0.470137 
永曆 1.926279 0.130364 -3.274369 -0.018121 4.633479 -2.228376 1.202559 1.233281 -3.702564 2.141140 
紐 -0.231093 -0.156970 0.218974 1.016836 1.849691 2.118805 2.059944 2.222251 1.794582 1.199180 
玄奘 0.712065 0.709631 0.574133 -1.680693 0.345046 0.150854 -0.946786 1.580892 0.937855 -2.747858 
史前時代 -2.423095 -1.829274 -2.376188 0.090552 -0.294905 -1.354488 -1.694849 5.279909 -3.355876 -1.798666 
遠古 -1.374324 -3.041544 -0.728590 -0.116083 -0.269911 -1.167263 -3.210592 6.948859 1.826031 -2.531610 
廈 0.850456 0.549100 -3.342203 1.745711 4.600772 -3.228896 1.406748 3.051125 -2.017978 1.007998 
東寧 2.965758 1.126105 -3.626868 -1.667592 3.876409 -2.715559 2.597564 2.094963 -3.425373 2.602435 
寧漢 -0.793127 -0.887148 -1.826990 -0.508873 1.778868 2.399513 -4.817305 2.647069 0.001598 0.666330 
費正清 -0.171105 -2.516470 -4.030670 -1.608392 -1.521632 3.762946 -3.425064 3.777851 0.110133 2.044459 
新興國家 -0.228769 2.116924 0.718397 -0.887666 4.400654 1.510208 0.056836 2.193348 0.103787 -0.260899 
李斯 -0.706899 3.227447 -1.802600 -0.466074 -2.503326 -0.570202 2.567745 4.350648 2.662188 -0.082150 
沙皇 0.340380 1.338651 -0.271268 2.506405 4.974518 1.658420 -0.573469 -0.454219 0.905622 -1.991445 
太后 -1.275242 4.244358 -3.307696 -0.789726 -0.048798 0.065321 -0.188239 3.653972 3.852808 0.274589 
美德 -2.484187 0.740830 -0.626618 0.925423 1.709984 0.248211 2.298347 -0.465854 0.438490 -1.739998 
諸如 -0.586420 -0.299985 -0.192291 -1.563809 0.410975 0.896349 -2.662516 1.189442 -2.061638 -2.193545 
白話文 -2.230912 -1.428582 -4.159364 4.196409 1.652486 -0.601853 1.157377 3.892108 -0.327463 -5.208158 
三山 -0.088212 -4.463132 -5.033763 -1.828995 0.403203 -1.674269 2.250859 3.171555 1.209143 0.814320 
藩鎮 -0.443319 3.747816 -0.302690 -3.934998 -0.033245 1.588576 -1.513687 3.735001 2.759312 0.522451 
腓力 1.652506 3.026967 -0.603153 2.355364 2.947149 3.172503 3.464074 -0.326444 0.093249 -2.642829 
格林威治 -0.537418 -3.092414 -4.154603 -2.764061 0.869450 2.177078 -0.581358 0.512419 -4.804360 -3.533880 
大百科全書 -0.584232 -1.756302 -1.777092 -0.260151 1.333935 2.131486 1.581717 -1.767526 0.307013 -0.288248 
莫斯科 -1.027657 -0.110735 1.716019 0.639176 4.290666 3.062969 -2.988869 1.829444 1.586086 0.227261 
蘇臺德 -0.978521 -0.001781 -1.704558 0.738813 0.234878 3.792933 -1.419713 2.585485 4.392364 -1.354029 
福祉 -2.393594 1.843605 -0.716781 -2.165264 1.803990 2.057482 1.367430 -1.356385 0.031364 -0.332558 
漳州 1.660836 -1.203154 -4.672003 0.917966 0.647872 -2.954585 0.950485 3.011033 -0.500503 -0.445433 
阿拔斯 3.332271 0.668743 -0.151816 -3.683249 4.307940 -3.165228 0.296277 3.911231 0.173109 -0.568494 
反革命 -4.067873 2.032760 -0.680093 1.833199 1.683930 2.650868 2.533210 2.406559 1.710976 3.044940 
鐵木真 -2.757456 3.512736 1.939475 -2.703422 5.889818 -2.289742 -3.935589 3.740437 0.473120 -3.776575 
關羽 -2.295433 0.099906 -4.731300 -1.122370 0.664157 -0.684693 -2.828191 -0.894698 2.177624 -5.968940 
塔利班 3.437457 3.711589 0.056495 -1.482854 6.170379 1.170675 1.733131 4.214617 0.670758 3.515958 
馬基維利 -1.385234 0.527769 -3.860417 -1.236586 -0.563355 3.260473 2.311690 -1.728881 3.860704 -4.294898 
狄奧多西 0.231922 -1.982120 -1.383314 -1.138368 5.501412 -2.046464 -0.360235 0.207440 4.046447 -1.600999 
南美洲 0.314704 -2.181224 -0.927105 -4.970892 -0.681301 3.983398 0.531049 2.627984 -1.283851 -0.261203 
十月革命 -1.321917 1.255179 -0.850524 2.221356 3.400961 2.067912 -1.647676 1.312690 -0.516593 0.554438 
廖 2.389697 -1.616779 -3.350897 -0.901438 -1.329645 1.360292 0.246373 1.634126 0.620630 -0.257999 
陳述 -1.353081 0.074120 -0.119494 -0.697986 1.578474 1.466865 2.257936 0.250007 -1.181975 -0.523910 
祆教 2.984585 0.057126 1.948133 -1.827537 2.654985 -1.060908 2.926118 4.443155 0.832354 -2.925198 
龍山文化 0.692516 -2.004091 -2.107168 -0.927358 -0.179830 -2.850796 -6.389063 8.741546 3.126993 -2.110889 
蔡鍔 -0.404206 5.400666 -4.530403 -1.508125 0.079509 0.372259 -1.592421 4.415400 -4.916930 0.321069 
民國初年 0.945821 -1.102722 -2.956713 2.697631 -1.650590 2.230567 -2.759462 3.227710 0.564030 -4.067758 
倫巴 0.435562 1.194487 -0.576001 -0.166216 1.983172 0.430035 2.831528 0.170940 3.168534 -1.292448 
區域衝突 -1.287897 -2.365018 1.175352 -1.565899 5.642358 1.987582 0.073227 0.849281 0.833680 2.413273 
桂 1.852914 1.978909 -3.724658 0.248348 1.323264 -0.561971 -0.864891 1.514094 0.115930 1.729624 
藍波 -3.781642 -1.004627 -2.042180 -5.479732 0.038890 -0.212991 1.904069 3.354671 -1.031405 -0.015472 
關懷 -4.178329 -6.358407 -1.491630 -2.247000 3.760535 0.720825 -2.289137 0.853796 -0.746203 -0.551214 
同安 3.993875 -2.957787 -4.155946 -0.689977 1.700931 -2.272005 3.412878 3.021472 0.625651 0.493676 
保加利亞 2.367845 -1.299150 1.769541 0.902584 3.835194 2.206220 0.728496 1.130012 3.701631 -3.086841 
敦煌 -0.318034 3.116614 -0.465749 -0.474431 0.366538 0.041609 -1.366735 4.281450 3.108158 -6.721325 
德國人 -0.235081 0.186030 -0.496313 2.763978 2.570493 4.267937 0.603685 2.317359 2.841316 -0.705445 
賽德克族 -4.890177 1.984262 -3.723734 1.441588 0.864341 -0.514359 3.721975 2.111324 -2.941239 -0.504457 
徵召 -1.154054 -2.106145 -1.340097 2.640760 0.907938 1.632521 1.295003 1.960775 1.496963 -1.141720 
江蘇 1.597420 3.004341 -1.909596 0.933190 0.533306 0.285419 -3.678052 2.259200 0.263639 -1.355868 
巴士底 -3.976290 2.881472 -2.457118 0.281400 1.405559 4.571172 2.699118 -0.343248 -0.518169 0.170057 
七七事變 0.807974 -2.285276 -2.439124 1.330803 3.045005 3.165022 -3.882401 3.031779 0.469497 1.184650 
神農 -1.733512 0.203538 -8.054902 -4.129486 1.300051 -3.388738 1.585328 1.409039 -0.146046 1.052762 
黃花岡 -0.645701 1.856433 -5.385445 0.849675 2.636829 0.438184 -2.098091 0.648070 -2.249825 0.494675 
永發 -1.766763 -1.906123 -0.384821 0.227401 1.583214 3.051070 -1.790872 4.373689 1.977003 3.634348 
殷 -1.718490 -1.893858 -1.401394 -4.503031 -3.274494 0.068553 -0.590223 5.912154 3.977070 -2.043280 
印度教 1.915211 4.063674 -0.081129 -4.171612 3.698343 1.904519 0.128417 0.529904 -2.507832 -3.475071 
唐繼堯 0.573118 4.520250 -5.286557 -0.713324 -0.887371 0.558210 -1.619034 3.310259 -2.385967 2.583140 
從政 -0.152396 0.031242 -0.774557 -1.514736 -0.005845 0.363142 -1.258189 1.612656 -0.131404 -0.378518 
遠東 3.876897 -0.151721 1.111257 -0.796899 2.891166 2.233479 -1.376498 -0.334919 0.031260 -1.454720 
伊 0.752411 -1.146141 -0.242076 -1.431798 1.533669 -2.712378 0.453507 0.743769 0.186287 -2.165030 
黎 -1.026200 0.606257 -6.143992 -2.162039 -1.890393 1.318848 -2.319513 0.596551 -0.166138 -3.514965 
詹姆士二世 1.308187 1.882876 -4.846099 -2.326810 0.502143 1.805485 3.295074 -1.790479 -0.952674 0.583828 
琿 5.263805 -0.083229 -3.484944 1.051194 5.428835 2.988420 -2.764215 0.060106 1.683307 -0.064543 
明治天皇 2.035981 2.612974 -2.054467 3.014350 2.395027 2.010729 4.151573 1.818752 -0.648864 0.741262 
羅馬教廷 1.016582 -0.043394 -2.217788 -3.869116 2.182570 -1.755588 -0.861093 -1.749924 1.629637 -2.068605 
藩屬國 0.748313 0.294216 -2.295364 1.149529 2.416323 0.229529 0.498960 0.395678 0.133326 0.722641 
西亞地區 1.393320 -0.174577 2.436883 -2.189293 3.488891 -1.331287 1.244157 3.483368 0.439302 -3.664806 
宇文 -4.382855 3.313599 0.358291 -4.584773 1.775442 4.985535 -0.829395 0.668900 0.638197 -1.719041 
哥德人 0.168550 0.682958 -0.502188 0.229280 4.795544 -1.617924 2.277668 2.869616 5.875012 -0.209697 
海瑞罷官 -3.053844 -0.660602 -0.117974 1.879333 0.637580 2.626729 1.867230 6.824120 3.315086 1.940476 
西臺 -0.641972 0.724789 2.007240 -2.172730 6.321999 -0.600959 3.918184 2.839623 0.444012 -1.512247 
黑海 3.814827 -0.233828 0.400990 1.045325 4.800989 1.993045 -0.818804 0.269633 1.197806 -3.989883 
虎門 7.014085 -0.908145 -4.120002 -1.068894 0.913220 1.361107 0.115231 2.429774 -0.731976 -0.647168 
中西文化 3.443267 1.769742 -0.776624 -2.589170 1.330222 -0.635578 -1.400169 0.434302 0.754382 -3.029935 
亞當斯密 -4.346469 -0.260382 -1.672874 -3.794019 2.364472 4.436108 0.216862 -0.640622 -2.544096 1.476753 
中南美洲 -1.964426 -0.537607 0.207531 -4.031979 2.127827 4.073063 3.211356 -0.641075 -1.240683 -0.366660 
基督 0.305655 -2.230937 -3.864905 -3.224361 2.977562 -2.791885 0.707860 -0.423730 0.631379 -0.465465 
改革派 -2.084099 2.005722 -4.760635 0.000232 1.583947 0.794402 -0.490182 -1.507290 0.215570 0.478055 
伊莉莎白 0.942040 1.197807 -3.401545 -1.752423 0.221972 1.897385 0.609260 -1.980476 0.976843 -1.246194 
臺地 1.140519 -2.407080 -1.789789 -0.314517 1.376400 -0.498723 0.367407 2.300270 -1.092778 0.626209 
厝 -0.291835 -3.935382 -3.789270 -0.547176 0.697665 -0.974864 3.212348 1.683157 0.529647 2.298106 
北齊 -3.327204 1.274560 1.554010 0.077346 0.530218 4.199263 0.734152 4.055371 -0.896963 -6.987417 
陝北 -1.532290 -1.493089 -2.878377 1.177405 2.004128 1.279646 -3.711478 3.201094 2.280092 2.856366 
華麗 -0.866686 -1.793171 -1.768645 -1.466082 1.298106 1.261601 2.056279 -1.617905 0.229026 -0.148895 
唐王 1.895544 2.005884 -3.284919 0.095631 2.687484 -2.988080 0.168292 0.348951 -1.026122 1.474057 
廉 -1.747500 -0.253724 -1.902274 0.441969 -1.612875 3.736452 2.880383 1.767156 2.511071 -2.437517 
田賦 0.834181 -0.245222 -3.939177 0.581084 0.543644 -1.014814 0.252308 1.271091 0.201801 0.278736 
中古史 0.863557 -2.715089 -1.572182 -2.972199 0.873199 -0.492425 1.089346 1.266232 3.586503 -1.085631 
河 -1.562028 2.167862 1.475649 -1.150744 0.216746 -0.417892 -0.297120 5.325929 -0.230975 -1.618436 
秋瑾 0.829190 2.556479 -6.622314 0.059365 0.570378 1.979624 2.152886 1.947328 0.644411 5.165706 
平城 -2.071162 3.271982 -1.215884 -1.552911 -0.224130 -1.607525 0.049719 2.987016 -3.339936 -4.281198 
齊桓公 -0.808942 5.345807 -3.780783 -1.229974 -0.317846 -0.130617 7.252410 4.298069 3.825269 -0.769537 
旅順 2.375801 0.330749 -0.393738 2.587294 2.273262 3.344258 -2.317234 1.796480 1.432957 -0.707737 
哥哥 0.596669 1.588931 -5.417217 -0.698430 -0.029999 -0.305411 2.623632 -1.139337 3.651786 -3.044722 
寧靖王 2.324966 2.764149 -3.979826 -0.515389 1.936325 -2.998116 1.886923 1.627501 -1.803046 0.721914 
南陽 -5.958702 3.336335 -0.543193 -2.657795 2.008791 3.084554 -2.740610 0.386677 2.304140 -2.885488 
狄更斯 -5.071840 0.631314 -2.329216 -0.648607 2.402457 0.625710 4.001677 0.071073 -1.079816 0.560085 
東都 2.377914 1.528440 -2.997156 -2.717769 2.157045 -2.921606 2.100158 2.577472 -0.054833 2.173794 
開羅會議 0.873002 -0.836590 0.966065 0.872037 1.610125 3.663782 -0.052296 1.849051 -1.433063 0.780920 
四國 -0.493966 0.004010 -0.038460 1.588202 1.493426 2.802431 0.272382 1.994111 1.416291 0.237330 
人文主義 -0.951564 -2.625437 -2.724996 -5.522564 0.914232 0.184452 0.622335 -0.872986 2.382268 -4.043508 
羅漢 1.771475 -2.687184 -5.828784 -0.351552 0.692733 0.629659 0.766543 1.241906 -3.134528 -1.802412 
姚文元 -3.170974 -0.127781 0.147954 2.559251 0.153766 2.367258 -0.081819 6.516413 3.186510 1.564207 
拉美 1.253530 -0.097448 -1.420447 -3.997289 -0.784196 5.445096 1.393438 2.292019 0.737654 1.861904 
愛德華 2.011151 0.722244 -3.228108 -2.384315 3.064738 3.618519 -0.096725 -2.268869 3.741491 -1.041433 
大元帥 1.075094 1.687924 -5.902664 0.923198 0.329315 0.173624 -2.787042 2.098385 -1.319834 0.927713 
達成協議 0.742118 0.113338 -0.409990 0.920415 2.320924 1.850220 0.030592 1.016408 0.064495 0.178908 
十國 -1.491037 2.781291 1.505180 -3.070490 1.130138 1.148834 -1.020933 4.075890 -1.104404 -0.694708 
永和 0.334742 -1.295129 -3.965324 -0.143584 0.231207 0.231069 2.280799 0.305304 -2.944749 -2.155077 
長安城 -2.171376 3.236108 2.898870 -3.651600 0.326265 1.028366 -0.703546 4.186945 -1.127126 -2.060470 
黎明 -0.057674 -0.476647 -0.077585 -1.041551 0.510169 -0.098786 0.035160 1.457137 -0.034469 -0.134831 
武帝時 -0.289534 1.811510 -0.938535 0.363347 -0.840290 0.753402 1.896351 2.417209 1.697708 -3.604886 
陸 0.804557 1.142267 0.071923 0.105821 0.305457 1.024208 0.466530 1.781731 -2.004537 0.243458 
諸子 1.278641 1.825779 -2.461844 -1.965770 -1.246485 -1.412565 1.814343 1.229511 3.255208 -1.147236 
港灣 3.125678 -0.844492 -0.484854 2.348896 0.684113 2.810559 -0.381792 2.457623 0.708302 -3.269158 
葡 0.717569 -0.070619 -0.905996 -2.650789 2.284184 4.097636 3.099989 -0.316281 -2.548039 0.761632 
大將軍 0.502305 2.170142 -0.011248 2.571839 0.981351 1.494455 5.389748 3.834240 0.786930 0.214426 
鳳山縣 1.020053 -0.330434 -6.465180 -1.031216 -0.716052 -1.843227 3.440691 0.594570 -0.741122 -1.476082 
潘 -0.487059 -3.244750 -2.619243 -2.633165 0.318970 0.560621 -1.889053 2.223329 -0.233803 1.628553 
洛林 -0.110100 0.060051 0.085577 -0.199217 2.799085 3.321267 3.271603 -0.117913 1.335746 0.591188 
原住民族的社會 -1.652514 -2.018502 -1.302518 -1.549631 -1.683924 0.635327 -0.107010 6.110592 -3.545875 -2.651519 
江澤民 -2.570333 1.329295 -1.643921 0.178999 1.579770 0.181887 -1.856763 5.707833 -2.148347 2.234062 
保守派 -2.640169 0.657741 0.926821 1.840698 4.963719 1.010554 -2.058019 0.146499 1.552091 0.114792 
淮 2.374514 3.773777 -2.260239 0.245871 -0.378468 -0.578899 -2.197837 2.119938 2.807609 -0.308580 
田園 1.194738 -2.122291 -4.116058 0.255301 -1.274086 -0.173974 2.252529 3.738878 -3.458129 -1.745436 
南非 2.867615 1.344904 1.710119 -2.374414 2.984427 3.795077 1.514940 0.675387 -0.516860 -1.582151 
西林 3.936254 -1.342810 -3.119628 -0.595145 2.800734 1.487864 -0.208710 2.158984 3.306558 2.905245 
延平郡王 1.923039 0.392642 -3.034731 0.892367 3.468766 -1.227162 1.711150 0.335924 -2.432093 -0.736196 
論文 -1.485663 -2.987536 -2.190699 -1.374982 0.427982 0.467982 1.415032 0.262819 -2.583143 -3.464173 
鄭克 1.517670 0.099488 -2.281161 0.188271 3.443422 -1.334120 2.646255 2.627560 -4.099374 1.602171 
張儀 -1.353796 2.069126 -2.051676 -3.243888 -0.840637 0.309594 5.034291 5.965340 0.806675 1.138188 
小三通 2.995016 -1.606317 -1.389942 0.472439 0.350068 1.676198 -0.263020 3.982138 -2.858352 -0.718597 
汪 0.018525 -0.785540 -2.492627 0.757323 1.201143 2.261667 -1.687477 1.185048 -1.321625 2.030829 
賽德克 -3.889694 0.791454 -1.928484 0.902050 0.684422 -1.815919 3.684443 2.817127 -2.842657 -0.132396 
才華 -4.036077 -0.799220 -2.270002 -0.376045 3.173013 -0.644604 -0.015153 0.341627 0.167618 1.119152 
蘇秦 -2.409957 2.956271 -2.858737 -2.306294 -2.050542 -0.303031 3.702855 4.910470 1.359258 -0.944698 
但丁 -2.409945 -2.657004 -4.518173 -2.249822 0.406668 1.050743 2.593017 -0.872057 4.440891 -4.117692 
鄂 2.288614 -0.380655 -0.910346 0.637694 3.344943 0.004004 -2.615633 0.133087 1.376995 -2.195832 
紅樓夢 0.699272 1.140537 -1.717891 -2.621140 -0.952867 -0.874375 -2.204858 -0.992343 1.423343 -3.011102 
英方 4.646393 0.013775 -4.504445 0.081525 1.147673 1.265837 -1.733959 0.916520 -2.560067 -2.031972 
蜀漢 -5.808942 1.903691 -1.881762 0.117428 2.493075 1.754025 -3.525394 1.576305 0.828461 -3.978661 
公正 0.224354 -1.635207 -0.436363 0.407084 2.292706 2.748302 0.399872 0.451909 0.738524 0.316562 
黑龍江 4.247830 0.937745 -3.100664 0.662242 4.848906 2.425356 -2.591879 -0.128328 1.265914 -0.533989 
楚漢相爭 -1.177546 1.538967 -1.089319 0.029332 -2.730412 2.475881 2.067232 3.603649 3.622276 -3.280480 
太平道 -3.639251 3.897988 -1.181594 0.583760 3.174751 -0.031544 -0.674932 1.606435 1.400050 -7.006887 
新莊 -0.000522 -2.883410 -6.155723 -1.704393 -1.882342 -0.049817 3.792251 2.209792 -0.949614 0.583049 
景美 -2.135259 2.367005 0.398772 -0.413149 4.368078 -1.523221 0.649221 4.829268 -2.829098 4.277750 
民主運動 -3.544252 -2.186426 -0.705266 0.105616 2.589043 0.982455 -0.414681 2.173005 -2.256015 0.970579 
宋史 -1.782530 2.744839 -0.824282 -2.728559 1.703585 -1.057620 -0.659137 3.090578 1.644923 1.429228 
屏東 -0.706526 -2.199267 -3.587376 0.300596 -0.328964 -0.504771 3.318400 1.974521 -2.540909 -0.464720 
日增 0.711517 -2.159749 -0.074727 -1.512667 -0.377423 0.954796 -0.260623 2.033830 -0.584756 -0.239296 
麥加 3.500122 -0.519542 -1.785531 -4.963066 4.060371 -4.021295 -1.030659 5.871705 2.214220 0.918763 
法蘭克人 -0.080714 2.447411 -1.192404 -0.494987 2.928814 0.887096 2.405253 0.826373 5.775111 0.042019 
紀傳體 -0.650247 0.686156 -3.171960 0.524226 -1.199298 -3.448023 0.088309 3.774692 2.128502 -5.019914 
咸陽 -0.279355 0.488855 -1.123962 -0.998807 -1.565138 0.268934 1.271878 3.884166 2.360821 -0.602765 
陸榮廷 -0.183740 1.431986 -6.852487 1.337139 1.371722 0.087392 -1.719313 2.815109 1.485197 3.830941 
天街 -1.336269 -1.834685 -6.385547 0.086044 2.854691 -3.139905 2.989697 1.567980 2.842585 2.371103 
羅馬城 -0.470638 0.733773 -2.142552 -0.146654 4.415078 -1.331968 4.368824 -0.423817 3.844132 -0.481500 
大月氏 2.441470 2.072056 -0.806516 0.282527 -0.192888 -0.423414 1.134659 2.941567 2.014989 -4.028623 
卓越 -2.538573 1.152452 -0.122624 -1.801686 1.648566 -0.469227 -0.016031 0.067954 1.350420 0.382042 
巴比倫人 -0.946967 2.809235 1.185211 -0.752418 4.204499 -0.361693 4.555154 4.320638 -1.158999 -2.714123 
徵兵制 -0.591519 3.612838 -1.703535 1.884379 0.922879 2.453227 1.784585 -0.387459 1.885211 -0.661453 
古城 0.202040 -1.602396 -0.166374 -0.721173 3.309983 -0.522000 -0.802557 0.123151 1.943954 -2.729933 
