6947 10
</s> 0.040027 0.044194 -0.038303 -0.032780 0.013666 0.030211 0.009409 0.002113 -0.036035 0.022185 
臺灣 -1.032375 -1.612808 0.528682 0.489362 0.474387 2.880134 0.974334 0.938816 0.921109 -1.147023 
中國 0.125639 -0.113092 -0.378233 1.204577 -0.625889 2.132042 -0.762657 2.469374 -0.009608 -0.158672 
日本 -0.590799 0.102117 -0.038253 1.967465 -0.272948 2.905716 1.128896 2.807718 -0.641096 0.545913 
臺北 -0.482702 0.049163 -0.343953 -0.470577 -1.306153 1.405994 -1.565359 0.221087 0.304408 -0.584521 
美國 -0.244160 -1.716536 1.738944 0.179917 -1.135662 3.192491 -0.259625 1.751788 2.353299 3.645223 
英國 2.137713 0.168981 0.911258 0.097012 -2.843837 3.718447 0.320262 1.387031 2.415507 0.951799 
歐洲 0.988809 0.512859 3.645978 -0.137961 -0.720177 2.513101 -0.356590 -0.450454 1.536217 -0.007298 
法國 0.535946 1.734910 2.303159 2.055504 -0.516715 3.203793 1.033310 -1.280751 2.896418 2.925840 
德國 -0.155495 0.083929 1.230397 3.001177 -0.694740 -0.146194 0.890491 2.328019 2.811804 1.959335 
北京 1.274980 1.020329 -0.166296 0.942050 -1.585468 0.911818 -0.686913 2.538362 1.191408 -0.728432 
義大利 0.208138 1.200846 1.598610 0.393695 0.207285 0.183868 0.516862 -0.982175 3.591446 0.933647 
羅馬 -0.039471 1.128155 3.351017 -1.728999 2.092355 1.635681 1.242971 -2.843177 4.876018 -1.192371 
蘇聯 -1.208683 0.233612 3.236051 2.048230 2.065085 2.063838 -1.352123 4.942050 2.161458 4.501025 
史 -0.591063 -0.671353 0.319426 -1.336296 -0.118300 1.888350 -1.464286 -0.308353 1.165300 -1.629574 
俄國 2.697366 1.909652 2.985201 3.879635 -0.513697 2.515903 -0.933831 3.819889 1.833386 1.916145 
陳 -1.345379 -0.436282 -0.385851 -0.987309 1.593778 2.116438 -2.185721 1.265286 -0.269883 -1.372249 
基督教 2.662804 0.239506 1.498290 -2.352293 1.998005 2.244670 -1.074679 -0.727444 3.768780 -1.958089 
南 -0.283341 -1.252807 0.726696 -0.268355 1.074513 1.147509 -0.039500 -0.079597 1.636724 -1.409042 
埃及 -1.976892 1.771018 4.953505 -5.367927 -0.197031 -0.105992 2.157955 0.233535 0.594521 -0.171020 
文明 0.286381 -0.717653 3.334452 -1.850124 -1.384107 -0.442104 -0.640687 0.869426 0.278282 -1.529558 
中華民國 -1.446091 0.577138 -1.287840 -0.502516 -2.442981 3.230388 0.553193 3.826874 -1.502064 1.281393 
拿破崙 1.661416 5.549387 4.725672 2.840359 0.008800 4.763009 4.461601 -0.784200 0.368715 1.688529 
荷蘭人 -1.172872 -0.924025 1.004711 0.730069 -0.762734 5.080253 3.023139 0.592753 2.707181 -2.826460 
袁世凱 0.275039 3.502610 -1.612870 0.071710 -2.497629 1.981285 2.236487 4.348222 -0.988289 -0.414699 
希臘 -0.433764 -0.636559 4.766457 0.170431 0.433720 0.304223 1.075133 -0.606638 3.506522 -3.289053 
上海 1.019715 0.670834 -1.595683 1.222815 -0.039841 1.276113 -2.098803 4.323615 1.029115 -1.666384 
孫中山 0.424374 3.253163 -3.716287 -0.425998 -1.110095 3.866729 1.794729 4.626536 1.180273 1.576861 
荷蘭 1.229748 0.061574 1.641552 0.644976 -0.177056 5.276780 3.622703 0.737071 2.746922 -0.377288 
印度 3.351208 0.157661 3.757754 -3.230646 -0.887040 2.314942 -0.032368 3.009398 -0.743779 -0.382346 
王 -1.152723 2.712693 0.544097 -0.263396 -0.424948 -0.066073 1.253976 -0.874752 1.451595 -1.872546 
南京 1.570673 0.702263 -1.346465 0.956008 0.829334 2.118067 -1.376435 5.274453 0.925314 0.494850 
十九世紀 0.470615 0.081795 1.330513 -0.375769 -0.344085 2.710231 2.282323 -0.862897 2.664378 0.528524 
抗日 -5.894447 0.869098 -3.387321 3.029041 -0.316323 2.683133 0.951093 2.068232 3.301256 2.444445 
西班牙 1.941645 -0.624281 2.075933 -2.328701 -1.712893 3.277844 2.692322 -0.504744 1.959325 0.282418 
鴉片 3.138199 -3.351270 -1.383730 -0.390314 -4.014028 3.215152 -2.780857 4.212229 4.972608 -3.642192 
美 -0.787554 -1.502237 2.931127 1.927520 0.202313 0.549197 0.581465 1.962542 0.341334 1.887151 
佛教 1.348043 3.385829 2.855726 -0.549056 2.429246 2.951783 0.237960 0.572778 -1.202808 -4.904328 
殖民地 1.024800 -0.815255 1.431932 -1.535969 -1.647488 4.258004 2.526193 0.963092 3.352586 2.324634 
和平 0.023901 0.692798 1.343266 -0.239619 -0.018478 1.082706 -0.028647 0.430773 1.250454 2.340074 
毛澤東 -3.746875 0.429669 0.288176 -2.164673 2.176641 3.102103 -5.812961 3.992380 1.490649 1.812800 
亞洲 0.529703 -1.154398 1.895581 -0.707784 -0.108300 3.400524 1.617330 1.530725 -0.286353 0.473677 
德意志 -0.168817 1.486814 3.250535 3.029095 -2.829182 -0.149479 0.176254 -1.236847 5.806635 1.901693 
中世紀 0.280547 0.897167 4.762875 -0.297429 -1.763922 0.731876 -3.471831 -0.315825 3.540295 -0.636670 
臺南 -2.480807 -1.764804 -0.935603 -1.145767 0.928792 4.309884 3.223956 0.029260 2.834963 -2.668484 
澎湖 -0.867981 -1.353758 0.780766 3.181407 0.964885 4.794688 3.364887 3.889996 -0.333705 -2.557002 
西洋 1.612783 0.469590 0.952792 -0.208561 -1.223487 0.113970 1.353074 0.316614 1.808485 0.542776 
德 -0.796965 -0.205167 2.797767 2.598522 -1.017928 0.000772 1.772996 1.364166 1.301860 0.627832 
建國 -1.519271 2.122634 0.431816 -0.428425 1.805409 -0.174484 -1.687053 0.877050 1.300413 2.437010 
波斯 1.544054 -0.868252 4.289890 -1.453138 2.337338 -1.080356 1.221432 1.885152 1.639360 -2.446412 
外國 2.846710 -0.636174 0.143125 1.359536 -1.342585 2.640072 -0.785756 1.695388 1.542947 -1.858094 
原住民族 -4.588452 -0.949781 1.701790 -0.970141 -3.320083 4.646279 2.250271 1.372425 -0.031176 -4.324872 
李鴻章 -0.570871 3.454063 -1.412856 6.082076 -1.264258 2.873494 0.787144 2.547571 2.687202 -2.105601 
西域 1.451397 2.851276 4.260672 3.596827 0.132452 -1.788054 0.834308 3.436635 0.512064 -6.757317 
廣州 2.675948 0.990046 -3.743751 -0.672374 1.949790 2.897568 1.203028 3.535309 1.907680 -1.200767 
福建 0.586745 -1.252884 -0.091290 1.353933 3.591473 2.023400 1.958042 4.649956 0.162656 -3.221503 
普魯士 -0.919101 4.139300 1.863567 3.686101 -0.626870 2.969008 0.774589 -1.131209 4.649466 2.232629 
東北 -0.293207 1.216002 1.012938 1.670822 -1.400854 1.307801 -0.157493 5.861170 0.682532 3.956105 
香港 0.679449 -1.522436 -0.861238 0.416221 -0.393939 2.885671 -1.882460 3.592137 2.499332 1.068032 
第一次世界大戰 -1.079633 -1.643543 0.535665 2.143857 -1.980816 0.247321 2.235789 1.494558 4.435116 2.298303 
唐 -1.821609 0.454908 -0.154902 -1.640815 2.620169 -1.751340 1.054390 4.585502 -0.403920 -3.060541 
藉由 -0.791584 -0.143379 0.394202 0.354090 0.949566 1.335946 0.885444 -0.564352 0.074596 -0.544207 
王朝 1.453375 1.506257 1.531292 -1.206545 -0.460248 -0.770042 0.937008 1.420207 0.856263 -0.446515 
太平天國 1.713295 4.283203 0.075601 4.273658 1.661228 1.709850 -1.983070 0.587217 3.607917 -4.614829 
羅馬帝國 0.625682 1.751169 2.536954 -1.574831 3.609642 -0.453035 -1.217751 -1.743719 5.364575 -1.328888 
蒙古 2.938457 1.257837 3.515219 -0.309730 4.636235 0.560115 -3.689782 5.174343 -0.604738 -0.457839 
阿拉伯 1.346781 0.053460 3.404861 -3.664474 -0.150632 -0.104359 1.037875 2.643302 1.620393 2.092902 
自強運動 -0.184027 3.501219 -0.386706 3.883454 0.352310 1.790255 1.660511 1.639542 -0.198081 -2.803975 
拉丁美洲 -0.327640 -0.726125 3.992271 -4.724187 -1.152520 2.279285 4.411267 1.310581 3.183009 5.259220 
猶太人 0.732097 0.443390 5.589742 -3.362024 3.034937 2.673565 -1.014323 1.272475 2.407073 2.395731 
天津 3.677305 1.580026 -0.839821 1.223472 -1.093893 1.195481 -1.365443 4.465153 3.847809 -1.011422 
府 -1.456138 -0.404207 -3.786111 -2.449345 2.860751 1.681113 2.088762 3.105882 2.091862 -2.598504 
北 -0.482278 -0.124460 2.246889 0.064335 1.740411 0.492817 0.354725 0.208380 -0.353612 -2.376021 
共和 0.327699 5.016397 1.313600 -0.497201 0.788504 1.453686 4.742026 -0.425944 -0.090492 -0.439721 
十七世紀 0.126982 1.286664 2.132340 -0.200505 -1.775744 3.834420 0.889202 -0.458698 -0.010346 -2.644961 
朝鮮 -1.357707 1.594657 -0.236045 2.797668 -0.336114 1.658296 3.255929 2.915270 1.879125 2.898782 
奧 1.207907 2.210602 3.440776 2.120361 -1.598102 -1.638122 1.936876 1.124407 2.856238 2.119973 
越南 -0.867839 1.555476 2.027180 0.578830 2.645503 4.884173 1.243746 1.282011 -1.219903 2.393579 
山東 0.887595 0.184451 1.398722 2.493752 -2.048829 -0.236349 0.060737 3.134959 0.010585 -0.275962 
西歐 0.564555 1.285835 3.457285 -0.640623 0.653565 -0.742074 -2.120493 -1.040013 5.610211 -0.502332 
南北 -0.792566 1.997755 -1.228767 -1.608052 -0.242541 1.816246 1.673332 2.510133 -1.911779 -1.825211 
土耳其 2.378939 -2.482345 3.266733 0.323422 0.957303 -0.223010 1.411788 1.078969 3.991699 1.673571 
藉此 -2.117100 -0.812057 1.411690 1.558159 -0.783777 0.268217 -0.683218 1.460201 0.926607 -0.543121 
蔣中正 -0.583737 0.292058 -2.912428 -0.532704 1.394439 3.967683 -3.029508 4.202969 3.806905 4.277537 
史稱 0.342322 3.174479 0.897528 0.772869 0.268216 -1.854839 1.266417 1.797102 -0.278235 0.467933 
宋 -0.352373 3.344481 0.887534 -3.374432 0.684011 -0.878454 -0.947957 4.345861 -1.945308 0.551686 
雅典 -0.251660 -2.189775 5.534781 1.803252 1.124722 -0.729140 1.487840 1.523263 4.062283 -6.965295 
美洲 2.569852 0.440277 3.948065 -4.371673 -3.806964 2.780669 2.424749 1.329460 -0.502732 -0.357185 
開港 1.869513 -1.666913 0.068597 0.506516 1.338539 4.198049 -1.518368 1.482563 2.916410 -6.172082 
廣東 0.764479 -0.059034 -3.345290 0.427617 1.714519 3.562460 0.638414 3.498172 2.732564 -2.180840 
伊斯蘭 2.077785 -2.535195 4.443584 -4.922467 -1.757790 -1.118110 -0.360560 4.799193 4.670537 2.841605 
十六世紀 1.217501 -1.240594 2.370492 -0.283491 -2.234988 2.811939 0.884012 -0.104038 0.517149 -2.840730 
李 -0.789644 -0.112125 -2.049779 -2.188916 -0.325392 1.773863 -0.120591 3.572461 -0.779180 0.621840 
鄭 0.539061 -1.663144 1.083245 -1.243621 4.563755 3.768033 4.955624 2.088281 1.857469 -1.157722 
非洲 2.959855 -1.334431 6.559728 -1.922796 -1.511120 2.543725 3.178531 2.448694 1.654936 2.357672 
基隆 -2.595836 -0.888469 -0.501845 1.891490 1.820538 4.668651 1.512991 0.459691 0.809211 -2.728409 
百科 -1.555550 1.105536 1.069059 -0.246155 -0.933908 0.755783 -0.707977 0.282343 0.200988 -0.175864 
朝廷 0.808708 1.010477 -1.338193 -0.117151 0.395179 -0.205141 1.179181 2.801915 1.487359 -1.533164 
二二八事件 -3.805398 -1.739310 3.914627 1.606834 4.510502 6.238989 -2.424293 2.119837 1.214705 -0.597003 
十八世紀 -0.914291 1.669275 0.377121 -1.210379 -2.992384 2.550744 0.964485 -1.025553 2.701664 0.029816 
臺南市 -2.974472 0.027430 -1.573608 -2.459943 2.984545 3.966163 3.550281 0.415049 2.542793 -1.364134 
大戰 -0.339797 -1.273371 0.222335 1.513979 -2.334342 0.346313 1.329635 1.816296 3.202347 2.370213 
東南 1.571011 -0.540530 0.917740 1.404466 0.467490 1.278640 0.413075 4.355280 0.184684 -4.533949 
甲午戰爭 -1.669999 2.499595 -1.577174 4.972228 -1.064080 2.847337 2.880986 2.579130 1.134368 0.238688 
拜占庭帝國 0.683954 0.806933 3.287984 -3.041249 0.767284 -1.416451 -1.265890 -0.291562 5.020009 0.704080 
東南亞 0.822257 -3.095897 3.672322 -0.837740 1.042145 4.102416 2.510971 2.787383 -0.700996 -0.145408 
金 -2.867796 0.904157 0.749113 -0.250705 3.985554 0.101446 1.300561 1.037102 -0.864276 -1.773146 
葡萄牙 4.686103 -0.361506 3.859028 -2.797575 -0.627999 5.175785 2.231005 1.334306 1.433267 0.444186 
渭水 -3.467799 -0.146208 0.471319 0.181099 2.089921 6.091671 -8.682797 -0.640379 6.999685 -1.077376 
希特勒 -0.809823 1.244168 4.399012 2.209653 -1.305481 1.445983 -2.275071 1.476952 5.842924 2.588281 
三國 -1.121663 2.109781 2.605946 2.948447 0.593438 -0.461517 -1.399850 1.251408 1.926583 1.162548 
巴黎 -2.705210 3.341791 3.254988 1.402710 -2.047315 2.360808 1.688544 0.362206 0.761712 2.495914 
秦始皇 -2.690988 2.251812 2.999438 2.419248 -3.012026 -4.282036 3.342578 3.782465 0.112441 -1.236796 
日耳曼 1.375756 2.249635 3.463134 1.109966 1.024408 -0.543153 -0.632185 -0.585442 5.636672 0.629643 
奧國 0.650196 3.391214 3.076234 3.667060 0.865200 1.113266 2.042556 -0.508828 4.364232 1.884018 
奧地利 0.609053 2.264452 2.810493 3.020540 -1.409921 0.854211 -0.660250 -0.907059 4.261268 2.083999 
國語 -3.096045 -2.809918 -2.701676 -4.504441 -1.445022 1.886928 0.095049 0.189466 5.864437 -1.630581 
魏晉 -2.467891 4.967852 2.411337 1.559063 1.148141 1.118935 -3.522731 1.679237 -0.904310 -4.586602 
法國大革命 -1.290847 4.165138 1.897428 -0.343748 -1.211123 3.639921 2.337123 0.484259 1.100008 3.089697 
二次大戰 -1.371700 -2.402505 2.143430 1.128404 -0.460941 2.498436 -0.186086 2.502809 -0.164712 2.523958 
江南 0.355190 4.363779 -0.504954 1.456499 0.472903 -0.571607 -0.338896 5.464762 -1.398868 -2.414480 
慈禧太后 2.205266 3.787880 0.261133 5.630188 -3.875113 0.254890 2.260797 3.787273 3.635659 -2.400953 
王權 1.619139 3.336361 3.471574 -2.512318 -3.387474 2.182753 -0.981054 -0.260230 2.570975 0.885299 
英法聯軍 4.384336 1.880870 0.470383 2.540144 1.382613 3.625340 -1.071078 3.342012 3.731847 -1.831253 
咸豐 4.445354 1.681089 0.388736 3.357996 1.706791 2.421051 -1.824813 3.475885 5.692217 -2.178186 
第二次世界大戰 -1.084104 -1.759809 3.682552 2.446721 -0.222152 2.620955 -0.089379 3.249282 1.565492 2.498833 
平埔族 -3.946544 -1.718171 0.790167 -1.478111 -0.180654 3.404199 0.706128 1.347215 0.477723 -4.921695 
曹操 -7.170538 6.453887 -1.148926 -0.336745 1.837080 -1.310949 -4.727607 0.549960 5.262146 -1.993477 
溥儀 0.643494 1.094469 -1.448395 -0.743151 -4.757612 1.649427 1.706699 6.101124 0.017507 0.800602 
雍正 1.975772 -0.504333 -1.151061 -2.269875 1.769100 -0.076571 2.574498 3.871501 2.860959 -5.148827 
東西 1.080604 0.342484 2.257383 -0.819261 -0.052375 -0.493510 -2.412405 0.229856 0.985190 -1.132072 
鴉片戰爭 2.834846 -0.442646 -0.211804 2.994241 -2.079197 2.961246 -0.553828 2.512598 3.414415 -1.625224 
斯 -0.003775 0.730165 2.535744 -1.198668 -4.172994 -1.872789 1.836714 0.141172 4.099383 -0.534508 
洛陽 -4.447078 3.860911 0.869423 0.896955 2.054053 -1.530349 -2.161684 2.600049 -0.984114 -5.128337 
西亞 2.836595 1.037149 7.240200 -0.327994 -0.395980 0.041930 0.616760 2.323625 0.425140 -2.477268 
社會主義 -2.854245 4.788177 1.412035 1.350096 2.511053 4.364711 -3.103938 1.300663 1.322482 2.881767 
平原 -3.400084 -2.567216 1.965529 -2.851870 -0.628063 2.767042 0.226734 2.045897 -0.532204 -3.500399 
伊斯蘭教 2.668587 0.675827 4.643394 -3.199632 -0.457262 -1.951995 0.093017 2.024013 3.194891 0.421893 
史實 -3.069022 -0.156900 0.665667 1.580559 -0.552657 0.280046 -1.031367 0.916500 0.655242 -0.551421 
長安 -1.560622 2.714444 0.822065 -1.642691 2.173956 -1.440888 1.191999 2.859847 -1.088272 -3.032536 
文藝復興 0.203211 -0.199616 3.022943 -3.003455 -4.511436 0.819316 -0.350376 -1.201511 4.348624 -3.000909 
中華 -1.248569 1.311962 -2.226638 -0.867278 -0.707175 2.018952 0.022380 2.040030 -0.607825 -0.226226 
張學良 -5.334932 0.548457 -3.583802 -0.178086 -2.271694 0.536598 -0.353608 3.453604 5.325081 4.103953 
西班牙人 -0.473736 0.479997 1.556653 -2.185287 -1.025039 5.166909 3.778596 -0.766002 0.886875 -3.584828 
劉銘傳 -1.336565 0.396777 -1.853132 4.179240 2.995246 5.288519 -1.231143 0.684547 2.877277 -2.808945 
古巴 -2.551461 -4.476031 3.091390 -1.838913 -0.797263 -0.211306 4.246662 4.896109 2.763955 4.370934 
蔣介石 -0.145027 2.287042 -1.249934 0.323507 1.424736 0.458966 -1.099704 5.655325 3.017159 3.580546 
聖經 0.314592 1.306797 0.611091 -2.276113 1.314430 3.685480 -1.385195 -1.566010 5.459899 -1.988385 
兩國 2.780176 2.434240 0.272530 0.736052 0.335869 0.260841 -0.496028 2.318013 2.652763 1.787839 
諸侯 2.816698 4.103559 0.339429 -1.402135 0.884965 -2.942051 3.729090 0.411493 5.533020 -1.328904 
鄧小平 -4.772105 4.616076 -0.884326 1.280200 2.166481 6.223041 -4.004945 3.763539 -0.902593 -0.279765 
新石器時代 -2.491740 -2.555123 2.528800 3.116053 -2.427618 -0.683137 -1.165082 5.721213 1.774787 -2.703314 
興盛 1.682251 -1.347352 1.485208 -3.498334 -0.788184 -0.327083 0.734764 1.711123 1.086688 -1.938653 
沈葆楨 -1.121336 1.244799 -1.723441 3.187538 5.441172 3.351383 -1.191210 2.398826 3.668220 -6.486511 
韓戰 -4.680160 -1.662153 0.229087 -1.398875 0.980331 4.820676 0.651334 3.360924 1.276680 4.865501 
西征 3.049888 -0.408043 2.549626 -0.819569 4.795135 1.032039 -3.436255 3.944275 0.017124 -1.589516 
查理曼 0.551569 3.892139 3.946589 0.916100 1.246846 -0.215242 0.085128 -2.289565 4.637939 0.726988 
中華人民共和國 -2.810784 -0.750215 -0.576750 0.436466 0.134662 3.864426 -2.651421 3.495668 0.113401 2.239981 
拜占庭 0.320263 -0.117543 3.596889 -1.909170 1.666597 -2.624799 -0.894158 0.111322 5.570460 -0.210794 
曾國藩 0.665502 5.780237 -1.012741 4.604414 -0.015411 1.718787 -1.747736 2.660192 0.938455 -3.106945 
天主教 1.549835 2.116832 -1.080320 -2.704318 -1.247660 4.335498 0.973479 -1.810804 3.180846 -2.208012 
吳 -2.239082 -0.326941 0.663845 -0.284307 3.579617 -0.594332 0.543175 1.365550 0.079913 -1.457854 
周 -1.608347 1.073296 0.398366 -1.977178 -0.033738 -3.919314 -1.762469 1.221763 2.117049 -2.510844 
亞歷山大 1.049350 4.021248 6.561080 -2.286273 -0.596721 -2.788671 -0.181392 0.655978 1.601943 -5.259072 
波蘭 0.577487 0.107062 5.665442 1.489532 -0.767621 1.280638 -1.181819 1.187895 1.901293 2.272776 
以色列 -4.332301 -1.440459 5.701559 -5.209364 4.518437 1.265674 0.349587 2.951090 0.679369 3.142492 
明白 -0.831920 1.090247 2.002840 0.174490 1.616084 3.098526 -0.180165 -0.500144 -0.338093 -0.229175 
臺灣省 -3.967154 -2.474862 2.113456 1.026799 3.895733 6.762646 -1.044404 3.325432 -0.842960 -1.413789 
法典 -0.048933 5.663894 5.093758 -1.673793 1.478964 1.886245 2.320657 -0.833490 0.325341 0.783531 
太陽 -5.623255 3.290143 1.445602 -4.111312 -4.136019 0.061829 -0.135814 -1.553263 1.935143 -3.449751 
安平 0.966982 0.633718 -0.718606 0.470569 2.180288 5.604659 1.179451 0.610086 2.940989 -3.828002 
家族 -0.570462 0.311228 1.258959 0.105530 -0.411770 -0.661400 0.759003 -0.701665 0.584083 -2.039990 
魏 -3.844563 5.431321 0.970653 0.817485 3.391526 -2.296430 1.800645 1.257169 0.325345 -2.648026 
英法 4.332242 1.047409 2.192076 1.683235 0.659275 4.007571 -1.146840 1.936759 5.188854 1.958163 
城邦 1.412219 -0.937015 3.835697 -2.402791 -0.444771 0.304589 1.724878 0.989336 1.388406 -4.936608 
抗議 -1.400525 -0.700831 -1.660755 -0.506962 -0.138566 3.357320 -1.447520 1.810014 1.612894 1.797819 
乾隆 -0.498719 -2.084025 -1.490396 0.758711 0.829728 -0.040023 2.625331 2.423063 3.336980 -6.812446 
明治維新 0.434062 2.956557 0.223602 3.226896 -0.116923 1.948708 5.861691 2.542964 1.839257 1.931034 
東亞 0.172001 0.051850 2.243418 1.158587 -0.896109 4.718259 2.570329 2.571230 -2.235368 -0.707499 
福星 -6.022936 2.874891 -2.238885 4.953080 2.313416 3.553379 3.170702 1.935609 0.989268 0.226830 
秦 -0.690481 1.231320 1.587596 -0.279983 -0.147026 -4.422464 2.807049 4.456086 1.357005 -1.944879 
地中海 2.620728 1.336954 5.807877 -1.220195 0.789221 2.456143 3.504158 -0.582090 1.540475 -1.006377 
共和國 0.893811 2.092951 1.471709 0.988694 0.306178 0.411006 0.966986 1.577570 1.180915 1.698301 
長城 -0.659050 1.799492 2.997865 2.175570 -3.736934 -3.438903 0.385181 5.510267 0.152618 -1.182070 
玉山 -2.598594 -1.704736 0.038449 -0.883841 1.435747 2.354100 -1.673914 0.326832 1.397732 -2.661386 
俄羅斯 2.308967 3.185699 4.767141 3.044732 2.104722 0.383108 -0.544829 2.084033 2.598830 1.400302 
漢武帝 -1.850363 2.918856 2.731401 3.701097 -1.245404 -3.336706 1.787216 3.124652 1.995429 -3.661101 
啟蒙運動 -2.121819 1.705529 2.657383 -1.883828 -3.263584 3.249559 -2.319385 -1.250696 2.445498 -0.559559 
資本主義 -1.239140 2.661759 1.195485 1.398459 -0.621001 2.224953 -2.669862 0.081526 0.907170 2.177288 
北洋 0.649311 4.327024 -2.307855 4.017384 -2.459904 2.929060 3.770920 3.467418 2.127576 -1.994385 
陳永華 -0.895004 -0.135354 0.556355 -3.318599 6.740762 2.972764 4.071614 1.703269 2.001093 0.549179 
陸軍 0.350313 3.155119 -0.927641 1.971245 -3.133961 2.150172 1.484469 1.393634 1.454646 0.928275 
林則徐 3.919507 -3.516756 -1.142142 -0.120576 -1.351042 0.589390 0.413869 4.106395 6.098613 -2.977898 
中文 0.288815 0.530296 -1.724118 1.021038 -1.644621 1.701078 -1.401804 2.823052 2.358271 1.007489 
美麗 -2.606156 0.574114 4.635808 0.323452 1.432053 1.931506 0.028347 -0.960377 0.248537 -0.623149 
西漢 -2.821347 5.184917 3.343658 2.895823 -1.052605 -2.474760 1.547650 1.735655 0.270164 -3.447359 
孔子 -0.994832 1.498975 -1.814758 -3.436509 0.137997 -1.999623 0.291992 -0.092695 4.000256 -2.272228 
長濱 -2.237178 -3.003204 2.226902 3.839629 -0.162192 1.805529 2.066601 1.627498 4.636415 -2.463224 
權威 -0.373257 1.502919 -0.015596 -0.315092 -2.071391 0.635566 0.365161 -1.013291 2.450973 0.275548 
祖先 -4.950019 -2.453965 0.372001 -2.639341 -1.262914 -2.604734 0.018924 2.632529 3.172472 -4.013228 
秦國 -3.600980 1.206370 0.335299 -0.619085 -0.732536 -4.186364 5.672345 4.837371 2.714703 0.154677 
農耕 -0.904339 -2.730359 1.870204 -0.151107 -0.986425 -0.411894 -0.627948 1.355896 1.174034 -2.274341 
蔡元培 -0.263591 -0.317233 -3.305447 0.668836 1.305840 -3.535683 -1.603401 6.230929 6.178408 -1.897815 
羅斯福 0.028458 -1.381593 2.432678 0.054775 -1.309867 3.331631 -1.598896 2.401512 2.069221 4.291048 
臺北市 -3.741473 -4.612767 0.966641 -0.554792 3.168512 3.543787 -1.518272 2.102479 3.566263 -0.327437 
五四運動 -3.518555 -0.713205 -2.351980 1.653256 -2.443128 0.127474 -0.325372 5.355814 3.410959 0.100022 
英國人 4.375304 0.420367 0.750454 -1.518460 -3.326679 5.843894 1.188209 1.241079 3.356563 -1.215049 
東歐 -0.700545 0.719596 4.142974 1.803994 3.347494 -0.177720 -4.223843 1.968333 5.560659 2.884876 
湖北 -0.371571 6.379947 -3.723088 -1.094164 -0.509767 4.210304 -3.188361 1.673496 2.663537 -2.796516 
戊戌變法 -0.647427 5.082992 -0.580267 4.860222 -3.060982 0.357341 2.082583 3.191507 0.434681 -1.297227 
黃帝 -3.231161 -0.278579 3.367688 1.521634 -0.028546 -5.094766 -7.006680 3.738757 5.942025 -2.794215 
孔廟 -0.038980 -1.715151 -1.048159 -7.534715 5.073062 3.899957 1.946657 2.462725 1.899671 0.117243 
牛頓 -1.979624 1.822796 2.584191 -2.132163 -3.946453 3.786973 -4.987625 -1.218094 0.907648 -1.082368 
宮 0.040962 1.149429 0.675258 -1.141715 2.649173 1.165619 3.340896 0.391947 2.239939 -1.125051 
南洋 0.052132 -2.180475 0.054876 1.739221 -0.337603 2.520629 1.173435 4.013979 0.145566 -0.960921 
紅衛兵 -2.698047 -0.243543 -0.081647 -1.749239 3.180489 1.670928 -8.769893 2.699895 2.991385 -0.041710 
北韓 -4.200184 0.244567 -0.179775 -1.110127 2.482819 5.205152 0.672486 1.583359 2.297744 5.593273 
泉州 1.719193 -2.340118 1.456554 -1.293757 5.529730 0.767911 1.951850 5.288572 0.872089 -2.000613 
段祺瑞 1.054615 4.696399 -3.685539 -1.435234 -3.644089 0.910371 2.512421 3.759330 1.509954 -1.950388 
卑南文化 -2.149382 2.259248 3.056298 4.209128 -3.137705 1.618827 -2.823727 4.669020 -2.767250 -2.724319 
嘉慶 -0.122688 -1.814746 -1.878906 -1.854179 -0.756112 3.040805 3.824005 3.076437 1.783224 -5.364400 
袁 -1.038305 4.202422 -2.535588 -0.719775 -0.759088 3.017260 1.874915 5.638135 -0.736610 -1.153015 
廈門 1.589500 -0.645071 -0.281503 2.087078 4.047612 2.399638 1.909139 3.742490 3.045113 -0.526009 
抗戰 -1.235268 -0.184904 -2.087387 1.644200 -0.506572 3.458644 -1.298632 5.875438 2.811453 4.041482 
耶穌會 2.670998 2.392031 -0.507368 -2.254011 -1.041645 2.234805 0.037683 -0.621815 2.987722 -2.966083 
二十世紀 -0.180710 -1.821915 1.859127 -1.248740 -1.578119 1.527730 0.028881 0.492711 2.034811 1.905090 
岳飛 0.159661 8.575600 0.539186 -0.540325 5.490404 0.618345 -0.910191 4.715762 0.057891 1.546819 
胡人 0.118887 2.677541 2.109489 -4.123611 4.288126 -2.034154 -2.111145 1.606352 0.309595 -7.022189 
四川 0.055228 2.889359 -3.701673 -1.911628 2.298325 1.625691 -2.622243 2.261430 2.033746 -2.220912 
澈底 -0.405975 0.221791 0.447253 -1.059482 0.578419 1.509526 -1.129325 -0.026231 1.070458 1.306106 
東華 1.458650 0.177500 -3.035934 -0.252883 -2.850708 2.216599 -1.164975 4.841216 1.378789 0.194656 
維也納會議 0.745378 2.269906 4.689530 2.634605 0.441790 3.338937 3.421858 0.573389 4.346245 1.734418 
長達 0.094846 0.274012 0.399604 -0.058541 0.117521 1.495921 -0.327566 0.351646 0.905570 -1.358236 
噶瑪蘭 -4.263359 0.258558 -2.407176 -3.753300 -1.896463 4.564525 -1.479274 1.776471 -0.424853 -6.379005 
英雄 -3.049481 0.670180 3.269527 -0.917259 0.868705 -1.020443 1.185013 -1.233984 2.662682 0.649190 
柏林 -0.247401 -1.201166 4.235695 2.388635 -0.223792 -0.231190 1.257837 2.412169 3.369262 3.551162 
經濟大恐慌 -1.483246 -0.247089 2.212342 1.183355 -1.949753 2.095847 0.443015 1.351360 2.273281 2.284762 
日月潭 -7.796152 0.897903 4.461450 3.474440 -2.291466 5.189500 0.545830 1.812835 -0.815807 0.863850 
藉口 1.894082 1.500624 -0.347196 1.284475 0.334191 3.139601 0.129567 2.014943 1.357034 0.530136 
薩 -0.780311 3.680343 0.396474 -0.575879 1.630598 -0.168944 1.122479 -0.893028 3.669271 2.383404 
鹿港 -4.966447 -2.356954 -0.792023 -0.912448 2.724925 0.226263 3.449136 2.602463 4.191818 -0.734581 
新竹 -1.628678 -4.335917 0.201562 -1.720599 1.134877 4.063421 -0.435085 2.932942 1.674764 -2.435492 
查士丁尼 -2.014932 0.903232 2.517987 -7.756270 0.612597 -0.469881 -1.913070 -0.281549 6.186719 3.208785 
巴比倫 -0.155160 1.972585 7.512445 0.310180 3.067114 1.459819 0.944635 3.877401 -2.386343 -0.545251 
歐 0.468266 0.644040 4.356494 -0.546295 1.239093 0.543831 0.230930 -0.157259 0.802436 -1.043805 
新文化運動 -3.233741 0.713914 -3.916873 1.255117 -3.423959 -0.503901 -0.838148 6.115626 2.533830 -2.417242 
張騫 -0.303960 3.436678 3.254764 4.371274 -0.765650 -0.604823 1.203216 2.395613 0.815904 -4.440083 
宗教改革 1.879295 3.759540 0.930245 -3.324823 -2.558969 3.789195 -0.681850 -2.060155 4.313458 -2.597215 
斯巴達 0.129951 -1.818306 4.308379 0.130485 2.141587 -0.732696 3.085890 1.539426 3.407450 -7.743762 
盛世 0.536890 0.383026 0.269166 -2.179305 -0.108952 -1.570142 1.324849 4.686476 -0.312583 -3.284112 
君士坦丁堡 0.096458 -1.352782 1.922137 -2.371025 2.171954 -0.979715 -1.949475 -0.433213 7.000690 -0.409013 
文教 -0.220717 -0.873734 -0.585137 -1.624660 1.426157 1.930447 1.862552 3.142389 -1.403894 -0.120106 
海洋 -0.913844 -1.414119 1.890316 -0.989327 -0.911245 2.928608 2.406015 2.359356 -1.085514 -1.061758 
東京 -1.151428 1.367097 -2.187224 -0.002385 0.526127 5.499783 -0.348851 2.249830 0.897850 0.427005 
文化大革命 -3.914319 0.283069 0.376231 -1.706261 1.447065 2.198885 -4.100986 3.388236 0.344945 1.480359 
金字塔 -2.127977 3.693335 4.435003 -6.884125 -3.070797 1.064745 4.257726 0.816893 -0.352355 -0.494899 
長江 2.068486 1.545362 -2.131883 2.151623 1.296817 0.418655 -1.885602 4.023298 1.613581 -1.789663 
宣言 -0.309465 0.406380 1.628188 -0.270319 -1.216333 3.105860 0.562177 1.866857 1.440532 5.021870 
尼羅河 -2.264068 2.614312 4.827219 -6.380334 -1.781956 0.556016 2.378511 1.182585 0.069937 -0.354752 
伽利略 -2.396978 5.325149 -0.190663 -2.846799 -4.023651 1.093574 -2.614629 -1.126359 3.047791 -3.832688 
連 -1.903120 -0.948764 0.323701 -0.696834 -1.351255 1.232875 -0.437828 1.426127 0.675756 1.735043 
東德 -5.911953 -0.469276 5.009098 3.311275 2.903558 -0.867675 0.941859 1.990658 5.075837 2.353072 
南島 -1.849743 -5.806988 3.151428 -2.443887 -3.424631 3.151721 1.623419 5.039126 -0.671950 -4.034915 
封鎖 -0.608268 -1.921426 1.223108 0.664335 1.625970 1.777938 1.798106 2.254822 2.652323 2.009346 
府城 -3.348243 0.378132 -1.925080 -1.879601 3.228858 2.266727 2.512110 -0.604626 4.252756 -3.927259 
道教 -0.246663 4.005841 -0.291382 -0.173766 2.925240 1.722039 -1.967225 0.648251 0.925986 -6.742111 
武漢 1.585926 2.767265 -1.048565 -0.177197 0.073214 2.226300 -3.859174 4.652930 0.848840 0.249760 
新石器 -4.197285 -2.720185 2.316164 2.245573 -1.584962 1.343680 -2.682357 4.360156 0.907213 -1.199540 
路易十四 -3.195354 5.567567 1.807952 0.724749 -4.234977 2.843535 0.408292 -2.076504 1.722345 0.907728 
舊石器時代 -4.124224 -3.177700 1.951549 4.015721 -2.614743 -1.315130 0.351770 3.685995 4.000189 -2.093743 
太祖 0.698146 0.558923 -0.752850 -6.901555 -0.699486 -3.247327 0.824434 5.941478 0.235887 -0.715679 
丁尼亞 -0.073287 5.346304 -0.214390 0.300188 1.413797 -0.093851 1.733774 -0.078253 5.074649 2.519298 
牡丹 -2.482470 0.111108 -0.919424 1.323461 3.300313 2.639729 -1.224430 0.826789 2.443236 -3.000116 
匈 2.004627 1.982765 3.353976 1.934403 -0.504611 -1.852371 0.248904 1.681983 3.896738 0.642082 
穆斯林 4.993929 0.253837 3.516595 -4.310303 2.027737 0.411586 0.534116 2.907737 3.114554 1.223668 
科學革命 -2.203297 2.648981 1.010498 -0.940098 -3.886945 2.447508 -3.191271 -1.247290 1.932308 -2.212854 
西安事變 -2.788608 1.419096 -3.057632 2.733628 0.198904 0.918657 -1.682274 5.154675 3.763606 2.347447 
白銀 4.046849 -0.028286 0.461265 -1.136011 -3.450891 3.194569 1.113106 4.382747 0.046649 -3.695744 
耶穌 1.803168 3.250007 1.314644 -5.551508 3.534350 2.219011 0.505872 -0.720359 5.316642 -3.509571 
布 -0.833676 0.107971 -0.842705 -0.120378 -0.559622 1.427720 2.034957 1.595329 -0.292760 -0.456412 
朝貢 2.523174 1.476304 0.972058 0.009571 -0.860435 1.404367 1.179737 3.111087 -0.429171 -3.921019 
史前文化 -2.427308 -3.084631 1.065218 2.103183 -2.836065 0.640183 -0.328009 2.792734 2.054697 -2.176096 
陳獨秀 -1.943207 0.835302 -3.478792 1.896118 -1.938063 -2.846863 0.025251 1.250316 5.705114 -3.188186 
曹錕 0.262684 3.070409 -3.232992 -0.611879 -2.241160 1.392573 1.069983 2.957746 2.449055 -2.193629 
武則天 -1.171651 2.035520 -0.030834 -1.908690 1.650885 -0.051801 -0.561877 3.455874 -1.592646 -2.372654 
滿清 0.246186 1.344345 -2.360923 0.486473 -1.469989 2.490428 2.433128 3.058256 0.774664 -0.482234 
大國 2.706426 0.427383 0.467197 1.582368 -0.215169 -0.436149 2.221427 3.134676 2.783474 0.527318 
南韓 -4.201492 -0.207915 -0.821048 -1.743165 1.457074 4.405298 0.819062 2.266506 2.357890 5.674351 
楚 -2.528108 -0.782356 2.613758 -2.408276 -0.791721 -1.956580 6.263375 3.907277 1.562127 2.133405 
加里 -0.769235 4.038194 -0.006206 -0.627570 0.458714 -0.586264 1.309430 -0.337768 4.473367 2.690307 
日語 -3.512438 -2.362477 -4.000279 -2.281865 -2.388848 4.705896 0.344904 0.712027 6.928543 -0.538850 
伊斯蘭世界 2.475467 -1.976005 4.204673 -2.512928 0.983045 -1.139966 -0.372142 2.833227 2.679124 0.604751 
史達林 0.677245 0.743703 3.312814 1.691509 1.503151 2.326312 -2.760895 4.351823 1.831655 3.488936 
西夏 -1.788396 2.428869 3.021675 -4.290549 1.041157 -1.110347 -3.676122 5.346775 -1.681054 1.338614 
希臘人 -1.794051 -0.555479 7.318870 0.083942 1.978703 -1.200355 2.507478 -0.905319 3.967913 -2.531506 
桃園 -3.697678 -2.314659 -0.504649 -0.269351 0.674913 3.890506 -0.737327 0.677125 1.669328 -1.610447 
對外貿易 2.326191 -2.558022 1.386245 -1.126744 -0.046245 2.733292 2.643787 2.623544 1.188633 -2.876504 
施政 -1.333846 0.896183 0.448646 -0.326025 0.320534 -0.375682 0.290752 -0.025349 1.140616 0.072369 
王安石 -1.861172 5.467868 -3.354883 -3.717571 -2.232639 -2.425204 -0.340734 3.641636 5.782398 5.150080 
魯迅 -1.804972 0.300383 -2.435429 1.552645 -3.512981 -2.584584 1.691411 2.949310 4.510107 -6.508964 
廣西 0.585452 2.168600 -3.087423 1.899920 1.692669 3.510496 -1.743142 2.475568 2.372601 0.479808 
莊園 -0.619816 1.759736 2.705421 2.119742 -2.219785 1.482947 -2.006240 -1.827471 4.857711 -0.371298 
光緒皇帝 0.463606 4.601948 0.320610 3.907817 -2.642638 -0.714544 2.140609 3.792916 2.121991 -2.446431 
夏 -2.721902 0.043734 2.770528 -3.248163 -4.608286 -1.452188 -3.395750 4.618259 -1.229830 -0.678334 
邦聯 -1.911075 2.836058 1.508684 3.210630 -2.607341 0.694501 1.905184 0.718300 5.783626 2.748901 
高達 0.681607 -1.615371 0.093601 0.310658 -0.587968 1.285067 -0.719793 1.566575 2.001659 -0.259629 
鄂圖曼土耳其 2.123800 -1.343862 4.581764 0.927859 0.040274 -0.921681 2.527178 2.734065 5.017395 1.490113 
巴爾幹半島 1.348281 -0.214668 5.011821 0.352754 0.773130 -0.790931 3.581902 1.807092 4.932722 2.059185 
山區 -1.986118 -2.515069 1.764750 -1.016262 -0.067054 1.427701 -0.061433 2.191495 -0.497799 -2.564425 
吳佩孚 -1.336982 5.777928 -3.821386 1.055369 -6.409806 -0.134786 -1.006380 1.116331 6.818346 0.363933 
金屬器時代 -3.957885 -3.380528 1.684601 2.910820 -0.861419 2.346069 -2.284010 4.275295 0.433751 -1.068718 
梁 -1.644698 4.248576 -1.128979 1.992197 -1.477561 0.571688 1.827830 2.633965 -1.199576 -2.842459 
福州 0.917892 -1.337362 -1.915363 1.490108 3.233842 1.959417 0.578386 3.487534 4.224871 -2.535568 
馬關條約 -2.934560 0.943872 -0.720168 6.777916 -0.203906 3.264720 1.392644 2.857429 2.452230 -1.598062 
共產主義 -1.893402 2.041044 1.360462 1.116455 0.896069 2.376755 -3.331922 2.222008 1.488551 2.434127 
太平洋 0.726917 -2.701304 2.115823 0.559752 -2.357942 3.931735 2.344195 4.843997 -0.953369 1.628031 
普及 0.087024 0.051375 -0.813681 0.087577 -0.470098 -0.595960 0.296069 -0.226439 2.226952 -1.354981 
道德 -1.631405 1.512011 0.899137 -1.181938 -1.713393 0.821167 -0.552889 -2.431398 3.208705 -2.106416 
洪秀全 2.297574 3.752072 -1.120005 0.186768 1.218406 1.311808 -2.411036 0.731341 4.598857 -2.887352 
培根 -0.856006 3.574203 2.058642 0.455049 -4.230211 2.856677 -5.533361 1.542846 2.549416 -0.872025 
秦漢 -0.359939 1.978895 2.115064 1.160871 -1.185779 -2.149962 -0.335403 1.640356 0.452148 -2.589854 
天安門 -4.810999 1.359983 -2.233970 1.350239 -1.344924 3.614986 -1.777621 3.752503 -0.268170 0.675500 
中法戰爭 -0.924432 0.592696 -2.330405 3.810067 1.797741 1.802685 0.625195 2.027589 2.144079 -1.736375 
古希臘 -0.780661 0.117332 5.043128 -1.172809 0.317180 -0.232646 -2.811227 -0.725890 3.250648 -2.129220 
高宗 0.970592 5.998739 -0.630125 -0.548543 4.703595 -0.144901 1.906482 4.072336 -0.324962 -2.433950 
古典 -0.500283 0.403184 3.421775 -2.009612 -0.100883 0.129012 -2.014490 -1.938271 2.910642 -1.296173 
滿洲國 -2.120003 -0.607406 -0.832841 0.674864 -3.903979 0.931359 1.237318 7.036561 1.126206 2.240704 
澳門 3.395485 -1.228414 0.814106 -0.612283 1.119425 5.028522 1.890047 3.635029 0.836149 -2.746044 
浙江 1.902807 0.566939 -0.983302 0.685155 1.992088 -0.192869 -0.030311 5.233042 0.786498 -2.295496 
特洛伊 -5.119497 -1.494785 7.065889 1.066604 1.249164 0.704194 3.317970 -2.812972 3.063646 -3.554072 
辛亥革命 1.223638 3.157373 -1.739943 1.066659 -1.963277 3.497689 -1.014995 3.722727 -0.417328 -3.321968 
苗栗 -6.257655 1.842817 -2.671616 1.743909 1.716910 3.941348 2.738868 -0.386664 2.258781 -1.154418 
亨利八世 1.078491 5.556521 0.313486 0.876456 -1.555760 3.621378 -1.903217 -2.553661 5.415652 -1.715063 
隋 -1.496641 0.578394 2.053707 -1.940591 1.768541 -1.896740 0.699880 4.418630 -1.357959 -2.974250 
納粹 -0.781856 -0.436514 4.582608 1.795509 -0.064450 0.834671 -2.374193 1.018802 3.255389 2.865833 
木乃伊 -1.473397 2.832646 3.796768 -6.692331 -1.427534 0.956063 0.272870 0.387126 0.074216 0.392634 
新教 1.694498 3.195667 -0.543857 -2.243676 -1.586651 4.254395 0.139219 -2.381236 4.080060 -2.145309 
新平 -1.843443 -1.816082 -1.293212 0.976625 -0.950492 3.755395 -2.778800 1.275282 5.374048 -1.820090 
君王 -1.061913 6.246623 0.515425 -1.149352 0.012140 1.236949 2.060033 -2.559244 2.482197 -1.200804 
加富爾 -1.170249 4.977408 -0.645034 2.077410 1.014892 -0.717867 0.631222 -0.160517 4.867013 1.599677 
韓國 -2.706931 0.296349 0.765517 -0.825201 -0.241742 1.791844 3.020261 2.334820 -0.020497 2.974657 
古埃及 -2.590927 1.479524 4.037011 -5.741403 -1.870368 -0.340170 -0.186206 0.077570 0.608964 -0.625697 
抗爭 -2.372618 -0.653201 -2.065657 -0.465569 2.183139 2.452454 -0.092024 0.252947 2.622056 1.116740 
張作霖 -1.996559 4.096412 -2.784640 1.716303 -2.905525 -0.817822 -1.018010 6.132516 3.690761 3.139319 
歐洲各國 1.207028 0.283632 2.393466 -0.058055 -1.498273 2.843631 2.111326 -1.080765 1.922130 0.919647 
伏爾泰 -3.265646 4.622582 0.459601 -0.864938 -1.632436 3.801806 0.018652 -3.786954 2.668100 -0.092056 
巴勒斯坦 0.320692 0.316569 4.217108 -4.684144 3.281576 2.539093 0.778862 3.724180 1.532301 4.465461 
李白 -0.483699 3.667241 -1.449263 -6.060825 2.489864 -0.415272 -0.213298 3.508017 0.020140 -5.679151 
祖 -3.731813 -3.058933 -0.454704 -0.948070 1.103772 -3.024926 2.612751 3.811803 3.322306 -3.286092 
中原 -0.988076 1.756186 0.040787 -2.150133 1.318909 -1.730568 -1.843339 2.528284 -0.824617 -3.008941 
黎元洪 1.747387 4.734131 -2.505183 -2.828421 -4.872691 0.872800 0.284323 3.083453 2.586713 -4.225374 
宜蘭 -4.353725 -0.584201 -0.830910 -0.676390 -0.400195 5.590698 -0.895854 -0.098814 0.896209 -3.891629 
佛羅倫 -0.632509 0.285898 3.277044 0.623031 -4.203320 -1.774137 -0.264103 -0.864584 6.562261 -2.939833 
凡爾賽 -2.585479 0.780825 4.551579 4.520827 -2.017217 2.379635 1.180944 1.458987 2.301613 2.809752 
封建制度 -0.960751 2.238668 1.963422 -1.448847 -1.373191 -3.331700 -2.001050 -0.546211 5.480283 -1.068517 
胡適 -3.228788 -0.425477 -2.775913 1.095385 -1.819600 -1.734282 0.521952 4.293020 2.815035 -1.333263 
六國 -2.499361 1.229352 1.635973 0.004850 -1.174406 -2.383588 4.029376 3.892158 0.997938 -0.262774 
國際貿易 0.704914 -1.151356 1.477838 -1.711988 0.712375 4.104270 0.510878 0.393927 -0.229972 -1.431510 
鹿 -3.519203 -3.257780 -0.256971 1.251583 0.599984 0.823698 4.531204 3.356826 0.732417 -1.762980 
大躍進 -5.745961 0.684844 2.554221 -2.487712 -3.617331 5.149643 -3.623261 4.831840 -1.861248 4.590233 
神聖羅馬帝國 0.696950 3.137160 3.449090 2.594712 -0.497197 0.419559 0.877551 -1.574108 5.396259 -1.008118 
達悟族 -6.733315 0.471528 2.053312 -2.123895 -6.181864 1.012243 5.046977 4.822063 -0.540030 -1.733723 
中亞 2.747057 1.470169 4.164035 -0.689457 2.921545 -0.936307 -2.097742 2.850924 0.387199 -3.294585 
契丹 -4.461535 2.564102 -0.687061 -6.772604 -3.772054 -0.042712 -1.632006 3.847916 -1.712839 -0.031999 
嘉南大圳 -6.962473 -2.927229 2.487836 -0.183082 -1.061310 3.787132 -0.935870 3.544435 0.068192 -0.457200 
劉邦 -4.161472 3.244528 3.235505 0.040893 -2.475003 -2.548212 2.800754 1.681482 0.933207 0.520465 
庚子 0.675679 3.365860 0.113854 3.782591 -4.548956 1.877998 1.952553 4.107336 -0.215270 -1.499591 
爾 0.532135 -0.986479 3.846968 -2.103137 -0.117027 0.680844 -0.844567 1.204298 -0.945843 0.370053 
天皇 -3.155152 3.207318 1.192107 3.189419 4.382555 1.375655 5.354977 1.490350 -0.551512 0.289278 
圓山 -4.612734 -2.657368 3.279367 3.391946 -3.920734 1.764442 -0.113468 5.863556 0.953474 -5.024680 
印第安人 -1.216909 2.026458 1.795927 -7.135166 -1.190165 3.022675 4.870091 0.612945 1.442992 0.817707 
京 0.030336 0.656520 -0.179920 -3.407881 -0.441697 0.788904 -0.245431 0.706968 0.526853 -2.096711 
八股文 0.714342 3.281067 2.198179 1.728984 -2.725028 0.919700 0.345588 4.643121 -2.083138 -0.662017 
哥白尼 -1.688744 4.026414 2.949044 -1.369071 -4.232731 0.798320 -2.354239 -1.673424 2.016043 -3.756357 
兩河 -0.507090 1.440479 8.196697 -2.422173 0.670704 -0.282231 1.287864 3.015058 -2.065213 -2.422460 
趙匡胤 -5.939426 1.152309 4.386665 -4.499382 0.879883 -2.097978 -0.475002 6.566385 -2.218458 4.052156 
基督徒 3.317320 2.068952 1.650528 -3.378128 4.108085 2.610183 -0.703966 1.240444 4.068312 0.761417 
宗 1.589289 2.021043 -0.443039 -0.522888 2.531101 -0.259114 -0.304182 1.913080 0.457568 -3.824178 
菲律賓 0.012101 -1.230545 2.661854 -0.628850 -0.271106 4.392020 4.341202 2.391624 -0.010527 -1.187876 
彰化縣 -4.835287 -1.077849 -1.425639 -0.015959 2.824262 0.599940 0.924504 1.420202 3.893137 -3.405617 
高麗 -0.283803 3.432554 2.596777 -1.211445 1.109728 -0.819885 1.770529 4.484141 -3.118249 -0.832467 
華 1.347232 0.721468 1.049395 2.607645 -3.214652 2.061840 -0.313564 4.131940 0.441341 0.336462 
德軍 -0.262186 0.817046 3.220962 3.764285 -1.897766 3.770032 -0.410689 3.051663 3.602185 4.213160 
馬雅 -1.590471 -0.192344 3.228310 -7.594914 -4.248964 2.159395 3.170173 1.690140 -0.038073 -2.572284 
湖南 -0.616472 2.945854 -3.607039 -0.367705 2.274319 2.352619 -3.324670 3.748199 2.463250 -1.838374 
辛丑和約 1.799778 0.627903 0.433511 4.139322 -2.466610 1.286773 1.347071 4.353885 3.926219 -1.474692 
法西斯 -1.323723 0.545056 2.288050 0.814045 0.528359 -0.306552 0.449764 -0.480458 4.307372 2.724103 
印象派 -5.437569 1.916107 3.078330 0.468894 -1.133415 0.693482 3.461322 -0.287153 1.426337 1.878655 
黑死病 1.198925 -2.179083 5.041743 -1.891202 -1.005224 4.207512 -5.140194 0.431152 4.384726 -2.175030 
王莽 -4.313800 3.893501 1.391931 1.873424 -0.347902 -2.346797 1.913491 0.937177 0.815353 -0.988551 
君士坦丁 -0.200363 0.523951 2.045500 -2.476418 4.935635 -0.924388 -0.468774 -2.121050 6.106038 -1.611693 
拉丁文 0.478166 2.058595 2.590604 -1.578125 -0.201929 0.101686 0.363932 -1.967015 4.884039 -2.323069 
林爽文 -5.203365 -1.806796 0.246389 0.316630 2.270242 -0.164987 2.332762 0.133199 5.551766 -4.348380 
古文明 -0.486193 -0.439966 5.183659 -3.129535 -0.175095 1.493505 0.844691 1.002658 -1.876481 -1.946019 
呂不韋 -1.833068 3.436092 0.772539 -0.273787 -2.301761 -4.395806 3.669209 6.129772 2.669277 2.303555 
政治社會運動 -3.529691 -2.270566 -0.652843 -0.628727 -1.124961 4.432561 -4.911584 0.109675 5.431866 0.368396 
班超 -0.821086 4.081702 2.726547 6.375824 -0.670025 -0.248500 1.880816 1.808080 1.664654 -6.295138 
關聯 -1.222013 0.337784 0.437477 2.682852 -0.176977 2.835317 -2.188625 0.496347 0.971244 -1.432485 
倫敦 0.155322 0.511582 0.766445 -0.147974 -4.506909 2.264937 -0.100892 1.732507 3.722609 1.519584 
邱吉爾 -0.191954 0.413653 4.173168 1.922372 -2.458447 3.920448 -3.263735 3.275181 3.624991 3.449261 
西化 -2.105409 1.640187 -1.560826 2.670141 -5.171378 2.330794 -0.258587 1.017509 2.914055 -1.266134 
法蘭克 0.685198 4.688404 3.070105 0.404036 1.724399 -0.319367 -1.747733 -1.055935 5.865494 0.750556 
巴 -0.779941 -2.782652 2.800128 -1.186430 0.390971 2.850396 4.013220 0.837280 -0.203366 -0.365425 
晉 -2.223350 5.150150 0.217333 1.118155 2.573583 -0.303880 -0.086404 1.318948 0.038338 -6.440325 
國教 1.165146 0.403707 0.423513 -2.477551 1.201429 2.361392 -0.817606 -1.680020 3.284290 -1.951877 
士大夫 1.619944 2.188354 -2.123445 -1.655448 -0.349337 -3.033037 -0.679204 3.691855 1.826405 -0.196470 
河南 -0.951915 2.237615 0.434611 -1.217530 -1.134073 -3.860711 -3.380025 4.669104 0.328298 -1.142408 
毛 -4.590441 2.384653 2.137675 -0.354109 1.531957 1.884309 -3.666301 2.865148 0.004300 2.835345 
馬克 -1.671321 -0.002319 2.275267 0.692496 0.443363 1.120458 0.405084 0.022647 2.823910 0.581931 
福 -1.041293 -0.068450 -2.012216 -2.896662 1.106091 0.748525 -0.622458 4.101952 0.220027 0.533312 
漢口 2.277156 2.347661 -2.245292 1.143268 0.406319 2.178535 -2.125348 3.654086 3.465501 -0.757141 
馬歇爾 -0.395566 -1.272635 2.057723 -1.628941 0.985850 2.687560 -2.160068 3.804453 2.198300 3.745451 
百科全書 -2.143131 1.831637 1.391392 -3.026023 -1.432530 2.469687 -0.541339 -0.794777 0.255667 0.605599 
改革開放 -6.089657 1.399631 -2.149550 0.963537 1.959721 2.969943 -4.340541 4.924808 0.804073 -0.864328 
英格蘭 3.143416 1.966339 2.979008 -1.172087 -4.122190 1.746604 -1.003221 0.290501 5.270870 -0.019837 
西北 0.629062 2.584497 0.857662 1.928315 -0.042306 -1.485347 -2.218328 2.544751 1.121678 -0.525378 
朝 -2.136378 -0.602189 -1.876082 -2.976805 0.640951 0.120491 0.394307 2.466683 -0.021211 -1.035659 
臺灣海峽 -2.115965 -2.804386 0.049764 2.300585 0.203175 3.040118 1.806038 3.223816 1.954152 0.152026 
治安 -1.686837 0.665776 -2.077740 0.537697 0.285652 3.258052 0.626813 0.516000 0.391488 -0.564570 
北美 -0.109576 -0.645547 0.363913 -2.903782 -3.049312 5.132601 1.168510 1.894225 3.695971 2.088202 
城堡 0.591068 1.936268 0.465518 0.846970 -0.654421 3.373756 3.426712 -1.278646 2.998499 -1.119025 
光榮革命 4.083933 4.379698 1.159254 -1.772153 -4.374082 4.893899 0.582591 1.145794 1.888950 -0.503950 
盧梭 -4.156096 2.058456 3.852944 -1.619106 -2.529700 6.116180 1.159315 -2.327206 2.225616 1.595920 
凡爾賽宮 -3.215357 4.228041 1.458258 1.446953 -4.536953 0.071334 1.472331 -0.658709 2.632944 1.996129 
都市 -2.201639 -3.553077 0.027140 -3.395456 -2.034784 1.369126 0.203037 2.286686 1.950307 0.263519 
朱 -1.346858 -0.727107 -2.417988 0.247474 1.780244 2.133891 -0.050014 1.945752 0.992584 -1.076560 
宮殿 -3.740146 2.114063 3.291119 -2.865002 -4.325040 -2.973045 -1.732561 0.136832 1.014255 0.531022 
漢化 -4.023306 0.704562 0.656782 -0.542103 2.484419 1.312522 -3.108733 2.657486 -2.117328 -6.898973 
比利時 1.359262 0.211783 5.145562 3.340878 -2.183881 4.662251 0.846985 0.423085 3.478585 2.376513 
國聯 0.401264 -4.376851 2.883104 2.197334 -2.846860 -0.399121 1.701548 3.954976 6.125605 1.587154 
阿育王 1.804739 5.155315 4.404914 -2.390801 2.357040 5.936485 0.894375 0.924574 -2.284944 -5.217260 
英王 3.323713 2.155672 0.894291 -1.725600 -1.980641 4.579616 -0.196603 -0.895694 5.445746 -0.240801 
敘利亞 -0.914933 -0.519943 5.189446 -3.106363 3.013356 -1.163790 -0.255239 2.560911 1.027694 1.421478 
梅特涅 0.956856 2.317187 4.389439 2.420774 1.843897 2.979054 4.127879 -0.650616 3.094393 1.354035 
法蘭西 2.423420 4.672897 3.385170 1.378937 0.666558 4.151254 2.100153 -0.500781 2.462511 0.350204 
印尼 -1.208843 -0.197488 3.276492 -0.256021 1.602854 5.701657 4.366376 2.276561 -0.475568 1.481139 
回國 0.424329 2.884525 -0.650362 1.118465 -1.114351 0.999938 2.194006 -0.095496 0.930098 -0.266602 
第三世界 -3.939030 2.156279 8.146867 0.073101 0.579541 2.803928 0.734836 -0.150949 1.398569 5.874840 
凱薩 0.554858 5.735921 2.539001 1.701011 -0.738033 3.060230 -2.063688 -1.979427 3.710011 0.131694 
喀爾文 2.322533 4.304648 0.819217 -1.688923 -1.369367 2.810859 -1.618127 -1.674448 5.632571 -2.602314 
烏克蘭 1.073018 2.137328 6.585813 2.850883 3.238716 0.937573 -3.432115 4.623030 1.467614 1.710805 
摩西 -0.920841 1.945711 3.250263 -4.112794 2.134242 0.282815 0.193586 1.088977 0.578016 1.543268 
門第 -3.379459 6.237010 2.935405 2.926557 0.230789 -0.377719 -3.147573 2.376678 -1.538348 -3.800025 
丁日昌 -2.524469 0.368399 -1.461731 0.903922 6.784116 3.417698 -0.337591 1.957056 2.171298 -4.772751 
列寧 -1.033140 2.080428 2.448391 2.285372 1.383807 0.233261 -3.210912 1.557714 2.331668 2.715477 
江西 -0.384488 1.888243 -2.782825 -0.835390 0.469302 0.690842 -2.620977 4.671546 -0.062142 0.190075 
太平軍 2.002391 2.061272 -0.907800 0.771389 -0.362477 1.189428 -1.357823 1.420438 2.179816 -1.799941 
哥倫布 3.811428 -0.166029 2.695860 -5.491470 -2.938561 2.602675 0.187694 4.765850 -0.001890 -0.234385 
新疆 1.648577 2.090285 1.471048 2.797074 -0.749192 0.317347 -2.653801 4.025001 1.012770 -2.877737 
直隸 1.200604 2.929874 -1.413942 2.202943 -0.143740 2.236496 1.018872 2.895744 2.190764 -1.991653 
馬克思 -1.355445 5.917380 0.818934 0.380873 1.684866 4.093631 -1.716173 1.368237 2.670194 4.513390 
革命黨人 1.111726 6.934161 -3.100137 -0.190783 -0.717465 3.717315 0.269616 2.207876 2.055203 -1.654984 
日耳曼人 -0.104195 2.192795 2.564701 -0.471571 0.989233 -0.462606 -2.364665 -0.778512 6.080754 0.070651 
宋教仁 0.278329 2.580157 -2.418038 -0.354786 -0.694722 3.054356 0.004612 6.090046 -1.328253 -2.167656 
林立 -0.336234 0.643707 1.281959 0.946205 1.336990 -1.899166 -0.291941 -0.127631 1.690454 0.032098 
甲骨文 -3.541282 -2.620943 1.904227 -3.087029 -4.263921 -6.573470 0.581320 4.660244 5.641839 -2.980649 
越戰 -4.846139 -0.445863 3.620636 -2.697099 3.832773 6.113446 1.050398 1.509692 1.909978 4.596393 
契約 -1.110047 -0.187622 2.595364 -0.637268 -3.532720 2.429868 -0.545787 -1.346607 1.928370 -2.157199 
烏山頭 -6.709240 -3.827559 2.879458 0.129215 -1.624621 3.913767 -0.534617 3.863300 -1.363841 0.144533 
蘇維埃 0.368837 3.179031 1.351856 1.011961 0.331180 2.457339 -3.483667 2.661977 2.610827 3.544805 
高峰 -0.062083 0.465876 2.582678 -0.844679 0.864617 2.451245 0.315420 1.405454 -0.909296 -0.087644 
漢族 -0.868273 0.260457 0.340319 -0.801049 -0.233452 0.358223 -2.862779 2.130334 -1.655070 -4.586823 
商鞅 -2.220665 3.473485 -1.072027 -0.768863 0.131621 -5.020168 6.099574 2.067528 4.120836 -1.818915 
貞德 2.444487 1.533347 3.228202 -3.831319 2.371130 6.261169 -2.687930 0.226632 4.581822 2.542817 
帝王 -0.487623 2.158377 1.304582 -3.509349 -0.315998 -2.328187 0.450756 1.882809 0.366262 -1.153631 
胡 -1.886812 3.122632 -0.127467 -0.830824 0.880689 0.442412 -1.657979 3.041041 -1.708079 -4.093815 
鎖國 0.146685 2.773724 0.491043 1.255104 -0.717071 4.062674 5.282770 0.578696 -0.227102 -2.006592 
戶口調查 -1.482660 -0.918438 0.256226 0.659581 -0.069547 1.580897 -1.142405 0.529282 0.516571 -0.967991 
畢卡索 -5.909878 -1.990860 3.053595 -2.622523 -1.292154 -1.045766 3.113807 1.503837 3.565943 1.923831 
山西 1.068139 4.247969 -0.785306 -0.870343 -1.940190 -0.075426 -0.518411 3.263412 -0.732215 -3.488739 
西安 -0.894732 1.157782 -0.031850 3.324557 -0.912534 -2.473102 -1.742719 4.491832 1.539987 -0.274003 
波及 -0.970609 0.339986 1.024956 2.805562 0.134183 2.855858 0.030386 1.130669 1.092186 -0.143042 
修正 -1.807200 1.308276 -0.736336 -1.051160 -0.619944 4.908838 0.393329 2.507062 -1.570905 -0.495629 
希臘正教 1.376408 1.750749 1.327528 -1.992779 1.453393 -0.730915 -1.973801 1.384883 6.343799 0.214389 
雲南 1.191521 3.343194 -1.989761 0.778213 1.638909 2.200051 0.514154 3.190744 -0.103621 0.623201 
中日戰爭 -2.498542 -1.393378 -2.582530 1.449220 -1.625461 3.798318 1.470040 2.441808 2.911516 1.313446 
捷克 -0.800765 -0.782351 3.823780 2.849127 1.147803 1.869049 -2.561814 2.375577 5.121178 2.167033 
獨立宣言 -1.875502 -0.131362 0.619031 -3.122791 -5.475871 4.420258 0.969229 2.520507 2.295025 5.878719 
宋太祖 -2.391203 0.611532 1.395103 -6.208171 0.668211 -2.781148 -0.604780 7.605179 -0.702528 2.905204 
高明 1.150047 -0.054926 -1.383549 0.207224 -2.111648 -0.375028 -0.353747 3.571860 1.890773 -1.588183 
諸國 2.144446 1.885606 2.447069 1.655944 0.283167 -1.662861 1.090177 1.428419 1.877345 -1.663940 
沙 -0.302694 0.355451 0.452876 -0.613713 -0.384440 1.007539 2.839540 -1.252763 2.272291 -0.232995 
歐美 0.345441 -0.650540 0.353956 0.293703 -0.868607 0.658193 2.178778 0.959520 1.658513 2.014522 
愛國 -2.209559 -0.159739 -2.079265 1.526566 1.102624 0.329763 -0.765648 1.623145 1.935251 -0.030524 
馬其頓 1.320946 1.444663 6.622069 -0.119162 -1.545828 -1.387291 0.238751 0.691126 2.302389 -3.669584 
塞利 -0.085154 2.750070 3.544558 -3.084835 -4.371222 -2.195274 3.751512 0.308843 3.223803 -0.389473 
珍珠港 -0.662504 -2.805439 2.019332 1.103405 -0.678492 5.422690 0.452014 4.331153 1.376149 2.750328 
武士道 -0.972481 3.352002 2.051500 2.476390 1.120087 1.447922 5.630186 0.639136 1.314744 -0.928556 
文明史 -0.727918 0.897915 2.910007 -0.296272 -0.330589 1.275860 -1.486459 -1.364250 1.959166 -0.832214 
劉永福 -4.261556 3.287400 -2.974616 5.113855 1.242488 2.242326 1.739770 2.065257 4.992715 -0.524114 
漢書 -2.586887 2.760452 1.796977 2.343093 -2.204216 -3.074020 1.084337 2.118330 2.250709 -4.646750 
明太祖 5.237612 3.616933 -0.859615 -0.846537 3.790209 0.753011 1.008282 3.848875 1.752051 -3.366984 
史前 -1.970718 -2.877147 2.789146 3.938930 -1.693873 3.577153 -2.537016 2.732480 2.135652 -2.939426 
蔡 -3.061798 -0.086418 -0.833418 -2.322195 1.361464 -1.247508 -1.924712 0.169343 2.425114 -2.170305 
希伯來人 0.552672 1.247376 4.300139 -1.771302 1.364563 -0.916722 0.445488 0.029818 0.553447 -0.348178 
吳三桂 1.987085 1.923224 -1.858059 -0.314368 4.337451 -0.495321 4.516701 4.622785 0.628528 -1.236331 
神宗 -0.708777 0.893978 -3.112816 -1.882864 -0.278152 -1.181306 1.173199 2.096509 3.502722 -0.432953 
元老院 -1.993862 4.541397 3.661777 -2.240300 3.599015 1.929220 5.401599 -2.599670 2.927630 0.956492 
同盟國 -0.600028 -0.968166 2.977201 3.358458 -1.102287 2.603526 0.913029 2.666854 2.715056 2.482254 
曉 0.438453 0.654468 -1.594293 -0.141271 -0.962951 1.764112 -1.435949 2.425669 0.787495 -1.291261 
西德 -4.308030 -0.475062 4.768503 2.588614 2.204981 0.018853 0.603406 2.092340 3.890753 2.154873 
富國強兵 -1.138498 5.493280 -0.712912 2.060002 -1.760806 -1.609215 3.834172 1.540962 1.673037 1.783483 
澶淵 -2.382674 3.749772 0.198757 -5.308955 -4.095911 -0.362802 -4.082475 2.963098 1.600274 0.028978 
北非 1.675659 1.669653 4.582194 -1.875411 1.079532 -0.213701 3.554506 0.111676 2.610764 2.373422 
鳳山 -3.454082 -1.742840 -1.521171 -0.469456 2.637329 3.710047 0.438052 1.104001 3.968017 -6.095201 
子孫 0.594481 -1.809263 0.001555 -1.135907 -0.065632 -1.822677 1.134960 2.535048 0.726896 -2.158798 
春秋戰國 0.244930 1.782847 -0.189156 -0.756020 -0.013778 -4.104552 5.526874 3.325789 3.787396 -3.074893 
長江流域 1.340473 1.092235 0.156817 3.570524 0.100321 -0.721763 -1.912964 5.457084 0.321329 -1.619856 
雲 -0.044790 2.528788 -2.384416 -0.901506 -1.631449 -0.621002 0.384721 3.672045 -0.620732 1.474787 
路易十六 -2.432333 6.648911 2.271685 1.291541 -2.248566 3.171218 3.586297 0.050513 0.480184 3.258138 
洛克 -1.124758 2.149765 3.104028 -1.821897 -6.017041 5.070725 -0.601561 1.070598 1.414368 0.599497 
瑪麗 0.752640 5.711720 1.265243 -0.078920 -5.866363 3.590939 0.294694 0.152331 2.617278 0.420682 
重鎮 -1.798695 0.239660 -2.117516 -0.614188 -0.752607 -0.177438 -1.116519 1.487638 1.483365 -2.372469 
中國史 0.898618 0.412204 0.961847 0.007488 -1.667288 1.301547 -1.718787 4.018126 -1.682375 -0.839392 
南郊 -2.123824 -1.655024 1.189694 3.263103 5.456557 -0.899817 -0.325688 4.397709 3.531861 -2.106529 
民族運動 -0.223236 -0.674663 2.306814 1.232896 0.306639 2.371108 -0.176857 -0.090596 3.043653 1.852470 
蓬萊米 -2.577340 -1.708376 3.036716 2.115599 -0.081866 4.868291 -2.427541 5.205005 -1.221700 -1.366316 
大都 -0.400004 -1.047801 0.384275 -1.095966 1.461577 -0.104001 -0.079944 0.635315 0.998666 -0.221466 
猶太 1.569499 1.607160 3.887966 -4.020113 2.108413 2.576327 -0.685479 1.589014 2.545944 3.460238 
丘逢甲 -3.662061 2.080208 -2.815508 5.751718 3.042508 1.827335 2.977745 1.496604 4.574758 0.065478 
基隆港 -2.916480 -1.833724 1.350534 1.897874 2.124791 5.177932 0.204441 1.310229 2.250337 -0.233310 
耶路撒冷 2.615094 1.433206 5.251531 -3.405145 4.820824 -0.636944 -1.868880 2.594448 2.166180 1.026305 
婆羅門教 1.622814 4.836521 3.381968 -6.349135 1.216166 5.323463 0.029262 1.090532 -1.809008 -2.837063 
古羅馬 -1.929047 2.069911 1.804455 -1.863904 1.564600 -0.044647 0.783188 -2.559373 5.307677 0.806197 
永嘉 -2.658492 5.782421 2.143602 -1.580128 0.176147 -1.093196 -2.354051 3.779620 -1.271860 -4.534602 
亞美利哥 3.621214 -0.085673 2.436854 -6.062351 -5.019309 1.484894 -2.302993 3.316691 2.271818 -4.192167 
永吉 -0.100371 -2.216349 3.841617 2.102494 -0.435243 6.459971 -3.235976 6.609612 -1.673353 -1.851845 
卑南 -4.277042 -0.977030 -1.847001 -1.127517 -3.736024 1.353409 0.983240 2.691807 2.339818 -3.005664 
黃興 -0.242087 5.055554 -4.339028 -1.031793 1.279395 5.748753 -0.616661 3.715287 1.177209 -1.592983 
都城 -2.526388 3.165735 3.103904 -2.485121 -0.110700 -1.829534 -1.618155 3.866512 -1.876149 -1.318015 
哈里發 1.290916 -0.940832 4.358803 -1.754456 0.823340 -2.842350 3.748378 5.183838 3.136842 0.751728 
漢文 -2.524950 -1.504039 -0.886127 -2.767966 -1.471848 1.321323 -0.080807 -0.137228 4.374385 -1.810576 
百年戰爭 2.716411 0.971378 3.460003 -2.273954 0.126633 4.701742 -2.986852 -0.324497 5.441509 2.723581 
墨西哥 -0.036058 -1.694870 3.570830 -2.189339 -3.105443 2.301927 5.060297 1.371087 0.405027 0.711881 
腓尼基人 -0.874190 0.342629 6.356630 -2.589744 0.926535 1.093996 -0.555086 -0.901117 0.562987 -0.760025 
明成祖 3.014128 -0.064172 0.871120 -1.742701 -0.276763 -0.136354 2.501190 5.003735 0.981559 -2.375147 
柏林圍牆 -3.789204 -0.671726 4.465513 1.966841 4.036344 0.423254 -0.086623 2.273103 3.213221 2.526581 
河北 -2.168990 5.454432 -2.007233 -1.858820 -2.921214 -0.233696 -1.897509 2.362751 1.364961 0.444451 
臺東 -4.405313 -1.273657 -0.798857 -0.234008 0.477652 3.633780 0.134103 0.853143 0.205544 -2.534562 
高雄市 -1.408779 -2.461945 -0.158409 -1.231508 2.212800 3.200630 1.529848 2.167768 1.032615 -3.819061 
北郊 -2.054979 -2.086975 0.281392 3.387054 4.538417 -1.662267 -0.342823 5.046194 3.356592 -2.337594 
君 -0.674719 1.765543 0.045855 -2.162395 1.702582 -1.711772 -1.173277 0.231795 2.091655 -0.282860 
十字軍 2.890992 1.359061 4.467672 -1.559762 3.908538 0.157828 -2.289626 1.628258 4.016362 -1.512387 
治國 -0.179106 2.666649 -0.308020 -0.154534 -1.491062 1.047332 -0.367427 3.075242 -1.028324 0.878484 
革命黨 -1.778887 3.478821 -3.039499 0.179355 0.237115 2.320413 0.238967 3.078329 0.148261 -0.574716 
城鎮 0.628194 -2.689967 3.739123 -1.121316 0.171121 1.620215 -1.406991 0.320861 3.833111 0.357255 
高雄港 -1.747041 -1.726808 1.841640 2.156010 0.189276 4.086909 0.034740 1.138095 2.050271 -1.721265 
燕 -3.051352 2.374124 -0.463520 -1.154740 0.073810 -2.594377 3.088766 4.827218 0.731607 1.150571 
太陽神 -3.308127 3.603359 5.986900 -1.793711 -1.962911 1.273344 2.524494 0.157516 0.711148 -1.288395 
羅馬公教 2.190264 0.371063 0.554871 -3.079142 0.017649 -0.074873 -1.502480 0.172261 5.107126 -1.174214 
天文 0.839221 3.790938 3.122199 -2.464638 -4.225941 -0.680075 -1.314007 -0.516955 0.859388 -3.893955 
大沽 4.967967 1.901467 -0.731366 3.853719 -1.209452 2.496148 -1.391680 5.437860 4.693502 -0.836917 
楔形文字 0.242047 4.250543 8.259244 1.186461 -1.811714 0.430397 1.876834 1.617869 -0.763625 -0.423410 
孫權 -3.434747 4.512974 -0.566456 -0.382570 3.437288 -0.726555 -4.589677 0.664412 4.307264 -1.922341 
江戶 -0.454230 2.986267 1.233797 3.053857 0.537599 4.104827 5.434174 0.956430 0.223432 -0.779142 
西西里 -0.110741 5.774835 2.307148 0.823989 1.510359 -2.278439 2.329927 -1.678577 4.360265 1.079209 
玻利瓦 -1.179619 2.467340 2.634056 -5.883133 -0.273778 3.313921 4.708806 0.698737 2.248158 4.224155 
黃玉 -2.238478 -4.183109 2.252225 -4.350457 2.379662 2.734803 -4.555768 2.125684 4.064084 -1.890010 
社會變遷 -2.551265 -3.534827 -2.777330 -1.465303 -1.228347 0.394094 -0.150437 3.817715 3.304072 -2.533306 
康 -1.585088 1.063428 -0.839577 2.999117 -1.468066 -0.837508 1.401767 3.292902 -0.285838 -4.901762 
臺中市 -5.200602 -4.174800 -0.318234 0.268053 1.386398 1.151955 -0.885105 0.474093 4.430794 -4.204975 
雲漢 0.268409 1.331898 -2.066930 0.200819 -1.901526 2.237235 -1.095533 4.199237 -0.032456 1.181970 
長崎 0.957315 1.888881 1.108458 2.136871 -0.280188 5.280710 4.398737 2.348920 -1.098080 -0.415485 
國民會議 -4.608429 5.165851 0.157046 -0.261382 -2.191544 3.648798 2.091579 1.300311 0.505738 3.908857 
塞爾柱 1.609670 -0.479201 5.916121 -2.150129 1.721789 -1.986197 -1.384220 4.454178 2.234236 1.110287 
光緒帝 1.698062 1.693274 1.170683 4.258601 -2.622159 1.480213 1.310426 2.209112 3.491917 -2.797036 
索菲亞 -0.193006 -1.448361 1.858639 -6.077214 0.693558 -1.841945 -2.339990 1.184924 5.117019 1.019409 
靖康 -0.238427 7.649451 0.641484 -2.795188 5.685980 -1.080014 0.945263 4.106486 -0.314999 0.470877 
藩 1.643393 1.457209 -0.684215 1.057521 4.376821 2.037553 4.582922 2.068085 3.022444 -0.340372 
匈牙利 0.234758 1.308766 5.574768 4.601353 1.866544 -0.471430 -1.344177 1.434657 4.743739 0.851485 
尼 3.553995 -0.269493 2.295666 0.617569 -4.672351 -0.257504 5.721920 2.020079 3.936184 -0.939017 
緬甸 1.169524 0.686615 1.603373 -0.201051 2.239161 4.282554 4.201766 5.764147 -1.193231 3.193941 
恆春 -2.786233 0.142629 -0.835640 -0.015661 3.125015 3.194802 -0.007361 1.781081 0.636849 -5.035062 
西方人 1.986614 -0.194163 1.039807 -0.893096 -3.629475 1.662978 -0.953637 2.519369 -0.327490 -2.623842 
顏思齊 -2.811124 -1.192233 3.887719 4.525638 2.858672 3.105937 2.361064 3.446392 -0.639811 -4.672946 
寶 -1.900404 -2.130556 1.878456 -3.900314 2.132928 0.927522 -2.529222 -0.507687 1.021068 -3.130251 
二次革命 -0.781442 5.070275 -1.995323 -1.982235 -1.046937 3.613663 2.295724 4.353298 -3.174211 -1.458750 
大西洋 3.602449 1.480193 5.374568 -0.939267 -2.559760 2.969143 2.210250 1.157514 0.818340 1.242093 
蔣經國 -2.978628 -1.661572 1.026518 -0.769362 1.341483 3.642079 -1.531659 0.947025 0.681461 0.662794 
阿美族 -6.686738 -0.126707 -0.117781 -2.724343 -2.869636 1.181496 0.669565 2.117663 0.282451 -3.114438 
班固 -4.833758 3.069232 2.494647 3.759693 -3.388456 -3.009363 1.630333 1.588065 2.603000 -5.451077 
查理一世 4.034740 5.175053 0.081018 -3.642725 -4.583932 1.731091 0.323561 2.654005 2.346603 1.120969 
鹿皮 0.055803 -2.838306 1.046101 0.502016 -1.001030 4.869537 3.724604 1.671613 0.647407 -2.372582 
小亞細亞 -0.787093 0.118335 6.794423 -2.669131 2.291172 -1.055319 1.590606 0.275524 0.827522 -2.538391 
泰雅族 -7.164926 0.825382 0.653775 -1.289776 -3.557687 1.281211 1.365200 -0.667308 1.992289 -3.022059 
英文 -0.481989 -0.318740 0.828604 0.979785 -3.596556 2.049604 -1.437544 -0.328806 3.084606 -0.571365 
唐太宗 -1.142869 2.842784 1.667474 -4.844481 1.655702 -0.950570 0.951739 3.869106 -1.971763 -3.029502 
腓特烈二世 -1.426442 7.467172 -0.574812 1.354812 -1.272756 4.347819 -0.134187 -2.411215 3.223666 0.191231 
文武 -0.124946 1.841697 -2.988780 -1.257641 0.725615 1.691196 3.660254 2.109969 1.248231 -2.856865 
九一八事變 -1.004579 -0.723934 -0.511635 1.445758 -1.835653 0.342743 0.534429 7.005024 2.336691 2.625888 
新港 -1.890362 -1.382391 1.540474 -1.105602 1.279548 6.468887 1.452713 -3.530972 7.045321 -2.909091 
黃巢之 -0.499503 3.385075 0.734071 1.455748 0.618507 -0.607371 0.127666 2.791254 -0.981799 -3.682979 
光榮 0.010993 -0.491611 1.062824 -0.607505 0.692042 -0.904944 0.732731 -0.251028 3.186399 0.501683 
市民階級 1.214529 -1.582490 4.962991 -1.462369 -0.817677 1.241639 -4.291833 -0.079416 3.589224 -1.242619 
二戰 -1.200991 -1.019233 3.415594 0.241597 1.006083 3.006706 2.000704 0.364965 2.360694 3.151878 
印度洋 2.641415 -2.862435 3.183260 -3.257283 0.041397 2.015990 1.723120 5.925164 -1.664859 -1.588725 
武昌 2.118581 5.232814 -3.049299 -0.790969 -0.134260 2.421349 -2.083713 4.773259 1.078466 -2.478150 
嘉義 -5.662446 -3.108554 -1.542984 -1.173939 2.629543 2.434259 0.659602 1.408059 2.661010 -4.462109 
智慧 -2.498091 -0.077040 4.449132 -1.830985 0.188277 1.959916 0.146291 -2.308345 0.776287 -2.350665 
臺灣島 -1.694839 -1.465992 0.003780 0.070131 0.956899 5.012331 -1.511539 -0.866410 2.653625 -3.405938 
唐三彩 -2.308417 0.860362 2.578650 -3.332750 0.112520 -0.278211 0.464884 4.947240 -2.394685 -2.286805 
南北戰爭 -3.944488 0.348516 0.911099 -1.969868 -4.618525 1.188359 3.614425 0.293217 4.406455 4.269885 
獨立戰爭 -0.378034 -0.330366 2.008050 -3.163052 -2.623312 4.528862 2.437794 -0.369768 2.312732 2.233499 
臺灣電力 -4.397325 0.027760 2.784718 2.083818 -2.972494 2.995585 1.227528 1.603722 -0.810511 -0.631179 
新大陸 2.412461 -0.903178 3.015573 -6.193686 -4.830113 3.181016 0.608307 3.036669 1.353722 -0.440411 
福爾摩沙 -1.798785 -0.315829 2.916345 -2.804788 0.235023 6.511588 0.212089 -0.091970 -0.535226 -3.695182 
花蓮 -5.442332 -0.981204 -1.182650 -1.604936 0.384803 3.326840 0.431087 0.941062 0.496999 -3.128084 
曹 -2.323405 1.073851 -0.673111 -0.991337 1.544295 2.164299 -0.405516 0.074745 0.753561 -4.074112 
郭懷一 -1.527280 1.825825 -0.160135 -0.013350 -1.211060 3.901742 5.551143 -0.816184 1.489725 -3.339979 
莎士比亞 -0.597185 -1.266065 4.333408 -1.397543 -7.214296 1.531325 -0.205523 -0.150190 4.535340 -0.229928 
南明 1.740092 0.530636 -1.956705 0.399092 3.648689 1.831485 3.487202 3.069178 1.813240 -0.709279 
亞述 -2.185220 2.896501 8.663518 1.502945 1.351290 0.312112 1.547276 2.522435 -1.958097 -1.547550 
魏孝文帝 -5.815891 2.681277 2.907240 0.687880 3.306141 1.751658 -2.578175 2.425007 -1.924791 -6.660465 
安徽 0.772445 2.693074 -1.698877 -0.111602 -0.921394 1.123263 0.689185 3.035632 0.568273 -3.397592 
立體派 -6.558849 -1.923038 3.004729 -1.540369 -1.446507 -1.213256 2.929261 2.237997 3.683474 2.545179 
摩尼教 1.060794 0.265028 2.328615 -1.973885 0.918219 -2.178458 0.005630 2.574490 0.465575 -2.455181 
玉米 -0.145188 0.068679 2.393390 -3.372289 -2.671990 1.356676 0.458266 2.082853 -1.291793 0.612326 
屋大維 -2.150876 3.167868 2.443578 -2.412074 3.225600 0.054027 3.469824 -2.507755 3.542147 0.513675 
神聖 -0.624030 2.006094 1.629227 -2.935441 0.315833 1.724356 1.351826 -1.232152 1.848497 -0.380196 
朝鮮半島 -1.873976 1.092388 0.843475 -0.895898 0.911741 1.999194 2.453230 2.612827 -1.299669 2.561125 
西柏林 -2.981740 -2.169437 3.659701 2.409810 3.373579 0.902251 2.666132 1.567486 3.906875 2.734397 
耶和華 -0.143578 1.247831 2.504695 -2.213396 2.301500 0.076280 0.133417 1.448762 0.473942 0.329801 
孟德斯鳩 -2.527325 1.464604 3.076170 -2.289841 -1.351406 4.227411 -0.251290 -3.308029 1.647769 0.283800 
下議院 0.785718 0.656031 1.466617 -1.759676 -6.542718 4.001395 -4.263686 2.827751 5.229435 1.932102 
法老 -2.280158 2.497229 5.350026 -7.667605 0.184829 0.439290 1.029518 0.715408 0.479242 0.478570 
狄德羅 -3.972622 4.418437 3.072072 -2.643744 -0.132571 5.459425 -0.839622 -1.282195 2.826893 0.739256 
杭州 1.679818 2.468673 -1.848302 1.384183 4.075684 0.203311 0.635054 6.163044 1.168494 -0.762253 
成吉思汗 2.288867 1.416093 4.866413 -0.073736 3.239003 -0.006355 -4.061878 6.007356 0.035463 -0.953364 
河姆渡 1.470409 -0.867560 -0.063994 1.694135 -1.045973 -0.132362 -6.741633 6.925039 3.882647 -4.320074 
亞里斯多德 -0.930396 1.436261 4.799375 -0.232308 -2.847586 1.150923 -2.940669 -1.921452 1.509551 -4.182105 
漢摩拉比法典 0.733385 6.199052 7.383208 0.347039 -0.873632 0.988559 1.162834 0.967349 -0.445254 0.259923 
陝西 -0.539572 2.271400 -0.422706 -0.321974 -1.556466 -1.620885 -4.182014 4.796668 1.538650 -1.432490 
瑞士 -0.414257 -0.270585 2.468935 0.636023 -1.486192 2.260473 0.402341 -1.794441 4.312462 0.093260 
朝野 0.014931 1.470136 -1.540031 1.955339 -2.834953 1.383977 0.714977 2.901498 2.041784 0.156215 
隋文帝 -2.702055 2.236576 2.359156 -1.994408 -0.039520 -0.468373 -0.471626 5.230563 -3.263771 -4.189019 
萬曆 1.262751 -0.539476 -1.668342 -1.396995 0.762251 0.573986 1.484453 2.659870 2.020019 -2.404236 
兒玉源太郎 -1.744122 -1.505356 -0.911444 0.838826 -0.335864 2.713017 -1.891254 1.298199 3.692821 -1.479720 
人權宣言 -1.785194 4.362349 2.069418 -1.717162 -2.627717 4.616965 2.285699 -0.873002 0.034635 3.636175 
曼 -1.894859 -1.968069 5.303264 -0.883679 -2.949311 -0.109310 1.621744 -0.723558 1.313598 0.455204 
蘇格拉底 -2.882689 0.312799 3.069591 -0.865341 -0.994016 -2.167097 -3.001825 -0.036699 2.969775 -5.596793 
巴格達 1.873908 -0.232290 4.812715 -4.000401 0.700336 -1.836769 0.695346 2.495819 2.111320 0.333200 
王宮 -1.432901 1.885105 5.267716 -1.987648 -0.338967 0.158030 1.867806 0.996688 -0.909994 0.261376 
文化的發展 0.521171 -1.256103 1.828345 -3.099546 0.488818 0.006315 0.060535 1.664169 0.727594 -1.326833 
阿美士 2.270335 -0.050190 0.841122 2.048979 -6.229576 2.550294 7.491693 3.393680 3.149077 -1.737565 
抗衡 -0.101054 0.176711 0.629724 0.928374 1.373523 1.201067 -1.160310 0.500899 2.339558 1.458836 
馬志尼 -1.260500 4.161795 -0.493651 1.248689 0.153779 -1.327212 0.934719 -0.045880 6.952868 1.611999 
沈 0.033833 -1.259406 -1.911709 -2.262195 1.485450 2.085398 2.462697 1.090756 1.829422 -0.455096 
紐約 -0.444545 -2.052494 1.925732 0.430098 0.868906 2.686242 -0.797576 1.612150 1.079450 2.344054 
李登輝 -3.334422 -0.482430 0.117405 -0.987462 0.230068 2.707310 -1.182051 1.280091 -0.152593 0.986266 
慕尼黑 -1.366038 -0.103109 3.045793 1.912807 -3.459320 1.862914 -4.170462 2.594949 4.927453 3.199752 
安撫 -3.236829 0.192427 -1.671871 1.280947 -0.226833 1.443749 0.022846 0.491606 2.097031 -0.650280 
斯拉夫 2.474912 1.747750 4.532900 1.202027 0.834366 -2.458882 -1.303018 1.907785 6.572602 1.353955 
紅毛城 1.869596 -0.210942 -0.195009 -0.038976 -2.698254 5.713814 2.760905 1.183032 0.133885 -2.543895 
穆罕默德 2.902719 -0.126452 4.099782 -3.033599 -0.206200 -3.034821 2.246545 5.996932 1.994194 0.092017 
普通 0.268179 0.236862 -2.863220 -1.639256 -1.703585 2.110012 -1.739625 3.039319 3.405506 -4.612646 
瓦特 2.149424 3.650707 -0.617931 -1.128068 -1.034781 3.418508 3.776643 0.803359 6.831751 5.707921 
伯爵 1.959809 2.127377 3.184408 -1.267541 -6.640770 0.160403 1.891398 0.985961 2.779047 -0.807611 
莫內 -5.350641 2.422623 2.316439 -0.316478 -1.030525 0.985727 2.818843 -0.069551 0.938054 1.185817 
司馬光 -1.909799 3.360523 -3.314909 -6.318194 1.035279 -2.934026 0.672354 3.564486 4.437734 3.711905 
三級會議 -2.979709 4.937484 1.292276 -0.094412 -4.387331 1.949946 3.267481 0.792595 1.103043 3.546753 
海關 2.117134 -0.715865 -0.201245 -0.076092 -0.530790 2.758698 0.795338 2.484406 1.698545 -1.277868 
南京大屠殺 -0.656250 -1.705976 -0.585230 1.853432 1.111106 2.954942 -1.384980 5.167540 1.800012 1.619687 
西南 1.020889 0.086168 -0.375129 1.103868 0.917865 0.094660 0.775033 4.554151 -0.205463 -0.870797 
迪南 6.515409 2.196022 3.099385 -3.808638 -1.321640 1.557176 -0.026857 3.930091 4.692767 1.802552 
臺灣地區 -1.012240 -2.274393 -1.048117 1.028593 1.898910 2.894491 1.994028 1.006168 2.743365 -0.905877 
景教 2.191704 1.119841 2.153552 -2.205236 1.433868 -2.591186 0.037701 2.176680 0.851947 -2.798297 
海峽 2.585029 -1.891398 1.250077 -0.047625 -0.463328 1.216885 2.203405 2.616865 0.399255 -1.061553 
羅馬教會 1.955454 2.256090 -0.057038 -0.881725 2.937307 0.060427 -1.572970 -1.140928 7.072285 -1.690256 
古老 -1.391236 -2.182896 1.704063 -0.608183 -0.073566 0.212826 1.188932 0.302169 0.704989 -1.347561 
滿洲 1.926709 2.500768 0.061926 2.067596 -0.409266 0.343983 0.567120 4.347899 0.031152 1.182415 
福建省 -2.222409 -0.621289 -3.417293 -1.344818 2.555906 3.370759 0.090783 2.169825 2.803299 -3.296529 
科考 -0.125640 0.333174 -0.772993 -1.545328 1.472409 1.332743 0.470219 2.012408 -0.011930 -2.108282 
項羽 -3.043151 2.619544 2.768081 -0.429034 -2.362794 -2.576617 2.820342 2.316274 0.642845 0.644066 
廣島 -1.592210 0.169818 3.521077 3.129571 -0.719567 3.493572 2.914432 5.909858 -1.066630 4.622219 
丹麥 -0.049691 -0.160357 2.108966 3.091561 -1.404034 4.194261 0.245591 -1.377637 5.109605 0.766888 
張之洞 2.737031 3.537739 -3.241645 0.905658 -0.635714 2.728086 -0.715979 3.897369 2.358478 -2.349164 
邦國 -1.752249 2.943753 1.171767 1.570986 -1.234514 0.058113 1.155070 -0.094784 5.228112 2.487698 
孟子 -0.920858 2.354103 -2.297081 -4.257910 3.619131 -1.327575 -0.532915 1.317110 7.452796 -2.752505 
歸納法 -1.983472 3.710035 0.672891 -0.031259 -2.350383 3.181632 -4.533655 0.801583 0.654887 -2.226807 
開山 -1.396583 0.249790 -1.394940 0.441837 1.948358 1.768644 -0.433332 0.791135 1.120170 -3.161425 
拉斐爾 -1.739268 -1.146501 2.794183 -2.405208 -4.815430 -0.396417 1.038951 -0.563294 5.106646 -5.339024 
馮國璋 1.411362 4.692802 -2.256491 -0.703939 -4.787551 1.174948 2.799708 3.631934 2.689457 -3.221473 
大族 -4.574099 5.316582 2.862558 1.253152 0.285218 1.849004 -1.409171 1.530677 -3.243212 -1.385120 
荊州 -4.427540 4.527632 -3.623957 -2.832105 3.879457 -0.576081 -2.674099 1.329867 4.535922 -3.728902 
成都 -2.380791 2.062652 -3.230608 -1.107276 1.612698 -0.709961 -1.961751 4.466267 0.259407 -2.458099 
希臘化 -0.430196 2.024822 5.767435 -4.413945 0.135965 -2.173172 1.203357 -2.144009 2.396914 -3.208539 
阿利安人 0.873707 2.724480 3.866394 -5.559140 1.362062 4.157409 -0.293430 1.352602 0.606250 -1.677495 
上臺 -1.474919 0.118253 1.490721 1.634129 1.368258 0.631777 -0.124908 1.262874 1.308557 1.086269 
劉少奇 -2.304264 1.615591 1.261933 -0.097818 -0.954794 2.378898 -4.148781 4.561192 -0.031179 3.198422 
社會秩序 -0.879686 2.329660 0.026698 0.607424 -0.099927 0.177217 -1.397454 -0.327560 1.054085 -0.206238 
種姓制度 2.089263 3.802574 1.958062 -4.185487 0.627722 5.434242 0.605647 0.901513 -1.785026 -1.924791 
童 -2.976764 -1.638998 -1.832783 -3.977137 -2.501652 4.225578 2.698269 -0.245733 4.208092 -1.912819 
京城 -0.942477 2.090489 -0.499099 -0.288675 0.250990 -0.051606 1.387906 2.504146 -0.218197 -0.955688 
史綱 0.169178 1.346413 -0.099721 -1.585352 0.079721 0.132174 -2.185322 0.608301 1.139800 0.367987 
沿海地區 1.593574 -2.751185 1.204483 -0.293744 -0.905146 2.624604 0.890720 3.387564 0.364119 -2.498298 
貝多芬 -5.182298 3.842355 4.421712 1.571822 -0.660775 0.583238 5.059642 0.766269 0.651854 2.369635 
中西 4.292595 1.202526 1.005308 1.554132 -1.272086 -0.079329 -0.431961 4.664650 0.726986 -2.929500 
大屠殺 -0.770171 -2.418554 3.244962 -1.217003 2.208754 1.136632 -0.511356 2.206998 2.215303 3.321828 
立國 -1.331383 1.935440 1.440293 -2.079015 -0.588695 -0.874518 -1.730395 3.477742 -2.605914 0.253131 
歸順 -2.106398 0.933889 -1.865078 0.254436 -1.568430 -0.113279 -1.170002 2.515734 2.337008 1.463495 
小國 3.976817 1.674811 1.168793 -0.279449 1.290035 -1.405415 4.813545 3.741766 3.397842 0.408202 
閩南語 -3.986962 -1.665130 -3.270054 -2.272281 -0.971891 3.960524 0.281879 2.160401 1.177665 -3.585752 
梁武帝 -2.181014 6.903891 2.339870 0.188889 2.183267 2.703220 1.171438 -0.730768 -0.159228 -6.531344 
賽 -2.919614 0.435603 1.860714 0.778860 -4.170228 0.691759 -0.985697 1.604211 0.142710 1.758786 
保安 -2.346573 -0.462026 -1.216529 -0.654714 4.034694 -0.172539 4.987034 1.887109 2.116999 -0.733990 
黨爭 -1.671039 5.795380 -3.161601 -0.725122 -1.534197 -1.988061 0.915771 2.538802 1.818786 1.216130 
莊 -2.102571 -1.698495 0.121202 -1.523190 1.411054 0.694996 -0.464000 -0.258950 2.348332 -1.172428 
三民主義 -1.019467 3.092219 -3.599824 -0.522514 -2.275108 4.499305 0.177346 3.482885 0.354526 1.517246 
巴爾幹 1.572806 -0.410515 3.936721 2.641739 -3.100620 -2.277592 0.772568 2.119472 5.389655 0.969827 
捷克斯洛伐克 -1.374669 0.712898 1.773951 2.493103 -2.390445 0.924562 -3.515687 1.673791 6.449893 2.405664 
黃河 -0.968297 0.267682 -0.216451 -1.258475 0.842558 -1.839364 -2.540529 3.664874 1.920520 -0.895124 
華盛頓 -1.394240 -2.303437 2.093985 -0.837749 -0.541168 4.604461 -0.221506 1.131081 2.809109 4.319959 
克麗奧佩 -5.474894 4.865998 3.504102 -3.001400 0.845600 0.285915 4.171360 -0.819212 1.773822 -0.723923 
利瑪竇 4.659934 1.610836 -0.245926 -3.065239 -1.239983 1.198784 0.959095 0.587836 3.315722 -5.202944 
和談 0.879705 2.060036 -2.307145 1.809817 0.483853 2.538870 -0.071097 3.814470 2.135439 2.439882 
達文西 -3.245530 -0.535772 1.231151 -1.811142 -5.705452 0.610407 1.712896 -1.509889 8.359566 -2.835324 
瀋陽 -1.366439 -0.069979 -0.811385 -0.036926 -2.720394 0.421736 -0.158824 6.940208 1.572304 3.351882 
王后 1.128181 4.756919 3.570122 0.203551 -1.889827 1.443217 0.706638 -1.898160 2.104298 0.192245 
安平古堡 -0.821611 3.280327 1.499752 -1.455453 3.330228 5.197153 5.109718 -1.357438 0.781641 -3.030059 
麥田 -1.754021 -1.792655 3.646386 -3.199414 -0.011664 0.645627 -1.750273 1.191265 2.739511 1.529049 
廖添丁 -7.694363 0.459363 2.487307 3.126030 1.643097 -1.725705 1.360407 0.000828 5.108591 -1.055476 
澎 -3.431664 1.150421 1.697419 4.506422 -1.676816 5.358305 3.222924 2.104320 -0.489674 -1.165036 
通訊 -1.209726 -2.057349 0.372461 0.925394 -0.060206 3.300396 0.592051 0.963401 2.471629 -1.092030 
喬治 1.392469 1.153036 2.592830 1.669407 -5.449197 2.626751 -0.076659 3.943792 2.230122 2.901472 
中東 1.895764 -1.375824 2.836348 -1.730500 1.231007 -0.002061 -0.902605 1.903134 1.998579 1.430664 
司馬遷 -1.286759 1.777450 1.487227 1.367703 -1.035419 -3.005334 2.368436 1.984199 2.138488 -2.211351 
米開朗基羅 -1.438630 -0.393991 0.986107 -1.555030 -3.342706 -0.487609 3.115388 -1.856432 6.548166 -1.530762 
遼東半島 -1.168056 0.704543 0.672321 7.290456 0.206673 2.381679 0.826813 3.200367 2.640368 0.526185 
王攘夷 2.443628 4.898234 0.483728 1.205321 1.385643 -2.005666 5.856031 2.568151 4.271636 -1.366827 
新加坡 -2.792702 -2.560801 0.192757 0.112940 0.227375 5.633372 2.206318 3.000698 0.679856 3.228947 
美索不達米亞 -2.179495 1.673494 6.510459 -2.962241 0.067841 -0.578737 1.671218 2.063285 -0.615948 -1.156980 
權利法案 1.317277 3.838420 0.629979 -2.558688 -2.496513 4.915468 0.854093 -0.616697 0.974687 1.647401 
顧問 1.173862 -0.592353 -0.675999 -0.034826 1.231651 0.548991 -1.056962 3.205761 2.741929 2.044532 
十年建設 0.311168 0.795514 -1.819042 -0.771668 -1.796385 0.932599 -1.752000 5.790621 1.161157 2.577945 
太平 0.160068 3.209764 -0.794574 1.586165 2.399411 1.130348 0.243055 0.508742 2.520361 -3.843324 
歐陸 1.127912 1.823820 2.337140 0.454939 -1.854369 5.020691 0.769836 1.045848 3.410489 3.196958 
博 1.866694 0.173778 -2.080945 -0.869904 -2.603622 0.768287 0.280276 3.171428 2.349988 -3.468207 
柏拉圖 -3.140933 1.303891 4.366720 -0.165702 -2.989959 0.269093 -3.333611 -1.706139 2.587011 -4.495210 
甘 -0.410685 -1.124123 1.289879 -1.824871 -0.322303 -1.213886 -0.740466 0.786478 1.497201 -1.246625 
伊比利半 3.990062 2.756846 4.224403 -3.043203 0.324514 0.642227 0.182450 0.657170 3.849112 1.972876 
美的 -4.976220 1.283660 3.984939 -0.438765 -2.007014 0.800520 -0.039204 -0.802323 -0.340459 -1.501976 
蘇格蘭 1.938729 3.890656 1.195527 -1.734000 -4.320264 2.075954 -1.081643 0.855611 5.809259 1.214197 
阿富汗 2.221718 1.588942 4.112231 -1.980849 -0.282794 -0.223191 1.309472 7.300490 2.024162 5.298149 
托勒密 -2.466308 4.350299 3.097401 -3.184934 -2.129127 -0.416540 -0.038531 -1.527623 0.450298 -3.376474 
朱熹 -0.092300 0.601775 -1.842845 -3.910583 6.036683 -0.042932 -2.381493 3.976289 2.783210 -2.969732 
阿里山 -2.870058 -0.338096 0.754022 -0.483790 -0.451165 1.261978 0.910258 1.391586 1.301582 -0.961992 
吉 -0.216259 0.446529 0.967895 -0.348257 -2.516735 -0.082161 1.585149 0.257549 -1.552916 -1.683125 
釋迦牟尼 1.523927 5.821233 4.120039 -4.109154 1.246647 6.322496 -0.856845 1.063102 -2.733828 -2.928298 
施 -4.090990 -3.658742 1.586627 1.140225 2.585557 0.509381 1.000902 0.192593 3.498479 -0.174644 
史詩 -4.012450 -0.688112 6.255543 -0.694620 0.289524 -0.700315 0.553599 -1.610598 3.624470 -2.680138 
宋元 1.759749 -1.195299 0.295068 -4.920065 1.131576 -1.012346 -1.401289 5.853202 -0.305023 -1.542911 
三權分立 -3.133974 0.591500 1.074391 -3.341773 -3.240614 5.739409 0.897843 -0.652309 0.523842 2.310989 
杜魯門 0.160877 -2.651679 1.283354 -0.396521 0.852701 3.479015 -0.523883 4.257069 1.813266 3.651988 
朱元璋 1.631588 1.182056 -0.875554 -2.333334 2.190225 -0.423713 0.700700 1.865009 0.905892 -2.335089 
王爺 -0.877133 -4.617347 1.329114 -3.257068 1.228357 -0.435547 4.460385 1.998566 3.452039 -3.603400 
十二表法 0.736351 1.993867 1.894336 -3.878920 2.828928 0.288147 3.736463 -2.430163 3.642068 -1.159662 
漢字 -4.758380 -2.032462 1.582504 -6.086242 1.979415 -1.136280 -1.612525 1.422093 -0.177891 -2.540439 
蘭陽 -3.077672 -0.331595 -0.202482 -3.222607 -0.878384 3.754519 -0.058298 2.175662 0.871409 -5.424418 
英格蘭國教 2.222601 3.334007 -0.040041 -2.580849 -2.264503 4.382533 -2.412107 -0.771191 5.201277 -2.225785 
普羅民遮城 -1.656658 2.346096 -1.348381 -2.116748 1.744215 5.816957 5.496130 -0.357927 1.642923 -2.303836 
大城市 1.328764 -1.626253 0.813798 -2.116253 0.547352 -0.815131 -1.817491 2.362257 0.738948 -1.652293 
渡海 -1.446809 -3.590698 0.965311 0.612893 0.689259 1.761421 2.413366 2.879811 0.481481 -2.893076 
興城 -2.246004 3.057202 2.579083 -1.732351 -0.285928 -1.554345 1.016639 4.002831 -2.713255 -2.606314 
唐玄宗 0.418502 3.036962 -0.079122 -2.402061 1.521266 -0.730168 1.252417 2.389992 -1.223720 -1.977362 
王維 -6.129047 2.679762 1.482691 -7.398440 6.839825 3.069781 1.003779 2.483820 0.687616 -0.051026 
印加 -0.184634 1.197461 2.980747 -6.739560 -3.551730 2.693966 4.981940 -0.318598 1.276091 -2.524381 
鄂圖曼土耳其人 1.881103 -0.224628 3.703032 -3.593310 1.029740 -1.171446 -1.346001 1.326909 3.949972 0.614155 
蘇軾 -0.394937 2.190816 -0.961522 -6.322819 2.602399 -3.245788 -2.387252 5.068810 3.446949 2.000063 
北平 1.244150 -1.514591 -1.020635 -0.660955 0.321305 1.930001 -1.389834 5.098030 0.593249 1.564813 
三皇 -2.503446 0.190014 4.191974 2.837373 -2.958121 -3.961116 -2.485595 4.654685 3.056327 1.144568 
張靜江 -1.889675 3.030757 -2.257982 0.685129 2.515190 -2.185350 3.017895 6.521316 1.918454 1.982390 
壯丁 -2.233661 -1.016618 -0.580273 1.284430 -0.682525 2.912680 1.714985 0.695310 3.240461 -0.317797 
奧古斯都 -3.504495 2.239023 3.444922 -1.989521 2.332139 -0.903557 3.023355 -1.680701 5.622138 -0.099266 
君權神授 0.101021 5.950296 1.829505 -1.938402 -4.404303 3.999588 -0.114039 -0.663196 1.282746 0.493057 
希臘文化 0.027597 1.023319 4.580355 -2.128398 0.876968 -0.657779 1.591001 -1.475208 2.573926 -3.928927 
泉 -2.843268 -0.757285 0.609859 1.856806 3.668883 0.945240 2.616504 3.363554 -0.901257 -2.715026 
清教徒革命 2.800888 4.907774 1.138056 -0.559545 -4.283798 4.050080 0.790032 0.411221 2.173804 1.104290 
張伯倫 -1.653040 -0.788008 1.984452 2.674453 -3.643372 1.024143 -4.356858 3.049368 6.103744 3.253751 
何謂 -1.908035 -0.808479 1.056615 -0.578508 -0.477386 1.290698 1.681322 1.394890 0.178187 -0.346873 
練兵 0.594412 4.580733 -1.916926 1.685903 -2.027287 1.561187 2.264575 3.195009 1.754874 -2.299613 
歐亞 2.873225 -0.504942 3.680342 0.073944 1.887305 2.001803 -1.820691 3.547607 0.164036 -1.387144 
建安 -5.127532 5.011116 -1.981439 -1.455981 2.361932 -0.874117 -3.733410 0.542543 3.812212 -3.168324 
王子 -0.164652 2.081171 4.759315 0.969912 0.994817 4.892486 0.136678 -2.392142 1.973052 -1.633673 
範圍圖 0.474830 -1.430368 4.026730 5.942308 -0.411149 2.915388 -0.591646 2.137905 0.140850 -3.843035 
卑南族 -5.678182 1.483348 0.001470 -2.399138 -5.231646 0.011508 3.697688 2.500997 0.346851 -2.026650 
太平洋戰爭 -1.781700 -1.244990 2.682795 2.094379 -1.020527 3.710956 1.759525 3.975769 -0.415721 1.625355 
發動戰爭 -0.477840 -0.585026 2.718638 1.499177 -1.091566 1.850980 0.678326 0.284488 1.783316 2.732188 
劍橋 -0.224480 0.147150 -2.693803 -1.699930 -3.017609 2.708740 -2.718130 4.582768 0.693402 -1.970786 
重慶 -0.499770 0.060595 -0.528185 2.465140 1.343333 2.697736 -0.406584 4.724409 1.432776 2.338628 
梵谷 -5.262135 2.098761 2.029505 -0.614926 -2.470247 0.969493 2.441242 -0.536386 1.137616 0.741801 
華北 -0.161300 0.869651 -1.214711 1.085711 0.080659 2.146645 -1.297328 4.968350 1.618363 3.168071 
新舊 -1.418926 2.235774 -2.401763 -0.948543 -1.547173 -1.165619 -0.265487 0.344419 3.146362 1.046136 
江 -0.067583 -0.137333 -2.171202 -1.263541 0.285407 -0.853683 0.981900 3.655891 0.665151 -1.830612 
新約 1.581871 -0.888546 0.752543 0.853394 1.851368 1.892585 -0.760613 1.223321 2.986002 -0.765391 
望遠鏡 -3.506005 4.308641 1.631359 -1.991844 -5.049345 2.022825 -1.055352 -0.813339 1.227214 -4.261533 
立法權 -3.697823 2.061397 -1.276075 -0.893227 -0.747097 4.308215 1.788287 -0.375639 1.583703 2.591472 
紫禁城 3.051735 -0.187439 -0.606339 -0.929863 -3.425302 -0.475013 2.808731 6.838974 0.799551 0.008267 
開國 0.142177 0.874241 -0.658819 -2.412457 -0.085259 -2.487021 -0.132109 3.460898 -0.253369 0.425832 
楊堅 -1.959126 1.903843 3.256035 -0.693290 -0.248074 -0.033534 -0.359929 4.535286 -3.342571 -4.021300 
修道院 0.110631 1.165267 0.178733 0.236002 -1.026822 0.252220 -2.227034 -2.098128 7.196336 -1.099811 
愛琴海 1.801747 -1.408413 5.557959 -0.791713 0.308782 1.081443 0.690931 1.427052 2.893194 -3.590631 
開皇 -1.205577 2.114288 2.349264 -2.562843 -0.206964 -1.206572 0.153771 5.373985 -2.466055 -3.733573 
顏真卿 0.730499 1.561251 0.998413 -2.861333 -1.045555 -0.206855 -1.045691 2.484834 -0.012002 -3.191848 
嘉南 -6.019541 -3.053514 2.999290 0.138135 -0.691260 2.932968 -1.930851 2.796975 -1.121839 0.351860 
汴京 0.844377 3.489708 0.540764 -2.469322 3.245053 -2.493798 0.064502 3.455937 1.155723 -0.500297 
尼亞 3.020322 1.106658 4.553313 -0.274546 -2.964920 -2.391681 1.002134 1.544075 3.910808 1.360616 
立憲派 2.313065 3.837748 -1.062083 1.271112 -2.306394 1.941965 0.873742 3.819495 0.694116 -2.213048 
景德鎮 -0.263416 1.185262 -0.168749 -1.813116 -0.506939 -0.684981 -0.978028 1.526181 0.106627 -0.658494 
雅典娜 -1.953088 -0.583928 5.947118 0.383708 1.307239 2.281951 0.814027 -1.540425 3.125691 -6.174070 
江青 -4.273530 -1.244405 -0.105295 -0.481498 -0.081820 -0.791850 -3.714032 5.224485 0.912714 -0.041057 
榮耀 -1.872967 1.246388 3.957963 -0.813662 -0.535119 1.453606 -1.259241 -2.180549 1.316426 -1.982299 
山林 -2.998760 0.088104 -0.833190 0.990793 0.559852 0.850564 0.714658 1.552689 1.123132 -3.650047 
開元 0.413269 1.802961 -0.533327 -2.371753 1.599046 -0.497520 0.163630 2.852843 0.255154 -2.985221 
容納 -1.140586 -1.240895 0.028809 -3.710157 3.392853 -1.388127 2.107642 -0.039834 3.829143 -0.447122 
秦王 -1.916755 2.598344 2.394298 0.498707 -2.088999 -3.533950 2.800287 3.091619 1.488764 0.939413 
郡縣 -1.712465 1.614809 1.940195 2.155846 -1.294307 -3.659913 2.151455 4.015166 1.569601 -0.091650 
許可 -0.505877 -1.259330 -0.918627 -0.016216 0.971596 1.999921 -0.941409 1.175447 1.409810 0.826805 
高山族 -2.537976 -1.275321 2.450636 -2.644029 -0.512746 3.917228 -0.404362 0.341321 -0.646076 -4.700225 
黃河流域 0.002892 0.640732 0.633803 1.232565 0.313722 -2.411131 -3.063315 4.100444 0.595072 -1.834139 
隋煬帝 -1.311521 3.535375 1.918762 -0.657392 0.067306 -1.163032 0.716405 4.506319 -2.553914 -1.383015 
上古 -0.297970 1.597569 2.257007 -1.527660 -0.067030 -0.839358 -0.388896 -0.087837 -0.101628 -1.867545 
行會 2.171838 -0.650082 4.998030 -0.709967 -1.365078 2.908104 -5.341166 1.035534 2.937335 -2.930548 
小琉球 -1.461725 0.443105 1.441182 1.072167 0.719376 6.131518 -0.634812 -0.339509 1.279041 -4.058109 
笛卡兒 -2.622474 4.291313 0.917289 -0.696595 -3.852787 4.272279 -4.557826 -0.289956 0.572458 -3.892732 
馬加爾 3.675282 0.174041 0.633667 1.570714 -4.925090 1.087068 6.769060 3.557329 3.975164 -1.910866 
長大 -2.763095 0.103462 3.019102 -1.153675 -0.893634 -1.027150 2.643145 -1.667996 3.773344 1.164654 
加拿大 -0.688102 -1.495969 1.566776 -0.278704 -0.627773 4.490627 1.000928 0.572294 2.186459 1.450879 
馬尼拉 2.649880 -1.187245 1.429305 -2.114793 -0.650029 5.915884 3.897320 1.280442 0.690931 -1.499293 
猶太教 2.711643 2.853324 5.257487 -4.402095 4.641503 1.082226 0.945781 0.556535 2.535571 -0.443694 
中英 4.865965 -1.529124 -0.744928 1.007424 -1.325815 4.068278 -0.217568 4.208258 3.480419 -0.474618 
西拉雅 -5.692485 -1.735771 1.047265 -0.111749 -1.284224 3.261829 0.771298 -1.832631 3.265927 -4.808692 
伊斯坦堡 1.765488 -1.767753 3.157326 -1.292567 3.248659 -3.483086 -0.588046 0.573639 4.207028 0.187284 
羅伯斯比 -1.990010 5.828454 2.989892 0.845519 -0.354544 1.633619 3.581101 0.283637 -0.513469 2.315957 
欽 2.351115 4.327158 1.288263 0.137318 3.058858 -0.100463 0.827561 2.432255 -0.344772 -0.579141 
林彪 -1.644016 0.661097 -0.448493 -3.446442 2.655386 0.949415 -2.451606 5.901402 0.786509 3.482319 
蘭嶼 -4.855116 -0.962165 3.171130 -1.381346 -5.211189 1.495674 2.642962 2.821965 -1.354104 -2.632882 
中斷 2.338819 0.341418 1.263352 0.864987 0.129726 0.215669 -0.010290 0.723609 1.756266 -1.213000 
祕魯 0.099088 -0.940895 2.516496 -3.806035 -2.594382 3.144731 4.666259 1.716246 0.264752 1.710062 
墨 -0.572770 -0.136160 1.272643 -1.664394 -1.229698 -2.287740 2.015503 1.062100 2.024101 -2.685602 
魯 -1.877602 2.267124 -0.738316 0.900969 0.156898 -0.076794 2.745071 -0.355309 0.848158 -0.949927 
永曆 0.313337 -0.596560 -1.152690 -0.318608 4.754442 3.444443 2.895918 1.908101 2.334921 -0.504090 
紐 -0.975382 -0.759303 1.085383 0.523825 -0.124203 0.310826 2.689763 0.403757 4.145976 2.610191 
玄奘 0.573787 0.772455 2.035740 -1.223992 -0.020372 -0.545914 -0.764492 1.519867 0.021094 -2.294414 
史前時代 -4.433214 -2.477508 0.575700 1.443720 -2.708500 2.156302 -0.856307 2.544452 1.228180 -2.994291 
遠古 -3.404560 -1.182902 3.636736 2.523319 -2.567344 -1.530804 -3.984070 3.595002 2.981721 -1.777346 
廈 -0.809727 -0.602764 0.374143 1.373185 5.422305 2.016036 2.283214 4.299592 1.410874 -0.888520 
東寧 0.857824 -0.416577 -1.266574 -2.742569 4.410945 3.596045 4.677081 3.499732 1.173309 -0.714657 
寧漢 0.226306 0.809177 -1.749247 -0.797901 0.036198 2.056756 -3.365983 4.183411 1.880073 1.821581 
費正清 0.032412 0.042966 -2.223186 -2.915255 -2.854331 4.241887 -4.166719 4.560168 0.849369 0.203740 
新興國家 -1.835866 1.210020 3.794065 -0.193529 1.409895 0.916875 0.510255 1.233139 2.090249 1.713756 
李斯 -2.075478 3.254350 1.721385 0.937237 -2.009979 -4.177798 3.294318 2.178026 1.732409 -0.148182 
沙皇 1.201456 3.025716 2.495576 2.547767 0.102296 -0.503160 -1.119206 1.470735 2.007144 0.784996 
太后 -2.425813 4.738884 0.738857 0.395059 -2.902256 -3.258693 -0.616685 4.294227 1.931596 0.782573 
美德 -1.065818 1.246899 0.921564 1.216251 -0.858682 0.284187 0.613387 -1.363404 1.691769 -0.641292 
諸如 -0.185873 -0.077023 0.857057 -1.946857 -0.820858 0.901868 -1.597166 1.705317 -0.889410 -1.882836 
白話文 -2.707645 0.163474 -2.057413 0.308274 -2.533613 -1.129862 1.481754 4.678002 4.386420 -4.912596 
三山 -3.572900 -3.048005 -0.771719 -3.343811 2.794796 -0.205272 0.876732 2.839560 4.024751 -2.409298 
藩鎮 -1.332019 2.267982 0.979884 -3.608249 -1.147216 -1.890542 -0.020374 5.177316 -0.367793 0.749935 
腓力 1.363328 3.215365 3.688838 3.258229 0.785721 2.876094 2.378093 -0.146249 1.345847 -0.484148 
格林威治 -1.292557 -1.930057 1.094691 0.634977 -4.916309 4.896358 0.482286 0.112156 4.158648 -3.841763 
大百科全書 -0.601811 -0.408643 1.472469 0.748717 -0.627675 2.172590 0.127564 -1.185061 2.872551 1.089664 
莫斯科 -0.359428 -0.062522 3.009895 0.839366 2.161935 1.109837 -2.865257 2.743714 1.505445 3.544190 
蘇臺德 -0.516493 0.948664 1.313361 1.623699 -1.678652 1.257180 -2.638848 1.957426 4.536952 1.349632 
福祉 -0.873740 3.819465 0.626518 -1.697784 0.768898 3.025788 0.150624 -1.436941 0.789084 0.673253 
漳州 -1.664787 -1.329443 -1.073426 -0.192137 4.184009 1.162756 0.369476 3.321586 1.682913 -3.880245 
阿拔斯 1.566131 1.650967 4.523206 -2.778285 1.284995 -2.404423 1.951113 3.954899 1.063730 0.473764 
反革命 -3.354556 4.244906 0.754197 0.981643 0.176982 2.078809 0.133229 1.027633 -0.524049 3.817354 
鐵木真 0.150592 4.064491 5.734560 -0.958729 3.897022 1.117419 -4.608920 4.314157 -1.664183 -0.460859 
關羽 -0.806046 4.217088 -0.980472 -2.329037 -1.528245 -2.334346 -2.043007 0.110226 4.564269 -5.361641 
塔利班 -0.015606 2.782549 4.089582 -2.287103 -1.783856 -1.431733 3.525251 6.230221 1.299546 5.983557 
馬基維利 -0.026105 3.072362 2.724621 1.095546 -4.896537 0.397497 2.013057 -1.303216 4.996222 -0.740942 
狄奧多西 0.529620 0.462342 2.015854 -1.077589 4.529748 -0.820651 -0.388712 -0.519264 6.021161 -2.331389 
南美洲 -0.590734 -2.482846 1.689460 -3.835052 -3.891012 2.670274 1.571955 2.227175 1.383438 -0.191950 
十月革命 -0.054455 2.625425 0.575188 1.645261 0.624944 0.514591 -0.560572 2.816374 1.045560 1.979338 
廖 1.149715 -0.987975 -1.817808 -1.362865 -1.499189 1.308439 0.850435 2.547087 2.184675 -2.102325 
陳述 -2.110686 0.499452 1.856324 0.274194 -0.023277 2.021161 1.581197 -0.751765 0.067773 0.417158 
祆教 1.757868 0.648012 5.963117 -1.371726 0.089774 -1.991234 2.126447 2.878210 1.119614 -2.040595 
龍山文化 -1.985838 -1.384028 3.795745 2.019501 -3.451669 -3.760748 -5.406317 7.303401 2.222837 -1.183820 
蔡鍔 -0.548804 5.625162 -2.115824 -2.165281 1.527671 3.277822 2.606947 5.432848 -1.793953 -1.324842 
民國初年 0.087371 -0.469726 -1.701283 0.577495 -3.103363 -1.358310 -0.093462 5.482203 2.062182 -2.501143 
倫巴 0.745641 2.345444 2.009589 0.666395 1.141384 -0.204875 1.271649 -1.129708 3.588661 0.378924 
區域衝突 -2.583140 -1.046854 2.398775 -1.694898 2.851503 2.009753 0.150556 0.571486 2.109660 4.238881 
桂 1.134521 2.084886 -2.840365 0.403253 2.183272 1.255511 0.398545 2.366144 2.320297 -0.154639 
藍波 -4.728868 -0.517540 1.152296 -4.250734 -2.994966 -0.222218 2.297351 2.465550 1.428731 0.024846 
關懷 -3.684894 -4.505520 0.720188 -3.326982 -0.673023 0.973840 -2.667157 0.478516 4.722433 1.128845 
同安 -0.778928 -3.354024 -0.073386 -2.456225 3.486108 1.434810 2.446727 3.310619 3.190483 -2.677029 
保加利亞 1.046359 -1.797061 5.178914 1.791393 -0.183388 -1.588660 -0.654849 1.283390 4.487495 0.526038 
敦煌 0.172895 3.533279 2.844025 0.844068 0.223077 -2.395763 -1.020805 3.552336 0.908733 -6.594121 
德國人 -0.358587 1.262822 2.686041 3.666528 0.077819 0.881247 1.143550 2.065742 3.634183 2.624698 
賽德克族 -6.453705 2.143059 -1.085338 0.987556 -1.587943 2.351762 3.960114 -0.025838 0.975410 -2.266944 
徵召 -2.568970 -0.534754 -1.544116 0.900812 -0.313533 0.726039 1.808155 1.544883 1.535334 -0.210319 
江蘇 1.583775 2.948909 -1.380476 0.991620 1.201462 -0.150292 -1.007491 4.024821 0.585518 -1.550632 
巴士底 -3.719694 4.120411 1.034823 1.493818 -2.721689 3.477680 1.325744 -0.428435 1.374088 2.369305 
七七事變 -0.517548 -0.629690 -1.466329 0.928709 1.030649 2.709327 -1.228194 4.810903 3.519774 3.055899 
神農 -5.278377 1.735697 -3.311565 -2.867247 1.122909 2.003356 2.906759 0.721540 4.755990 0.580415 
黃花岡 -0.641176 4.019188 -3.798696 0.711234 1.274305 3.558957 0.233855 2.119293 2.428965 -1.281702 
永發 -1.598803 0.581411 -0.028934 -0.920536 0.111227 3.072352 -2.977837 4.066515 0.512027 3.401777 
殷 -2.726979 -0.861386 1.362945 -3.904704 -3.603933 -4.138505 -1.921874 3.607542 2.708955 -2.211551 
印度教 2.196532 3.481132 2.895693 -3.728761 0.548235 4.157604 0.120608 1.217332 -1.222991 -2.281375 
唐繼堯 -0.053889 4.912315 -3.104669 -1.640174 1.012909 2.309282 2.720798 5.349261 -1.005169 0.488745 
從政 -0.168129 -0.638064 0.385782 -1.583909 -0.665149 -0.213101 -0.580069 2.017623 0.554280 -0.345925 
遠東 4.367851 -0.215998 2.412027 -0.139569 0.096380 0.497975 -0.110181 1.483364 1.235977 0.961403 
伊 -0.476102 -0.959876 1.520090 -1.730384 0.778582 -1.883668 1.566762 0.167117 1.355493 -1.751555 
黎 0.663505 4.483436 -1.731274 -2.615555 -3.239916 0.872630 -0.521785 1.957588 1.788061 -3.210783 
詹姆士二世 2.938389 4.054743 -0.523110 -1.372178 -2.865659 4.097751 0.280001 -0.267108 2.258090 -0.939064 
琿 5.048398 0.445550 1.568699 3.153944 0.983633 2.782885 -1.859606 4.768910 4.250592 -0.077685 
明治天皇 0.173537 3.247483 -0.053839 2.256624 0.510219 2.273275 4.695224 1.638520 0.892580 0.254780 
羅馬教廷 1.322167 1.070712 0.321858 -3.361815 -0.053786 -0.085162 -1.951677 -1.120293 3.506415 -2.337106 
藩屬國 -0.123262 0.478940 -0.636281 1.588878 1.380294 1.334357 1.137981 1.337476 1.757379 0.295114 
西亞地區 1.899001 1.075883 6.402289 -1.232851 0.919381 -1.215515 -0.200130 2.151053 0.701282 -1.762474 
宇文 -3.520892 5.208722 1.414146 -4.853095 1.633581 1.383200 2.234190 1.159800 -1.537959 -0.363911 
哥德人 -0.187675 3.168957 2.222579 -0.686725 4.029368 -2.044799 1.420250 0.489821 5.879150 0.377706 
海瑞罷官 -4.556769 0.930860 0.921396 -0.849240 1.208295 1.151447 -3.225840 5.333573 -0.896598 2.562581 
西臺 -2.275625 2.466433 7.525087 -1.993479 3.514340 0.487190 0.864741 0.488574 0.913085 -0.738319 
黑海 3.619505 0.304889 4.372732 1.897835 1.173843 1.010145 -0.869831 2.092192 2.651241 -1.048772 
虎門 3.910744 -2.858009 -1.094781 -0.028603 -0.585357 2.805823 2.490440 5.256478 4.172338 -1.180812 
中西文化 3.985114 1.868017 1.934423 -0.815217 0.377033 -0.605200 0.551001 1.730118 1.183254 -3.063266 
亞當斯密 -2.994795 1.053785 2.331661 -3.450933 -2.432356 4.693372 -0.754285 -0.854643 0.564697 3.002233 
中南美洲 -1.226890 0.729508 3.636966 -3.455153 -2.063988 2.867459 2.131439 -1.424407 0.866418 1.533710 
基督 -0.022276 -0.387700 0.224839 -2.792961 2.222573 1.916447 0.218099 -1.095888 4.913323 -4.223834 
改革派 -0.947688 3.552801 -2.461110 0.733499 -1.490981 3.557749 -1.104211 -0.257895 1.863267 -1.572494 
伊莉莎白 1.853782 1.954344 0.362775 -0.002435 -2.556212 2.103208 -1.228773 -0.168258 3.338659 -0.916468 
臺地 -1.012483 -2.739937 -0.058007 -0.737202 0.921058 1.642311 -0.009096 2.172801 2.088351 -0.821421 
厝 -3.768644 -3.239823 -0.018449 -0.225907 3.421895 0.940857 0.939731 0.108177 3.669889 -0.344700 
北齊 -3.558765 3.276079 5.267593 1.049918 1.620813 -0.635860 -1.498827 3.153190 -2.066217 -4.076992 
陝北 -3.968369 0.951931 -2.252357 1.202094 0.614862 -0.488417 -1.795343 4.230696 3.013437 3.386878 
華麗 -1.065295 -0.304381 1.121052 -1.334005 -0.753609 1.484994 0.376370 -1.419927 2.253604 0.840627 
唐王 0.658699 1.269860 -2.247306 0.435947 3.412899 0.848499 2.218113 1.680580 1.916529 -0.877673 
廉 -2.283730 2.438859 1.727630 0.443450 -3.062778 -0.648730 2.514544 0.531906 1.999577 1.104991 
田賦 -2.166650 -0.023607 -2.171101 0.475154 0.050804 1.050014 0.261868 1.717852 1.973080 -2.063301 
中古史 -0.288607 -0.908453 2.283227 -1.744800 -0.905131 -1.144656 -0.379007 0.651240 4.549545 -0.765498 
河 -2.568960 1.548556 2.078752 -1.432203 -0.365904 -1.339279 -0.150705 3.703111 -2.233181 -1.626026 
秋瑾 -1.779163 3.876712 -4.302280 -0.510039 -2.113257 2.154981 5.095332 1.730969 4.488457 0.773677 
平城 -3.310257 1.741494 0.901885 -0.434475 1.552132 0.917056 -0.582261 1.512549 -1.806528 -4.952746 
齊桓公 0.564566 6.053728 0.721378 -1.380201 1.784975 -2.313421 7.990907 2.190366 4.264481 -2.725816 
旅順 1.611036 0.666054 1.782125 3.523811 -0.461782 0.306478 -0.428764 4.503291 1.113486 2.057850 
哥哥 -0.782863 3.117526 0.762587 1.039869 -4.052683 -0.833462 2.163838 -0.583434 4.638604 -1.228879 
寧靖王 0.401470 1.620405 -3.016475 -1.236445 3.014322 2.025272 3.797024 2.364079 2.818404 -0.801687 
南陽 -4.585549 6.546422 0.788548 -3.048526 1.484879 -2.439291 0.886323 2.204306 -0.954581 -0.565773 
狄更斯 -4.896785 2.833783 2.521493 -0.080796 -2.731670 0.853689 2.546510 -0.288721 0.656787 1.601181 
東都 1.518117 1.192860 -0.903553 -2.978885 3.120499 0.251285 3.401849 3.085170 2.630749 -0.164579 
開羅會議 -0.102405 -0.947131 1.978341 1.773681 0.451335 2.656132 0.451888 2.209360 -0.272742 2.555782 
四國 -0.596236 0.200298 1.279223 2.219593 1.270565 0.609339 1.389529 1.983372 1.881123 1.975871 
人文主義 0.015805 -0.351108 2.868147 -3.939906 -3.290049 0.205785 -0.072888 -1.953117 5.697924 -2.024964 
羅漢 0.066633 -1.630051 -2.265840 -1.524011 -0.192689 4.961048 0.411275 3.225128 2.269696 -4.239954 
姚文元 -4.753362 -0.216785 -0.049529 -0.132986 0.225811 1.152512 -4.780373 5.289588 0.520735 1.535139 
拉美 1.428145 -0.045932 2.354501 -3.448161 -3.328918 1.669963 2.487697 3.201406 1.536854 2.598458 
愛德華 3.339981 2.066217 2.204475 -0.012168 -0.998408 3.489072 -1.508177 -0.458786 5.482445 1.379908 
大元帥 0.426139 3.284467 -3.776921 0.071981 1.183968 1.874217 1.982542 4.328671 1.337228 -0.070452 
達成協議 -0.420042 -0.175296 0.447738 1.447315 1.492200 1.772241 0.653153 1.168733 1.611396 1.301574 
十國 -2.112262 0.753708 2.657546 -2.434886 1.196588 -0.383292 0.935661 3.666757 -2.430324 -0.514706 
永和 -1.282113 0.247951 -0.053476 -1.028609 1.235595 4.316913 0.678931 -0.814322 1.178198 -3.488023 
長安城 -2.763016 2.522978 2.895005 -2.490927 0.554253 -0.823146 0.265889 3.235648 -3.632087 -1.956028 
黎明 -0.326383 -0.090733 1.009031 -0.939103 -0.723870 0.228084 -0.746977 0.924285 0.488120 0.175162 
武帝時 -1.450552 2.811793 2.190635 1.325780 -1.457131 -1.048034 2.260184 0.897974 0.425590 -1.699837 
陸 0.288053 0.028257 0.131646 -0.531232 0.564501 1.496630 1.265864 1.417494 -0.458554 -0.231068 
諸子 2.144654 2.479507 -0.921555 -1.398071 0.965331 -2.293317 2.542817 1.302821 3.397823 -2.748401 
港灣 0.860209 -0.507445 3.218329 2.919775 -0.832391 1.182810 -0.428550 2.808021 0.995458 -0.187581 
葡 0.551839 0.446777 1.890940 -2.717113 -1.051846 3.777174 3.345428 0.109500 0.995295 1.829677 
大將軍 -1.121996 2.746576 1.422160 2.780514 2.753104 1.408806 5.271049 1.524827 0.925450 0.617863 
鳳山縣 -2.151978 -0.087854 -2.654654 -2.797118 1.986127 2.865712 1.883525 0.398051 3.311035 -4.617884 
潘 -0.079052 -0.835320 -1.921580 -3.288140 0.356817 2.698350 -0.307655 1.617471 1.762276 -0.166455 
洛林 0.116181 1.414077 3.604806 0.511884 -0.930577 2.300308 1.316039 -0.742928 2.132905 2.937472 
原住民族的社會 -3.780579 -2.421482 1.971387 -0.885488 -3.542621 2.726017 -1.056022 3.217257 -0.625185 -3.456230 
江澤民 -2.137756 2.257198 0.252475 -0.187253 1.597004 4.211611 -2.836449 4.858469 -1.600123 -0.354215 
保守派 -1.698280 1.199098 1.465988 1.981396 2.743647 -0.845762 -1.604141 0.946903 2.258937 2.835624 
淮 1.132610 3.057940 -0.539349 1.880386 0.086313 -1.882246 -0.670050 3.504658 0.130217 -1.992789 
田園 -2.937400 -1.990976 -0.400139 -0.518504 2.012789 4.002379 0.389549 3.068865 -0.513797 -4.953389 
南非 3.454519 0.696065 3.809894 -1.456283 -0.062227 2.627585 1.838857 0.951366 1.005377 0.920069 
西林 2.671752 1.407705 0.185589 1.510346 2.118010 4.147573 -1.417953 1.770432 4.860195 0.483734 
延平郡王 -0.343558 0.087882 -0.792735 1.009966 1.964430 3.125206 1.935148 0.593717 2.602926 -2.210636 
論文 -2.922830 -1.657341 2.429276 -0.997120 -0.512910 2.583761 -2.402428 -0.499274 1.069141 -2.897928 
鄭克 -0.835467 -0.759262 -0.336201 -0.327853 3.778437 3.529711 4.592853 2.405216 0.582979 -0.593612 
張儀 -1.898418 2.610644 -0.111699 -3.754453 -0.604319 -2.334283 6.030117 3.399045 2.619919 -1.344536 
小三通 0.080212 -2.859237 1.095267 1.124741 -0.387611 2.645992 1.009341 4.024404 0.349396 -2.105714 
汪 -1.114178 -0.090615 -2.173785 0.326244 -0.218714 2.703928 0.101071 2.789330 1.059283 1.873121 
賽德克 -6.024596 0.192102 -0.094162 0.189076 -0.305009 1.414059 1.898901 -0.740432 0.054626 -2.527287 
才華 -4.442241 0.941195 -0.582291 -0.919141 3.097212 -0.045479 -1.063065 0.485922 2.236262 1.315707 
蘇秦 -2.700511 3.157460 -0.376205 -2.807563 -1.562607 -2.353753 4.787704 2.399262 2.426303 -3.242313 
但丁 -3.096184 0.998650 2.292704 -0.818651 -3.348048 -0.316976 1.459982 -2.344128 6.899769 -1.144830 
鄂 3.096331 0.500523 0.925866 0.505203 0.673823 -0.278790 -1.129614 1.954428 2.750487 -0.407757 
紅樓夢 1.564944 1.618598 -0.286919 -1.954535 -2.241012 -1.853073 -0.757260 0.106221 1.462545 -3.056016 
英方 2.787604 -0.202652 -2.364026 0.113648 -0.516994 3.993413 0.078748 3.553295 2.836928 -2.766603 
蜀漢 -4.497854 4.733644 0.832979 0.241073 2.240492 -1.316189 -3.902239 1.680971 2.315455 -1.501107 
公正 -0.309240 -0.445176 1.772536 0.370797 -0.208876 2.271545 -0.336038 0.921629 2.155896 2.216641 
黑龍江 3.640720 1.089959 0.866252 2.379268 -0.018722 1.760361 -1.409622 4.569996 3.190121 0.423798 
楚漢相爭 -2.556791 3.391376 2.893822 0.710681 -2.673210 -2.502975 3.082740 1.655020 0.316244 -0.184229 
太平道 -1.142556 5.797189 1.402201 -0.309900 3.477962 1.750630 -2.873958 0.253877 1.960681 -6.473270 
新莊 -3.620074 -3.691363 -2.224682 -1.584218 -0.719889 2.775322 2.554932 1.147145 4.163974 -2.409644 
景美 -4.762861 2.180138 1.579316 -1.146669 7.455766 3.793364 0.086429 0.966441 -0.852264 0.064312 
民主運動 -3.336711 -0.336472 0.561838 0.788148 0.623290 3.294201 -1.702485 1.571957 -0.324413 0.321890 
宋史 -3.109077 2.079680 1.153878 -1.915899 1.572967 -1.181322 -0.209991 3.630197 -0.544576 0.822594 
屏東 -4.217942 -1.579001 -0.779704 -1.634727 1.921483 3.505816 0.883950 0.019473 1.117066 -3.106812 
日增 -0.105871 -2.354591 0.910586 -1.419648 -0.370082 0.369007 0.905293 2.367140 0.734312 -0.174559 
麥加 1.180181 0.471370 2.334122 -4.708292 2.467401 -3.525889 1.156838 6.563525 4.263586 0.831618 
法蘭克人 0.631206 4.339016 2.260078 -0.275456 1.352479 0.166252 0.320428 -0.565620 4.596764 1.979016 
紀傳體 -2.973475 2.652976 2.099768 3.032573 -2.271901 -2.915732 -0.237656 1.699037 2.240532 -3.899631 
咸陽 -2.403763 1.003783 2.244487 -0.279259 -1.227718 -2.349125 1.822730 3.076445 0.402697 -0.138925 
陸榮廷 -1.569418 3.363441 -4.665977 1.141360 2.869421 1.402263 1.270906 3.885361 3.392823 1.367898 
天街 -5.254559 0.034255 -1.889079 0.139325 4.129103 1.113917 3.808581 2.519735 3.753295 1.005253 
羅馬城 -0.356086 2.668026 1.651162 -0.777170 2.667510 0.266066 3.551380 -1.660303 5.260230 -0.348390 
大月氏 -0.336494 2.314620 3.002766 2.153005 -1.056495 -0.849128 1.465203 1.910098 0.600025 -3.236036 
卓越 -2.596498 1.839665 1.839118 -1.533046 0.914210 -0.940501 -0.967735 0.107683 1.099155 1.670087 
巴比倫人 -0.667873 4.324955 7.288833 1.293058 -0.726800 0.829321 1.182076 2.070732 -0.699065 -1.344734 
徵兵制 0.586781 4.848344 0.506515 2.086615 -0.915312 0.565471 1.400625 -0.074391 1.383886 1.214170 
古城 -1.586277 -0.595124 3.301122 -0.757069 1.445221 -0.689035 -2.003476 0.001135 2.569044 -0.660834 
貞觀 -0.496018 1.200239 0.678442 -2.459310 1.162609 -0.362514 0.167338 1.485684 0.028780 -1.063204 
印度人 3.232810 3.939761 3.942262 -1.855940 -2.088364 2.506971 1.184370 0.945746 -1.146886 -1.534389 
西亞古文明 -1.521146 2.244702 5.848635 -2.107408 0.411999 0.014494 1.176698 2.294747 -2.327824 -0.358234 
世界大戰 -0.551813 -2.475055 2.237355 0.122799 -1.697106 2.078280 0.740507 0.897799 3.272410 2.634934 
安祿山 -0.508270 1.849032 0.645456 -0.858361 0.825365 0.357947 -0.060565 1.403252 0.389851 -1.149571 
安東尼 -3.190053 2.398972 1.483661 -1.864573 0.121513 1.453154 4.651793 -1.009422 0.592602 -1.398339 
