6947 10
</s> 0.040027 0.044194 -0.038303 -0.032780 0.013666 0.030211 0.009409 0.002113 -0.036035 0.022185 
臺灣 -1.088581 -1.618628 -2.430830 -0.423801 -2.970121 -0.255575 0.574777 2.137671 0.435122 -0.836960 
中國 0.241853 -1.950190 1.055999 0.194337 -2.317681 1.614678 0.225505 1.998027 -0.276858 0.714091 
日本 -1.504842 0.300615 -1.429033 -0.457816 -3.068469 2.762847 0.697469 0.599923 0.778502 -1.300702 
臺北 -1.313715 -2.366737 1.692253 2.131499 -1.400079 0.432713 2.286945 1.269077 0.228347 0.898687 
美國 1.135906 -1.781837 -1.780148 0.950362 -1.960855 1.328720 2.600403 2.220078 0.024241 -1.220025 
英國 2.727076 0.202767 -0.870941 0.539713 -2.991391 -0.226581 2.616763 2.734017 1.759204 -1.581683 
歐洲 1.012171 -0.055769 -0.607732 0.975662 -0.322894 1.272604 3.457841 1.205494 -0.301598 -1.580740 
法國 1.063280 1.389753 0.262750 2.131153 -1.905724 1.762370 2.920158 2.322822 2.352849 -1.153823 
德國 0.271223 -0.406174 -0.882722 1.631633 -1.079586 3.418075 2.018784 1.919908 2.534163 -1.273118 
北京 -0.152017 -0.862233 2.905308 0.166060 -1.542647 2.014810 0.236319 2.168252 1.746806 -0.553970 
義大利 0.468340 -0.445157 -0.061666 0.645389 0.458740 1.837294 4.226328 0.974859 3.273137 -2.209549 
羅馬 -0.304196 1.377652 0.269114 -0.693840 2.368576 0.999970 5.487866 0.780183 1.133694 -1.554456 
蘇聯 -0.373583 -1.445579 -2.077639 0.785640 0.151620 3.935912 2.057448 3.239556 0.818231 -1.241226 
史 -0.980173 -2.351528 1.903676 1.590989 -1.563307 -0.054505 1.976863 0.568902 0.808061 0.979713 
俄國 0.430753 1.709601 0.113624 0.490770 -1.966673 4.883362 2.416989 1.152761 1.407950 0.216077 
陳 -2.281462 -2.372679 -0.565718 0.049866 -0.905878 -0.453441 1.121423 2.387422 -0.440109 1.530174 
基督教 0.835317 -0.016344 0.037436 -2.498286 0.547778 -0.807194 3.198329 0.951496 1.588667 -2.336754 
南 -1.393280 -1.680161 0.184802 2.312174 -1.323113 0.468342 2.504997 0.054550 2.169134 1.157890 
埃及 -1.252209 2.160088 0.226016 -0.029818 -1.161973 1.224191 6.304473 -0.751517 -0.380260 1.806937 
文明 0.643537 -0.469998 2.683307 -0.072615 -1.169377 1.203067 4.137129 0.356921 -1.972221 1.039080 
中華民國 -1.698940 -3.618387 -0.033891 -0.505893 0.602826 1.986940 0.899107 3.717702 -0.641401 -1.955407 
拿破崙 -0.154030 1.585740 0.914195 3.415244 -1.784247 1.989007 4.365419 2.392107 1.003463 0.420449 
荷蘭人 -1.828083 0.419464 -1.274002 0.423374 -4.276407 -0.704955 3.564761 2.154244 -0.697864 -3.821196 
袁世凱 -2.227273 -0.713049 1.260788 -0.937795 0.564036 3.832273 0.526127 3.286314 2.574670 -2.400275 
希臘 0.894701 -0.275182 -0.146145 -1.244934 1.161383 1.519204 5.122036 1.119354 1.452092 1.285956 
上海 -0.669234 -2.357866 2.137117 -1.466246 -1.279844 0.801291 -0.248137 3.570338 1.769985 -1.490052 
孫中山 -1.902289 -1.955717 -0.187200 -1.231043 1.742939 2.997875 0.488120 4.776404 0.614309 -2.570364 
荷蘭 -0.663428 1.068584 -0.783097 1.449335 -2.989140 -0.324711 2.788276 1.759225 0.421918 -3.625290 
印度 3.387770 0.408732 0.091026 -2.859866 -4.228449 2.050699 2.630609 2.072639 -1.227177 0.413272 
王 -1.494673 0.528324 1.043797 0.678522 -0.598460 -1.808040 3.592005 -0.416913 0.784001 -0.352126 
南京 -1.540608 -1.800335 0.365019 -1.056980 -2.108994 1.651976 -0.988332 4.167735 2.520286 -1.098287 
十九世紀 1.676816 0.554813 -1.523624 0.997268 -1.298691 1.010260 2.739853 1.709757 0.950037 -1.097942 
抗日 -2.983157 -0.229430 -4.058507 0.225170 -0.689205 1.335875 0.277357 2.205213 1.131018 -1.248623 
西班牙 1.718882 0.972456 -0.162991 -0.519484 -1.383367 0.505895 3.349155 1.374370 0.187525 -3.234406 
鴉片 1.048685 -1.227128 0.638803 -2.523875 -4.008037 -0.816915 0.758429 4.352268 1.315333 -1.049996 
美 0.213035 -1.496801 -2.324160 0.384391 -0.688092 2.523862 1.802868 1.661205 0.347841 -1.558753 
佛教 0.252732 -1.050097 0.545521 -6.718313 -3.272778 1.937991 2.172153 0.876425 -0.596782 -0.296256 
殖民地 1.500610 0.805498 -2.165759 -0.597888 -2.644921 1.201958 2.144712 2.694863 0.940162 -3.151535 
和平 0.256563 -1.224601 -1.323033 1.185866 0.194848 1.674194 1.862942 1.415053 0.998537 -0.013990 
毛澤東 -1.585659 -1.091269 0.261406 -0.214619 3.186318 3.303236 1.712772 6.295714 0.495151 2.580052 
亞洲 0.696850 0.926787 -1.502488 -0.659997 -1.276755 1.330678 1.519333 1.849101 -1.569464 -1.860136 
德意志 -1.588810 1.634352 -0.434254 2.178496 -0.622754 0.851085 3.494616 2.166579 4.414456 -0.576555 
中世紀 1.438877 0.318291 -1.005384 0.293620 0.969526 -0.596903 4.187401 1.432487 2.302660 -1.405955 
臺南 -3.810329 -0.119278 -2.243231 -0.425245 -2.073496 -2.743647 1.866364 1.601597 0.581665 -1.001886 
澎湖 -3.021144 0.846703 -1.642653 0.539847 -3.521141 -0.494185 1.187648 2.630413 -0.245518 -1.289109 
西洋 -0.724992 -1.919243 1.418902 2.838555 -2.333116 -0.379502 3.132395 0.793825 1.733985 0.107871 
德 0.657620 -2.020791 0.028461 0.472995 -1.664500 1.601239 1.967586 0.612441 1.511984 -0.843350 
建國 -0.236828 -1.285778 -0.336825 0.006285 1.807048 1.930671 2.335137 1.330563 1.731534 -0.778146 
波斯 0.662575 1.986518 1.302722 -2.439495 -0.205069 2.707364 4.524547 2.009286 -0.385593 2.214210 
外國 0.848025 -0.232582 2.036800 -0.097297 -2.135987 1.501015 0.722931 1.495422 1.475874 -1.802065 
原住民族 -1.182479 0.978298 -3.595809 -3.188792 -0.907386 -0.500598 3.275074 3.029208 -3.895779 -0.619781 
李鴻章 -1.763011 1.941098 0.616347 0.309298 -2.636553 2.807796 -0.842422 3.875190 2.560781 0.498529 
西域 -0.574677 -0.565036 2.915786 -4.507662 -0.880130 1.767016 2.232542 1.049015 1.443981 1.662469 
廣州 0.784248 -1.452288 0.727835 -1.748157 -0.532994 0.201671 0.355721 4.773769 0.179037 -2.271265 
福建 -2.437032 0.439043 0.280938 -0.077318 -1.746886 -0.985763 -0.050867 3.232124 0.533279 -0.904926 
普魯士 -0.560992 1.418849 -0.864492 2.276025 -1.182620 1.555101 3.367942 2.255725 3.824446 -0.547331 
東北 -2.739728 0.766563 -0.650451 -0.517935 -1.556565 3.621130 0.131102 1.444391 0.666317 -0.228315 
香港 0.090423 -2.275386 1.052367 0.833156 -2.567666 1.135660 0.832332 3.890105 0.024983 1.790923 
第一次世界大戰 0.574001 -0.869347 -1.932078 0.998833 0.070298 3.672311 1.715997 2.232599 0.271725 -2.053996 
唐 -2.526459 -0.946233 0.389553 -3.705275 -0.895233 0.665867 1.736127 1.414992 -0.120723 2.072975 
藉由 0.227312 0.654826 -0.373114 -0.421285 -0.556318 0.655691 0.570136 1.260082 -0.389144 0.381429 
王朝 -0.529624 1.124326 1.429593 0.964087 -1.019005 -0.171388 2.986268 0.997208 0.313913 1.457577 
太平天國 -0.516018 1.178956 0.559863 -0.689997 -2.514650 0.269822 -0.396843 3.617367 3.384809 0.365200 
羅馬帝國 0.326859 0.820816 -0.241150 -2.009337 1.593192 0.902673 3.956340 0.862377 2.831755 -0.823183 
蒙古 -3.386679 1.660361 1.578247 -0.954188 0.112030 3.085132 1.961300 -0.010811 0.039842 -1.419764 
阿拉伯 2.263559 -0.327046 0.728373 -1.661702 0.120270 1.987006 3.343195 1.911393 -0.159468 0.623309 
自強運動 -0.946630 1.121344 0.428743 0.602377 -3.385849 2.028556 -0.182422 3.833647 1.637338 1.011176 
拉丁美洲 1.489947 -1.557288 -1.826292 0.196642 -1.009266 0.879712 3.294160 2.880922 -0.137679 -2.357382 
猶太人 0.532366 2.233226 -2.112654 -0.530068 0.790170 3.875755 3.276354 1.961165 0.221607 0.810903 
天津 0.056153 -0.585029 2.327430 -0.658957 -2.798602 1.692734 0.147753 3.223051 2.478088 -2.075583 
府 -2.006666 -0.996302 -0.651797 -0.925682 -1.446748 -2.241744 0.992618 2.621624 0.740245 -0.906319 
北 -1.759081 -0.348799 -0.017788 -0.023017 -1.533446 -1.304442 1.395083 0.021046 0.592677 0.234440 
共和 -0.224776 0.981505 1.834433 1.076918 1.554032 2.638419 3.449465 2.297799 2.171897 -2.066082 
十七世紀 0.455040 0.987310 -1.946121 0.649873 -1.941665 -0.700457 3.920430 1.427127 -0.472755 -2.873139 
朝鮮 -1.136196 0.867122 -2.151320 -0.548180 -2.694725 4.079654 0.549718 0.669150 0.870926 -0.870258 
奧 -0.279237 -0.240104 -0.806266 0.442190 -1.591527 3.254478 4.510057 -0.359278 4.429690 -0.420314 
越南 0.315489 0.611133 -2.451523 2.238471 -2.939013 1.131764 1.311382 2.387241 2.177141 -0.505010 
山東 -0.011250 0.063155 1.873356 -0.026992 -1.465728 3.220186 0.945124 1.330445 0.125063 -0.068064 
西歐 1.313634 1.107420 -1.020174 -0.381347 1.536898 0.891288 3.776953 1.346865 2.090778 -1.692753 
南北 -0.803417 -1.925819 0.057899 -1.880210 -0.968195 -0.298843 0.406235 1.381524 0.236139 -1.160306 
土耳其 1.994718 0.498214 -0.779824 -1.458231 -0.062405 2.681130 2.669183 1.413588 0.881385 -0.153671 
藉此 -0.601101 0.494233 -1.211362 0.327211 -1.131921 0.423146 1.206409 1.021880 -0.454772 0.848562 
蔣中正 -2.129212 -1.373365 -1.428392 -0.538825 0.773143 2.402148 0.152889 4.229893 1.359802 -0.957765 
史稱 -1.303995 -0.636007 1.017661 -0.911770 -0.009078 -0.494314 0.691528 0.782179 1.215353 -0.263470 
宋 -3.090433 -1.824777 1.000294 -1.831711 0.286991 0.902086 1.771374 1.486825 1.121787 1.320284 
雅典 -1.144418 -0.171122 -0.749597 -2.580071 1.647283 0.259684 4.594193 1.582889 1.552542 1.827232 
美洲 2.063735 -0.330731 0.006572 -0.765008 -1.294904 -0.520249 3.759377 2.760047 -1.925837 -2.240711 
開港 -0.680642 -0.825923 0.023433 -0.223217 -3.621547 -0.718130 0.564868 2.193817 -0.183868 -1.562178 
廣東 -2.124888 -0.916557 -0.105733 0.180796 -1.914517 -0.378259 -0.464712 4.372704 1.117938 -1.042499 
伊斯蘭 3.277837 -1.424094 1.481880 -1.466018 0.368530 1.601200 4.049495 2.663805 0.293160 0.730521 
十六世紀 0.059649 1.212936 -0.755904 -0.391313 -1.645192 -0.379260 3.080620 0.065320 0.095413 -2.852967 
李 -2.652679 -1.773687 0.903359 -0.049831 -1.355988 0.240093 0.646941 3.288325 0.565360 1.103653 
鄭 -2.169301 -0.225865 -1.263963 0.350831 -2.230383 -1.714413 1.921273 2.083880 0.498692 -1.337579 
非洲 2.715209 -0.332303 -1.002635 -0.249090 -0.874010 1.199337 3.416287 3.021561 -0.677220 -2.608832 
基隆 -2.332867 -0.220196 -1.790326 0.336352 -3.297429 -1.300800 1.130717 2.657863 0.429066 -1.020808 
百科 -0.111980 -0.039730 -0.091403 -0.044452 -0.858088 -0.313388 1.427364 0.510841 -0.080891 -0.311126 
朝廷 -0.935646 0.242639 0.939085 -1.247918 -2.166693 -0.618290 -0.212482 2.104701 1.278906 0.157744 
二二八事件 -1.777620 -1.480324 -1.640948 0.656486 -0.760629 0.178661 1.188292 4.604192 -1.523511 1.320026 
十八世紀 1.874536 0.161187 -1.277597 1.314510 -1.513301 -0.739112 3.191511 2.379389 0.537884 -1.707467 
臺南市 -2.752985 0.169043 -2.447026 -0.316979 -1.926738 -1.955984 2.351439 2.170795 0.347071 -1.816744 
大戰 -0.249414 -0.674517 -1.385481 1.915253 -1.881959 2.439553 1.730675 1.581527 1.292645 -1.265602 
東南 -1.474368 -0.284574 -0.064498 -0.423032 -2.249283 -0.591313 0.582104 2.077932 -0.278541 -0.438397 
甲午戰爭 -1.836669 0.683362 -0.189427 0.539170 -3.106479 2.428154 -0.236627 2.681372 1.066682 -0.111597 
拜占庭帝國 1.535245 0.857687 0.664847 -2.014040 1.691570 1.907222 4.632631 1.868654 3.651654 0.042609 
東南亞 0.250600 -0.528580 -0.965596 -0.505784 -2.861694 -0.067252 1.261263 2.799705 -1.539974 -1.162945 
金 -2.339159 -0.343371 0.167779 -1.561527 -0.216147 -0.495519 1.631447 0.996499 -0.202608 -0.160178 
葡萄牙 1.673472 0.775440 0.253348 -0.581564 -1.783276 -0.055536 3.217287 1.852420 -0.679313 -2.837397 
渭水 -1.592050 -0.341092 -1.406202 -0.892585 -2.058317 -0.443721 0.395178 1.931056 0.933482 -1.168216 
希特勒 -0.525199 1.526126 -1.736405 1.580186 -0.234670 3.583541 2.258265 2.239136 3.301961 -0.316684 
三國 -0.982479 -1.855738 -1.428007 0.463252 0.295118 2.628110 1.371108 0.491240 2.529713 -0.275021 
巴黎 0.566124 1.383972 0.457638 2.181918 -0.551941 1.219757 3.131436 1.975205 1.777599 -0.655025 
秦始皇 -2.026922 -0.682391 1.413576 -2.759274 0.287165 0.237299 2.613650 1.318203 1.339996 2.197899 
日耳曼 0.446162 0.118028 -0.099828 0.758798 1.021527 1.756849 3.309602 1.293208 3.433544 -0.740938 
奧國 0.148556 1.368133 0.345230 1.041839 -0.808686 2.324332 3.918577 0.695594 3.057474 -0.059845 
奧地利 -0.310854 1.464649 -0.603775 1.071399 -1.252162 1.725489 3.752359 1.604296 3.051948 -0.895345 
國語 -1.617358 -1.867047 -1.324708 -1.768940 -2.871659 0.788908 0.593566 0.694579 0.525284 -0.685014 
魏晉 -2.184713 -1.901503 1.622027 -3.094717 -1.128830 0.044484 1.479936 1.333689 0.896703 1.837116 
法國大革命 0.477853 -0.154396 0.258222 2.856606 -0.882996 0.545509 4.088105 2.049907 1.459960 -0.333646 
二次大戰 -0.148230 -0.303427 -2.422377 0.427352 -1.511274 2.796597 1.609954 1.892565 0.729343 -1.361868 
江南 -1.983756 -0.281147 2.252496 -1.959788 -1.801923 0.674268 -0.080347 1.757846 2.197647 1.001311 
慈禧太后 -1.423979 1.444696 1.630842 -1.177719 -1.625298 2.379461 -0.169257 2.918981 1.738602 -0.643924 
王權 1.592949 1.260692 0.238709 0.553787 -2.208183 -0.761917 4.650893 1.841774 1.626379 -0.893238 
英法聯軍 0.354467 0.636728 1.939456 0.338552 -3.444091 2.054409 0.183405 2.870508 2.059447 -0.914303 
咸豐 -0.023109 0.315482 1.013511 -0.528980 -2.730228 2.170738 0.029479 2.873956 1.811111 -0.844798 
第二次世界大戰 0.075637 -0.721013 -2.479272 0.630056 -1.206620 2.355282 1.610522 2.732717 0.599869 -1.690140 
平埔族 -2.454105 0.727009 -2.341947 -2.356987 -1.627850 -2.079402 2.909767 2.618254 -1.607302 -1.726111 
曹操 -2.863231 -1.676754 -0.140091 -2.287598 1.133249 0.152492 2.210300 1.640734 3.752725 2.545398 
溥儀 -1.336491 0.839536 0.999994 -1.595571 -1.101877 2.455716 -0.024240 3.060426 1.265454 -2.368214 
雍正 -2.096381 0.361433 0.179343 0.320536 -1.923206 -2.294367 2.083893 2.598553 0.891802 0.985129 
東西 1.153307 -0.021884 0.073660 -1.405202 0.205367 0.286285 1.774399 0.868071 0.541259 -1.396725 
鴉片戰爭 1.235401 -0.379108 0.913409 0.290979 -3.398422 0.617983 0.338436 2.990889 1.536723 -0.268242 
斯 -0.305262 -0.302905 -0.389458 -0.394619 -0.779974 1.493610 3.559569 -0.986336 3.181384 -0.742972 
洛陽 -2.514730 -0.532428 0.701461 -2.796248 -0.097358 -0.430312 1.295207 1.369714 1.234190 1.839286 
西亞 1.359618 1.647580 1.323617 -0.903776 -0.309595 1.120842 5.250227 1.097254 -0.446250 1.070052 
社會主義 -0.152136 1.084646 0.594496 2.370471 1.749432 1.398716 1.812147 4.417490 0.815513 -0.455634 
平原 -1.924438 0.774783 -0.793944 -2.784976 -1.517007 -1.588794 1.880759 0.850213 -0.846706 0.139639 
伊斯蘭教 2.278997 -0.645511 1.561811 -2.139820 0.448964 1.453695 3.538522 1.460596 0.736205 0.472727 
史實 -0.712116 0.446986 -0.885767 0.634940 -0.210939 0.925574 1.155070 1.086869 0.129080 0.382389 
長安 -2.061370 -0.465609 0.912485 -3.740233 -0.839821 0.976192 1.571039 0.929987 0.564999 1.329519 
文藝復興 0.241887 0.504070 -0.385768 -0.624720 -0.016036 -0.396755 4.109028 0.109445 1.011002 -1.341914 
中華 -1.753812 -1.919089 0.944696 -0.988378 0.415800 1.000735 0.495441 2.597765 0.546610 -0.388777 
張學良 -3.046374 0.218854 -1.945492 -0.454108 -0.741786 2.504217 0.269712 2.950736 1.721360 -0.319191 
西班牙人 -0.009513 0.419349 -1.103920 -0.353368 -2.692084 -1.549569 2.989585 1.599132 -1.425156 -2.734197 
劉銘傳 -1.648227 -0.002846 -1.671210 0.411021 -2.601113 -1.164094 0.931578 2.396657 0.901137 -1.105656 
古巴 0.222986 -2.680125 -2.247161 0.248998 -0.898230 1.307723 2.918720 2.250270 -0.322752 -1.835220 
蔣介石 -1.599835 -1.059639 0.446978 -0.926860 -0.681261 2.309611 -0.219278 3.336564 1.063091 -0.755801 
聖經 -1.005355 1.256328 -1.390747 -1.876209 0.297504 -1.277273 3.886527 0.619169 1.447182 -1.109535 
兩國 0.277567 -0.199885 0.414088 0.992578 -1.522009 2.703366 1.164613 1.199764 2.051009 -0.794753 
諸侯 -0.854114 0.116091 0.051837 0.616095 0.325033 -1.589323 3.249098 -0.042156 1.805869 -0.377569 
鄧小平 -1.427658 -0.879902 0.884261 -0.427423 1.380044 1.218332 1.331784 4.068395 0.934043 1.156379 
新石器時代 -2.410428 0.527177 1.737178 0.055271 -3.616503 0.561944 1.855483 2.421499 -0.621143 2.395249 
興盛 0.797845 -0.284588 0.069182 -2.318450 -0.370417 -0.194422 2.264566 0.405898 -0.534508 -0.369444 
沈葆楨 -2.329408 -0.293005 -0.398874 0.130836 -2.120615 -2.070622 0.767009 2.542647 0.857387 0.052507 
韓戰 -1.038022 -3.223608 -3.032491 -0.723998 -0.694404 1.680473 1.267901 3.056240 -0.206882 -0.984875 
西征 -2.070861 2.490380 0.954762 -1.344166 0.786921 3.026501 2.623802 0.868237 0.874231 -1.789425 
查理曼 -0.363623 0.545750 -0.927940 0.647320 1.377533 1.312001 4.152287 1.017661 3.148154 -0.278733 
中華人民共和國 -0.712898 -2.744719 0.517187 0.469361 -0.065864 1.714810 1.049111 3.152004 -0.509841 0.241727 
拜占庭 1.113576 -0.034284 1.220976 -1.103247 1.026673 1.536624 3.851340 1.528574 2.073289 0.562351 
曾國藩 -1.539160 1.338718 0.825284 -0.652321 -1.959394 2.214013 -0.032808 3.707191 2.410658 0.722729 
天主教 1.268828 0.824351 0.455320 -0.600525 -1.727105 -0.563018 2.808716 1.065482 1.169246 -2.070886 
吳 -2.546876 -1.235911 0.475953 -1.200321 -0.161191 -0.726303 1.507250 1.509408 0.749485 1.092923 
周 -1.575438 -0.678204 0.489781 -0.585171 -0.014106 -1.018008 1.872986 1.538626 0.778515 1.827815 
亞歷山大 -0.217347 1.845572 1.432239 -0.905154 0.563617 0.995536 4.799089 0.693085 1.134842 1.335596 
波蘭 0.436344 0.754590 -1.339876 0.796237 -0.258217 3.261521 2.417661 1.741104 2.247279 -1.736009 
以色列 0.765948 -0.333702 -1.076576 -0.909746 0.730897 2.164155 3.485389 1.307716 -0.026607 0.969517 
明白 0.441370 -0.547770 -0.717975 0.325235 -0.623906 -0.790878 1.947062 1.341532 -0.415264 -1.216149 
臺灣省 -2.731054 -1.199696 -0.984792 -0.972264 -1.413145 -0.368651 1.137698 3.758056 -1.220338 0.140402 
法典 0.203188 1.572529 0.795242 1.004280 -0.630909 -0.117838 5.034198 0.946779 1.289598 1.021560 
太陽 -0.702873 0.494726 -1.071777 -1.927382 -0.482068 -1.149658 3.630684 -0.177479 0.829380 -0.940759 
安平 -1.475199 -0.009272 -0.837728 -0.173628 -2.585076 -1.451164 1.149979 1.887836 0.024716 -1.690067 
家族 -0.393660 1.343159 -0.092713 -0.087563 -0.518061 0.040523 2.427538 0.160424 0.544686 -0.009323 
魏 -2.159801 -1.735450 0.842429 -2.844446 -0.606754 -0.208588 1.769451 1.107765 1.665340 1.206184 
英法 1.164853 0.334422 0.796699 0.597789 -1.459350 2.231114 1.785609 1.927497 2.044671 -1.403997 
城邦 -0.653706 -0.247949 0.848791 -1.107840 0.479009 0.272950 3.946401 1.116061 0.071350 1.841979 
抗議 0.409583 -1.052467 -0.291355 -0.185836 -1.146345 1.293343 0.237590 2.975901 0.471588 -1.243877 
乾隆 -1.199936 -0.073877 -0.073919 -0.332875 -2.289066 -1.903262 0.716220 2.423005 0.337369 -0.005173 
明治維新 -0.694757 0.947598 -1.060771 0.501718 -2.770504 2.300137 0.540217 1.551004 0.555445 -0.254946 
東亞 -0.133030 0.429793 -0.941534 -0.644180 -2.385298 0.261927 0.990532 1.563989 -1.119861 -1.342888 
福星 -3.572459 -0.135583 -1.877987 -0.076179 -0.305356 0.588872 0.201993 3.237407 1.021231 -0.994402 
秦 -1.444214 -0.817528 0.500963 -2.296711 0.434132 -0.574361 1.956432 0.505017 0.740068 1.739083 
地中海 0.814814 1.458461 0.401785 -0.447235 -0.266050 0.764898 3.791018 0.587080 0.358435 -0.687790 
共和國 1.027871 -0.583663 -0.165564 0.612218 0.435946 1.588060 2.033059 2.719806 0.768830 -1.593575 
長城 -1.615288 -0.204035 1.578808 -1.720263 -0.297661 1.406889 1.027286 0.720683 1.063841 1.722920 
玉山 -2.740028 -1.218307 -0.230210 -0.696653 -1.584266 -1.407625 2.204850 2.035779 -0.110252 0.456402 
俄羅斯 0.621094 0.282118 -0.406235 0.619411 0.262542 2.355681 1.733901 1.113859 1.637794 -0.361420 
漢武帝 -1.004720 -0.607080 1.037712 -2.180047 -0.144887 0.862332 1.897036 1.248406 0.684673 1.429945 
啟蒙運動 1.208806 -0.186366 -0.820761 0.207619 -1.101284 -0.265918 2.924953 1.235143 0.883103 -1.416174 
資本主義 0.699994 0.023240 0.509496 0.818182 0.140102 1.573945 1.039680 2.458143 0.119828 -0.921244 
北洋 -1.996046 -0.161229 0.435917 -0.886504 -1.004222 2.600695 0.049861 3.092900 1.460147 -0.671198 
陳永華 -2.638317 -0.015332 -1.525811 -0.145751 -1.551390 -1.122956 1.634248 2.596204 -0.128307 -1.523180 
陸軍 -0.582948 0.268704 -0.395946 0.601732 -0.451257 2.183249 0.526100 2.013291 1.758474 -1.167747 
林則徐 0.949427 -0.977797 0.672104 -1.228646 -3.109687 -1.142312 0.562634 3.123173 1.247917 -1.178776 
中文 -0.140061 -1.500434 0.686913 0.330083 -1.853106 1.067127 -0.106198 3.566710 0.210551 0.285848 
美麗 -0.380919 0.236176 -1.116036 0.210952 -0.200658 -0.175492 1.814378 0.738261 -0.524726 -0.225095 
西漢 -0.484268 -0.535316 1.178228 -2.656842 0.094817 0.464828 1.573991 0.511510 0.587856 1.060941 
孔子 -0.084456 -0.536457 -0.617517 -0.920998 1.046062 -1.458821 2.608360 1.293162 0.581492 0.686210 
長濱 -2.342976 1.090710 0.196269 0.423440 -3.193830 -0.009173 1.448197 0.851933 -1.099303 0.195724 
權威 0.343603 0.774210 0.100144 -0.589562 0.208477 -0.689154 2.506527 0.119026 1.116204 -0.458856 
祖先 -2.030462 0.145790 -1.454028 -1.926198 0.183100 -1.058213 2.005655 1.025737 -0.694633 1.166167 
秦國 -1.270177 0.276246 0.600775 -2.079895 0.334851 -0.794970 2.014649 0.971969 1.165022 1.543926 
農耕 -0.821076 0.697714 -0.283453 -0.844684 -0.934727 -0.456641 1.677346 0.168252 -0.352947 0.278008 
蔡元培 0.474944 -0.812432 2.290158 0.497738 0.024682 -0.273622 0.226570 3.260921 1.565379 -1.937407 
羅斯福 0.381254 -2.445966 -1.866036 0.504851 -0.517649 1.858260 2.473218 1.876933 0.403431 -1.310475 
臺北市 -1.629607 -0.969327 -0.572280 -0.254489 -1.227268 -0.485645 0.953383 2.215767 -0.291360 0.183377 
五四運動 -0.029239 -1.101624 1.328382 -0.365915 -1.126459 2.502126 0.004726 2.683882 -0.312325 -0.894143 
英國人 1.431012 0.187081 0.241414 0.080340 -3.156931 0.059902 2.311235 2.359237 0.509901 -1.518917 
東歐 0.803927 -0.325599 -0.512333 -0.243502 1.019922 2.671006 1.952648 1.836447 1.441132 -0.825759 
湖北 -1.403254 -0.989462 0.536033 -1.198884 -0.000122 1.081283 0.163911 2.904920 1.569973 0.222201 
戊戌變法 -0.717904 1.098151 0.226939 -0.111258 -1.363227 2.289540 0.085127 2.451179 0.853366 0.524203 
黃帝 -0.132388 -1.483938 0.243111 -1.690206 0.195474 0.478698 2.166200 1.957619 -0.627489 2.712968 
孔廟 -2.433422 -0.453919 -1.741129 -0.563334 -0.731127 -1.859136 2.102170 2.401763 -0.060082 -0.226732 
牛頓 0.267039 0.241712 -0.242255 -0.779264 -0.545624 -0.944643 2.937630 0.516846 0.340783 -0.617689 
宮 -1.720216 0.245649 -0.457342 -0.848966 -1.473826 -1.550532 1.773700 1.416378 -0.119993 0.110808 
南洋 -1.272092 -0.152255 -0.487537 0.116925 -2.193631 0.684475 0.528074 2.173529 -0.117615 -0.705478 
紅衛兵 -1.009757 -0.551964 1.509288 -0.844115 1.841712 1.830524 1.152814 3.804770 0.847201 1.102965 
北韓 -1.409597 -2.618636 -2.395915 -0.064920 -1.066746 1.483489 0.717324 2.350512 0.917518 -0.605154 
泉州 -1.456111 -0.596947 -0.143060 -0.930595 -1.560803 -1.629985 0.664221 2.562946 -0.291307 -0.510627 
段祺瑞 -1.030498 -0.948691 1.081424 -1.532100 0.150445 2.372682 0.519340 3.376742 1.934735 -1.994823 
卑南文化 -3.382149 -0.110935 0.395166 -1.344201 -2.252279 0.844215 1.296532 2.017978 -0.259948 2.282465 
嘉慶 -1.224896 -0.389018 -0.688414 -0.591445 -2.849703 -0.709861 0.988677 1.597066 -0.069112 -0.803646 
袁 -1.835521 -1.172227 0.508350 -1.024234 0.555434 2.483250 0.714734 3.171501 1.437378 -0.748984 
廈門 -1.462990 -0.323012 -0.346312 0.025555 -2.028181 -1.129170 0.130810 2.542400 0.742301 -1.328772 
抗戰 -1.980411 -0.647852 -1.253810 -0.261712 -0.478400 2.231574 -0.146288 3.039351 1.602125 -0.218432 
耶穌會 0.704599 0.593921 0.812313 -1.581550 -1.232863 -0.760036 2.414822 1.205305 -0.175672 -1.908318 
二十世紀 0.927729 -0.654113 -1.381783 0.474104 -0.635229 1.169134 1.768829 1.547447 0.425631 -1.632804 
岳飛 -2.431412 -0.007326 0.364816 -2.684933 0.198484 -0.037354 1.657136 1.501334 1.770319 1.350066 
胡人 -1.170503 -0.841211 1.758442 -3.621171 0.705818 0.644042 2.661711 1.128163 0.581589 1.698202 
四川 -0.944385 -1.024907 0.520576 -0.878036 -0.013432 0.223142 0.140337 2.422098 0.954825 0.013176 
澈底 0.014357 -0.498076 -0.062547 0.933725 -0.412320 1.226969 0.470885 1.822910 0.539890 -0.012924 
東華 -1.519812 -2.172399 0.726254 1.169008 -2.268703 0.896555 0.516791 2.959198 0.854362 1.034060 
維也納會議 0.842190 0.389032 -0.354640 2.391259 -0.437636 2.194672 3.768173 2.094822 1.685047 -0.837353 
長達 -0.656364 -0.113846 0.020689 -0.474582 -0.728085 0.111549 1.174271 0.972566 0.015318 0.133930 
噶瑪蘭 -2.191909 0.077696 -1.489469 -2.016936 -2.360399 -1.407566 1.722434 1.630824 -0.647002 -0.698875 
英雄 -0.973811 -0.313935 -0.882905 0.718191 0.025569 -0.488574 2.902253 0.213653 1.102928 0.718040 
柏林 0.469813 -0.174362 -1.112738 0.671838 0.291054 2.496342 2.457385 0.991658 1.742077 -1.515769 
經濟大恐慌 0.125211 -1.725230 -2.087083 0.533644 -0.316586 1.931672 1.629166 1.979506 0.581936 -1.653577 
日月潭 -2.691978 0.161017 -1.425793 -0.748106 -2.571814 0.042915 1.423957 1.735655 0.118330 -0.292518 
藉口 -0.474254 0.313876 -0.300375 0.768210 -1.220330 1.560961 0.083858 1.506622 1.122970 -1.248786 
薩 0.630534 0.134564 0.351081 -0.191140 0.107375 1.982330 3.191646 1.183289 2.799721 -0.968092 
鹿港 -1.981498 -0.688056 -0.946224 -0.612625 -1.532792 -1.153154 1.201601 1.840953 -0.348342 0.112682 
新竹 -1.797077 -0.528328 -1.265793 -0.522884 -1.846436 -1.500945 0.834825 2.371285 -0.642003 -0.721431 
查士丁尼 0.651302 0.948688 1.126423 -1.764377 0.826238 0.867311 4.072300 1.458970 2.803031 0.507183 
巴比倫 -1.372632 1.838786 1.305388 -1.317085 0.534112 0.915314 4.041608 0.961732 0.350833 2.250288 
歐 0.396237 0.404300 0.182282 -0.468629 -0.384309 1.695462 2.466466 0.506926 0.025988 0.135514 
新文化運動 -0.656856 -1.356906 1.501777 -1.073236 -0.208340 0.990457 0.370936 3.195540 1.098294 -0.971519 
張騫 -0.479084 -0.346184 1.494222 -2.112607 0.089242 1.363038 2.339516 0.939352 1.275150 0.955416 
宗教改革 0.499872 0.708067 -0.485780 0.005259 -1.081878 -1.575648 3.308927 0.566493 1.414204 -1.723446 
斯巴達 -1.062165 0.084903 0.491051 -2.516754 1.514686 1.331326 3.723518 1.515403 1.721595 1.976635 
盛世 -2.115779 -0.161400 0.680053 -1.342524 -0.379309 -0.433450 1.467313 1.395608 0.365683 1.668201 
君士坦丁堡 0.692915 0.402120 0.105810 -1.703669 1.062325 1.036333 3.612495 1.199464 2.137579 -0.536553 
文教 -2.209736 -0.737290 -0.856933 -0.444459 -0.905374 -0.325053 0.720441 2.576153 -0.705767 -0.897566 
海洋 -0.818333 0.563157 -0.803027 -0.577080 -1.385337 -0.776222 1.361961 1.072811 -0.809649 -0.430060 
東京 -1.258157 -0.108392 -1.060442 -0.026943 -0.495591 1.900302 -0.003668 2.016217 0.572101 -1.666705 
文化大革命 -1.585951 -1.404044 0.601187 -0.784183 1.089121 1.376839 0.801286 3.715249 0.700057 1.353197 
金字塔 -1.439265 0.726809 -0.101459 -0.982663 -1.309588 -1.763055 4.373389 0.435063 -0.334409 0.638627 
長江 -0.461000 -0.925778 0.886603 -1.287889 -0.772482 0.807011 -0.450199 2.274698 1.427075 -0.138966 
宣言 0.934866 -1.084538 -2.023246 0.693754 0.086503 1.493470 1.722991 2.096323 0.372409 -1.400800 
尼羅河 -1.202375 1.082211 0.124357 -1.349140 -0.690050 -0.261064 5.350831 -0.142497 1.318485 1.754816 
伽利略 -0.527130 0.675379 -1.009546 -1.683609 -0.441268 -1.249216 3.672535 0.416775 0.912006 -1.300922 
連 -0.784116 -0.627780 -0.828964 -0.002438 -0.955077 0.454572 0.784928 1.669692 0.065350 -0.562251 
東德 0.088231 -0.271337 -0.503025 0.062858 0.478872 1.380280 1.273130 1.037647 0.921477 -0.421523 
南島 -1.523578 0.535458 -2.504643 -2.050345 -1.656311 -0.953909 1.962068 2.775373 -1.800700 -0.996071 
封鎖 -0.268804 -0.910173 -1.281051 0.959169 -1.405287 1.662746 0.858689 2.240072 0.134594 -1.614658 
府城 -1.996386 -0.203371 -1.238920 -0.385565 -1.355200 -1.324559 1.836769 1.828221 0.120870 -0.780783 
道教 -0.244998 -0.773134 0.094742 -3.986228 -1.801008 0.539565 1.566295 0.952119 -0.122643 -0.034299 
武漢 -0.910101 -1.141160 -0.117918 -1.072039 0.462181 2.170641 0.175700 3.993405 2.088242 -0.773140 
新石器 -2.487335 -0.139682 -0.033641 0.174410 -2.766995 0.708638 0.985179 2.364251 -0.966090 1.096884 
路易十四 1.177719 1.132385 -0.086612 0.758739 -1.747246 0.033432 3.066524 0.904610 1.293595 -0.223277 
舊石器時代 -2.299011 0.163552 1.458585 -0.135876 -2.604434 0.338050 1.498292 2.000335 -0.469727 1.809353 
太祖 -1.943700 -0.562652 0.417314 -1.345010 -0.331224 -0.864620 1.488248 1.202541 1.176992 0.556328 
丁尼亞 1.118234 -0.071890 0.121480 -0.738335 -0.184626 1.466394 3.306483 1.468388 3.208121 -0.813054 
牡丹 -1.993515 0.221023 -1.062653 -0.033351 -2.234286 -0.428212 0.461036 1.732476 0.346500 -0.741069 
匈 0.006479 0.130876 -0.370005 0.406165 -0.783089 2.377187 3.531686 0.889044 2.785170 -0.325923 
穆斯林 1.625425 0.484403 0.498631 -1.148942 1.045954 1.204043 3.489261 1.633150 1.044447 -0.580547 
科學革命 0.131598 0.186735 -1.053174 -0.364315 -0.831377 -0.680624 3.212140 0.674901 0.433117 -1.356907 
西安事變 -2.479252 -0.522129 -1.121839 -0.332039 -0.129582 1.902563 -0.008243 2.474188 1.609865 0.193235 
白銀 0.312633 -0.790824 0.335844 -1.263708 -2.942903 -0.167392 0.417860 2.776409 -0.076743 -1.107200 
耶穌 -0.173789 0.455795 -0.185142 -2.372922 0.934754 -0.339496 3.286766 0.533479 2.030225 -0.648512 
布 -0.883305 -0.296429 -0.225739 -0.589198 -0.562177 0.553298 0.349893 1.652273 -0.008137 -0.865380 
朝貢 -0.494170 0.433564 1.017213 0.147852 -2.054466 0.232520 1.094563 1.323888 0.170695 0.441230 
史前文化 -3.011055 -0.179724 -0.169051 -0.726529 -2.771809 -0.633492 1.220490 2.334906 -1.196975 0.859210 
陳獨秀 -0.291047 -0.724542 1.957246 -0.364952 0.203616 0.711599 0.122651 2.689189 1.672529 -1.054272 
曹錕 -0.977126 -1.755657 1.096728 -1.784598 -0.085161 1.553849 0.250130 3.536451 1.536976 -1.412385 
武則天 -2.167067 -0.908662 0.705823 -1.923934 -0.864826 -0.616259 1.817589 2.035647 0.522232 1.993708 
滿清 -1.749734 -0.521181 0.655076 -0.255579 0.016219 1.112466 0.315220 2.480964 0.563792 -0.498784 
大國 -0.403476 -1.305682 -0.285814 1.228448 -0.302459 1.206971 1.844336 0.699906 0.790516 0.520856 
南韓 -0.667854 -1.990795 -3.082703 -0.696940 -1.413707 1.535047 0.899705 2.280934 0.586917 -1.057029 
楚 -0.445737 -2.396741 -1.053589 -0.772381 0.241500 0.351636 1.823803 0.633963 0.107141 0.267056 
加里 0.387935 0.112362 0.380065 -0.580970 1.144376 1.707695 3.457194 1.142908 2.744956 -1.070689 
日語 -1.540986 -0.552371 -1.173005 -1.079354 -1.770703 -0.238503 0.621327 1.415757 -0.531252 -0.624505 
伊斯蘭世界 1.393849 -0.375025 0.824146 -1.368674 0.450913 1.031221 2.723662 1.023352 0.640715 0.195769 
史達林 -0.260396 -0.717506 -1.532464 0.288450 0.289557 3.009498 1.210798 2.188454 1.280461 -0.866494 
西夏 -2.703649 0.437480 0.936475 -1.941594 0.577251 0.290308 2.078373 0.729136 0.533996 0.044092 
希臘人 0.206954 0.551943 0.274066 -1.974077 1.053282 1.240278 4.103580 0.927223 1.422241 0.845058 
桃園 -2.315117 -0.451127 -0.788678 -0.917718 -1.818819 -0.375286 0.630527 2.175489 0.507259 -0.288265 
對外貿易 -0.347307 -0.487135 -0.150545 -0.376063 -2.310302 -0.719931 0.812801 1.678322 -0.796944 -1.127625 
施政 -0.749219 -0.380819 -0.358716 -0.336580 -0.345672 -0.422020 0.680252 1.610075 0.014159 0.389496 
王安石 -0.995642 -0.109289 0.654949 -1.876202 -0.473087 0.517831 1.169070 1.665032 1.092448 1.438826 
魯迅 -1.511723 -1.192236 1.096265 -1.295655 -1.233635 0.489981 -0.136869 2.014487 1.475400 -0.118354 
廣西 -0.157642 0.098089 0.708325 0.003751 -0.389525 0.699727 0.126753 2.534417 1.708776 -0.412556 
莊園 1.001248 0.652802 -0.642410 0.261978 0.115441 0.240124 2.688781 1.237425 1.579229 -0.996303 
光緒皇帝 -1.363772 0.524120 0.789400 -1.088775 -1.091567 1.476584 0.142297 2.399063 1.058274 -0.178328 
夏 -1.412609 -0.631656 0.813674 -1.201637 -0.048351 0.097842 1.455961 0.970546 0.491226 0.920763 
邦聯 -0.549353 0.706612 0.026933 0.950202 -0.307949 1.356759 3.175957 1.558379 3.289411 -0.472013 
高達 -0.393283 -0.353335 -0.314751 -0.424368 -1.281324 0.729563 0.709966 0.995534 0.263007 -0.458627 
鄂圖曼土耳其 1.917740 0.517591 -0.513957 -0.281838 0.613375 2.652572 3.228497 1.212514 1.484182 -0.883568 
巴爾幹半島 0.987885 -0.150707 -0.736536 -0.459661 0.066472 2.572717 2.913084 1.319662 1.298818 -1.035731 
山區 -0.684459 0.098525 -0.842243 -0.480805 -0.424700 0.018972 0.900275 1.356579 -0.290263 -0.569342 
吳佩孚 -0.377542 -0.850249 -0.007182 -1.004873 -1.000744 1.976440 -0.271481 2.584973 1.272049 -1.291925 
金屬器時代 -2.488376 0.230193 -0.170376 -0.375996 -2.843780 0.658631 1.348108 2.554271 -0.892502 1.404462 
梁 -2.016197 -0.898293 0.376224 -1.076058 -0.539322 0.719781 0.652552 2.016798 0.533319 0.393490 
福州 -1.363933 -0.679730 -0.057090 -0.707567 -1.718398 -0.675881 0.914021 2.512113 0.771955 -0.452153 
馬關條約 -2.205633 0.431580 -0.746809 0.606310 -2.594648 1.455424 -0.083398 2.152079 0.855148 -0.043052 
共產主義 0.378132 -0.023474 -0.491174 1.026534 0.303901 2.090548 0.985431 2.055174 0.901819 -0.556986 
太平洋 -0.153456 -0.812738 -1.729734 -0.210943 -1.861134 1.152668 1.088163 2.056683 -0.630766 -1.234414 
普及 -0.407271 -0.378073 -0.181254 -1.175243 -0.457310 -0.045780 1.613041 0.509128 -0.019292 -0.047717 
道德 -0.576061 0.521748 -0.748957 -0.760703 -0.558194 -0.019822 1.706081 -0.044551 1.549755 -0.484460 
洪秀全 -0.573603 0.233310 0.296558 -1.885304 -0.446351 -0.245485 -0.262728 2.498199 3.134151 -1.324001 
培根 2.050787 0.638196 -0.269029 -1.041622 -0.865111 -1.062393 2.988383 1.775151 1.231622 -1.239732 
秦漢 -1.264179 -0.537168 0.344598 -0.665995 -0.501650 0.121306 1.221538 0.975059 0.689764 0.666223 
天安門 -0.740334 -1.808797 1.233526 -0.598289 -0.026217 2.109225 0.304560 3.762732 0.280557 0.320829 
中法戰爭 -0.818128 0.486542 -1.271850 1.052319 -2.241834 0.381151 0.709112 1.917582 1.076395 -0.752084 
古希臘 0.197622 0.285440 0.256727 -1.011518 1.264668 0.186985 3.742575 0.291996 1.676466 -0.006794 
高宗 -1.811139 0.009773 0.206337 -2.058790 -0.787996 -1.231749 1.183489 2.134995 0.494158 1.068247 
古典 0.441188 0.127258 0.477935 -0.924876 0.257963 -0.369225 4.097951 0.520286 1.089209 0.208078 
滿洲國 -1.912777 0.124310 -0.352886 -0.785352 -1.530873 2.206491 0.157679 2.636062 0.901251 -1.544788 
澳門 -0.059368 -0.228855 -0.052101 -0.205468 -1.952372 -0.729589 0.992560 1.994362 -0.474147 -1.246233 
浙江 -1.077673 -0.126029 0.862446 -0.862113 -1.059118 -0.125812 0.298945 1.982556 1.508768 -0.044694 
特洛伊 0.128309 0.601984 -0.312631 -1.730770 0.716621 0.025509 3.870370 0.624397 1.282734 1.367927 
辛亥革命 -1.643077 -1.012661 0.358712 -0.936659 -0.538015 1.101393 0.261196 2.846598 0.763746 -0.108423 
苗栗 -2.735256 -0.003414 -1.624312 -0.101326 -0.555701 0.618413 0.309283 2.557783 0.668899 -0.689060 
亨利八世 1.156120 1.108993 -0.024891 -0.090538 -0.923358 -0.625511 3.400815 0.567910 1.876602 -0.861243 
隋 -2.149803 -1.146703 0.336654 -2.729423 -0.151872 0.466336 2.013033 0.929370 0.508478 1.965961 
納粹 -0.188439 1.012911 -1.167498 1.113240 -0.006827 2.660341 1.946505 1.267347 2.123904 -0.566027 
木乃伊 -1.109906 0.809807 0.696287 -1.794137 -0.805732 -0.209900 5.119537 0.892464 1.072657 1.387325 
新教 1.054530 0.714059 -0.104900 -0.504644 -1.420891 -1.326856 3.415091 1.391798 1.424868 -1.734181 
新平 -1.207157 -0.852039 -1.369337 -0.943776 -2.079572 -0.747610 0.239088 2.703725 0.351530 -1.041864 
君王 -0.372118 0.439183 -0.027019 -0.273347 -0.368024 0.157563 2.020430 0.308013 0.833286 0.531045 
加富爾 0.128606 0.197795 0.386901 0.387899 0.252435 1.759740 2.971023 0.884027 2.296527 -0.109588 
韓國 -0.367726 -1.169248 -2.032436 -0.572977 -1.387027 1.620657 0.364418 2.212387 -0.334045 -0.889630 
古埃及 -0.873345 0.644852 0.487176 -0.988083 -0.249074 -0.309951 4.000585 -0.307974 0.872782 1.603185 
抗爭 -0.806186 -0.098124 -0.862862 -0.312204 -0.951039 0.250479 0.969450 1.372947 0.174542 -0.752246 
張作霖 -1.950590 0.176263 0.198585 -0.693204 -0.998619 2.965042 0.567567 2.812781 1.649909 -0.740492 
歐洲各國 1.497515 0.513277 -1.032653 1.022240 -1.144185 0.933950 2.763195 1.143341 0.551448 -1.975566 
伏爾泰 0.943063 0.197303 -0.312150 1.362270 -1.106931 -0.141613 2.871285 0.890708 1.361920 -0.083434 
巴勒斯坦 1.191022 -0.044762 -0.876939 -0.720121 0.302033 1.720245 2.822054 1.395476 0.099205 0.293498 
李白 -1.661757 -1.060539 0.675443 -2.231701 -0.247563 0.176289 1.777945 1.838354 0.641961 1.799354 
祖 -1.663728 -0.562395 -0.450713 -1.408911 -0.358408 -0.720840 1.394584 1.230373 -0.218636 0.829318 
中原 -1.722082 -0.053574 0.784000 -1.461680 -0.632463 0.682173 1.790076 0.959639 0.627397 0.941286 
黎元洪 -0.974347 -1.503734 0.987061 -1.680883 0.102228 1.610996 0.360980 2.853835 1.521478 -0.980910 
宜蘭 -1.777297 0.106053 -1.114874 -0.398628 -2.148999 -1.197283 1.313201 1.374972 0.160481 -0.900219 
佛羅倫 -0.001962 0.714092 -0.681272 -0.613753 -0.406866 0.188295 3.694744 -0.560886 2.327423 -0.572800 
凡爾賽 0.041405 -0.083188 -0.556029 1.680722 -0.918888 2.342799 1.835743 1.808916 1.897698 -0.748951 
封建制度 0.385857 0.041573 -0.242077 0.515573 0.151749 0.320428 2.239921 0.941291 0.738924 -0.242366 
胡適 -1.181221 -1.528934 0.905079 -0.516178 -0.310994 1.392008 0.200383 2.653682 1.297059 -1.229477 
六國 -1.289384 -0.030905 0.326996 -1.418802 0.268643 -0.751613 1.939856 0.525677 1.149572 1.336113 
國際貿易 -0.495439 -0.701644 -0.184697 -0.477245 -1.315151 -0.149843 0.862276 0.847191 -0.615854 -0.885822 
鹿 -2.178059 -0.448150 -1.021305 -0.409845 -1.729859 -0.927195 0.914610 1.846083 -0.024361 -0.255601 
大躍進 -1.296790 -1.692456 -0.530586 -0.575361 0.914837 2.211209 1.349813 2.654734 0.105737 1.488220 
神聖羅馬帝國 0.337631 1.549540 -0.010381 0.897260 0.099395 -0.077210 3.311099 0.450079 1.813965 -0.425323 
達悟族 -1.794209 0.793165 -1.405329 -1.894251 -0.828040 -0.828779 1.797058 1.780832 -1.067110 0.076149 
中亞 0.435898 0.648912 0.688305 -1.848639 -0.620872 1.729050 1.802031 0.640942 0.056326 0.548976 
契丹 -2.226709 -1.465385 0.877093 -1.622923 -0.535889 0.517956 1.617030 1.879061 1.365750 1.360247 
嘉南大圳 -1.916171 -0.189216 -1.066895 -0.778407 -1.799401 -0.420562 0.646760 1.496435 0.011071 -0.241546 
劉邦 -0.563305 -0.882055 -0.031511 -1.541695 0.597669 0.456153 1.309795 0.334948 0.749549 0.741732 
庚子 -0.806281 0.172693 0.129923 -0.117826 -0.971165 0.884565 0.217549 1.287966 0.586469 -0.066603 
爾 0.721416 -0.274330 0.493289 -0.930422 0.194752 0.211830 2.508840 0.627172 0.593564 0.280636 
天皇 -2.038183 0.581989 -1.159198 -0.504586 -2.199146 1.666135 1.366696 0.106448 0.975631 -0.926923 
圓山 -2.194000 0.290585 0.324598 -0.533211 -2.560165 0.286000 1.342045 1.937027 -0.163343 1.617262 
印第安人 1.244851 -0.067281 -0.682383 -1.216024 -0.969511 -0.553129 2.911525 2.149310 -0.843549 -2.415722 
京 -2.244920 -1.210325 0.297241 -0.637095 -1.073492 -0.080505 0.479219 2.016924 0.223917 0.825807 
八股文 -1.051655 0.198023 0.169240 -1.041834 -1.013539 0.911525 1.608827 0.291853 -0.137074 0.812755 
哥白尼 -0.613835 0.657706 -0.801950 -1.538468 -0.101898 -0.462734 3.529021 0.257414 1.118681 -0.680909 
兩河 -0.038347 1.495021 1.170270 -1.436880 -0.015538 0.318178 4.199764 0.763503 -0.312766 1.781204 
趙匡胤 -1.763630 -1.119569 0.423898 -1.164014 -0.305355 -0.427828 1.643722 1.892458 0.331229 0.745824 
基督徒 0.934035 0.733866 0.780805 -1.553612 0.675590 0.426325 2.832323 0.427097 1.023593 -0.819053 
宗 -0.736502 -0.422691 0.314489 -1.643191 -1.192231 -0.698824 1.349573 1.212288 0.459481 -0.066377 
菲律賓 0.255210 0.147667 -1.038821 -0.168957 -1.437533 0.390834 1.286937 1.943512 -0.323185 -1.533155 
彰化縣 -2.021377 -0.133347 -0.789112 -0.591188 -1.112805 -1.130779 0.938723 1.672819 0.284385 0.182907 
高麗 -2.245991 -0.413003 0.519658 -1.517559 0.078164 1.234960 2.346896 1.142993 1.559008 1.199500 
華 0.319074 -0.836086 -0.056424 0.264921 -1.109988 1.278831 0.898094 1.609111 0.745150 -0.736011 
德軍 0.831124 0.372985 -0.653226 0.992344 -1.045806 1.424867 1.874362 1.740111 1.461026 -1.800400 
馬雅 0.693582 -0.407087 0.831166 -1.321773 -1.108882 -0.579299 3.272099 1.087138 -1.386806 -0.005342 
湖南 -1.252536 -0.390156 0.743076 -0.984986 0.300729 0.640745 -0.100225 2.320771 1.228900 0.716528 
辛丑和約 -0.505274 0.072881 0.066330 0.075932 -1.191215 1.109052 0.434819 1.587811 0.616275 -0.522923 
法西斯 0.171810 0.138328 -1.381083 0.294430 0.415684 1.370340 2.240976 0.753528 1.680846 -1.253908 
印象派 1.063133 0.157974 -0.780040 -0.032813 -0.354112 -0.058722 1.591574 1.016221 0.541911 -1.077658 
黑死病 0.743224 0.420680 -0.578045 -0.218589 -0.246293 -0.136209 2.885560 1.105943 0.442214 -1.615961 
王莽 -0.947737 -0.111287 0.219205 -0.921489 -0.201787 0.114354 1.756201 0.763649 0.841131 0.326716 
君士坦丁 -0.037102 0.364621 -0.065471 -1.169798 0.357152 0.127136 2.075779 0.594223 1.577271 -0.553591 
拉丁文 0.847065 0.746067 -0.136503 -0.824979 0.696320 0.155703 3.265797 0.463291 1.632306 -0.986405 
林爽文 -1.377610 -0.159166 -0.467677 -0.305052 -1.239783 -0.959543 0.976464 1.373953 0.087741 -0.225973 
古文明 0.522171 0.238762 0.762008 -0.942189 -0.514670 -0.597200 3.191612 0.617363 -0.531624 1.011600 
呂不韋 -1.016283 0.313894 0.495291 -1.633097 -0.233005 -0.326855 1.917020 1.182773 0.618622 1.120247 
政治社會運動 -1.056951 -0.839668 -0.939112 -0.493027 -1.599952 0.233798 0.337121 1.600857 0.091566 -0.478555 
班超 -0.670734 -0.286019 0.955442 -1.802622 0.007395 0.535553 1.849288 0.712828 0.833306 0.897976 
關聯 -1.531725 -0.808244 -0.505553 -0.254229 -0.947238 -0.411657 0.763757 2.633614 -0.883016 -0.165612 
倫敦 0.860890 0.251381 -0.012076 0.161134 -0.878896 0.738365 2.302644 1.582720 1.054598 -0.637714 
邱吉爾 0.538602 -0.273131 -0.794769 0.497007 -0.446140 1.209927 1.687670 1.288347 0.969533 -0.885899 
西化 0.053275 -0.223887 0.481908 -0.209997 -0.443484 1.614510 0.768087 1.673131 0.554970 -0.503457 
法蘭克 0.089450 1.148516 -0.039661 -0.228127 0.980656 0.634129 3.255994 0.741315 1.896027 -0.142801 
巴 -0.019232 0.588070 -0.738178 -0.229328 -1.434385 0.222803 1.448096 1.121071 -0.477671 -1.053299 
晉 -1.450653 -1.117883 0.935370 -2.681017 -0.456644 -0.418115 1.628262 0.930677 1.532059 0.830854 
國教 1.091104 -0.058428 0.182441 -1.740811 -0.294117 0.149756 2.105147 0.652872 0.703296 -0.655151 
士大夫 -0.549983 -0.382990 0.913003 -1.591067 -0.798634 -0.105227 1.323354 1.392318 0.778879 0.628358 
河南 -1.284328 -0.124051 0.560707 -1.598588 0.080804 0.229192 1.013311 1.209975 0.837255 0.527329 
毛 -1.063689 -0.516994 0.239638 -0.294143 1.012250 1.041129 1.284139 2.154378 0.697958 1.042461 
馬克 -0.434785 -0.033511 -0.203301 -0.161307 -0.060139 2.204988 1.159386 1.693629 1.705403 -0.669855 
福 -1.761320 -1.418324 0.717341 -0.667654 -0.680894 0.157495 1.040849 2.081070 0.183382 0.865951 
漢口 -0.470166 -1.107294 0.844556 -1.248618 -0.396638 0.934138 -0.126572 2.656314 1.229447 -0.380591 
馬歇爾 0.725511 -1.286073 -1.228006 0.474179 0.076219 1.877471 1.932448 1.865063 0.099672 -1.239483 
百科全書 0.880751 -0.453934 0.741595 0.245822 -0.008264 0.689305 1.627361 1.006952 0.895051 -0.191618 
改革開放 -0.960117 -0.497308 1.193176 -0.623119 1.043558 1.694858 1.112401 3.209376 0.571613 1.000103 
英格蘭 1.156774 1.171333 -0.041734 0.693575 -0.788834 0.154654 2.880752 1.135927 1.925252 -0.834470 
西北 -0.573879 0.342547 0.567291 -0.733021 -1.032566 1.899270 0.634465 1.159908 0.685143 0.001589 
朝 -1.414919 -0.387619 -0.294441 -1.236889 -1.006838 -0.673038 1.166631 1.564487 0.053027 0.386677 
臺灣海峽 -0.847888 -1.189413 -1.751586 -0.034700 -1.617740 0.407179 0.943282 1.867694 -0.564724 -0.835806 
治安 -1.072285 -0.299740 -0.513692 0.026112 -0.936254 0.004263 0.360877 1.824528 0.223165 -0.637833 
北美 1.666368 -0.786948 -1.146127 -0.397607 -1.408985 0.620898 1.922428 2.003680 0.338397 -1.933461 
城堡 -0.075664 0.345717 -0.614376 0.239303 -1.195012 -0.417336 1.801646 0.942909 0.392830 -1.394996 
光榮革命 1.651074 0.626876 0.364692 0.256828 -1.504879 -0.223216 2.951401 1.531996 1.142983 -1.157745 
盧梭 1.062338 -0.109198 -0.183964 0.548130 -0.605674 0.437174 2.573076 0.905964 0.847950 -0.439220 
凡爾賽宮 0.106595 1.031369 -0.359027 1.176977 -0.751453 1.026927 1.942633 0.934500 1.892171 -0.400293 
都市 -0.890248 -0.740827 -0.662725 -0.258948 -0.939663 0.268953 0.553530 1.831277 0.088906 -0.494336 
朱 -1.464167 -0.329646 -0.107166 -0.010704 -1.165764 -0.605899 0.567526 1.461138 0.126704 0.177010 
宮殿 -0.550857 0.373091 0.657073 -0.971737 -0.057462 -0.242296 2.421525 0.497001 0.568740 0.998782 
漢化 -2.352035 -0.272052 0.280413 -1.590293 -1.164756 -0.781010 1.715752 1.607387 0.291853 0.682748 
比利時 0.446728 0.915915 -0.510773 1.532657 -1.470897 0.834900 1.997073 0.757672 1.508877 -2.435483 
國聯 -0.047297 -0.952094 -1.562083 1.116934 -0.934764 2.560813 1.003645 1.995544 0.882932 -1.215527 
阿育王 1.045618 -0.128251 0.169953 -3.604320 -1.164160 1.010429 3.371295 1.673256 -0.111181 0.040445 
英王 1.238142 0.951322 -0.086549 0.199922 -1.345329 -0.355593 2.690696 1.164431 1.421228 -0.776066 
敘利亞 0.326496 0.861926 0.538245 -0.586781 0.117705 0.680734 3.493021 0.419290 0.541813 1.228273 
梅特涅 1.017084 0.725921 -0.623029 1.368473 -0.778329 1.684067 3.259329 1.302596 1.394891 -1.054880 
法蘭西 0.207315 0.920961 0.933029 0.526396 -0.230074 1.429866 3.190177 1.716017 1.624441 -0.915758 
印尼 -0.124953 0.510086 -0.904917 0.064523 -0.638720 0.057295 0.809240 1.250669 -0.082908 -0.803863 
回國 0.638434 -0.114626 -0.001038 -0.366760 -0.065897 0.885307 0.840172 0.963862 0.444194 -0.592768 
第三世界 0.551474 0.140083 -1.133845 0.127208 -0.450301 0.871619 1.678206 1.718608 0.352355 -1.101679 
凱薩 0.479473 1.213363 -0.211950 0.625754 -0.899261 1.216773 2.476567 0.574884 1.600833 -0.304920 
喀爾文 0.904818 0.751599 0.181154 -0.341087 -0.555971 -0.789275 3.301111 0.693310 1.507292 -1.517951 
烏克蘭 -0.028819 0.512233 -0.352500 0.430064 0.197734 1.928241 1.425253 1.203849 1.167816 -0.486695 
摩西 -1.243496 1.312371 -0.461488 -1.516737 0.421947 0.070998 4.065477 0.486365 0.639496 1.089379 
門第 -2.151975 -0.540161 1.225357 -2.416054 -0.502600 -0.359274 2.130486 1.072691 1.220108 1.409329 
丁日昌 -1.484400 0.009125 -0.628019 -0.231464 -1.365931 -1.369607 0.755415 2.118795 0.434883 -0.098505 
列寧 -0.322046 0.155464 -0.193190 1.118813 0.581838 3.481751 1.535529 2.017673 1.472270 0.075810 
江西 -0.845834 -0.471831 0.350478 -0.880591 0.686920 1.188539 0.317356 2.506315 0.774053 0.345404 
太平軍 -1.141777 -0.425801 0.938572 -1.168414 -1.293362 0.778734 0.156430 2.539398 1.888314 -0.167845 
哥倫布 1.563005 0.133050 -0.098280 -0.636855 -1.175860 0.178368 2.804197 2.075580 -0.364473 -1.936872 
新疆 -0.599193 0.770828 0.764016 -0.768738 -1.087425 1.903008 0.263388 1.102904 0.903462 0.119051 
直隸 -1.394638 -0.155358 0.338699 -0.486476 -1.043419 0.892670 -0.380979 2.172300 1.438690 -0.626983 
馬克思 0.308874 0.468885 0.381305 1.948287 0.361297 0.970437 1.833701 3.676850 0.921716 -0.270704 
革命黨人 -0.567143 -0.577883 0.473039 -0.407000 0.118062 1.476508 0.566502 2.010544 0.842546 -0.607141 
日耳曼人 0.157098 0.820422 0.031720 -0.266120 0.925772 1.226139 2.804536 0.612479 1.975221 -0.090774 
宋教仁 -1.062032 -1.282723 0.623635 -1.417018 0.090268 1.462026 0.503772 2.827510 0.725046 -0.791581 
林立 -0.434862 -0.392227 -0.081201 -0.075606 -0.323441 0.418791 1.312121 -0.001568 0.587158 0.286810 
甲骨文 -1.485961 -0.306651 -0.623965 -1.153804 -0.267958 -0.342364 1.712565 1.448820 0.011538 0.530554 
越戰 -0.190421 -1.978176 -1.969633 0.738449 -1.302163 0.907254 1.401924 2.670612 0.564951 -0.975792 
契約 0.689348 0.764123 -0.006498 -0.300802 -0.334877 -0.310824 2.609386 0.564290 0.182922 -0.311245 
烏山頭 -1.528520 0.090719 -0.933399 -0.497541 -1.307901 -0.175180 0.358607 1.060103 0.283155 -0.352568 
蘇維埃 -0.008081 0.276198 0.808029 0.904687 0.601874 2.405478 1.595142 2.744510 1.103268 0.206402 
高峰 -0.345056 0.160645 -0.325229 -0.653928 0.096382 0.368357 1.288871 0.894134 0.080330 0.057649 
漢族 -1.457764 0.318064 0.605378 -1.837523 -0.297975 0.227858 1.990378 0.624960 0.561015 0.439515 
商鞅 -1.031336 -0.076326 0.121910 -1.188757 0.006066 -0.281251 1.660991 0.950904 0.486895 0.855090 
貞德 1.280255 1.466868 0.364320 0.498042 -1.278548 0.650607 2.787441 1.346645 1.981873 -0.677290 
帝王 -0.532872 0.221450 0.674157 -0.887349 -0.239051 -0.776406 2.048122 0.550057 0.604110 0.500681 
胡 -1.590623 -0.600749 0.965360 -1.714692 -0.781276 0.032372 0.988427 1.581828 0.558788 0.741974 
鎖國 -0.683139 0.507027 -1.236483 -0.043606 -2.486613 0.886225 1.358655 1.500359 0.013576 -2.479026 
戶口調查 -1.083769 -0.436197 -1.205555 -0.739037 -2.255929 -0.531170 0.555416 2.180184 0.171867 -0.984515 
畢卡索 1.260628 -0.328064 -1.321860 -0.289439 -1.084635 0.460635 2.274257 1.861641 0.289675 -2.688514 
山西 -1.026644 -0.450837 1.043972 -2.096120 -0.207600 0.547069 0.681617 1.534912 1.077474 0.804184 
西安 -1.145160 -0.094704 0.360554 -1.329000 -0.271663 0.670477 1.090559 1.153114 0.688191 0.431037 
波及 -0.010012 -0.276219 -0.940718 0.927418 -1.318734 0.731170 0.334991 1.398592 0.366148 -0.747284 
修正 -0.387694 -0.748708 -0.187798 -0.745718 0.084253 0.366550 0.487002 2.139711 -0.376697 -0.300316 
希臘正教 0.844792 0.507833 0.117595 -0.550332 0.506762 1.194770 2.271909 0.375656 1.993764 -0.154071 
雲南 -1.268418 -0.019429 0.119675 -0.413269 -0.042090 1.473309 0.205350 1.870413 1.128543 -0.648114 
中日戰爭 -1.386905 -0.404957 -1.608689 0.109733 -1.446999 0.708635 0.266809 1.967216 0.144063 -0.790021 
捷克 0.305473 0.346747 -0.699425 1.009446 -0.244741 2.047895 1.267093 1.336389 1.867637 -1.006062 
獨立宣言 1.268808 -1.120741 -1.596365 0.211358 -1.019649 0.730038 1.294338 1.726146 1.056491 -1.551361 
宋太祖 -1.548229 -0.748152 0.407230 -1.317473 -0.266203 -0.449047 1.655628 1.725325 0.697171 0.528824 
高明 -2.239480 -1.331242 0.196717 0.109043 -1.175981 -0.109232 1.329502 1.546068 0.832528 1.038019 
諸國 0.252480 -0.364503 0.157876 -0.450322 -0.309701 0.417948 1.479863 0.250691 0.265538 -0.075890 
沙 -0.258626 0.583753 -0.028401 -0.209088 -0.166305 -0.013102 2.169214 0.422707 0.902132 -0.083809 
歐美 0.537647 -0.379861 0.218220 0.062456 -0.515748 1.139266 1.109297 1.523345 0.069858 -0.214762 
愛國 -0.708186 -0.576537 0.378367 -0.684165 -0.029290 0.805611 0.814732 1.376109 0.534104 -0.015508 
馬其頓 -0.352432 0.726663 0.852143 -1.059695 0.682345 0.452421 3.468994 0.828023 1.141208 0.705516 
塞利 -0.665669 0.046332 0.070643 -0.352236 -0.944957 0.987568 4.363060 -0.481124 2.607657 0.324051 
珍珠港 -0.516963 -1.265900 -1.642585 0.231349 -1.594643 1.677943 0.705480 1.867474 0.316648 -1.235729 
武士道 -1.298018 0.880972 -1.385534 -0.694288 -2.628002 0.847876 1.349373 0.437341 0.649712 -1.595087 
文明史 -0.991650 -0.677510 0.821816 1.061771 -0.642014 0.155534 1.907907 0.436971 1.393223 0.760316 
劉永福 -1.735415 0.151091 -1.147270 0.713471 -1.580365 -0.362325 0.777330 1.543664 0.940912 -0.460485 
漢書 -0.134663 0.125599 0.182397 -0.922979 0.062133 0.169082 1.257455 0.466398 0.163485 0.247714 
明太祖 -0.988637 0.384888 0.132975 -0.027326 -0.504145 0.699904 0.788717 1.117356 1.821949 -0.232309 
史前 -1.711174 -0.608987 -0.374158 -0.540311 -1.650351 -0.181703 0.941296 2.812002 -0.820263 0.247601 
蔡 -1.663628 -0.020522 -0.106626 -0.179335 -0.918693 -1.119759 1.774371 1.211773 0.318046 -0.006083 
希伯來人 -0.483191 1.394203 -0.521872 -1.134694 0.430693 0.977284 3.999391 0.855119 0.782071 0.832526 
吳三桂 -1.299319 -0.086693 0.325326 -0.092872 -1.152344 -0.226015 0.875609 1.461146 0.369868 -0.757780 
神宗 -0.923568 -0.249146 0.180456 -0.994431 -1.422756 -0.439247 0.700362 1.661386 0.384889 0.168694 
元老院 -0.302418 1.024232 0.670227 -0.208251 0.800130 1.284236 2.854066 0.982754 0.887380 -0.461375 
同盟國 0.151129 -0.002686 -1.134097 0.631494 -1.369995 2.107898 1.695076 1.321458 1.005157 -1.285920 
曉 -1.551538 -1.663702 0.666990 -0.011381 -1.230175 -0.182485 0.403689 2.088820 0.337893 0.891057 
西德 0.113308 -0.085513 -0.719923 0.152456 0.720837 1.696914 1.279597 1.279042 0.762321 -0.676794 
富國強兵 -0.156076 0.537216 0.585934 -0.273727 -0.829500 0.952032 0.880812 0.487899 0.388537 0.655669 
澶淵 -1.549785 -1.118558 0.259211 -1.182326 -0.255785 -0.141517 1.624916 0.607223 0.702102 0.666044 
北非 1.382747 1.271528 0.012931 -0.227624 -0.144150 0.926857 2.918777 0.325400 0.650787 -0.897293 
鳳山 -1.659290 -0.089388 -0.947529 -0.323400 -1.298898 -1.090077 1.108068 1.542972 0.276078 -0.482951 
子孫 -0.265469 -0.108828 -0.162731 -1.382989 -0.897349 -1.103412 1.089708 1.110111 0.295412 -0.176593 
春秋戰國 -1.058757 -0.268675 0.276874 -0.752843 0.008928 -0.225915 1.590090 1.018117 0.724880 0.539698 
長江流域 -0.798883 -0.073831 0.422479 -0.596412 -0.826328 0.804460 0.649547 1.588478 0.990486 0.226172 
雲 -1.559459 -1.367783 0.485536 -1.368062 -0.187805 -0.219349 1.110295 1.260790 0.127333 1.067885 
路易十六 0.437172 0.631984 0.606784 1.322890 0.216676 1.059813 2.999121 1.202633 1.626359 -0.508300 
洛克 1.030041 0.073072 -0.082398 -0.103080 -0.974777 -0.007895 1.802745 1.171196 0.308606 -0.650029 
瑪麗 0.896322 1.027290 -0.200671 0.776551 -1.678650 0.061219 3.246831 1.533946 1.807832 -1.142468 
重鎮 -0.559935 -0.603244 0.771176 -0.702475 0.200558 0.264482 0.537850 1.854536 0.690166 -0.602787 
中國史 -1.649407 -1.198730 1.027081 0.034365 -0.814491 -0.442457 1.227780 1.064222 0.611663 1.236358 
南郊 -1.559802 -0.188228 -0.407981 -0.223649 -1.273716 -1.153549 0.786843 1.794395 0.134067 -0.141109 
民族運動 0.018971 0.468813 -0.692762 0.751692 -0.638095 1.144498 2.161673 1.198148 1.423557 -0.666473 
蓬萊米 -1.823315 -0.036228 -1.140782 -0.199297 -2.088050 0.107276 0.347497 1.583921 -0.029917 -0.628088 
大都 -0.404515 -0.190938 -0.130314 -0.467009 -0.493481 0.429307 0.916788 0.922138 0.314555 -0.107731 
猶太 0.689190 1.040026 0.037093 -0.533731 0.307517 1.521159 2.447167 1.030953 0.826614 0.456497 
丘逢甲 -2.042211 -0.173010 -0.618462 0.083310 -1.360895 0.071697 0.586388 2.055989 0.687450 -0.139476 
基隆港 -1.202519 -0.080029 -1.174074 -0.153219 -1.896977 -0.256866 0.729466 1.629412 0.334651 -0.615511 
耶路撒冷 0.216450 0.876362 0.273350 -1.459085 0.629069 0.696297 3.124635 0.898889 0.709882 0.063440 
婆羅門教 1.435905 0.034382 0.305260 -3.252035 -1.713374 0.547075 2.438146 1.190579 -0.380030 0.122134 
古羅馬 0.511244 0.465958 -0.225182 -0.340095 0.346933 0.719498 2.247071 0.539697 1.428800 -0.250843 
永嘉 -1.405692 -0.418605 0.828499 -1.574471 -0.171162 -0.001912 1.496386 1.015773 0.701647 0.808257 
亞美利哥 1.580369 0.145025 0.041192 -0.870550 -0.969103 0.126276 2.551190 1.837292 -0.065971 -1.614917 
永吉 -1.562087 -0.108951 -1.051754 -0.207913 -1.964070 0.327183 0.517344 1.801068 0.195383 -0.603742 
卑南 -1.846997 -0.073118 -0.147224 -0.714611 -1.350651 -1.244071 2.017975 1.106318 0.098249 0.026279 
黃興 -0.910645 -0.997062 0.207446 -0.964664 0.539262 1.382248 0.373195 2.517703 0.881691 -0.841396 
都城 -2.068126 -0.190045 0.300576 -2.064317 -0.570145 -0.082301 1.470366 1.018986 0.661533 0.867439 
哈里發 0.895691 0.273277 0.850830 -1.325608 0.036691 0.524722 3.303108 1.322497 0.703714 1.046851 
漢文 -0.760421 -0.518171 -0.555091 -0.687444 -1.070878 -0.387987 1.279429 0.946157 -0.125989 -0.259656 
百年戰爭 1.247935 1.030845 0.116950 0.393403 -1.558619 0.450855 2.057890 1.326300 1.695453 -0.798171 
墨西哥 0.885660 -0.338114 -0.894070 0.608446 -0.828333 1.125153 1.665803 0.963264 0.445579 -0.951231 
腓尼基人 0.208781 0.903522 0.468084 -1.162382 -0.221882 0.468231 3.331660 0.693931 0.039396 0.758326 
明成祖 -0.735237 -0.209346 0.518596 -0.103343 -0.931629 0.457483 0.499708 1.146363 0.757944 0.092650 
柏林圍牆 0.077723 -0.272113 -0.627464 0.107098 0.656275 1.302586 1.232452 1.117121 0.623735 -0.484542 
河北 -1.141615 -0.432826 0.610390 -1.320217 -0.099899 0.738884 0.692093 1.531910 1.046657 0.546806 
臺東 -1.641001 0.052219 -0.707035 -0.512434 -1.511805 -0.747422 1.021882 1.560349 0.340791 -0.406007 
高雄市 -1.358885 0.043534 -0.999728 -0.502265 -1.459638 -1.102455 1.339596 1.476287 -0.219524 -0.855073 
北郊 -1.636833 -0.176705 -0.331002 -0.317628 -1.271105 -0.959842 0.965058 1.765353 0.268370 0.084203 
君 -0.273563 -0.495785 -0.387319 -0.071031 -0.230363 -0.192797 1.330801 0.866587 0.509662 -0.041882 
十字軍 0.385593 0.799798 -0.007990 -1.131441 0.896460 -0.007796 2.653333 0.517235 0.950656 -0.551594 
治國 -0.550346 -1.106799 0.441674 -0.697066 0.308663 1.038851 0.732754 1.867217 0.241633 -0.197833 
革命黨 -1.308336 -1.233968 0.372517 -0.929392 1.041954 1.426662 0.399205 2.514337 0.726142 -0.561960 
城鎮 0.233341 0.247584 -0.235213 0.319613 -0.377843 0.253179 2.410513 0.965507 0.756012 -0.347125 
高雄港 -0.950413 -0.015983 -0.725402 -0.239196 -1.438065 -0.314852 0.608820 1.185096 0.465665 -0.301274 
燕 -1.270109 -1.267448 0.341686 -1.752319 -0.045960 0.007371 1.718311 1.025431 0.804859 1.110349 
太陽神 -0.312004 0.646263 -0.170219 -0.496156 -0.115797 -0.520028 3.241732 0.187923 0.815587 0.762845 
羅馬公教 0.379969 0.510346 -0.046011 -0.678330 -0.032037 -0.410081 3.128592 0.741350 1.572237 -0.772706 
天文 0.270024 0.721752 0.234191 -0.642582 -0.481335 0.206809 2.422393 0.574990 0.458650 0.036399 
大沽 -0.208973 -0.383248 1.436115 -0.705225 -1.687452 1.453136 0.697647 2.369889 1.412860 -0.764246 
楔形文字 -0.001776 0.750126 1.100413 -0.993371 -0.227192 -0.118168 3.925911 0.960323 0.431905 1.343737 
孫權 -1.739133 -0.874094 0.117383 -1.427334 0.413906 0.211804 1.589055 1.290359 1.747215 1.222537 
江戶 -0.648609 0.066916 -1.255451 0.193336 -2.144129 0.160244 1.248158 1.224922 0.563511 -1.448953 
西西里 0.315316 0.663544 -0.049167 -0.414966 0.312265 1.050927 3.023658 0.882828 2.225866 -0.904110 
玻利瓦 1.143555 -0.169643 -0.786763 -0.213606 -0.695741 0.692141 2.520381 2.141050 0.217887 -1.738075 
黃玉 -1.645630 -0.797387 -0.220494 -0.598036 -1.126894 -0.817256 1.386486 1.306577 -0.064647 0.216601 
社會變遷 -0.679550 -1.167940 -0.008271 -0.679839 -1.265666 0.105615 0.416953 1.810579 -0.302479 -0.518029 
康 -1.394303 -0.070950 0.053409 -0.823578 -0.291702 0.873783 0.477151 1.974983 0.433922 -0.115444 
臺中市 -1.537399 -0.344446 -0.589963 -0.638519 -0.947788 -0.465978 1.031320 1.581560 0.058600 -0.003939 
雲漢 -2.095918 -1.755494 0.476180 -0.045611 -1.415688 0.588740 0.716645 2.896522 -0.006511 1.145876 
長崎 -0.378058 0.324797 -1.566590 0.473880 -2.177320 0.553790 1.061092 1.783169 0.072898 -1.801372 
國民會議 0.109395 0.148940 0.224739 1.048580 0.358053 0.822024 2.582030 1.888408 1.095766 -0.693781 
塞爾柱 -0.109300 0.838426 0.656502 -0.732606 0.305663 0.900383 3.867677 0.925192 1.016888 0.601254 
光緒帝 -0.467605 0.253348 0.786680 -0.826304 -1.033881 1.511550 0.173172 2.447707 1.057682 -0.634234 
索菲亞 0.517274 0.480045 0.452754 -0.950782 1.006580 0.787245 3.061464 0.789608 1.495894 0.309701 
靖康 -1.770034 -0.207924 0.274154 -1.825787 0.045868 -0.659549 1.971266 0.639203 0.817922 0.232223 
藩 -1.109863 -0.093429 0.088781 -0.328331 -0.804424 -0.381879 0.921443 1.205295 0.571254 -0.385640 
匈牙利 -0.103746 0.617156 -0.288146 0.274909 0.235987 1.516831 2.476053 0.713836 1.899423 -0.331726 
尼 0.861834 0.391412 0.269891 0.099097 -2.002137 -0.130108 2.205945 1.224858 0.367075 -0.343320 
緬甸 -0.062644 0.421086 -0.648150 0.825721 -2.242463 0.437298 0.889762 1.565695 0.354937 -0.369587 
恆春 -1.489135 -0.073739 -0.878873 -0.015976 -1.469560 -0.646491 0.385831 1.255134 0.279473 -0.388043 
西方人 -0.049562 -0.353511 0.352661 -0.238841 -1.334936 -0.069936 1.221726 1.087285 0.100595 -0.264931 
顏思齊 -1.610183 -0.308233 -0.876904 0.145260 -1.608599 -0.529111 1.664978 2.074996 -0.318934 -0.651411 
寶 -1.790842 -1.523223 -0.129103 -0.476081 -0.613840 -0.344835 0.495165 1.655313 0.109861 0.601200 
二次革命 -0.815766 -0.769561 0.639880 -0.949973 0.707314 1.718435 0.778285 2.053698 1.110042 -0.798546 
大西洋 0.791470 0.481756 -0.006226 0.393162 -1.111796 0.523375 2.348792 0.977586 0.248652 -0.752105 
蔣經國 -1.291147 -1.234691 -0.708343 -0.167221 -1.223791 0.395800 0.666637 2.210776 0.002251 -0.390406 
阿美族 -1.545937 0.284977 -1.172748 -1.778001 -0.820271 -0.489550 1.945261 1.841957 -0.474558 -0.016048 
班固 -0.091884 0.063709 0.260307 -0.686028 0.095816 0.203835 1.211394 0.503623 0.368959 0.320870 
查理一世 1.506940 0.767131 0.293880 -0.359803 -0.817383 -0.330369 2.834347 1.087107 0.964093 -0.880169 
鹿皮 -0.136803 0.064673 -0.850010 0.150570 -2.271686 0.424697 1.173941 1.803532 -0.320829 -1.315965 
小亞細亞 0.007285 0.683446 0.611429 -1.224172 0.543495 0.694379 3.189505 0.692257 0.798850 0.841921 
泰雅族 -1.761462 0.501560 -1.686555 -1.680242 -0.794033 -0.619936 1.903448 1.185474 -0.527037 -0.114545 
英文 0.171751 -0.198945 0.301695 0.364124 -0.450130 0.070604 0.832269 1.002334 0.662516 -0.151816 
唐太宗 -1.037440 -0.380080 0.699649 -2.511744 -0.293524 0.095788 1.602478 0.761417 0.314630 1.451825 
腓特烈二世 -0.266735 1.286418 -0.250807 1.362554 -0.579184 0.540032 2.599732 0.405375 1.709766 0.317678 
文武 -1.239376 -0.109754 -0.674329 -0.424753 -0.589144 0.102481 0.610641 1.533936 0.637065 -0.698236 
九一八事變 -1.185605 -0.303908 -0.385864 -0.147888 -1.209591 1.862448 0.012534 2.112219 0.563162 -0.861705 
新港 -0.431988 0.565921 -1.329029 -0.391195 -1.088820 -1.308800 1.762949 0.715103 -0.495032 -1.622862 
黃巢之 -2.013788 -1.200600 0.805230 -1.046409 -0.574162 -0.182080 1.788977 1.019975 1.083151 0.804349 
光榮 0.908696 0.058270 0.032339 -0.190085 0.116995 0.822112 1.846445 0.658526 1.039464 -0.446239 
市民階級 0.610238 0.424558 -0.147095 -0.336953 0.017510 0.110324 2.656671 0.466946 0.953012 -0.827710 
二戰 0.003299 -0.470477 -1.442923 0.402628 -0.396119 1.667572 1.440936 1.448444 0.957469 -0.971982 
印度洋 0.417284 0.206996 -0.311589 -0.337219 -0.851115 0.269914 1.043505 0.909574 -0.691078 -0.407270 
武昌 -1.237295 -0.709116 0.605996 -1.137759 -0.020615 1.370539 0.238224 2.379978 1.120155 -0.216818 
嘉義 -1.812977 -0.108341 -0.785553 -0.419727 -1.132779 -1.179093 1.108657 1.352855 0.072105 -0.212061 
智慧 -0.541892 0.218701 -0.133318 -0.970707 0.409061 0.226955 2.029087 0.662922 0.635200 0.755136 
臺灣島 -1.240385 0.156742 -1.379059 -0.368814 -1.843198 -0.830712 0.664880 1.426143 -0.598138 -0.956575 
唐三彩 -1.559667 0.104381 0.735693 -2.895825 0.487884 1.670668 1.923934 0.578823 0.632049 1.047618 
南北戰爭 0.911149 -1.440451 -1.208193 0.122047 -0.808100 0.892638 1.547027 1.598623 0.982715 -1.755754 
獨立戰爭 1.174981 -0.495946 -1.019436 0.873227 -1.023144 1.022309 1.799214 1.495339 0.957789 -1.523395 
臺灣電力 -1.452325 -0.144148 -0.652237 -0.440182 -1.331209 0.009870 0.688941 1.031853 0.153284 -0.228055 
新大陸 0.905809 -0.370436 -0.156276 -0.270895 -1.245785 -0.074343 1.990736 1.797418 -0.517772 -1.534204 
福爾摩沙 -0.504772 0.216045 -0.856554 -0.116080 -1.361974 -0.853520 1.703128 1.257945 -0.217324 -1.349453 
花蓮 -1.271648 0.141119 -0.712293 -0.829850 -1.005734 -0.636375 1.391942 1.260220 0.065713 -0.186363 
曹 -1.027358 -0.416967 -0.240277 -0.370680 -0.909622 -0.630291 0.940524 0.909662 0.404088 -0.274071 
郭懷一 -0.604061 0.293326 -0.865481 -0.104383 -1.761968 -1.333619 1.776853 0.987015 -0.050145 -1.923684 
莎士比亞 0.470904 0.502770 -0.362349 -0.243323 -0.414894 -0.123497 2.539486 0.857118 0.736958 -0.865085 
南明 -1.267493 -0.344967 0.649175 -0.458365 -0.746740 -0.380211 0.563545 1.468696 0.358194 -0.376211 
亞述 -0.646986 0.793177 1.163250 -1.077693 0.127734 0.154688 3.409242 0.702234 0.605690 1.375985 
魏孝文帝 -2.231979 -0.553522 0.186804 -0.935486 -0.934814 -1.003414 1.715582 1.159236 0.824253 0.595975 
安徽 -0.917296 -0.314441 0.875154 -1.220219 -0.477112 1.143661 1.102791 2.009027 1.356680 0.469960 
立體派 0.693907 -0.775672 -1.122032 -0.290840 -0.764045 0.306665 1.487300 1.698692 0.344357 -1.871684 
摩尼教 -0.101586 -0.601380 1.290589 -2.130138 -0.105368 0.687376 2.179537 0.933818 0.511819 1.134553 
玉米 0.503743 -0.223492 0.088736 -0.587782 -0.340302 0.049278 1.487537 1.358359 -0.644147 -0.535955 
屋大維 -0.073909 0.843761 0.080910 -0.099682 1.048263 0.687548 2.646600 0.408397 1.015745 -0.256289 
神聖 0.424854 0.589650 -0.052737 -0.629076 0.155379 -0.001979 2.516136 0.639575 0.691125 -0.104473 
朝鮮半島 -0.672432 -0.641224 -1.084723 -0.168922 -1.032054 1.552943 0.645687 1.227602 0.465233 -0.308102 
西柏林 0.318144 -1.129728 -1.060855 0.080669 -0.240751 1.424118 1.308439 1.384423 0.406280 -1.161891 
耶和華 -0.978919 0.849679 -0.351076 -1.494120 0.576230 0.060886 3.696983 0.656058 0.513136 1.047218 
孟德斯鳩 0.384437 -0.315490 -0.171052 0.401606 -0.812660 0.166384 1.750437 0.857140 0.875965 -0.346118 
下議院 1.435073 0.108331 -0.395986 0.356736 -1.133878 -0.094217 2.098340 1.465798 1.164358 -0.997668 
法老 -1.225930 0.577718 0.020551 -1.089587 -0.263721 -0.058496 3.530987 0.507145 0.633008 1.264547 
狄德羅 0.613228 0.305790 0.183727 0.193693 -0.427324 0.362558 1.759691 0.729579 0.996508 -0.152060 
杭州 -0.952443 -0.599296 0.428588 -0.907639 -0.540141 0.135896 0.532244 1.786977 0.704746 -0.123969 
成吉思汗 -1.204996 0.997955 1.051290 -0.771291 0.259567 1.705326 1.892128 0.632881 0.707303 -0.311877 
河姆渡 -1.165293 -0.077013 0.436499 -0.781501 -0.629768 -0.017426 0.813875 1.371738 0.658893 0.787317 
亞里斯多德 -0.487403 0.052534 0.347049 -1.022783 0.748048 -0.455387 2.756996 0.391093 1.101051 0.675754 
漢摩拉比法典 -0.341801 0.930869 0.782666 -0.613330 -0.210363 0.066203 3.681913 0.457967 0.594946 1.175966 
陝西 -1.147920 -0.181333 0.371430 -1.541007 -0.336210 0.632381 1.590462 1.564398 0.805820 0.707077 
瑞士 0.378770 0.163612 -0.560324 0.766165 -0.504750 0.788027 1.418832 1.086905 1.171036 -1.348220 
朝野 -0.820810 -0.393411 -0.126128 -0.481371 -1.030204 0.937605 0.718078 1.737892 0.371034 0.170772 
隋文帝 -1.504645 -0.457594 0.588238 -1.890773 -0.078769 0.027923 1.713749 1.153164 0.576771 1.057747 
萬曆 -0.530559 -0.156806 0.040519 -0.761437 -1.518284 -0.780039 1.001034 1.666545 0.186839 -0.481545 
兒玉源太郎 -1.341926 -0.375083 -1.232728 -0.508443 -1.621544 0.236559 0.229397 2.168513 0.606855 -0.914128 
人權宣言 0.783265 -0.029945 -0.154231 1.022098 -0.325051 0.725592 2.831964 1.614476 0.813656 -0.904119 
曼 0.554863 0.369618 0.188475 -0.108264 -0.035634 0.246191 1.734051 0.393398 0.910482 -0.001687 
蘇格拉底 -0.835855 -0.348282 0.141019 -0.972470 0.597850 0.083902 2.937805 1.227196 1.029116 0.870326 
巴格達 0.470226 0.368505 0.773282 -1.134753 -0.077210 0.529929 2.882299 1.115399 0.421902 0.557775 
王宮 -0.562480 0.955139 0.567767 -0.580974 -0.224641 0.278478 3.135484 0.490308 0.595034 0.944999 
文化的發展 -0.517771 -0.448574 -0.052852 -1.326024 -0.639024 0.265028 1.504097 0.745117 0.013878 0.338649 
阿美士 0.850376 -0.095604 0.009258 0.577813 -2.290944 1.009170 1.591690 1.157346 0.443190 -1.095361 
抗衡 -0.338085 -0.741890 -0.541992 0.040129 -0.327841 1.210410 0.415063 1.350328 0.715451 -0.288199 
馬志尼 0.017588 -0.458688 0.013845 -0.369386 1.083321 1.209207 2.413432 0.846470 1.897113 -0.398701 
沈 -1.089276 -0.338638 -0.810061 0.142861 -1.297064 -0.508455 0.924048 0.959774 -0.482514 -0.638043 
紐約 -0.162715 -1.283671 -0.727651 -0.096763 -0.317050 0.981317 1.147200 1.683794 0.442554 -0.618535 
李登輝 -1.133755 -1.028016 -0.780836 0.046310 -0.700690 0.498334 0.647715 2.103675 -0.336186 0.046969 
慕尼黑 0.137500 0.603538 -0.308177 0.496180 -0.472922 1.657893 1.449952 1.494017 1.547016 -0.350045 
安撫 -1.015086 0.259443 -0.373587 -0.459764 -0.636440 0.278363 1.018123 1.280465 0.788178 -0.097787 
斯拉夫 0.501467 0.456263 0.005227 -0.241061 0.376448 1.698726 2.376100 0.595395 2.188232 -0.175608 
紅毛城 -0.354090 0.203726 -0.694170 -0.073195 -1.991418 -0.607858 1.361354 1.512741 -0.240603 -1.405802 
穆罕默德 0.854991 -0.158374 0.754330 -1.584021 0.577925 0.921517 3.185531 1.219378 0.880613 0.781278 
普通 -0.675797 -0.114382 0.164494 -0.775450 -0.294762 0.412204 1.156200 1.299388 0.694282 -0.014251 
瓦特 1.328921 -0.290575 -0.007429 -0.008747 -1.316625 -1.524793 2.414940 1.908821 1.648316 -0.415867 
伯爵 1.054585 0.656415 -0.301492 -0.512615 -0.439122 0.165093 3.087302 0.913197 1.092211 -0.463441 
莫內 0.430049 0.350738 -0.457414 -0.299032 -0.366141 -0.063059 1.499537 0.617108 0.492843 -0.629600 
司馬光 -0.880034 0.070765 0.403582 -1.059877 -0.311257 -0.088794 1.454862 1.012287 0.780224 0.764180 
三級會議 0.256901 0.728943 0.318954 0.722153 -0.264078 -0.037438 2.809232 1.341193 1.260906 -0.416202 
海關 -0.267355 -0.049918 0.717953 -0.082991 -1.688570 0.352671 0.707294 1.718672 0.600240 -0.536169 
南京大屠殺 -1.626994 -0.432080 -0.478226 -0.228946 -0.919816 1.271246 0.183284 1.720197 0.927084 -0.252580 
西南 -0.905389 -0.184830 -0.154812 -0.154398 -0.810842 0.470018 0.719072 1.535125 0.506336 -0.472195 
迪南 0.711087 0.408997 0.290477 -0.065858 -0.349008 1.002184 2.077011 0.845262 1.430378 -1.107258 
臺灣地區 -1.405588 -0.377372 -0.739316 -0.452217 -1.219968 -0.414329 0.830237 1.701029 0.157980 -0.480601 
景教 0.029054 -0.457195 1.017698 -2.438009 -0.122488 0.442089 1.770427 0.441432 0.447285 0.620993 
海峽 0.503002 0.299075 0.097441 -0.259596 -0.770239 0.848273 1.478547 0.843206 0.463558 -0.105182 
羅馬教會 0.786030 0.689440 -0.004777 -0.478749 0.224871 -0.144224 2.523466 0.422047 1.631373 -1.021870 
古老 0.381779 0.428260 -0.119660 -0.408833 -1.081761 -0.297394 1.655434 0.753973 -0.326260 -0.273736 
滿洲 -1.134108 -0.047365 -0.189551 -0.247093 -1.097582 1.575689 0.458056 1.120101 0.571689 -0.610056 
福建省 -1.132335 -0.455463 -0.412138 -0.434998 -1.310813 -0.672025 0.850334 1.818223 0.066225 -0.265349 
科考 -1.291532 -0.487083 0.432421 -0.994662 -0.414727 -0.167276 0.624323 1.279623 0.360755 0.455868 
項羽 -0.623018 -0.522541 -0.157874 -1.061445 0.125069 0.190116 1.431295 0.572671 0.686426 0.447335 
廣島 -0.827669 -0.665812 -1.636831 1.314808 -1.469905 1.236473 0.874327 1.634319 0.271618 -0.456966 
丹麥 0.143190 0.717805 -0.343060 1.277348 -0.771262 0.895164 1.766924 0.523076 1.374817 -0.920677 
張之洞 -1.103661 -0.075714 0.548234 -0.664726 -0.827508 1.263057 0.041745 2.269424 1.011567 0.094945 
邦國 -0.203248 0.842089 0.081214 0.460432 -0.120648 0.798224 2.068217 0.940495 2.101740 -0.322358 
孟子 -0.654436 -0.358230 -0.261553 -0.930434 0.266671 -0.133926 1.557494 1.105486 0.654253 0.523825 
歸納法 0.878721 0.372906 -0.267755 -1.011499 -0.300301 -0.390627 2.598255 1.279522 0.770974 -0.619084 
開山 -1.631557 -0.178136 -0.533033 -0.559981 -1.211843 -0.721445 0.811514 1.530375 0.524718 -0.072333 
拉斐爾 -0.163559 0.539559 0.279967 -0.709289 0.017328 -0.029653 2.643138 0.252935 1.233693 -0.164816 
馮國璋 -0.716718 -0.585975 0.603831 -1.142610 -0.004432 1.519955 0.212136 2.325848 1.354770 -0.979698 
大族 -1.220164 -0.136041 0.016589 -0.938071 -0.568624 -0.206997 1.299021 1.026280 0.314308 0.466818 
荊州 -1.626758 -0.551171 0.260693 -1.234219 0.260307 0.132937 1.730091 1.368661 1.554879 1.230618 
成都 -1.313414 -0.712141 0.435368 -0.863480 -0.579473 0.166695 0.347850 1.685613 0.781645 0.679645 
希臘化 0.021783 0.476346 0.477697 -1.267790 0.673199 0.528077 2.859736 0.704036 0.945103 0.638378 
阿利安人 0.907853 0.408306 0.082364 -2.024840 -1.218383 0.875426 2.352914 1.132735 0.137438 0.362646 
上臺 -0.455281 -0.179551 -0.673229 -0.072603 0.001727 1.087474 0.873384 1.400731 0.357522 -0.302982 
劉少奇 -0.711928 -0.504854 0.437297 -0.385907 1.159749 1.485651 1.553843 2.748548 0.631836 0.864615 
社會秩序 -0.585436 0.154733 -0.026530 0.164918 -0.136186 0.206378 1.633771 1.105742 0.340181 0.281830 
種姓制度 1.092362 0.057398 0.102625 -2.162701 -1.791827 1.283927 1.524088 1.388875 -0.387760 0.057171 
童 -0.251722 -0.019439 0.254705 -0.389713 -0.564926 0.060529 0.640928 0.662647 0.043886 -0.327991 
京城 -1.566255 -0.370075 0.205553 -1.258938 -0.935287 -0.024951 1.113984 1.811466 0.763855 0.431992 
史綱 -0.599443 -1.518968 1.196232 -0.611778 -0.201236 0.175893 0.385936 1.617522 0.265365 0.037738 
沿海地區 -0.524522 -0.207344 0.047564 -0.375349 -1.295605 -0.192487 0.512029 1.301406 0.064809 -0.436597 
貝多芬 0.102001 0.097076 -0.436504 0.373363 -0.509298 0.091257 1.940493 1.058881 0.813461 -0.315430 
中西 -0.063549 0.001381 0.649794 -0.935090 -0.854845 0.250872 0.815706 0.961109 0.607109 -0.027399 
大屠殺 0.158457 0.336350 -1.078374 -0.267966 0.157043 1.524526 1.131304 0.970988 -0.011420 0.083377 
立國 -0.620618 -1.098483 0.249354 -1.125279 -0.307345 -0.058088 1.036022 0.962806 0.325873 0.727534 
歸順 -1.423748 0.128202 -0.458393 -0.702983 -0.497267 0.776013 0.442634 1.360100 0.625520 -0.131199 
小國 -0.777638 -0.629813 0.038336 -0.105190 -0.383088 -0.379721 1.566061 0.462281 0.734928 0.292375 
閩南語 -1.281003 -0.452853 -1.013843 -0.805129 -1.058669 -0.337585 0.911978 1.509799 -0.450727 -0.380314 
梁武帝 -0.965422 -0.136103 0.283177 -1.738068 -0.438592 0.047133 1.408835 0.919987 0.467340 0.626495 
賽 -0.317718 -0.240676 -0.341143 -0.247366 0.337915 1.020033 1.096067 1.310304 0.428944 0.084225 
保安 -1.218876 -0.064446 -0.423774 -0.701499 -1.227471 -0.409574 0.915819 1.092227 0.097253 -0.172166 
黨爭 -0.916959 -0.211850 0.414682 -0.757476 -0.602106 -0.095394 1.075542 1.192609 0.758532 0.703869 
莊 -0.936076 -0.186337 -0.348432 -0.604907 -0.580901 -0.221248 1.320836 1.015984 0.440339 -0.095637 
三民主義 -0.523210 -0.995689 0.138067 -0.499242 0.420778 1.057060 0.337175 1.913774 0.367852 -0.676996 
巴爾幹 0.356067 0.011326 -0.583524 0.292200 -0.139676 1.178486 1.967072 0.552774 1.509123 -0.570480 
捷克斯洛伐克 0.346575 0.654232 -0.547863 0.691852 -0.763441 1.495652 1.690838 1.059614 1.866763 -0.861882 
黃河 -1.608242 -0.505170 0.144206 -1.068261 -0.859018 -0.012253 0.603506 1.560077 0.597079 0.519823 
華盛頓 0.290436 -0.966074 -0.982267 0.171118 -0.604342 0.884771 1.167113 1.657880 0.341644 -0.768421 
克麗奧佩 -1.327763 1.370900 0.014751 -0.391730 -0.211403 -0.202975 3.532887 0.233571 0.569144 0.656454 
利瑪竇 0.395610 0.183413 0.403872 -0.565644 -0.690721 -0.228078 1.850989 0.767488 0.506034 -0.700041 
和談 -0.645824 0.199667 -0.087050 -0.060160 -0.529175 1.317380 0.454507 1.419256 1.120222 -0.097374 
達文西 0.176281 0.743585 -0.061449 -0.673699 -0.103804 -0.193095 2.723909 0.075742 1.140047 -0.544132 
瀋陽 -1.022386 -0.200154 -0.429350 -0.187123 -0.999433 1.528895 0.488926 1.473063 0.637043 -0.505035 
王后 0.444567 0.908258 0.097810 -0.208661 -0.205084 -0.490277 2.912342 0.701893 1.183434 -0.619491 
安平古堡 -1.145394 0.293536 -1.014469 -0.295448 -1.324142 -0.945058 1.795463 1.312756 -0.488549 -1.156394 
麥田 0.083556 -0.944778 0.206231 -0.053889 -0.254802 0.179587 1.143826 0.562058 0.325718 0.632804 
廖添丁 -2.242658 -0.165915 -0.914567 -0.318619 -1.033122 -0.591684 1.550522 1.528993 0.799152 0.049586 
澎 -0.906181 -0.052092 -1.108364 -0.064691 -1.170301 0.252901 0.624518 1.372166 -0.341043 -0.877443 
通訊 -0.645858 0.209439 -0.787099 0.085212 -1.217663 0.094929 0.547190 1.191054 0.325508 -0.618195 
喬治 0.937432 0.004838 -0.527517 0.456738 -0.635457 0.899657 1.612509 1.494547 0.931701 -0.821184 
中東 0.717712 -0.002068 -0.201734 -0.122035 -0.414760 0.882308 1.125286 0.921587 -0.241273 0.017264 
司馬遷 -0.125239 -0.293868 0.413482 -0.703580 0.033739 0.350174 0.407308 0.440836 0.163450 0.503470 
米開朗基羅 0.191177 0.696633 -0.144788 -0.646322 0.390669 0.335691 2.841027 0.287200 1.515016 -0.399505 
遼東半島 -1.204208 0.000218 -0.506208 0.534042 -1.871950 1.236609 0.551998 1.409164 0.227251 -0.401177 
王攘夷 -0.528977 0.281824 -0.217898 -0.023921 -0.896650 -0.024893 1.412162 0.788116 0.672652 -0.333493 
新加坡 -0.306426 -0.070207 -0.205785 -0.086366 -1.044930 0.269972 0.402482 1.618524 0.333485 -0.267311 
美索不達米亞 -0.739225 0.866018 0.438245 -1.231771 -0.520459 -0.404954 3.255394 0.586548 0.063375 1.192397 
權利法案 1.316270 0.228815 -0.202990 0.664411 -1.454072 -0.095527 2.151365 1.463433 0.979806 -0.981632 
顧問 0.199168 -0.378477 -0.262214 -0.156412 -0.525613 1.058835 1.003274 1.546711 0.192814 -0.902745 
十年建設 -1.420380 -0.708255 -0.546255 -0.403551 -0.524238 1.101228 -0.270316 2.182604 0.327112 -0.296659 
太平 -0.680952 0.078781 -0.441906 -0.904649 -1.242642 -0.133844 0.966883 1.223227 0.714294 -0.576625 
歐陸 0.335175 0.491435 -0.571375 1.107205 -0.923532 1.295283 1.664671 1.387264 1.073192 -1.167948 
博 -1.245077 -0.884814 0.428503 0.285377 -1.158139 -0.298219 0.208614 1.345334 0.813304 0.672067 
柏拉圖 -0.501813 -0.281946 0.096949 -1.141996 0.708148 -0.058476 2.749882 0.698030 1.050310 1.051017 
甘 -0.535296 -0.879840 -0.318938 -0.738508 -0.603464 0.017873 1.162154 1.649487 0.056299 -0.226335 
伊比利半 1.141328 0.331815 0.356365 -1.049281 -0.299985 0.034612 2.407540 0.906259 0.797434 -0.625153 
美的 0.042656 -0.482607 -0.801598 -0.440872 0.170155 1.243443 1.655842 0.826729 0.632695 0.061936 
蘇格蘭 0.934911 0.372719 0.160387 -0.001478 -0.954009 -0.566515 2.284593 0.992160 1.229154 -0.473542 
阿富汗 1.382646 -0.437166 0.108019 -0.393885 -0.385032 2.247538 1.542579 0.991996 -0.004258 0.176924 
托勒密 -0.588828 0.763312 -0.124081 -0.856050 0.235968 -0.290514 2.496990 -0.066157 0.029642 0.014299 
朱熹 -0.466489 -0.052964 0.215147 -1.381508 -0.177013 0.154171 1.002485 1.221790 0.541408 0.175370 
阿里山 -1.309971 0.018582 -0.466023 -0.516615 -1.242021 0.111855 1.134702 1.314086 0.222624 -0.319617 
吉 -0.305370 -0.210569 0.246458 -0.851449 -0.263203 0.249231 1.666872 0.939877 0.551155 0.006083 
釋迦牟尼 1.009218 0.208086 0.342387 -2.077939 -1.263264 0.818493 2.351887 1.173940 -0.142548 0.107432 
施 0.012536 0.249302 -0.295147 -0.279014 -0.159319 0.137651 1.307812 0.614771 0.652716 -0.030589 
史詩 0.129967 0.223458 -0.225141 -0.545550 0.234196 0.004160 2.372620 0.570003 1.209586 0.429886 
宋元 -0.483254 -0.534620 0.321939 -0.758062 -0.621624 -0.052008 1.166608 0.809163 0.176307 0.480328 
三權分立 0.599379 -0.564622 -0.231179 0.375359 -0.974036 -0.148152 1.562459 0.896603 0.402525 -0.706199 
杜魯門 0.075315 -1.232502 -1.220490 0.004627 -0.364492 1.293088 0.860006 1.606500 0.171745 -0.839850 
朱元璋 -0.839149 -0.468360 0.011733 -0.346892 -0.293686 0.495004 1.492225 1.355349 1.075686 0.037569 
王爺 -0.634423 -0.179494 -0.158321 -0.542082 -0.473410 -0.226972 1.232386 0.769966 0.301196 -0.022797 
十二表法 -0.016391 0.457680 0.434104 -0.627675 0.819700 0.778306 2.259409 0.596107 0.689911 -0.217496 
漢字 -0.952345 0.154052 -0.708027 -1.527110 -0.279328 -0.337925 1.757537 0.818700 -0.320904 -0.194919 
蘭陽 -1.342315 0.203886 -0.752577 -1.466246 -1.053389 -0.687033 1.537863 0.955918 -0.004784 -0.083624 
英格蘭國教 0.691263 0.619194 -0.011161 -0.019617 -0.853619 -0.488806 2.223602 0.789773 1.240452 -0.879178 
普羅民遮城 -0.781725 0.118463 -0.880721 -0.123438 -1.670253 -0.607782 1.680646 1.390364 0.071024 -1.190462 
大城市 0.045771 -0.275595 0.545671 -1.044474 -0.627730 0.387631 0.775760 0.917877 0.293747 0.048264 
渡海 -0.421421 0.171695 -0.389975 -0.380911 -0.631797 -0.248240 0.769122 0.863881 -0.282655 -0.341899 
興城 -1.525852 -0.266778 0.263826 -1.966301 -0.360586 0.392310 1.825757 1.361271 0.752017 0.820985 
唐玄宗 -1.432060 -0.974586 0.895746 -1.792699 0.081011 0.442738 1.176399 1.010409 0.565711 1.168859 
王維 -1.336611 -0.564639 0.048603 -1.864441 0.144592 -0.296237 2.065255 0.965269 0.589297 0.737681 
印加 0.335295 0.260883 0.391135 -0.928449 -0.847586 -0.599717 2.454313 0.759187 -0.365829 -0.675834 
鄂圖曼土耳其人 0.819419 0.557945 0.448438 -0.922234 1.124501 0.720894 2.533856 0.335077 1.516456 0.162414 
蘇軾 -0.348258 0.060763 0.134063 -1.180597 -0.083641 0.111905 1.190142 1.217157 0.805238 0.349573 
北平 -0.424101 -0.286645 0.377727 -0.557372 -0.886997 0.638145 0.550541 1.221955 0.720596 -0.302572 
三皇 -0.518857 -0.454873 0.579431 -0.121755 -0.467964 0.627154 1.288427 0.723605 0.436780 1.125262 
張靜江 0.060763 -0.037375 0.100615 -0.130537 0.075848 0.035211 0.097118 0.185239 0.183320 -0.103283 
壯丁 -1.248214 -0.147375 -1.081366 -0.359746 -1.279104 -0.179710 0.874862 1.479630 0.260378 -0.683093 
奧古斯都 0.245733 0.518122 -0.014651 -0.041281 0.721883 0.550369 1.866379 0.205674 0.895192 -0.052132 
君權神授 0.926833 0.562373 -0.339640 0.017194 -0.870607 -0.203655 2.268315 0.744834 0.520923 -0.582659 
希臘文化 -0.211619 0.585312 0.225731 -1.004869 0.847584 0.581452 2.964925 0.521725 1.031279 0.772034 
泉 -1.128251 -0.132686 -0.217943 -0.376696 -0.556481 -0.112382 0.582776 1.199305 -0.014086 -0.119601 
清教徒革命 0.754469 0.534637 0.189677 0.130354 -0.689615 -0.056837 2.506207 1.232741 0.941294 -0.941081 
張伯倫 0.382901 0.475011 -0.560929 0.573918 -0.634472 1.449078 1.693014 1.377342 1.509825 -0.405558 
何謂 0.092509 -0.053864 -0.243936 -0.272996 -0.578196 -0.066138 1.431115 1.182995 0.191817 -0.320766 
練兵 -0.745188 -0.356997 0.440771 -0.729535 -0.159217 0.905224 0.515263 1.459823 0.820408 -0.198275 
歐亞 0.316236 0.066610 -0.230408 -0.443938 -0.236177 1.336516 1.143733 0.866457 0.151808 -1.195111 
建安 -1.251094 -0.430486 -0.238668 -1.078094 0.447699 0.362540 1.667776 1.165311 1.559649 0.838398 
王子 0.263656 0.804182 -0.203257 -0.352032 -0.358415 -0.094578 2.086043 0.627592 0.921506 -0.292978 
範圍圖 -0.766018 0.847531 -0.322984 -0.634650 -1.550535 -0.130700 1.891366 1.021366 0.101588 -1.076126 
卑南族 -1.290015 0.490997 -1.151664 -1.583297 -0.443081 -0.552180 1.491154 1.225594 -0.847314 0.154061 
太平洋戰爭 -0.216368 -0.595347 -0.738282 0.077748 -0.895541 0.870979 0.718578 1.277155 0.353941 -0.620909 
發動戰爭 0.466116 0.588975 -0.028436 0.461894 -0.526774 0.948431 1.916899 0.723245 0.793175 -0.422826 
劍橋 -1.127642 -1.151618 0.504421 -0.243982 -0.954292 0.031733 0.397449 1.339287 0.198813 0.010473 
重慶 -0.631332 -0.841937 -0.704985 -0.258131 -0.599139 0.980385 0.273499 1.798936 0.563051 -0.582076 
梵谷 0.435346 0.321773 -0.165731 -0.524555 0.038756 0.312316 1.234449 0.358150 0.600533 -0.532816 
華北 -1.090449 -0.418751 0.259614 -0.654211 -0.708248 0.912686 0.082755 1.598134 0.927181 -0.167193 
新舊 -0.645972 -0.086846 0.329517 -0.769594 -0.778442 -0.338787 1.167900 1.123315 0.674693 0.332274 
江 -0.737481 0.112342 0.173839 -0.608099 -0.503647 0.351247 1.050531 1.091321 0.645126 0.034742 
新約 -0.283241 0.454580 -0.614658 -0.548932 0.079077 0.510268 1.110784 0.509162 0.914517 -0.813931 
望遠鏡 0.177507 0.960638 -0.582102 -1.076295 -0.205588 -0.919865 2.559921 0.063765 0.527794 -0.845513 
立法權 -0.338453 -0.458239 -0.582372 0.086182 -0.612581 0.124381 0.804035 1.448179 -0.078794 -0.730574 
紫禁城 -0.780027 -0.269557 0.685681 -0.382164 -0.981841 0.608822 0.586366 1.460177 0.478285 -0.378253 
開國 -0.934753 -0.320501 -0.030721 -0.995220 -0.411269 0.031033 1.349223 1.082359 0.691301 -0.027141 
楊堅 -1.284009 -0.388152 0.516167 -1.336041 -0.006688 0.134043 1.488066 0.889279 0.803459 1.022456 
修道院 0.233076 0.453949 -0.144506 -0.542966 0.089756 -0.341435 2.311936 0.224365 0.781797 -0.404386 
愛琴海 -0.045080 0.053774 0.758491 -1.175232 0.259725 0.374362 3.060179 0.907606 0.532377 0.850002 
開皇 -1.135737 -0.308893 0.815294 -1.855799 0.487317 0.148411 2.000857 0.900106 0.783142 1.013563 
顏真卿 -1.371665 0.038845 0.369238 -2.069550 0.057970 0.192881 1.732044 1.003855 0.612897 0.694867 
嘉南 -1.324362 -0.141724 -1.012512 -1.080986 -1.176158 -0.653228 0.890906 1.055607 0.013951 -0.196553 
汴京 -1.119145 -0.013036 0.292346 -1.355284 -0.167001 -0.271159 1.553146 0.883174 0.496955 0.163852 
尼亞 0.201702 0.647163 -0.103270 -0.299938 -0.179633 1.243194 2.069325 0.398599 1.422964 -0.086018 
立憲派 -0.881246 -0.395971 0.069517 -0.385195 -0.252951 0.298827 0.581687 1.438012 0.388437 0.129291 
景德鎮 0.058122 -0.128253 0.081512 -0.263127 -1.129595 -0.000020 1.067373 1.450510 -0.195095 -0.628451 
雅典娜 -0.194209 -0.185662 -0.411718 -0.956147 0.823133 0.160131 2.260650 0.613351 0.872957 0.783718 
江青 -0.735612 -0.387378 0.657894 -0.811739 0.873491 1.236377 0.815364 2.023960 0.648630 0.781789 
榮耀 -0.164687 0.129526 0.071984 -0.449689 -0.374745 -0.146026 1.956161 0.628086 0.837911 -0.015333 
山林 -1.339290 -0.193306 -0.475435 -0.707937 -1.176091 -0.141358 0.917385 1.726327 0.047262 -0.248540 
開元 -1.546577 -0.499266 0.538450 -1.377496 -0.040416 0.204867 1.645528 0.975299 0.810873 0.898610 
容納 -0.110597 -0.059280 -0.038536 -0.727870 0.289288 0.243139 2.063104 0.734581 0.654937 -0.222181 
秦王 -0.750129 -0.063744 0.513385 -1.362249 0.141680 -0.265768 1.630434 0.747631 0.575362 0.641962 
郡縣 -0.716738 -0.175046 0.357369 -1.058385 -0.077122 0.202551 1.605163 0.833068 0.549231 0.574870 
許可 -0.645995 -0.367332 -0.438221 0.142014 -0.811433 0.459791 0.443295 1.433853 0.039852 -0.814114 
高山族 -1.088919 -0.068542 -0.912471 -1.074775 -1.044702 -0.740983 1.023957 1.494627 -0.603802 -0.767602 
黃河流域 -0.622986 -0.349427 0.694149 -0.761794 -0.540514 0.604514 0.739301 1.275124 0.290300 0.603146 
隋煬帝 -1.326115 0.010736 0.269816 -1.438971 0.189095 0.614033 1.920466 0.814234 0.969524 0.784752 
上古 -0.326567 -0.746549 0.846089 -0.242717 -0.290772 -0.214102 1.480365 0.408524 0.457565 0.990995 
行會 0.706191 0.449844 -0.584589 0.203150 -0.441804 0.236924 1.868976 1.130148 0.591787 -1.094993 
小琉球 -0.918014 0.113853 -0.608760 -0.415856 -1.317099 -0.292928 1.739892 1.442280 0.146734 -0.853179 
笛卡兒 0.663155 0.310492 -0.253068 -0.574573 0.018660 -0.550996 1.900751 0.971353 0.586214 -0.630386 
馬加爾 0.789049 0.010914 0.162747 0.111247 -1.561483 -0.369205 1.658212 1.283450 0.135909 -0.475194 
長大 -0.468820 0.408086 -0.435822 -0.465405 -0.080792 0.227688 2.482632 0.476763 1.003111 0.052172 
加拿大 0.442297 -0.114820 -0.421690 0.360401 -1.264872 0.394820 1.052333 1.128832 0.414608 -0.852902 
馬尼拉 -0.186442 0.183310 -0.686652 -0.169703 -1.342980 0.026733 1.241161 1.361470 -0.123849 -1.143139 
猶太教 -0.073884 0.731182 -0.224880 -1.469227 0.624752 0.334880 2.866969 0.485894 0.989783 -0.072277 
中英 0.130907 -0.342992 0.510228 -0.368846 -1.337245 0.578056 0.527586 1.943736 0.887307 -0.470892 
西拉雅 -0.853004 0.332415 -0.832556 -0.895107 -0.254642 -0.615961 1.654438 0.736482 -0.164011 -0.358509 
伊斯坦堡 0.732549 0.048466 0.056938 -0.763476 0.081684 1.072410 1.739661 0.957108 1.030997 0.058608 
羅伯斯比 0.204015 0.495647 0.608866 1.090852 0.103644 0.735734 2.406355 1.081057 1.043400 0.003652 
欽 -0.891502 -0.033842 0.083058 -0.972568 -0.327709 -0.140845 1.542119 1.226822 0.600447 0.070473 
林彪 -1.088497 -0.474398 0.065614 -0.696239 0.434741 0.906557 0.705655 1.989279 0.590076 0.565802 
蘭嶼 -1.242076 0.408495 -0.885050 -1.288051 -0.617228 -0.488741 1.518460 1.398409 -0.563197 0.082073 
中斷 -0.418355 0.015948 0.136682 -0.225072 -0.381196 0.233874 0.720045 1.032153 0.559514 -0.137009 
祕魯 0.396831 -0.048142 -0.302967 -0.175023 -0.383359 0.353400 1.358680 1.080756 0.320301 -0.909133 
墨 -0.497416 -0.560270 0.111856 -0.650624 -0.197497 0.174777 1.362706 1.066654 0.675005 0.223581 
魯 -0.793645 0.017871 -0.260100 -0.402405 -0.385198 -0.476924 1.630887 0.265373 0.420682 -0.039447 
永曆 -1.297708 -0.276248 -0.674369 -0.451805 -1.120963 -0.749035 1.083659 1.573162 -0.174913 -0.472236 
紐 0.157717 0.168409 -0.062257 -0.702281 0.542505 0.321197 1.895017 0.450727 1.261996 -0.170356 
玄奘 0.558474 -0.193731 0.409379 -2.420359 -0.973007 0.655343 1.602232 0.947788 -0.264059 0.428639 
史前時代 -1.677702 -0.117308 -0.089862 -0.555212 -1.553115 -0.351246 0.841329 1.523885 -0.694909 0.433662 
遠古 -0.906409 0.023582 0.710391 -0.315767 -1.208218 0.206197 1.453710 1.308919 0.170652 0.863083 
廈 -1.273927 0.089390 -0.382026 -0.548748 -0.820108 -0.832062 1.110285 1.313878 0.376566 -0.453513 
東寧 -1.103443 -0.163273 -0.475838 -0.269529 -0.856739 -0.350294 0.688398 1.303263 0.340782 -0.426148 
寧漢 -1.046696 -0.807878 0.114008 -0.956192 -0.163425 1.540216 0.350199 2.409607 1.102072 -0.179351 
費正清 -1.109205 -1.100248 0.420058 -0.307032 -0.712594 0.316129 0.456350 1.698366 0.195161 0.436482 
新興國家 0.419838 0.046397 -0.947935 0.040152 -0.506868 0.924902 1.364590 1.154327 0.413179 -0.872844 
李斯 -0.517675 0.027479 0.271958 -0.749993 0.137071 -0.161481 1.219662 0.517864 0.606460 0.435745 
沙皇 0.078793 0.898523 0.220806 0.127428 -0.394056 2.005729 1.853686 0.634791 1.179147 0.361268 
太后 -0.626272 0.009168 0.192976 -0.826684 -0.179685 0.412327 0.993844 0.985329 0.749557 0.128794 
美德 0.131740 0.106937 0.104157 0.189636 0.173365 0.708174 1.803582 1.007100 0.828988 -0.280299 
諸如 -0.404432 -0.165914 0.233812 -0.666174 -0.710688 0.132896 1.115051 1.070806 0.190201 0.313643 
白話文 -0.694281 -0.753156 0.995062 -0.832719 -0.298013 0.586739 0.295811 1.455778 0.860757 -0.512824 
三山 -1.164675 -0.159812 -0.484937 -0.602661 -0.849567 -0.542329 1.105071 1.275406 0.194016 -0.142054 
藩鎮 -1.658196 -0.860028 0.619931 -1.138724 -0.410361 -0.220551 1.379303 1.261395 0.826729 0.646963 
腓力 0.383010 1.012289 0.454426 0.369720 -0.002587 0.663783 2.443744 0.672144 0.959276 -0.736648 
格林威治 -1.620274 -0.768955 -1.042264 -0.092800 -1.348821 -0.816863 0.831042 1.363351 -0.164542 -0.352838 
大百科全書 -0.261775 -0.450026 0.205459 0.613598 -0.911840 0.176814 0.871005 0.704164 0.664331 -0.345844 
莫斯科 0.006196 0.062896 -0.332303 0.367019 0.152993 1.863447 1.195887 1.241599 0.876318 -0.570101 
蘇臺德 0.363033 0.715239 -0.243824 0.673773 -0.388634 1.424204 1.129773 0.651826 1.749630 -0.482521 
福祉 -0.358922 0.119304 -0.217687 0.089138 -0.427853 -0.474097 1.691817 0.688355 0.481038 0.272899 
漳州 -1.129021 -0.202234 -0.166507 -0.450633 -0.813985 -0.749067 0.756301 1.230336 0.176281 0.007031 
阿拔斯 -0.223024 0.255269 0.703033 -0.731899 -0.247189 0.116046 3.024056 1.169433 0.720775 1.101918 
反革命 0.014031 -0.332678 0.190647 0.385221 0.267439 1.304947 0.924671 1.558141 0.838190 -0.288378 
鐵木真 -1.781192 1.008003 0.843135 -1.347345 0.555037 1.544535 1.769819 0.762082 0.836363 -0.275592 
關羽 -1.240082 -0.730901 0.211396 -1.243517 -0.018132 0.156558 1.639261 1.582612 1.457019 0.793172 
塔利班 0.647080 -0.898050 -0.181722 -0.245462 -0.786333 1.482335 1.917678 1.650451 0.373980 -0.225360 
馬基維利 -0.039667 0.225043 -0.013035 -0.091806 -0.439735 0.128253 2.049386 0.510153 1.313477 -0.690647 
狄奧多西 0.124004 0.359058 0.085227 -1.037254 0.390359 0.189643 1.873399 0.453166 1.146107 -0.379607 
南美洲 0.481916 0.145997 -0.382626 -0.396723 -0.811234 0.141789 1.671122 1.325654 0.165068 -1.243023 
十月革命 -0.280722 -0.134278 -0.463070 0.371375 0.037994 2.349187 1.004719 1.474711 0.804998 -0.457117 
廖 -1.388573 -1.076092 0.257382 0.137776 -1.310948 -0.040451 0.432807 1.683449 0.702224 0.593641 
陳述 -0.090612 0.178482 -0.518863 0.022027 -0.330876 0.567846 1.231279 0.554035 0.206967 -0.388791 
祆教 0.281389 0.233135 0.816221 -1.566284 -0.119690 0.755056 2.289296 0.767317 0.449586 0.345592 
龍山文化 -0.739391 0.229980 0.320419 -0.665799 -0.443102 0.641361 1.092666 0.802208 0.358339 0.350048 
蔡鍔 -1.148991 -0.262545 0.661279 -0.972803 0.276188 1.368733 0.112846 1.828896 1.220601 -0.215140 
民國初年 -0.368663 -0.128007 0.968947 -0.332512 -0.159505 1.162738 0.486554 1.595651 0.693145 -0.321300 
倫巴 0.439985 0.500290 0.270133 -0.251878 0.388778 0.883491 2.261270 -0.046689 1.184309 0.041413 
區域衝突 -0.204725 -1.300762 -1.070663 -0.006547 -0.238837 0.819556 0.587884 1.284179 0.323948 -0.611898 
桂 -0.965618 -0.219241 0.424321 -0.413288 -0.393168 0.162916 0.905416 1.462077 0.802062 -0.396494 
藍波 -1.356533 -0.268622 -0.296861 -0.907571 -0.768472 -0.400233 1.337798 1.352428 -0.033815 0.166910 
關懷 -0.568478 -0.567884 -0.767716 -0.294043 -0.710254 0.530612 0.895484 0.918852 -0.123553 -0.657138 
同安 -1.275088 -0.251526 -0.263239 -0.635469 -1.027681 -0.476050 1.100851 1.599223 0.281240 0.018426 
保加利亞 0.491010 0.121290 -0.313997 -0.245657 0.699436 1.177198 1.874521 0.434916 0.930434 0.000285 
敦煌 -0.427633 -0.296231 0.390380 -1.015416 -0.431290 0.311266 1.915791 1.152353 0.735457 0.320407 
德國人 -0.019540 0.559252 -0.405620 0.597303 -0.348639 1.337082 1.485182 0.787240 1.292782 -0.481419 
賽德克族 -1.492543 0.112682 -0.992622 -0.633770 -0.730057 0.028914 0.974003 1.242304 0.022147 -0.190103 
徵召 -0.579706 -0.051761 -0.463504 -0.224633 -0.853800 0.583907 0.780579 0.935435 0.519251 -0.257837 
江蘇 -0.648617 -0.487276 0.530236 -0.817694 -0.556591 0.562439 -0.112047 1.800831 1.103221 -0.214270 
巴士底 0.569973 0.443808 0.022295 1.047436 -0.364159 0.347181 2.191044 0.774969 0.855188 -0.266715 
七七事變 -1.071683 -0.348970 -1.131545 0.029738 -0.603599 0.902174 0.442462 1.825044 0.542356 -0.517645 
神農 -0.906113 0.162746 -0.877575 -0.686856 -0.731166 -0.464802 1.682890 1.408570 0.302670 -0.670887 
黃花岡 -0.832342 -0.621075 -0.038315 -0.740318 0.049243 0.536191 0.516541 1.819849 0.463206 -0.413614 
永發 -1.770161 -1.150311 -0.022488 -0.273340 -0.887902 0.121716 0.620243 2.229609 -0.042376 0.845776 
殷 -0.838323 -0.166395 -0.091045 -0.737866 -0.371715 -0.101444 1.208788 1.069308 0.381533 0.230487 
印度教 0.670027 -0.208875 0.284488 -2.218247 -1.433212 0.531854 2.040288 1.398830 -0.231188 -0.162571 
唐繼堯 -1.036873 -0.402867 0.051424 -0.861609 0.308950 0.930708 0.089429 1.776937 0.602473 -0.391470 
從政 -0.899406 -0.331363 -0.003075 -0.610963 -0.887801 0.106395 0.370415 0.926280 0.132682 -0.115575 
遠東 0.733835 0.217845 -0.526609 0.327851 -0.541798 1.743956 1.067016 0.698208 0.362892 -0.655634 
伊 0.003155 0.210073 -0.066295 -0.217529 -0.066996 0.357781 1.848130 0.543569 0.645691 0.103907 
黎 -0.525196 -0.920157 0.265890 -0.283277 -0.117755 1.083491 0.146169 1.137728 0.801234 -0.476063 
詹姆士二世 0.663579 0.576193 0.087321 -0.243373 -0.942186 -0.195845 2.047052 0.774820 0.528087 -0.666129 
琿 -0.120271 -0.010261 0.453540 -0.052394 -1.147499 1.355168 0.374357 1.311648 0.898206 -0.329355 
明治天皇 -0.324172 0.578946 -0.475122 -0.237191 -1.406925 0.759265 0.079287 0.897907 0.606233 -0.290320 
羅馬教廷 0.350663 0.316347 0.035421 -0.810246 -0.117815 -0.368764 2.182130 0.645438 1.072919 -0.780072 
藩屬國 -0.660019 0.309333 -0.740203 0.440696 -1.934059 0.960673 0.721946 1.497411 0.494949 -0.468838 
西亞地區 0.512060 0.424551 1.049083 -0.964141 0.034179 0.378422 2.647343 0.704162 0.495250 0.736371 
宇文 -1.575540 -0.278349 0.337142 -1.814939 0.175773 0.416338 1.795582 1.390666 0.980691 0.912616 
哥德人 0.324553 0.603055 -0.096658 -0.368171 0.490448 0.771155 2.128347 0.422861 1.501332 -0.334626 
海瑞罷官 -1.164842 -0.432922 0.654218 -0.985145 0.782915 0.430508 0.985080 2.116927 0.615404 0.731705 
西臺 -0.855509 0.538854 0.333540 -0.382244 -0.173773 0.042104 3.149467 0.571554 0.862290 1.004786 
黑海 0.048170 0.873419 0.306696 -0.237463 -0.201122 1.599379 1.901377 0.741291 0.671310 -0.069038 
虎門 0.139301 -0.335880 0.032305 -0.584289 -1.077545 0.103463 0.626091 1.499681 0.564681 -0.460634 
中西文化 -0.279083 -0.008824 0.412064 -0.418720 -0.573602 -0.168533 1.088645 0.848574 0.362635 -0.111876 
亞當斯密 -0.063584 -0.442701 -0.432364 -0.342776 -0.545600 0.316067 1.270085 1.256802 0.373991 -0.383347 
中南美洲 0.627606 -0.263204 -0.584866 0.090643 -0.654944 0.341270 1.533983 1.034008 0.358145 -0.971290 
基督 0.205232 0.292789 -0.219071 -0.769612 -0.230559 -0.429645 1.931966 0.514496 0.733678 -0.894901 
改革派 -0.022273 0.153508 0.232715 -0.204158 0.046304 0.206248 0.975035 0.935509 0.791687 -0.262158 
伊莉莎白 0.295586 0.485672 -0.067271 -0.114414 -0.811598 -0.373657 1.754006 0.955949 0.760145 -0.588097 
臺地 -1.558983 -0.458426 -0.509301 -0.731169 -1.283463 -0.104837 0.819946 1.585669 0.394178 -0.257215 
厝 -1.197567 -0.132004 -0.471871 -0.369758 -0.791532 -0.212901 0.647392 1.278957 0.318481 -0.081729 
北齊 -0.599839 -0.192945 0.085167 -0.978754 -0.027750 0.314173 1.624172 1.027374 0.691964 0.424370 
陝北 -0.942178 -0.321736 0.006630 -0.509936 0.506729 1.053954 0.252816 1.444382 0.687365 0.339876 
華麗 -0.061436 0.022508 -0.304880 -0.016104 -0.687578 0.881837 1.812604 1.325512 0.719198 -0.355370 
唐王 -1.071331 -0.131593 0.423376 -0.492468 -0.740112 -0.220516 0.815316 1.265556 0.614978 -0.147184 
廉 0.135663 0.421302 0.043625 -0.276954 0.058989 0.449631 1.237228 0.108398 1.236262 0.041051 
田賦 -0.518427 -0.300254 -0.309133 -0.487427 -1.177931 -0.359881 0.550673 1.359769 0.045571 -0.311116 
中古史 -1.158260 -0.693353 0.374310 1.692337 -1.294727 -0.530261 1.979355 0.358551 1.192897 0.808550 
河 -1.039690 0.399299 0.215799 -1.163057 0.017085 0.660169 1.526730 0.989275 0.910788 0.775403 
秋瑾 -1.432364 -0.072727 -0.167639 -0.656048 -0.687622 0.241152 0.736571 1.652033 0.483660 0.087366 
平城 -1.517934 -0.132152 0.121550 -1.266171 -0.781678 -0.787068 1.122466 1.130005 0.270405 0.391409 
齊桓公 -0.834034 -0.092210 -0.159944 -0.458532 -0.337772 -0.142625 1.682493 0.965801 0.776864 0.066034 
旅順 -0.427462 0.029219 -0.093395 0.034955 -0.617454 1.426422 0.741931 1.171479 0.770812 -0.440900 
哥哥 -0.217210 -0.009282 0.149128 -0.505786 -0.152709 0.216890 1.689444 0.250286 0.894201 -0.088300 
寧靖王 -1.155647 -0.167217 -0.559992 -0.413379 -1.134711 -0.784880 0.931946 1.352352 0.191900 -0.370147 
南陽 -1.176638 -0.274112 0.039462 -1.155267 -0.071975 0.096126 1.209001 0.982646 0.788425 0.663002 
狄更斯 0.305077 0.172192 -0.343572 0.102686 -0.450629 0.122251 1.506025 0.963581 0.765707 -0.361181 
東都 -0.634710 -0.086217 -0.417721 -0.424011 -0.849803 -0.520026 0.873522 1.326570 0.044967 -0.466919 
開羅會議 -0.195583 -0.336877 -0.791105 0.073735 -0.759784 1.178689 0.915479 1.097782 0.665467 -0.615455 
四國 -0.099064 -0.446589 -0.447103 -0.035621 -0.458846 0.801833 0.844956 1.048985 0.605748 -0.463895 
人文主義 0.219305 0.382909 -0.377245 -0.316375 -0.023767 -0.352356 2.309180 0.447722 0.809753 -0.588154 
羅漢 -1.204566 -0.153296 -0.898678 -0.939393 -1.440297 -0.422763 0.867139 1.730524 -0.169666 -0.594808 
姚文元 -0.674660 -0.442680 0.674129 -0.639164 0.806639 0.947097 0.751069 1.904617 0.723696 0.775132 
拉美 0.692143 -0.202766 -0.327421 0.045006 -0.810526 -0.028547 1.781611 0.804600 -0.211732 -0.784912 
愛德華 0.940912 1.163258 0.046708 0.315718 -1.045308 -0.237946 2.236356 0.644075 1.483004 -0.802048 
大元帥 -1.022712 -1.116755 0.150196 -0.643520 0.364923 0.624113 0.155298 2.165491 0.778606 -0.716741 
達成協議 -0.462625 -0.307256 -0.317776 0.067462 -0.746732 0.816812 0.691531 1.167232 0.505047 -0.403103 
十國 -0.939984 -0.387889 -0.045487 -0.734198 -0.299421 -0.274091 1.158534 0.985380 0.144705 0.374456 
永和 -0.645409 -0.158087 -0.374473 -0.145443 -1.100535 -0.355388 0.606250 1.082636 0.000564 -0.472421 
長安城 -1.451211 -0.227361 0.247883 -1.351620 -0.488111 -0.415644 0.816500 0.842298 0.296146 0.624159 
黎明 -0.649076 -0.787767 0.193248 -0.404400 -0.503796 -0.115023 0.782102 1.194495 0.026248 0.354022 
武帝時 -0.274029 -0.205819 0.225998 -0.941584 0.117474 0.273735 0.702298 0.288536 0.396923 0.321527 
陸 -0.453336 -0.218149 -0.173147 -0.310026 -0.463861 0.594824 1.064041 1.381210 0.627043 -0.301722 
諸子 -0.604050 -0.210599 -0.044776 -0.633759 -0.385439 -0.564255 1.261993 0.692586 0.493852 0.104946 
港灣 -0.318819 -0.034626 -0.251306 -0.119550 -0.958042 0.430833 0.763448 0.902097 0.002872 -0.261554 
葡 0.506293 -0.003080 -0.853711 0.024471 -0.943677 0.475208 1.641061 1.231472 -0.117454 -0.972136 
大將軍 -1.006368 0.324318 -0.483120 -0.095573 -0.926149 0.194107 1.672713 0.727551 0.638937 -0.636594 
鳳山縣 -1.109831 0.078338 -0.383277 -0.285150 -0.839069 -0.806683 1.156580 0.870300 0.283293 -0.063923 
潘 -1.158640 -0.889790 0.277836 -0.455515 -0.824354 -0.207266 0.724025 1.301403 -0.226055 0.475038 
洛林 0.053717 0.494867 0.020767 0.343935 -0.166057 0.344139 1.541105 0.432037 1.119250 -0.340263 
原住民族的社會 -1.203493 0.059833 -0.802252 -1.102947 -0.897858 -0.386225 1.032461 1.366041 -0.796742 0.008230 
江澤民 -0.716138 -0.861364 0.498205 -0.538964 0.431115 1.123251 0.958587 2.448565 0.344012 0.430384 
保守派 -0.408120 -0.320799 -0.285316 -0.129491 -0.166976 0.832243 0.629895 1.494431 0.411370 -0.338356 
淮 -1.058580 0.538223 0.380415 -0.348126 -0.905790 0.646846 0.215991 1.281512 0.950054 0.476072 
田園 -1.210355 -0.154249 -0.373215 -0.531687 -1.064876 -0.482118 0.881286 1.055753 0.176875 -0.084993 
南非 1.553340 -0.005808 -0.220932 -0.724049 -1.574932 0.461794 1.469384 1.569388 -0.239575 -0.938586 
西林 0.376962 0.241020 0.031035 0.269350 -0.551040 0.382392 0.372767 0.828765 0.714401 -0.349685 
延平郡王 -1.030290 0.118167 -0.743571 -0.079300 -1.052233 -0.765013 0.751325 0.871767 -0.076163 -0.656433 
論文 -1.491114 -0.583238 -0.257580 -0.215038 -1.106732 -0.306192 1.010815 1.429522 0.459367 0.051902 
鄭克 -1.207388 -0.083274 -0.535071 -0.041444 -1.022834 -0.310902 1.035412 1.329475 0.028216 -0.274754 
張儀 -0.671985 -0.240388 -0.091705 -0.954855 -0.081964 -0.176710 1.467695 0.893305 0.581715 0.133893 
小三通 -0.612048 -0.330354 -0.011927 -0.254595 -0.604049 0.134271 0.886797 1.330091 0.254793 0.000485 
汪 -0.630887 -0.236925 0.009918 -0.545774 -0.332638 0.090639 0.871143 1.017557 0.450021 -0.068998 
賽德克 -1.369908 0.214461 -1.009082 -0.689158 -0.713349 0.001334 1.148046 1.142876 0.136927 -0.220212 
才華 -0.930523 -0.212838 -0.023197 -0.823951 -0.184880 0.267991 1.454116 1.370759 0.699561 -0.162371 
蘇秦 -0.952315 -0.154531 0.020236 -0.868698 0.092923 -0.177160 1.497879 0.825148 0.649969 0.460457 
但丁 -0.104429 0.207079 0.022528 -0.632752 -0.093147 0.499634 1.844430 0.455797 1.273391 -0.363518 
鄂 0.150440 0.050646 0.162361 -0.171549 -0.375823 1.058072 1.233222 0.742211 0.849200 -0.329047 
紅樓夢 -0.209570 -0.012448 0.086651 -0.461014 -0.063960 0.200562 0.838459 0.592317 0.314408 -0.053274 
英方 0.089508 -0.685954 0.101082 -0.201009 -1.177204 0.165334 0.177526 1.678632 0.335036 -0.530772 
蜀漢 -1.277479 -0.932637 -0.046602 -1.042280 0.179501 0.348566 1.320945 1.127855 1.417625 0.696822 
公正 0.240629 -0.252478 -0.432069 0.274199 -0.404636 0.456205 1.071895 1.014732 0.649572 -0.673304 
黑龍江 -0.553249 0.288586 0.297224 -0.016374 -1.264972 1.662355 0.638042 1.139651 0.984343 -0.197165 
楚漢相爭 -0.352166 -0.178302 0.292434 -1.067390 0.132129 0.210047 1.170947 0.325804 0.491949 0.599566 
太平道 -0.485786 0.020774 0.262062 -1.410426 -0.722522 0.207155 1.161229 1.000916 0.463614 0.323578 
新莊 -1.208461 -0.313773 -0.355951 -0.462102 -1.052145 -0.557622 0.818341 1.277572 0.252438 -0.167800 
景美 -1.204785 -0.157166 -0.378312 -0.448847 -0.583221 -0.218755 0.822498 1.673566 0.247247 -0.122532 
民主運動 -0.909291 -0.950911 0.119837 -0.160924 -0.418247 0.483408 0.595129 1.633143 0.004138 0.102592 
宋史 -1.154587 -0.741369 0.452390 -0.334450 -0.573911 -0.057465 1.296674 0.933751 0.402477 0.898726 
屏東 -0.798850 -0.057855 -0.394586 -0.429092 -0.631242 -0.570074 0.724335 0.759109 0.084703 -0.084579 
日增 -0.078160 -0.401017 -0.086296 -0.521265 -0.666462 0.287395 1.297905 1.017861 0.006811 -0.078327 
麥加 0.371390 -0.000450 0.564036 -1.243701 0.555005 0.701559 2.553692 1.057277 0.858760 0.545701 
法蘭克人 -0.033427 0.420203 -0.187102 -0.113820 0.278675 0.382370 1.388895 0.639140 1.088610 -0.186326 
紀傳體 0.024485 -0.165181 0.511206 -0.890931 0.137726 0.370224 0.739308 0.381935 0.228092 0.532079 
咸陽 -0.900426 -0.298564 0.164925 -0.728917 -0.264192 0.124644 1.025482 0.825999 0.485269 0.467840 
陸榮廷 -0.964827 -0.561347 0.305370 -0.775331 -0.075596 0.297879 0.232117 1.834515 0.822782 -0.078590 
天街 -1.398044 -0.473475 -0.622745 -0.442065 -1.014989 -0.807924 0.934965 1.447536 -0.039580 -0.036353 
羅馬城 -0.157744 0.202706 0.223836 -0.527936 0.380876 0.609251 1.762699 0.784921 0.800000 -0.298884 
大月氏 -0.172547 -0.037135 0.571574 -0.949885 0.036745 0.391305 0.799663 0.319655 0.322642 0.419140 
卓越 -0.020371 0.110470 0.151802 -0.408611 0.333278 0.744331 1.514982 0.846422 0.874235 -0.229942 
巴比倫人 -0.701798 0.537957 0.307910 -1.011482 0.081526 0.109132 3.135223 1.008386 0.750482 0.955282 
徵兵制 -0.554548 0.234349 -0.154129 0.244106 -0.498914 1.363508 1.042044 1.319233 1.031124 -0.323615 
古城 0.020181 0.130618 -0.272108 -0.221333 0.074594 -0.070670 1.332056 0.585114 0.655628 -0.221907 
貞觀 -0.736381 -0.129318 0.298522 -1.892937 -0.493903 0.329039 1.993062 1.280211 0.506390 0.528952 
印度人 0.979868 0.145470 0.467137 -1.657975 -1.303032 0.664397 2.047887 1.386542 -0.374384 0.148893 
西亞古文明 -0.031762 0.591994 0.639242 -0.955809 -0.175034 0.084793 2.565308 0.559078 0.206608 0.875097 
