6949 10
</s> 0.040027 0.044194 -0.038303 -0.032780 0.013666 0.030211 0.009409 0.002113 -0.036035 0.022185 
臺灣 -3.114952 2.388985 -1.435640 -1.974514 0.162321 2.064808 0.239749 -0.824671 -0.150499 2.047175 
中國 -2.606389 -0.711420 1.161679 0.235686 -0.111616 1.231470 0.207275 -0.642656 -0.546390 1.288180 
日本 -2.603941 0.335830 -0.321867 -0.359352 0.912688 2.493455 1.337459 -0.917346 -2.671031 0.366546 
臺北 -0.118418 0.321441 1.225966 -0.091637 -0.824706 2.495741 -1.498803 0.462753 0.270246 0.284235 
美國 -1.817108 0.697376 -1.282257 -0.064641 4.247889 2.616729 -1.154882 2.177328 -1.665316 2.051277 
英國 0.365132 2.163350 0.899232 0.831063 2.994109 1.277026 0.112029 -0.764348 -0.844138 3.443387 
歐洲 1.289725 1.493654 0.841315 -1.295895 3.139846 0.665236 -0.624417 0.499568 -0.670882 1.749525 
法國 2.115329 1.796149 1.319153 0.578695 2.878136 0.336772 1.719908 2.131275 -0.591913 1.649129 
德國 -0.957798 -0.375724 1.106650 -0.419659 4.030659 0.371446 2.938689 3.605594 -2.252642 1.107461 
北京 -1.784380 -0.858871 1.051110 -0.768969 0.170633 0.521499 1.190368 1.213620 1.424203 2.274855 
義大利 1.895166 0.498986 0.577806 -2.083883 2.495345 0.922250 3.045596 1.628101 -0.527719 0.754026 
羅馬 3.284802 1.567704 -0.773556 -4.522243 2.126443 2.611976 1.241825 2.145864 -2.470357 0.017093 
蘇聯 -3.367177 -0.622755 1.095571 -0.724321 2.671345 1.760061 -1.363986 5.103736 -3.011973 -0.026164 
史 1.409679 1.935013 0.832845 -0.198623 -0.485459 1.968778 -0.825784 0.332015 0.511830 0.530875 
俄國 -1.682366 -0.456890 4.523799 1.317943 2.748119 0.242030 1.032107 0.904680 -3.147599 1.310027 
陳 -0.225217 0.979060 -0.644619 0.240633 -2.855933 2.097618 0.151643 0.658993 0.261278 1.468365 
基督教 2.108862 1.410393 -1.291561 -2.864669 0.663693 0.041343 -1.745138 0.066233 -1.056565 2.441487 
南 -0.144780 1.287526 0.560736 -0.364882 -0.164613 0.626108 -0.546496 -0.089850 0.121346 -0.088753 
埃及 2.209416 -3.050582 0.933059 -3.189351 1.409074 0.365130 -3.499399 0.499987 -2.355462 0.407321 
文明 1.175957 -0.996357 0.971510 -1.258748 2.764292 3.024724 -1.340301 -0.949976 -0.141609 0.171876 
中華民國 -3.826403 -0.289243 -2.631857 -0.315736 1.584216 4.179281 1.855695 2.565982 0.618666 1.697923 
拿破崙 3.284173 0.556237 1.899688 0.759493 2.612576 2.739438 0.433896 3.589569 -4.172317 1.660197 
工業革命 1.224984 -0.984312 0.571640 2.833377 1.247312 4.691444 -2.719200 -2.644895 -1.902078 5.949084 
荷蘭人 -0.804394 4.512185 -2.786218 -4.776393 2.406068 2.095400 0.536838 -0.636587 0.498007 2.463006 
袁世凱 -1.553274 -1.923420 0.184172 0.500291 1.477733 3.510806 5.895553 4.350590 0.932375 2.886056 
希臘 1.087525 0.270441 1.185549 -4.530524 3.315408 3.672333 0.715026 0.964442 0.503402 -1.744213 
上海 -3.277607 -0.998998 3.047639 0.871874 -1.752457 3.350551 1.680907 0.536564 1.560128 0.512118 
孫中山 -3.162578 2.004500 0.163894 0.357355 1.527203 5.163926 4.520735 1.956082 0.643247 0.725204 
荷蘭 0.004365 4.257535 -1.427935 -1.763994 2.915225 0.144857 3.057229 -0.494616 -0.778654 2.531961 
印度 -0.096816 1.344324 3.435967 -1.516051 2.785998 0.759914 -1.681644 -3.196657 -3.052780 1.109692 
王 1.903587 0.058375 2.033150 -1.507544 -0.007269 0.009690 0.147990 -0.349007 0.662049 0.108701 
南京 -4.123882 1.480209 1.618331 0.576449 -1.349319 0.901161 3.086463 0.719465 -0.528528 1.401560 
十九世紀 2.014794 -0.456497 0.689145 0.346857 3.122643 0.954228 0.521825 -0.695598 -1.717777 2.478639 
抗日 -4.630773 1.691325 -0.583086 -0.779003 1.527788 6.305245 -1.300055 -1.221428 0.094581 -0.365881 
西班牙 2.409576 0.959868 -0.173129 -1.650261 4.060701 -0.316360 0.153063 -0.459080 -0.330724 2.686136 
鴉片 -4.538594 2.840666 4.375728 1.840919 -0.089989 2.538003 1.163949 -4.810968 0.139732 4.033587 
美 -1.930421 -1.363580 0.200038 -1.091892 2.850849 0.965144 -0.729464 1.866875 -0.839951 0.439327 
佛教 0.249637 0.510222 4.767720 0.251471 -1.590099 3.503491 1.495174 -4.208219 -5.266448 -0.797527 
殖民地 0.407299 1.142558 0.205964 0.880234 5.457253 1.506950 -2.513923 -0.740429 -1.580332 3.802025 
和平 1.150622 -1.330979 -1.287821 -0.126331 1.527710 2.404598 -0.155263 2.266470 -3.002905 1.773832 
毛澤東 -4.182390 -0.989216 1.025177 -2.919703 -0.160896 4.348369 -6.188492 5.739907 2.219243 -0.658292 
德意志 2.081496 -0.571791 5.353114 0.257833 3.204685 0.456728 1.525074 2.190373 -0.780222 1.209515 
亞洲 -1.687548 -0.200446 -0.779819 -0.719595 2.750425 1.607067 -0.674186 -0.850534 -1.434720 1.913998 
中世紀 3.691775 3.876741 3.292297 -2.843391 2.167379 0.465218 -1.420151 1.108156 1.019849 0.627766 
臺南 -2.703723 3.635116 -1.593505 -4.095051 -0.995530 1.333951 -2.200329 0.992959 0.410914 2.649684 
澎湖 -3.156175 3.763952 -1.945626 -1.308425 1.323305 0.214912 -0.736298 0.879345 -1.750809 6.089219 
西洋 1.808469 0.546583 1.613918 0.213613 1.047188 -0.503917 0.033646 -0.363400 -1.403712 2.164775 
德 -0.619479 -1.238031 -0.753594 -0.206664 1.330040 1.273857 1.576472 1.027592 -2.428633 0.462684 
建國 -0.758056 -0.555308 -0.652977 -0.849518 0.619973 0.625343 1.202203 2.286219 -1.950103 -1.430618 
波斯 -0.223335 1.508526 1.455321 -3.531083 0.810230 2.450256 -1.149503 0.345800 -3.987977 -3.463460 
外國 -2.306606 -0.313904 2.213973 0.196047 1.679934 0.322654 1.591156 0.116114 0.837684 2.222064 
原住民族 -1.654980 0.520186 -1.810855 -6.133783 1.529202 3.986399 -2.621420 -3.367076 1.637679 1.728059 
李鴻章 -4.046432 -2.127794 2.697419 2.820448 0.455105 1.037625 -2.414992 5.389205 -2.108207 5.079529 
西域 0.221092 -4.614800 2.978003 -0.315374 -0.799810 -0.299577 0.950759 -0.705459 -5.794997 2.430302 
廣州 -3.171110 5.257790 1.580900 0.469132 -0.851081 2.153561 2.776358 0.569552 -1.901667 1.654709 
福建 -3.553558 4.140995 -0.280476 -2.533054 -2.188686 -0.712843 3.680712 1.424905 -0.898159 2.772934 
普魯士 2.098880 0.455746 5.847908 1.502021 1.613834 1.444779 1.962623 2.236983 -1.505440 1.515978 
東北 -4.616590 -1.503139 2.319346 -0.479373 0.687984 0.988916 0.600825 0.022210 -2.411476 -0.298018 
香港 -3.023091 0.386314 1.942729 1.033422 0.021669 1.400363 -1.612176 0.140580 -0.123280 2.022851 
第一次世界大戰 -1.749829 -2.322658 -1.046350 -1.028114 3.517821 2.344839 3.139244 1.001603 -1.400022 0.938965 
唐 -1.745779 0.645613 2.308553 -0.290796 -6.297384 1.219890 -0.693695 -0.501115 -3.294418 1.468698 
王朝 1.135240 -0.254564 0.652550 -1.021890 -0.568624 -1.201191 -0.117007 -1.167562 -2.781909 1.660530 
藉由 -0.582088 -0.950043 0.141430 -0.902320 -0.360881 0.070791 1.344923 -0.621351 -0.318127 0.950227 
太平天國 0.332302 1.009897 3.873485 3.352323 -2.558465 -0.265558 -4.184193 3.272140 -0.580055 7.564203 
蒙古 -0.357436 3.951346 0.862093 0.398467 -1.851630 -0.709404 -3.324554 2.397241 -5.113111 0.979805 
羅馬帝國 3.553082 -0.342386 0.437720 -4.530225 1.594550 -0.132100 0.559601 2.631594 -1.935515 1.187608 
阿拉伯 0.791780 0.970545 0.775777 -2.011262 2.460534 1.180052 -1.564037 -0.358641 -4.855953 -0.457897 
自強運動 -2.097606 -2.181880 2.581290 3.487886 0.072276 1.808803 -2.398295 2.412570 0.034297 4.103012 
拉丁美洲 0.825882 -1.239640 0.099783 -1.740078 6.769636 1.867740 -0.496209 2.801576 0.953837 4.695113 
猶太人 1.366321 1.120034 -1.805361 -1.889650 1.944341 2.801214 -4.325059 2.574463 -5.139256 0.498834 
天津 -4.461853 -0.476670 3.086684 -1.972175 -0.195649 -0.662792 3.558945 1.841577 1.078193 4.255136 
府 -3.802227 3.661251 1.873814 -2.407499 -3.357873 -1.177505 -0.998496 1.829562 0.209499 2.747887 
北 -0.746777 -0.670766 1.545729 -1.832863 -0.482113 -1.230087 -0.884037 -0.498060 -1.364822 0.938105 
共和 3.014093 0.284737 -0.310311 0.145663 2.118150 2.908985 3.699464 4.145187 -2.239695 0.246257 
十七世紀 2.545548 0.882227 -1.450399 -2.111798 2.632375 2.568766 1.766527 -2.285116 -0.153674 3.712610 
朝鮮 -2.974779 -2.508466 1.017623 1.424170 1.372778 2.938075 -2.565156 0.769079 -3.699590 0.885793 
奧 0.731883 -1.507018 3.284201 -1.217038 2.686308 -0.564341 2.170015 0.360068 -1.522056 0.615905 
越南 -1.656889 1.422002 0.718514 0.217907 1.735896 0.217269 -2.894613 2.512480 -3.593104 3.078423 
山東 -1.477988 -2.735492 1.016039 -0.088847 0.237235 0.903962 1.872111 2.470803 -0.283085 1.680902 
西歐 3.319690 2.334727 2.768666 -3.396279 2.199536 -0.209526 -0.854120 2.388324 -0.943264 0.878796 
南北 -1.587548 -0.561516 -0.749511 -1.062565 -0.911055 0.465741 0.232052 0.815504 0.257702 0.852922 
土耳其 0.088199 -0.214587 2.260000 -2.842238 4.734262 -0.429742 0.024987 2.080668 -1.182557 -1.536954 
藉此 -2.111678 0.072752 1.115933 -1.235044 -0.324485 1.742254 -0.660809 -2.590341 -0.461522 0.075180 
蔣中正 -7.646864 1.100303 -1.529204 -0.833901 0.692922 4.500236 1.573916 1.621891 -0.896133 1.554995 
宋 0.387113 -2.747470 -2.613472 -1.211498 -5.128390 1.185201 -0.343506 1.747645 -4.618467 2.894070 
史稱 0.360433 -1.804258 1.420889 0.631488 -1.262182 0.759269 1.093059 1.283491 -2.196603 3.172366 
美洲 1.917088 -1.274521 1.309876 -0.352057 3.565052 0.043315 -4.862408 0.218700 -0.857007 5.643407 
雅典 -1.021730 0.613576 1.582232 -5.543139 0.356738 5.647758 1.225025 0.771064 -0.422305 -4.533809 
開港 -3.376975 2.127047 1.359037 -1.008426 0.425676 -0.375945 -2.581088 -0.550161 2.614038 4.036990 
十六世紀 2.417546 1.550129 -0.437568 -2.529717 1.756533 1.322516 -0.120370 -2.205052 0.104891 3.398685 
伊斯蘭 -0.117109 0.782492 1.155558 -5.414287 3.610925 -0.171243 -1.352832 -3.210502 -7.357662 0.723304 
廣東 -2.987414 5.760167 0.945007 -0.501587 -1.292979 1.904417 1.672559 2.094288 -0.003380 1.870393 
李 -2.471561 0.949116 0.260031 0.799932 -1.819325 1.958994 0.267114 2.062602 0.770939 2.300819 
非洲 -0.004701 -2.184930 1.243869 -2.848155 6.603948 -0.968889 -1.841993 -0.918174 -3.141807 3.539754 
鄭 -1.315698 2.637744 -0.234640 -5.501022 -0.423668 -2.195928 3.437265 0.599545 -0.891355 5.073204 
百科 0.217255 -0.646228 -0.183899 -0.386671 -0.647829 2.300553 0.018911 -1.245039 -0.103876 -0.327297 
基隆 -2.713472 3.921570 -0.391223 -2.465968 1.413642 0.966808 -4.202474 0.962494 -0.207852 2.392880 
十八世紀 2.438536 0.463878 1.773923 0.917812 1.919415 2.281970 0.257732 -1.136376 -0.834058 3.844600 
大戰 -1.913262 -1.037049 0.549701 -1.257445 3.627887 0.410474 2.765397 2.519150 -0.170993 1.411622 
臺南市 -2.628551 3.245447 -1.526450 -6.470859 0.097875 -0.645720 -0.383275 -0.782383 2.922762 2.552953 
朝廷 -1.854271 0.990985 1.378718 0.917049 -2.555275 0.374973 -0.011594 0.476751 0.073461 4.015866 
二二八事件 -2.073519 -1.363574 -5.965014 -0.280301 -2.581272 4.554069 -0.449077 2.628434 -0.851753 6.903569 
甲午戰爭 -3.795762 0.353544 1.673943 4.043015 0.873817 4.294652 -1.260873 1.163221 -2.416406 3.426879 
拜占庭帝國 3.098094 0.476032 1.214054 -5.441626 3.489230 -0.679658 -2.262056 2.176298 -0.219545 1.937553 
東南 -2.607237 0.576120 1.384075 -0.143694 -1.751646 -0.144195 0.775477 -0.944139 -2.189549 4.353291 
東南亞 -2.820077 2.247620 -0.132187 -2.996319 3.373236 0.814970 1.167970 -1.814634 -4.378039 1.877754 
金 0.791513 1.387418 -0.598653 -2.354464 -2.964683 1.305380 0.731690 1.261772 -1.032263 0.466621 
葡萄牙 2.062371 2.360565 1.469180 -1.671452 5.101416 -1.017567 -1.331561 -1.387937 -2.644805 4.695858 
渭水 -3.719079 3.574618 4.213399 -2.644491 -3.000330 5.890600 1.854312 -2.523848 5.823682 3.961197 
秦始皇 0.239910 -7.173159 3.500142 -3.516508 0.698494 2.626501 5.197703 -0.336637 -0.755237 3.405651 
三國 -0.295630 -0.496685 1.972401 -1.450358 1.810636 -1.414359 1.991782 3.890278 -1.355262 2.196543 
日耳曼 3.690854 1.500540 4.259357 -2.601851 1.686624 -1.032601 0.642131 2.766137 -2.416688 1.382265 
希特勒 0.234525 0.745363 1.125672 -0.117650 2.347109 1.174274 1.509043 4.515048 -5.365967 1.509986 
巴黎 1.831417 0.459395 0.000211 0.228379 2.518451 3.354532 1.425381 4.001809 -2.377449 1.713259 
奧地利 1.365013 0.763781 4.348088 0.053468 2.333277 -0.541519 2.767538 2.104430 -2.754447 1.208411 
奧國 2.852211 0.488187 4.402464 -0.117997 2.786445 0.026566 3.178112 3.562579 -1.929905 0.816366 
國語 -2.086650 -0.928487 -4.526009 -4.165604 -1.628133 5.977382 -0.515133 -0.085275 -4.117891 -0.742298 
二次大戰 -2.823869 0.725580 -0.805028 -1.075275 2.011448 1.641337 -1.759647 1.569196 -2.697727 -0.423187 
法國大革命 3.483402 1.702701 0.316213 0.945816 2.214340 3.638053 1.536610 3.749725 -1.599975 3.403643 
魏晉 0.929290 0.173964 6.115965 -0.080248 -4.639558 2.645573 0.882294 0.310989 -0.772434 0.532644 
江南 -1.622010 -1.223906 4.203601 0.627527 -3.903190 0.876906 -2.011934 4.329769 -1.073811 1.266017 
慈禧太后 -2.552964 -4.820589 1.710599 1.232239 0.753702 -0.235405 2.080655 1.842047 -1.148789 7.326236 
王權 3.836456 1.355934 3.991362 -1.067167 0.879564 0.414863 -1.057966 -2.463248 -0.171079 4.495607 
英法聯軍 -1.744320 0.919739 4.287732 1.465545 1.184673 -1.518637 -0.623385 0.486839 -0.913162 5.640917 
第二次世界大戰 -2.123347 -0.722958 -1.368512 -0.242410 3.786781 1.887384 -0.884245 2.134125 -2.253420 1.087739 
溥儀 -5.053831 -1.915615 2.512127 -2.546019 0.768945 1.797152 4.148240 1.559435 2.373325 0.167574 
平埔族 -2.248844 3.956654 -2.987627 -5.471744 -0.605957 4.569629 -3.380991 -2.084213 -1.973072 0.932849 
咸豐 -4.091957 1.458511 5.480651 -0.366630 0.230190 -2.681652 0.335437 0.787131 0.564253 5.530826 
曹操 1.109064 0.925055 2.940444 -6.047449 -3.105889 0.200418 3.116555 8.998004 1.019240 0.417015 
鴉片戰爭 -3.629963 0.578679 3.048357 2.398397 -1.054600 -0.039724 0.088650 -1.591897 -1.038218 5.197877 
雍正 -0.461805 0.901733 4.136868 -1.026783 -4.022309 -1.884939 0.596115 -2.346930 -3.754605 6.774501 
東西 0.352527 -0.064989 0.653862 -1.710900 0.595537 -0.450793 -2.313624 -0.005168 -1.034980 0.570452 
斯 0.938094 -0.569512 3.657664 -4.416608 2.636405 -0.341928 1.754469 -1.741027 1.553638 0.080875 
西亞 2.669453 0.693478 2.234657 -3.607005 2.156247 2.072277 -2.496784 -1.179458 -2.784218 -1.606522 
洛陽 -0.600707 -2.112814 5.724346 -5.527302 -4.073988 -1.779277 0.675552 2.361167 -0.006205 0.511963 
社會主義 -0.424016 -1.802916 0.468102 2.717522 0.128340 5.543022 -5.812893 0.829713 -2.299820 2.617738 
平原 -1.693729 2.291814 -0.109214 -4.243038 -0.970334 1.502348 -2.241296 -2.459414 -2.931361 -0.898851 
伊斯蘭教 1.322186 0.311620 1.323500 -3.868179 2.391946 0.222203 -1.657231 -2.167544 -4.353342 0.094026 
史實 -1.600040 -1.302276 -0.405111 -0.592081 0.026166 1.290169 0.835609 0.003685 -0.346778 -0.521421 
長安 -0.985947 -1.880790 2.803120 -2.157983 -3.255130 0.573351 -0.789756 0.942349 -3.891754 -1.844636 
西班牙人 0.525047 2.498561 -2.905832 -4.081801 4.299409 2.184521 -1.630499 -0.917590 1.306007 4.286986 
中華 -0.163658 0.966077 -0.304806 -0.705715 -0.692059 2.893822 2.123246 2.079823 0.889517 1.319683 
劉銘傳 -3.855168 5.053277 1.186822 -0.894211 -0.259161 -0.613243 -5.910942 4.025735 0.915826 4.626575 
張學良 -8.315459 0.613180 -1.369894 -4.066705 1.232211 4.901898 0.589283 -0.426609 -0.036449 -1.152921 
文藝復興 4.247867 1.694092 2.092303 -4.224395 2.708642 1.508145 0.732021 -3.300612 3.151914 1.524680 
古巴 -2.867855 -1.241324 3.812293 -2.226363 7.660452 1.207802 -1.787196 3.350908 2.901298 1.887151 
蔣介石 -5.783131 1.030107 2.030819 -0.126995 1.971018 5.044837 0.785156 1.037957 0.790295 -0.203592 
兩國 -0.441398 -0.642799 1.853479 0.456583 1.264914 -1.890284 2.584028 1.127983 -2.466993 1.608355 
諸侯 3.701237 -1.064984 6.287224 0.393209 3.161931 3.231483 -0.870406 -0.528412 0.830168 1.148922 
聖經 2.771089 1.357990 -1.812511 -3.006386 0.021427 2.563244 -2.787528 1.525929 0.221669 2.287274 
興盛 0.459651 0.920582 1.310442 -1.660477 0.233082 -0.217011 -1.136979 -1.351207 -0.607202 -0.012336 
新石器時代 -5.005484 -3.331371 3.569951 -5.674834 -2.145172 1.312311 0.555137 -4.060047 0.485563 1.280881 
鄧小平 -2.942641 0.039290 -0.256569 -1.417698 -4.170415 5.742509 -3.748716 3.513073 1.886705 3.133044 
沈葆楨 -5.144960 6.651756 2.401218 -1.860954 0.308579 -0.699865 -6.412318 1.979149 1.117266 3.360843 
韓戰 -6.459608 -2.988964 -1.457022 -3.120365 0.461304 2.402416 -3.292177 1.553939 -2.504730 1.578232 
中華人民共和國 -5.470890 -1.307664 -1.198021 -1.170639 -0.232835 3.453498 -3.497253 2.416873 0.858460 2.088191 
西征 0.929674 4.341989 2.059519 -2.370794 -1.293924 -0.395179 -3.379982 3.419080 -2.463142 0.570327 
查理曼 6.105610 -0.543504 4.691309 -1.361243 0.351710 0.770862 0.261171 3.967552 -2.382038 2.942954 
曾國藩 -0.743247 -0.589292 3.088319 3.283147 -2.146437 0.566098 -2.248223 6.272880 0.105112 4.520959 
拜占庭 1.910064 0.093256 1.827028 -6.823195 3.020724 -0.692849 -0.459304 0.954284 0.127202 -0.135015 
周 0.732537 -0.897806 6.497388 0.348808 -1.207345 3.566758 -3.290649 -0.092862 3.494994 2.295656 
天主教 1.927156 1.041417 -0.841506 -1.369904 1.193747 0.808630 -0.648831 0.283018 1.266770 4.153056 
吳 0.619624 1.492228 1.204432 -1.526615 -2.966207 -0.463965 -1.021740 1.556346 0.284241 1.018438 
亞歷山大 0.712197 -2.120686 3.656045 -5.621202 0.582869 3.583342 0.986631 -2.782902 -3.477705 -3.485726 
波蘭 0.137192 1.385558 2.944005 -0.435353 3.204318 0.830063 -0.082087 3.962056 -2.756445 0.298690 
以色列 -1.280325 -1.466359 -2.080171 -4.086862 1.549329 3.314732 -5.188904 4.238351 -6.082937 -0.437148 
明白 -0.210500 0.313845 -1.018503 -0.739375 1.077256 1.930948 -0.419048 0.301465 0.742056 2.124080 
臺灣省 -2.682686 0.400871 -5.326381 -1.974002 -1.940830 3.143667 -0.275051 0.985890 -0.929000 6.947441 
法典 6.197118 0.205365 2.258994 -0.160093 1.032110 3.238175 -0.094839 -0.056127 -3.071455 1.137299 
太陽 2.996164 -5.009837 -1.092397 -4.312687 -1.132367 4.431118 -1.262049 -1.079882 1.862538 3.868857 
安平 -3.506653 4.596158 0.863801 -2.987803 1.183806 -0.763998 -2.967691 0.530259 0.472996 4.406760 
家族 1.805108 2.438769 1.209533 -1.542156 -1.551678 2.358013 0.626846 -0.840329 -0.893559 -0.249926 
英法 -1.449722 1.364027 4.487451 -0.218577 3.099960 -3.160745 3.039452 0.829015 -1.563562 3.434232 
抗議 -2.889989 -0.045879 -3.252955 -0.692351 0.856627 2.662306 0.282319 3.023000 -1.219025 1.594505 
魏 1.210507 -1.791278 8.061214 -1.323347 -2.394394 1.178023 1.345240 1.606044 0.170954 -0.592885 
城邦 -0.111706 -0.960252 1.440876 -4.021757 1.599965 5.453349 -1.462125 1.062674 -0.358068 -3.349189 
乾隆 -2.438472 2.229978 1.632703 -1.803129 -3.055648 -1.526844 0.096019 -2.168145 -3.125898 5.754360 
東亞 -1.988985 3.073361 -1.293947 -0.470961 1.554519 2.279938 1.455464 -3.071001 -3.583981 1.322116 
明治維新 -2.246137 -1.951947 1.728451 2.609899 4.131859 4.867592 2.470234 -1.530412 -3.962794 2.155572 
玉山 -1.815870 2.431797 -0.180472 -1.390120 -2.894899 2.790602 -1.295102 -0.314568 0.613644 1.285160 
秦 -0.397015 -5.516147 3.437126 -1.413726 0.155184 2.487330 1.874024 -1.145165 0.729005 0.602033 
地中海 2.740779 1.753751 -0.190281 -2.350378 3.451766 0.569011 -0.572324 1.600103 -2.818052 -0.674400 
福星 -2.456436 6.495100 0.400645 -1.264215 2.174287 6.880643 -0.767853 0.372013 -0.083534 -0.847435 
共和國 0.186845 -0.660909 0.101536 -1.586256 3.663260 1.785142 1.268604 2.436150 -0.724081 0.375689 
長城 -2.252277 -5.738913 3.978269 -2.427524 -0.747547 0.057322 4.325512 -0.567469 -2.877664 1.156665 
俄羅斯 0.083150 -0.775696 4.194688 -0.931173 3.009673 -0.266955 -1.522176 3.142606 -2.585270 -0.677990 
漢武帝 0.551504 -5.748653 2.164813 -1.179336 -0.656306 2.540059 2.675321 1.829312 -1.858489 2.263966 
啟蒙運動 2.143035 1.064105 1.232199 -0.694791 1.924918 5.285809 1.724013 -2.182066 2.757972 4.079792 
資本主義 -0.421710 -1.164635 0.711582 1.673558 0.913018 3.078699 -1.827625 0.607227 -0.630073 1.456769 
北洋 -4.227984 -0.741858 1.361027 -0.438240 2.191506 0.808577 2.443762 5.161648 1.261959 3.456291 
陸軍 -2.050727 0.757354 0.702222 0.049559 1.485965 1.249789 3.364011 3.713245 -0.767212 1.562886 
陳永華 -0.880149 0.308465 -0.298094 -6.873314 -0.086452 -2.536507 2.825655 2.091163 0.935201 5.753075 
中文 -1.933268 -0.214691 1.857978 1.869774 -0.285204 1.606331 0.006487 0.892937 0.763684 2.756921 
美麗 1.397203 0.521668 -2.218645 -2.443378 0.289472 1.944429 -1.142372 0.074256 0.649410 0.574390 
林則徐 -3.853080 4.983338 6.047451 1.969812 -0.502608 2.008513 -1.314578 -4.232846 -1.629069 4.656493 
農耕 -0.964930 0.136250 0.924614 -4.141297 1.051735 0.000331 -0.534414 -2.383707 0.157677 -0.168310 
長濱 -4.494752 -0.592535 -0.472545 -5.703291 1.895167 0.754166 1.319635 -3.572069 -2.248270 2.208604 
權威 2.825279 -2.152483 -0.024383 -0.305119 1.045246 1.115029 0.374490 -0.337095 0.253050 2.476522 
西漢 2.372020 -5.567057 5.183379 -0.479847 -1.842149 2.714008 2.583537 2.661359 -3.446248 0.263368 
秦國 -2.162599 -3.312032 7.464581 -3.478529 3.741644 3.008538 2.313919 -2.980723 2.499858 1.562203 
祖先 -0.617077 0.092548 3.136280 -1.456314 -3.652943 3.902648 -4.650854 -5.166548 0.621213 1.797977 
孔子 -0.046851 -1.762406 3.933619 -2.709248 -0.644531 2.055410 2.262655 -0.652934 5.581617 3.236395 
臺北市 -2.260743 0.683338 -3.722642 -3.553389 -5.219493 3.309919 0.647815 -0.276872 -0.414282 5.145833 
羅斯福 -2.611543 -1.186770 0.338482 0.180929 3.466059 0.748149 -0.611061 2.392663 -2.067913 2.211382 
五四運動 -2.472948 -5.388758 -1.199552 0.091728 2.147228 7.330021 1.225172 1.569709 0.661484 0.512158 
蔡元培 -3.548142 -5.028620 -0.061206 -2.290698 0.245216 5.816984 2.409907 1.469592 0.130267 -2.525668 
東歐 -1.346587 -1.260202 2.602437 -2.444947 2.637063 0.130863 -1.425900 4.771576 -2.411252 -1.821691 
湖北 -0.698305 3.281962 1.655403 -0.333511 -2.706813 2.774342 2.354001 7.188806 1.234060 1.674888 
英國人 0.526841 5.231418 1.014557 0.795652 2.149649 1.209382 1.070806 -1.290046 -2.693176 3.563279 
孔廟 -1.845243 -1.428618 -0.186113 -7.031056 -1.140270 -2.477645 0.793203 -0.359145 4.201059 6.017107 
戊戌變法 -3.471067 -4.776732 1.463222 2.907758 -1.343081 2.237347 1.112397 1.643418 -0.524167 5.696751 
牛頓 2.261764 0.676539 -0.551796 -2.550036 -0.724651 3.688223 5.131311 -2.354718 2.015930 2.778950 
黃帝 -0.434502 -4.064434 4.837040 -5.686783 -3.752902 3.163867 3.274884 -2.924262 3.687931 4.825549 
北韓 -5.871333 -4.664487 -1.265288 -2.042667 0.938409 1.953081 -3.815675 2.146489 -2.843220 1.882273 
南洋 -3.502630 2.730798 1.348288 -0.179236 -0.259364 1.528619 -1.196773 -2.819264 -2.759252 -0.105919 
紅衛兵 -1.129957 -0.469417 0.666229 -3.593499 -1.778620 2.820887 -4.424233 2.690240 4.791555 0.690964 
宮 1.128793 1.362547 -0.116199 -3.062950 -1.770342 -0.595193 4.389613 -1.056324 -0.352783 5.612350 
卑南文化 -4.182753 -2.671745 3.116487 -1.627653 -3.641019 -0.288903 -3.800431 -1.539609 -2.023230 1.015286 
段祺瑞 -2.896293 0.274712 0.478857 -3.346755 1.515960 1.844619 5.563614 3.744552 2.516121 1.148908 
泉州 -0.978845 5.216449 1.273001 -2.619801 -3.167927 -0.079593 3.262017 -0.293735 -4.481872 2.552128 
袁 -2.093490 1.307366 0.023384 -0.410915 0.386202 5.789473 4.101022 4.707604 1.175388 2.366974 
二十世紀 -0.634774 0.055333 -1.591821 -0.824157 3.903262 1.147194 -0.112936 1.457399 -0.245614 2.248483 
四川 -1.964137 4.280179 1.974122 -0.809684 -3.593944 3.173199 1.113940 4.648593 -1.755464 -0.486918 
廈門 -3.067469 4.734295 1.477605 -2.748851 -0.524294 -1.151499 2.842731 1.455876 -1.085928 2.936681 
耶穌會 3.308102 0.687766 -0.607267 -1.205087 -0.517448 0.843160 -1.323386 -1.396784 -0.045115 4.931553 
岳飛 2.661638 2.450514 -0.975146 0.532548 -6.216589 4.360667 0.651318 5.985924 -5.663949 3.300950 
胡人 -2.621434 -0.593395 4.795383 -4.551370 -3.760347 1.091996 1.781899 -0.366417 -5.143460 -4.003004 
嘉慶 -1.080415 4.166483 -0.902572 -2.004860 -2.838028 0.814751 -1.636943 -2.429935 -4.010787 6.543689 
抗戰 -6.783933 -0.634639 -0.919864 -0.365971 -0.289979 4.314164 -0.262466 1.841734 -2.356841 -0.469816 
東華 -3.951753 0.538441 2.723202 1.814687 -1.073253 2.477015 1.191748 0.788280 0.734516 2.367231 
澈底 0.004379 0.689940 -0.271281 -0.108911 -0.203862 2.301294 -1.708829 1.382699 -0.166838 0.893022 
英雄 2.703876 -1.377993 1.347267 -2.386712 0.875740 2.765447 0.855126 2.683214 1.459081 -0.180785 
柏林 -2.723424 -0.959070 2.869581 -2.129769 4.390264 -1.333118 1.977086 2.616365 -2.410232 1.316363 
經濟大恐慌 -2.000490 -0.404085 1.368602 0.701614 1.467863 1.437570 -0.210200 1.928902 -1.319225 1.258492 
維也納會議 3.526986 1.086982 2.998802 0.628416 4.556806 2.023969 2.065509 3.949546 -1.901501 4.047349 
噶瑪蘭 -1.138473 2.421369 -0.502750 -3.666291 -1.814808 1.654145 -6.999491 -3.897558 -3.206659 4.117448 
長達 -0.516424 0.257551 -0.106580 -0.539552 -0.448945 -0.266557 -0.288577 0.806955 -0.370529 1.290608 
張騫 0.210736 -6.190060 1.795253 -1.359091 -0.149601 -0.032145 1.260019 0.871428 -5.765190 3.580358 
日月潭 -4.296147 0.313728 1.621189 0.641106 -2.409557 7.115461 -5.904297 0.084638 -3.393158 -1.786584 
藉口 -3.164237 0.487120 0.556711 0.918871 0.871044 0.920156 1.989257 2.009162 -2.179119 1.217470 
鹿港 -3.998064 1.933559 -0.620975 -5.306591 -3.968286 -0.481961 -0.725914 2.789327 0.191775 2.101786 
查士丁尼 2.952878 -3.347670 -0.226596 -7.638243 3.171022 -2.893514 -2.526034 1.410291 -1.247822 4.155714 
薩 1.496610 0.198106 0.426427 -1.433783 4.311195 1.747514 3.218143 0.320642 -1.822724 0.216937 
歐 1.568087 1.004720 1.004453 -2.611157 2.841332 3.178859 -1.700698 -0.231001 -2.650544 -2.242584 
新竹 -5.311430 3.353595 -1.852711 -1.382404 -0.410418 3.210608 -3.050775 -2.165588 -0.769810 3.211958 
巴比倫 1.972270 -0.753222 2.242010 -1.058079 0.573552 6.004338 -4.899804 0.602351 -5.112783 -2.518309 
新文化運動 -3.224846 -4.523078 0.707976 -1.974352 0.077278 6.021118 2.576622 0.042406 2.477644 1.926280 
文教 -2.716924 -1.372006 -1.653599 -2.499255 0.033733 0.425230 1.659075 -0.145408 1.459326 3.394756 
宗教改革 4.376716 1.379362 0.957637 -1.475031 0.348418 1.263672 -2.450255 -0.351132 1.085435 6.140940 
斯巴達 -0.826148 0.116221 0.210440 -5.775564 -0.424902 6.377842 1.734778 2.876482 -3.584578 -5.645012 
盛世 -1.264667 -1.491090 3.287294 -1.074344 -5.498991 -1.482816 -0.905560 -0.585225 -5.116689 3.343169 
海洋 -0.952706 0.539171 -1.110175 -2.856153 1.887346 -0.622071 -0.670907 -2.193354 0.482086 2.403629 
君士坦丁堡 2.034816 0.337016 0.513928 -6.454526 2.365958 -1.292949 -0.867036 0.726789 0.798929 1.771444 
宣言 -0.327662 0.041604 -0.239532 0.839254 4.007068 2.410362 -0.527321 2.937265 -1.602868 2.733233 
東德 -4.223364 -3.169357 4.196083 -4.277633 2.242264 -0.726216 0.690721 1.952157 -5.523598 -1.006210 
伽利略 4.395857 -1.411414 -0.540594 -5.444208 -2.830900 2.115381 2.458567 0.261847 2.814425 3.247865 
文化大革命 -1.791438 0.425849 2.046276 -1.594504 -1.006269 4.128850 -3.497293 4.623349 3.163837 -0.734379 
長江 -4.188622 0.553178 3.697452 0.446686 -2.635893 -0.370835 0.325470 4.554381 0.378583 2.179681 
連 -1.858456 -1.086839 0.025219 -0.001317 1.289908 1.457195 -0.855348 -0.673889 0.560369 1.458322 
金字塔 2.996380 -3.191867 1.925019 -4.649115 1.223358 1.719255 -5.031326 1.151806 1.071459 4.949619 
東京 -3.517989 3.559252 1.578512 1.361766 1.105805 6.118695 2.705293 0.056816 0.233004 0.363394 
尼羅河 0.642230 -3.827409 4.280859 -6.526473 -0.151179 0.590844 -6.213614 -0.265786 0.546297 1.073833 
封鎖 -3.048490 0.757369 0.066059 -1.872249 2.099329 -0.680584 0.565290 1.712208 -0.514353 1.769159 
舊石器時代 -4.686527 -3.067067 2.463017 -5.352617 -1.063812 1.364225 1.262943 -5.270419 0.792563 1.511880 
武漢 -4.086854 0.748073 1.628722 1.353532 -0.624754 3.360724 0.356816 1.967798 0.989159 -0.043662 
太祖 1.074473 -3.117465 1.109606 -1.344251 -6.638216 1.163921 0.021214 -2.943208 -2.990622 5.832986 
新石器 -5.318630 -1.953252 -1.940765 -4.855198 -1.637784 2.101167 1.013189 -3.006040 -1.263834 0.887717 
路易十四 3.107452 -1.695937 4.756770 0.584914 2.343829 2.266652 2.635128 -2.686254 1.659263 5.960614 
丁尼亞 1.840032 -0.263219 2.051534 -2.621892 4.703830 1.505662 5.461379 -0.391406 -1.441903 1.735890 
南島 -4.134484 0.092814 -0.517641 -5.784345 2.923079 0.974953 -1.729712 -5.306804 -2.937288 3.958585 
道教 0.986394 1.242463 5.820459 -1.311775 -4.935522 2.420937 4.906355 0.512914 -2.091674 0.424665 
府城 -2.214364 4.609747 0.005559 -5.746172 -0.974184 -0.658392 -3.303452 1.301052 -0.274895 2.339673 
科學革命 2.475950 -0.144836 -0.528453 -1.513991 -0.828672 3.672576 2.526325 -2.909858 2.312279 4.373658 
穆斯林 1.673803 2.859196 -0.083614 -4.189480 3.127024 -0.849076 -2.826034 -0.964555 -5.340583 1.431126 
西安事變 -8.701224 -1.454533 0.551032 -0.340578 -1.151564 4.810643 0.363061 0.122707 -1.965817 -0.245536 
白銀 -1.435898 1.018872 2.604467 0.706084 1.407744 -1.170056 -1.016571 0.045866 0.222330 4.863478 
耶穌 3.963140 3.530751 -1.689218 -6.043566 -0.486899 3.710015 -3.439394 4.918953 -0.053612 2.677283 
匈 0.116297 -0.368015 5.064226 -2.427230 3.076218 -2.172537 1.083033 1.429474 -2.257459 0.560695 
朝貢 -1.614057 -0.064979 4.434307 -0.285315 0.007938 -1.722768 -1.955458 0.226807 -0.774920 3.315937 
布 0.364876 0.963021 -1.270105 0.222648 0.761651 2.097459 1.727912 0.059217 -0.554994 0.908178 
楚 -1.765732 -2.669922 4.901694 -1.504012 5.491734 3.281134 0.690220 2.251939 2.791178 0.119841 
南韓 -5.534835 -4.301060 -1.105399 -1.551570 1.137302 2.041389 -4.513876 1.419030 -2.235116 2.376790 
滿清 -2.103257 1.491143 -0.430442 1.473977 -0.786964 1.765104 2.285731 0.741691 -0.531554 3.762482 
史前文化 -4.311940 -0.152316 2.415242 -3.655366 0.616684 0.780950 1.212523 -4.674648 0.021630 3.023597 
武則天 -1.190486 0.525567 1.815164 0.249550 -4.652653 0.939251 -1.941300 0.886247 -2.846697 0.522219 
大國 -1.553151 -1.183652 6.338561 1.628150 2.261173 0.074748 -1.191169 1.152364 -1.835192 1.766252 
陳獨秀 0.098637 -3.058792 1.313111 -0.344206 0.079660 7.238331 4.741722 -1.181491 0.846796 0.627535 
曹錕 -4.281640 -0.134983 0.463531 -2.185491 -0.893680 1.970640 5.500132 0.586866 1.092066 1.676316 
加里 0.986007 -0.080286 1.351808 -3.052705 6.255825 2.746628 4.666962 0.982260 -1.207696 0.672773 
希臘人 2.668097 -2.202310 1.705765 -4.957222 1.052561 3.571181 1.616158 3.554157 -0.751808 -1.643355 
史達林 -3.847117 0.072403 1.722427 0.905048 2.359571 1.598470 -1.506455 4.895241 -2.707998 0.851930 
伊斯蘭世界 1.439278 1.326367 0.410955 -4.791286 3.070255 -0.344978 -1.569805 -0.952717 -4.026509 0.035768 
西夏 -0.945744 -3.074199 -3.019287 -2.906837 -3.613687 1.918397 -4.506223 2.006525 -6.216384 2.839002 
日語 -5.608364 -0.878971 -4.941140 -3.164714 -1.512212 6.924488 1.024638 -1.239809 -5.368360 -0.961112 
桃園 -2.188138 1.882171 -0.480418 -0.705887 -0.950363 2.482554 -1.484131 -1.131625 0.147918 0.929494 
莊園 3.270289 4.688095 2.062657 -1.525184 2.176924 3.263244 -1.026924 2.178609 0.631070 0.522140 
王安石 0.965812 -4.610813 -1.949289 1.279688 -1.744063 8.034645 -0.487724 -0.860340 -2.112062 5.090478 
吳佩孚 -3.436092 -0.472299 2.649502 -3.887775 2.213470 0.537039 7.182411 2.159793 1.709163 3.851193 
夏 -1.389703 -5.552551 -1.083335 -3.328288 -2.610579 0.649742 -2.051743 -1.638697 -3.332810 4.278983 
梁 -1.238241 -2.680952 1.973836 1.938414 -1.613094 2.681593 2.846274 2.280807 -0.606371 2.288366 
廣西 -3.701112 1.476246 1.835853 0.085929 -1.425474 0.334855 -0.000391 3.685413 2.306104 3.566643 
金屬器時代 -6.089758 -1.218566 -1.723018 -5.189644 -2.107014 2.775992 0.815090 -2.780464 -1.727754 0.873188 
鄂圖曼土耳其 0.116050 -2.388007 1.402439 -3.498681 5.585705 0.083098 -0.513731 1.163542 -3.273226 0.525616 
山區 -1.946552 0.130441 1.135369 -1.861362 2.415401 0.525805 -2.553272 -0.434464 1.519735 -0.019692 
邦聯 1.643214 -0.766579 5.620048 1.777115 2.385795 1.029089 0.954773 3.129926 -1.170618 2.668494 
高達 -1.175492 0.299105 0.843994 -1.111274 0.669113 1.171944 -0.812764 0.035976 0.894680 1.062220 
巴爾幹半島 0.496006 -3.326059 1.940268 -4.241890 6.413878 0.376819 0.862310 2.241827 -3.407085 0.295842 
施政 0.092334 -1.169869 -0.164010 0.453588 0.762873 2.137873 1.276877 -0.245981 0.629327 2.360752 
魯迅 -0.203021 -0.710939 2.579028 1.436469 -1.213505 10.030682 1.746777 -3.074173 1.123602 1.208740 
光緒皇帝 -2.363573 -5.402918 1.321236 0.303873 -0.765837 -0.820794 1.368788 2.698621 -0.451928 5.600822 
對外貿易 -2.087724 -0.541303 -0.488660 -2.577101 1.565308 -1.604999 0.097902 -2.790087 -1.048660 3.387804 
共產主義 -1.323800 -2.582235 0.749153 0.974901 0.590485 3.326572 -2.531846 3.286627 -1.244033 0.538621 
普及 0.810250 -0.111299 0.948309 -0.500775 -0.937705 1.922993 0.738794 -0.257622 1.181850 0.648788 
天安門 -3.154681 -2.844696 -1.869213 -1.119631 -2.945622 6.396122 0.781305 3.172585 1.788855 1.998628 
太平洋 -4.269119 -0.877893 0.185849 -1.211749 5.437484 0.766476 -1.382434 -1.419024 -2.329228 3.656088 
洪秀全 0.767309 1.578217 3.442134 1.380384 -1.943994 0.005195 -2.137191 2.334707 -0.473374 5.397813 
培根 2.777861 0.313223 0.401801 0.464729 -2.429334 3.734868 4.844395 -0.181125 0.456019 4.999695 
秦漢 0.351738 -3.121232 3.055760 -0.770401 -1.260457 0.776245 1.067021 -0.300786 -0.820989 1.540735 
道德 2.203070 -0.790044 0.853959 -1.232089 -0.066978 3.279921 0.312595 -0.808666 1.178000 0.041367 
福州 -3.381171 4.709080 2.315158 -1.242475 -2.550329 -0.666388 0.164310 0.971894 -0.372019 3.188243 
馬關條約 -4.743933 0.877109 1.899039 1.462761 0.479367 1.427716 -2.115772 2.096180 -1.951711 2.910829 
中法戰爭 -3.195242 2.466446 2.025800 1.780258 -1.629565 0.481383 -1.997471 3.168197 0.201514 3.327157 
古希臘 2.692117 -0.616682 1.774552 -4.533825 2.360322 1.898566 0.357224 0.600739 0.829289 -0.003197 
古典 3.117482 1.466920 0.941108 -3.582333 0.783379 2.838184 1.173718 -1.094255 0.609968 -0.179984 
高宗 -0.325389 1.686036 0.772803 -0.043325 -5.171207 2.224963 1.643083 3.706412 -4.757283 3.186656 
特洛伊 3.193825 -0.447649 2.634531 -4.899382 -1.964908 5.989552 2.663085 1.728724 -0.683734 -3.168101 
苗栗 -3.037668 4.841750 -1.541371 -1.418191 1.195134 6.521061 -3.050777 -1.544342 -0.785257 -0.071230 
隋 -0.573238 -2.771360 4.137115 -1.886418 -3.392800 -0.360136 -1.167693 -0.245545 -1.935151 0.432914 
滿洲國 -7.132989 -2.684762 3.146168 -3.356105 0.744527 1.246941 2.144665 1.075662 0.374867 -0.133329 
浙江 -2.067546 1.283069 1.687840 0.611886 -2.060777 1.265138 1.057379 1.046410 -0.070599 1.800443 
木乃伊 2.194662 -2.948929 3.212991 -5.675422 -0.669584 -0.377113 -5.053286 -2.340739 0.349291 2.233699 
君王 4.949676 -1.277151 3.820435 0.503418 0.271949 3.683844 0.963080 -0.108059 0.241776 1.785363 
新平 -3.819588 2.735406 -0.581677 -1.306905 -0.377916 6.781013 0.798436 -2.333767 2.403544 2.316175 
新教 3.818379 1.773411 0.558241 -2.560026 -1.016621 2.183115 -1.986899 -0.685072 0.516981 6.187487 
辛亥革命 -2.543259 0.100239 2.187692 2.098431 -1.184835 4.458356 0.671756 3.063306 2.007905 2.249531 
澳門 -1.338984 4.018089 0.315330 -0.435690 2.014512 0.222322 -1.155598 -0.618376 -0.026106 4.954332 
納粹 -0.158579 -0.478570 0.820735 -0.481457 2.023363 0.985155 -0.369777 3.191813 -2.950221 0.157904 
亨利八世 5.733912 0.357314 1.284300 -1.123703 -1.854249 2.466355 -0.901255 -0.269825 0.605900 6.897732 
加富爾 1.550669 -0.575181 1.870220 -2.169554 3.901006 1.460835 5.882739 0.521868 -1.035457 0.763932 
歐洲各國 1.842266 -0.227478 -0.450150 -0.400614 2.900753 1.056808 -0.014700 -0.290907 -0.661795 2.813876 
抗爭 -2.320952 2.071424 -0.656358 -1.032015 0.491786 2.257811 -0.199662 0.244571 -0.664149 -0.543609 
韓國 -3.177886 -2.984266 1.356792 0.026442 3.474797 2.761232 -1.029943 -1.366831 -1.691969 0.645049 
張作霖 -8.553121 0.490102 2.644180 -4.462247 1.459152 2.004303 4.645551 0.180529 -0.077017 -0.008386 
古埃及 2.858442 -4.172165 3.330293 -5.193277 0.103361 0.820311 -3.463145 -1.491270 0.713915 2.813774 
中原 -1.441943 -0.366790 2.705408 -2.495479 -4.017701 0.246666 1.219193 1.125013 -2.664373 -1.272101 
祖 -0.422013 3.991541 1.106237 -1.520636 -3.610192 3.032788 0.083701 -5.211295 -0.338677 2.720713 
李白 -4.019797 1.362929 3.581668 -3.573553 -5.103513 2.834192 -1.528821 4.073488 -4.906109 -3.083398 
巴勒斯坦 0.368414 0.739782 -0.539665 -1.554924 3.601620 3.904339 -4.403793 0.971203 -7.252671 0.442454 
六國 -1.613855 -4.297809 3.720546 -2.655720 3.079545 1.648837 2.978068 -0.661691 0.223567 -0.232712 
宜蘭 -1.952793 3.593403 -1.604668 -2.176853 -0.261053 1.828935 -4.129505 -1.441165 -0.459146 2.648030 
胡適 -2.685215 -4.549311 -0.327152 -0.511571 0.369012 8.841753 2.175566 0.003540 1.509588 -0.389456 
凡爾賽 -0.388415 -0.215544 0.321889 2.087773 3.625111 3.732141 1.295876 6.701928 -3.759809 1.844603 
國際貿易 -0.562846 3.021750 -1.022706 -1.735669 0.948953 0.955512 -1.432915 -0.212223 -2.416834 0.264666 
佛羅倫 3.680642 3.070997 2.988788 -5.137709 1.589969 1.584672 0.894531 -1.727640 2.725796 0.656918 
封建制度 3.805958 1.788355 5.088198 -0.999540 2.079719 2.196408 -2.026930 -0.168652 1.052557 0.400523 
黎元洪 -1.699361 2.062297 1.831325 -4.367002 0.694199 2.055122 5.608114 3.647352 3.351632 2.055472 
伏爾泰 3.493278 0.663377 3.826437 0.763397 1.867916 5.455898 2.045224 0.536253 3.160322 2.421449 
嘉南大圳 -4.471829 3.124905 3.673075 -2.778883 -2.151564 5.329158 -0.854735 -1.606881 -2.369998 -3.304290 
神聖羅馬帝國 3.935778 0.386713 4.626439 -0.826457 1.455509 -0.372666 0.542801 2.818954 -2.036425 1.585694 
達悟族 -0.081961 -1.150306 2.746759 -5.609624 4.081170 4.675919 -3.477739 -6.045185 1.943706 1.998636 
中亞 0.015494 0.615409 4.427904 -3.494886 -0.970582 -1.946781 -1.899125 1.346676 -5.355706 -1.168167 
契丹 0.806163 -1.807297 -1.386026 -3.074319 -5.364573 3.337948 4.145731 -0.249915 -4.572176 1.826769 
鹿 -3.174486 1.501665 0.250212 -5.402207 -1.939952 -0.990140 -0.364624 -0.394283 1.710513 2.298009 
大躍進 -5.094406 -2.714592 2.665837 -4.323690 1.503053 3.034943 -5.186316 4.948285 2.380683 -0.720338 
趙匡胤 1.922135 -3.569576 0.135142 -0.747543 -5.792734 4.108625 -0.497217 -1.361446 -1.855769 5.089170 
劉邦 1.173064 -4.596623 5.020093 0.347927 0.719232 4.015265 2.028520 3.378703 -3.085833 -1.499440 
爾 1.019472 0.117075 0.946626 -2.338688 0.403369 -0.343602 -3.467062 1.968820 -0.582141 -0.429463 
哥白尼 3.409506 -2.965265 -0.705235 -3.246640 -0.212498 4.267040 1.261230 0.231335 1.621125 3.579997 
庚子 -3.995204 -2.238990 1.580899 2.439779 -1.057178 2.052617 1.220217 1.745468 0.130736 4.908357 
宗 -1.529050 1.557637 2.142941 0.535173 -2.751185 -0.181056 -0.788651 0.106314 -1.207122 1.598548 
京 0.016406 0.048579 0.230369 -2.185328 -2.253124 1.037440 -0.106960 0.064997 -0.412369 0.808584 
基督徒 1.883505 1.095085 -2.633743 -3.082609 1.647578 -0.560662 -0.345846 0.312637 -4.495862 3.338450 
八股文 -4.125394 -4.269678 1.174373 0.826580 -2.296760 0.330373 -2.057042 0.576051 -4.243192 3.597754 
兩河 1.794650 -1.947602 3.282581 -3.523845 1.109567 4.239913 -3.449569 -0.559120 -3.510387 -1.781732 
牡丹社事件 -3.572719 2.593362 1.009980 -1.004253 -0.609735 0.943311 -3.827240 -0.275411 -2.939419 0.288895 
印第安人 2.305790 -0.013235 -0.859351 -2.896461 5.618460 2.447353 -2.588171 2.336076 2.927952 5.109492 
菲律賓 -2.113438 2.983763 -0.963579 -2.465237 5.285593 1.643065 -1.211749 -1.953863 -1.765093 2.223307 
圓山 -4.517811 -0.865390 2.369613 -8.883132 -4.148983 1.939480 -1.479097 -3.463926 -0.510403 -0.701704 
彰化縣 -2.905434 2.999379 0.236239 -5.179053 -3.936053 -1.106018 -1.125631 0.480085 -3.105878 2.283319 
天皇 0.323193 -1.562927 -0.855077 0.615551 1.721990 6.044826 2.121461 -1.645679 -6.750556 0.013792 
華 -2.694268 0.908781 0.730292 1.468568 0.777037 1.094921 2.806538 1.951566 -2.343709 2.524950 
高麗 -1.032233 -3.065211 2.610226 -0.452425 -2.212135 0.892526 -1.980963 1.272481 -2.598617 0.263505 
馬雅 -0.027580 -3.239615 -1.176098 -4.584569 3.032160 5.050146 -4.752563 1.055740 1.893793 2.912802 
湖南 -1.773027 1.692344 2.360604 0.139589 -3.540336 3.471725 0.844415 3.812279 1.183902 0.195142 
德軍 -2.435094 2.527259 2.216952 0.299807 5.242487 1.519730 2.992545 4.866027 -3.637309 2.441931 
林爽文 -3.147381 2.307150 -0.627859 -3.210017 -3.303970 1.513682 -0.093132 -3.908289 -4.379729 1.634152 
辛丑和約 -4.676061 -1.544790 2.695106 0.847254 1.926610 -0.352674 3.404041 1.175640 -0.993049 4.381503 
印象派 2.398695 -3.984965 -1.768664 -0.611917 3.185892 3.790990 1.698422 3.471825 0.672533 4.023408 
班超 0.503093 -6.285010 2.769659 0.124750 -0.301988 -0.362629 1.417787 1.565050 -5.313935 2.874154 
倫敦 0.905028 2.861400 0.358169 0.243102 1.563744 1.201572 4.451534 0.924076 -2.156487 3.026145 
關聯 -2.979801 -1.314902 -1.490887 -0.870510 0.132880 1.091145 -0.134215 -0.993044 0.676814 3.097668 
政治社會運動 -5.934089 1.801314 -0.355253 -1.605086 -2.225962 6.323146 -0.441492 -2.735241 1.961172 1.710631 
法西斯 0.747143 -1.380994 0.381593 -1.993506 3.569542 1.706701 2.196504 2.878659 -1.075879 0.797185 
法蘭克 4.061316 0.807681 4.975937 -2.210241 -0.655388 -1.646863 1.361680 2.471592 -3.166955 2.543656 
君士坦丁 3.578696 -0.914807 -3.591258 -7.068778 1.762308 0.417773 0.520358 0.767362 -2.383955 1.466636 
巴 -1.110174 3.783752 -0.712908 -2.184685 2.724053 1.603287 0.437493 -2.179543 -1.886450 1.443441 
黑死病 2.374782 5.762383 3.360258 -3.367829 1.486124 1.743844 -5.482526 3.225426 2.740287 1.350877 
晉 -0.021841 0.543113 8.850938 -1.973135 -3.209041 0.583096 1.795072 0.170392 -0.540948 -0.720414 
呂不韋 -1.685732 -2.541591 5.917924 -3.660107 4.029250 3.956914 3.663447 -3.218635 2.880396 1.515981 
國教 2.420436 0.472378 -2.682983 -2.569877 0.219211 3.103766 0.916782 -1.507732 -1.411858 1.475155 
拉丁文 4.932669 2.663636 2.292596 -3.198014 -0.672239 1.800202 -1.001373 1.122800 -0.514912 1.592333 
王莽 1.897016 -3.286215 3.185647 -0.250094 -0.241107 1.316471 0.835518 2.833314 -2.528465 -0.019261 
古文明 2.186642 -2.030899 0.839777 -2.442347 1.736200 3.762527 -4.088360 -0.921587 -0.113089 -0.075760 
西化 -0.828956 -2.628864 3.509386 2.778480 3.018913 5.149428 0.874965 0.230416 0.932814 2.454020 
邱吉爾 -1.290576 0.377670 0.008823 1.043395 2.810578 0.574194 0.273030 5.282318 -6.442410 3.030736 
西北 -3.760846 -2.684793 2.579656 -0.359881 -1.007221 -0.322625 -2.072231 0.846243 -2.814116 1.584791 
毛 -0.056563 2.243479 4.054739 0.008195 -0.297286 4.906620 -3.344123 5.270648 1.829519 -1.417674 
漢口 -2.493338 3.270927 4.910793 0.686579 -1.958545 -0.277247 -0.014440 3.853457 0.981005 3.023976 
河南 -1.397179 -4.032908 2.172889 -2.126942 -4.746366 1.047863 0.697153 0.470530 0.248325 0.611764 
福 -1.221980 1.641569 0.184474 -0.949574 -2.045632 1.345749 1.016143 1.931394 1.765353 1.072364 
百科全書 1.131325 1.321303 0.979470 -1.437401 1.556393 3.829339 0.934445 1.713798 2.894907 0.779574 
士大夫 1.833998 -0.451533 -0.607252 2.372847 -4.148201 2.793540 -1.466104 -0.081405 -0.923890 4.452355 
馬歇爾 -3.593643 -0.963010 0.197104 -1.098353 4.675624 1.045852 -1.087358 2.833176 -1.079370 1.219386 
英格蘭 2.795459 4.373849 3.301011 -2.690022 0.545063 -0.579943 1.444519 0.196269 -0.166047 2.303293 
馬克 -0.899437 -0.517053 1.628986 -1.390598 0.665633 0.201875 1.231468 0.697882 -1.265232 0.276851 
改革開放 -4.010017 -0.749556 -0.013709 -1.744686 -3.810771 6.100134 -2.582355 1.467719 1.880279 1.696577 
國聯 -4.021793 -3.007058 1.620005 -2.705992 5.781421 1.963299 0.249473 1.769024 1.244601 -0.283373 
盧梭 3.679739 2.573188 0.883429 0.439833 2.815603 5.871377 1.124311 2.507748 3.532424 3.379879 
朝 -2.136345 0.336251 -0.352636 -0.263855 -3.089804 2.195895 -0.149169 0.584132 0.722794 0.744212 
臺灣海峽 -4.854436 0.409515 -1.202706 -3.792733 0.188124 -0.732480 -0.307835 -1.339144 -1.958754 2.385108 
治安 -2.127989 1.191911 -0.836984 0.702220 -1.759471 2.399425 -0.001728 -1.615050 -0.911832 3.079637 
比利時 -0.804808 2.918828 2.387248 0.693715 3.814396 0.075457 4.268901 2.449306 -3.434155 3.392790 
阿育王 2.579621 1.607914 4.334119 -0.396945 -0.896639 6.092535 0.708020 -5.515416 -4.910056 -0.533003 
北美 -1.164684 2.041419 0.570175 1.149915 4.924248 3.392255 -0.718928 -1.772601 -0.773388 5.788733 
漢化 -1.904746 0.344690 2.592349 -5.555100 -4.423292 -0.755449 -1.649861 -0.500815 -1.136888 0.671745 
朱 -2.352607 2.268412 -0.937971 -1.500209 -2.723426 0.113576 -1.025121 1.664560 -0.008560 2.519675 
凡爾賽宮 2.447583 -2.600942 3.691285 1.397172 2.928709 2.889456 2.483588 0.467122 0.979697 4.205517 
光榮革命 3.111367 3.726139 1.572430 0.976754 -0.132920 3.454899 0.244671 -3.001773 -1.722982 4.602130 
都市 -2.411089 -0.971392 -1.238963 -1.084015 -1.140084 3.636916 -2.298277 -2.767633 -0.471937 5.091239 
城堡 0.966516 5.510288 -0.188371 -3.050182 2.522622 1.377976 1.239000 2.265623 0.462637 1.388725 
宮殿 2.493824 -7.076922 2.455298 -3.605658 0.436756 1.033229 -2.049298 -2.232913 0.246589 3.660478 
法蘭西 3.892859 0.461726 1.913841 -1.226631 1.698417 1.977043 3.531349 2.293117 -1.360536 4.032696 
江西 -3.262890 -0.854220 1.202088 -0.970597 -0.968848 2.520293 -0.699687 4.144667 2.444977 -0.020121 
丁日昌 -3.130228 5.552988 3.758621 -1.451515 0.733113 0.023312 -6.053685 2.485565 0.068949 2.902043 
印尼 -3.197280 5.082472 0.867481 -2.531264 6.863394 2.538396 -2.151140 -1.590200 -3.485810 0.828079 
哥倫布 0.869679 1.087035 3.234129 -2.752201 6.496659 -0.489383 -4.920525 -1.940089 -0.815955 4.872416 
太平軍 -0.570180 0.530745 1.961507 0.584476 -0.881445 0.238093 -1.233642 1.918211 0.064231 2.734456 
梅特涅 2.684177 0.307029 2.530555 0.710580 4.606244 1.576962 2.510452 3.364085 -2.037888 1.252537 
第三世界 -2.585202 -3.110310 1.963499 -0.892578 7.063279 2.728855 -5.261402 0.336609 -3.528399 0.578261 
列寧 -2.063631 -2.340657 2.242555 1.183040 0.986166 1.936131 -1.357889 1.691407 -1.651285 -0.214421 
敘利亞 0.415112 -2.187360 1.444446 -4.665884 0.704683 -0.116009 -3.265626 0.802101 -5.562507 -0.422933 
門第 1.314533 0.052878 7.547935 -0.923900 -6.022186 1.513670 -1.196508 1.972292 -1.515963 -0.006852 
烏克蘭 -3.159037 -0.865764 4.768681 -3.393390 2.401105 0.589689 -4.419138 4.894381 -4.128421 -1.156324 
英王 2.442153 2.536219 2.514963 -1.293443 0.154131 -0.576156 1.951062 -2.161959 -0.202698 6.903211 
馬克思 0.640389 -1.320132 0.158545 2.648269 -0.087104 5.706905 -3.650862 1.484494 -3.017248 4.641891 
凱薩 3.811622 -0.497078 5.361937 0.449816 1.189747 1.734334 0.203878 0.041144 0.733697 2.909457 
喀爾文 4.351869 0.745442 0.757944 -2.265322 -1.351350 1.573454 -2.999453 0.799343 1.409232 5.259023 
摩西 1.123626 -0.377396 -0.484181 -1.229979 0.622159 2.139419 -5.064616 1.219938 -3.076077 0.712217 
直隸 -4.161257 0.372707 2.401433 -0.382815 0.324762 -0.812782 0.494767 3.970716 1.078654 4.291309 
新疆 -2.781568 -1.829104 4.825607 0.625487 -1.803602 -0.502294 -0.814399 0.374206 -4.432422 2.310066 
回國 -0.160972 0.039049 1.633174 0.872164 1.063914 2.800840 0.938716 -0.486925 -0.159902 0.137284 
日耳曼人 4.469456 1.791183 3.517916 -3.693781 0.860521 -0.337305 0.218562 3.112728 -1.420026 1.059743 
甲骨文 -1.096603 -2.021775 10.409947 -1.294268 -0.957308 2.953510 -6.693437 -2.729856 -0.752782 0.687129 
蘇維埃 -4.002846 -1.602836 2.414570 2.116200 1.022235 3.899249 -1.020789 2.608356 -0.974641 0.505779 
胡 -2.219704 -1.566806 2.289862 -3.658162 -4.710439 -0.495032 0.966707 1.347137 -1.220851 0.240044 
鎖國 0.152746 0.289917 -2.745954 -0.885612 4.060349 4.804020 2.997157 -3.445912 -2.500846 2.323130 
宋教仁 -2.626721 0.509814 1.930330 1.033716 -0.821309 6.517230 4.227041 3.127410 0.375923 0.545380 
林立 1.898817 0.422847 1.043020 -0.656053 -0.299552 0.200307 1.009902 0.255242 -1.020273 -0.533293 
高峰 -1.412209 1.719041 0.562468 -1.365120 0.282895 -0.450495 -2.148804 -0.077309 -3.552438 0.492021 
越戰 -3.628175 -1.282130 -1.291269 -1.649431 1.170677 0.677808 -4.185225 2.998688 -4.706637 3.778455 
烏山頭 -4.996134 2.701544 2.874595 -2.876096 -1.772606 5.020093 -2.310520 -2.191448 -2.021780 -2.969752 
貞德 1.645105 4.185930 4.583402 -4.714087 -0.246265 -1.724288 3.901641 -1.935941 -3.228495 3.251084 
商鞅 -0.472294 -3.133832 6.433205 -0.173774 1.756557 3.446620 0.613166 -2.513297 2.934916 0.435859 
帝王 2.719324 -2.718489 1.771384 -2.848633 -3.575561 -1.112188 -0.098900 -1.289710 -1.158575 3.723314 
契約 3.170525 4.872306 -0.140481 -1.434283 -0.903727 5.472681 -0.205459 -0.769867 -0.209192 0.335802 
戶口調查 -0.966327 0.138027 -0.763675 -0.769161 -0.926412 2.119829 -1.405937 -1.989431 0.142940 1.409298 
革命黨人 -1.704535 3.342547 3.430264 2.056476 -0.862829 4.123247 2.528164 5.489216 1.246128 0.618476 
漢族 -0.654179 1.328389 0.359588 -1.275613 -2.621936 0.291514 0.091427 -0.482516 -2.612634 -0.057980 
宋太祖 1.435017 -2.469949 -0.709336 -1.524300 -6.140734 2.930275 -2.615205 -0.389233 -1.830345 6.388938 
諸國 0.857774 -1.673084 3.945778 0.396177 1.116743 0.203928 0.637060 0.671018 -1.045503 1.100166 
雲南 -3.192651 1.834098 1.190928 -0.306274 -0.594013 0.293148 1.170946 4.403673 1.120880 1.984562 
西安 -5.086433 -3.454118 1.977823 -1.263867 -2.112201 -0.345044 -0.889951 0.468405 -2.283013 1.660576 
波及 -2.092455 0.431392 0.542546 -0.162758 1.649518 0.269180 -0.806268 1.047899 -0.659309 1.417885 
捷克 -2.377288 -0.060006 1.059973 -1.167796 3.591374 0.163204 1.641366 5.670046 -3.488963 -0.686133 
中日戰爭 -4.968285 -0.211712 -3.086273 -3.006421 -0.120609 4.681242 1.882426 -0.314467 -4.361785 -1.305196 
山西 -1.083836 -0.512746 4.147119 -1.627680 -1.375054 -1.331401 2.025202 1.152006 1.303193 1.173392 
修正 -0.493361 -0.900606 -2.095260 -0.251317 -1.103358 3.922899 1.431847 0.705469 0.891144 3.241360 
希臘正教 2.303958 -0.621101 3.504236 -4.677223 2.114977 -2.939188 0.201046 1.292087 -0.562996 1.905110 
獨立宣言 -0.259557 2.898881 -1.199422 3.456962 3.912702 4.720677 -1.804492 1.101699 -0.398527 8.298401 
高明 -2.269762 -0.683177 6.042693 3.246054 -0.849115 2.070483 -0.966766 -0.567032 -0.633522 1.833058 
畢卡索 -2.869812 -3.841349 -2.841032 -5.389192 2.216114 2.758676 0.650069 1.394481 2.537884 2.637035 
劉永福 -2.362859 4.352363 2.656745 3.165360 1.427934 4.701182 -4.962007 4.720449 -1.119487 1.344515 
神宗 -0.396062 -0.513157 -0.650413 1.516233 -3.558148 2.491285 0.286176 -1.655342 -0.837605 3.671088 
馬其頓 -0.413370 -1.569945 3.120453 -5.958541 2.662000 1.702567 2.016058 0.140219 -1.932246 -3.915388 
元老院 5.321029 -1.230778 -1.399615 -2.617816 3.335422 4.717999 1.493900 4.334908 -3.752834 -0.002159 
明太祖 -1.790108 -0.045131 3.627367 0.004236 -3.839672 -1.044338 4.378513 0.112560 -6.921564 4.519430 
蔡 -0.822225 -0.756510 3.224715 -1.110484 -2.104761 3.432513 -1.111391 -0.828509 3.859442 1.967330 
希伯來人 2.457896 1.028341 0.936059 -3.157783 0.286150 1.425004 -2.953118 0.199574 -3.002674 -0.861010 
珍珠港 -5.469036 1.030037 -1.402292 -0.903534 4.583575 2.758885 -0.909667 1.172584 -2.964685 2.862535 
歐美 -1.096080 -1.373961 -0.206096 0.868857 2.099222 1.291642 -0.621404 0.289247 -0.029048 1.550262 
曉 -1.243420 0.923713 0.955545 2.021795 -1.485342 2.194079 -0.123167 1.188440 0.411109 2.284431 
漢書 2.372231 -5.085770 3.198572 -1.068881 -0.901805 1.688544 0.034927 2.395795 1.587314 3.459375 
文明史 1.924711 0.343480 2.211909 -0.063064 0.237668 1.072154 1.388346 -0.036821 -0.182140 0.448382 
沙 1.667428 2.105227 1.131574 -2.037031 0.271407 -0.703908 -0.710599 0.612497 -2.655499 1.040535 
同盟國 -2.947526 -0.908123 0.351581 0.238535 3.619890 1.215220 0.520859 2.120235 -3.384521 1.521967 
塞利 1.301418 -2.662006 6.388713 -6.673055 1.099461 -2.230042 -0.693816 -2.050061 0.007400 1.182705 
武士道 2.534845 -1.366044 -0.894606 -0.301168 2.509606 6.710125 3.371633 -3.561085 -3.660036 1.355198 
愛國 -1.388881 -0.091132 0.094852 0.537435 0.574405 4.588949 0.618230 2.854823 0.313236 -0.208125 
西德 -3.511334 -2.646777 3.329616 -2.832030 2.855586 -0.610435 0.116027 1.399742 -5.229010 -0.350072 
史前 -5.111652 -2.453314 -2.119312 -1.955034 0.381968 2.472710 -0.425812 -4.303375 0.081779 5.328523 
吳三桂 -1.854299 1.006281 0.947598 -3.183087 -1.472321 -2.721025 3.880321 2.361048 -1.540429 5.744608 
重鎮 -0.965133 -0.699456 0.730185 -1.791075 0.031292 2.557422 1.008370 0.201931 1.579809 0.737647 
澶淵 0.010296 -2.441744 -1.889627 -3.050987 -3.664973 2.722920 4.627806 3.174021 -7.168275 1.862344 
子孫 -0.391849 1.559203 1.369807 -0.219575 -0.933611 1.748421 -4.783791 -1.118438 0.908692 3.815445 
洛克 1.228605 5.588337 2.429415 0.182017 1.221539 5.076774 1.807999 -1.100023 1.830493 5.004249 
雲 -1.630809 -2.364255 -1.516806 0.669438 -1.869988 1.952227 3.792551 0.987651 -2.696083 2.276611 
中國史 -1.954279 -1.387266 0.952429 1.151661 -2.047212 0.888690 0.303691 -0.617703 -0.402558 2.862804 
南郊 -5.110576 4.815165 3.764295 -3.633433 -3.564159 -0.824057 0.010579 1.791706 -2.787378 0.383557 
長江流域 -4.298347 -2.068878 4.088265 0.867073 -2.068434 -1.463999 0.274158 2.140073 0.465135 2.357018 
民族運動 0.629827 1.523662 3.105419 0.919698 3.545269 1.311312 0.139252 1.988870 -1.369491 -0.053001 
鳳山 -3.176489 5.356029 -0.169228 -3.885529 -2.837443 0.800743 -2.777639 -0.737505 -1.864022 2.467679 
春秋戰國 0.232293 -3.563387 5.084915 0.074061 2.184890 4.383219 1.494867 -1.374352 1.659032 0.468117 
瑪麗 4.589398 4.505023 4.209198 1.593384 -2.317884 3.494003 -0.190747 1.640361 -0.655501 4.967924 
路易十六 4.196108 3.823148 2.254059 1.634497 1.188018 5.012751 0.667416 4.404241 -2.182871 0.774845 
古羅馬 2.978709 0.664294 -0.548023 -3.121310 1.260730 2.054845 2.076851 1.864121 -0.889870 -0.575364 
丘逢甲 -1.036170 3.860992 2.339723 1.514552 2.144733 4.708130 -4.660665 3.467892 -1.842304 1.617565 
婆羅門教 1.710856 1.521100 6.679594 -3.315597 0.771735 2.161510 -1.954600 -5.928145 -3.289215 1.645527 
耶路撒冷 2.010869 0.496387 -0.752596 -4.426676 1.665746 1.234367 -4.778973 2.124838 -5.456838 -0.192722 
北非 1.662063 -0.562290 0.821488 -3.195646 4.786662 -0.024104 -0.409084 0.731447 -4.831882 0.672562 
大都 0.828877 0.946633 -0.550018 -0.596495 -0.158621 2.076861 -1.980688 0.009554 -0.350542 -0.507439 
猶太 1.623922 1.599987 -0.613895 -1.002867 2.520521 3.487169 -3.532961 0.789108 -5.527647 0.789222 
基隆港 -4.231115 0.157989 -2.193479 -2.551045 0.103672 1.065539 -2.375023 1.348196 -0.467251 4.277297 
富國強兵 -0.104329 -4.466466 2.972532 1.671418 1.751880 2.695466 0.833890 -1.230856 -0.750594 1.021483 
蓬萊米 -3.576463 4.613637 0.809926 -3.211060 1.058632 2.988556 2.366192 -1.992735 -4.127838 -1.721451 
永吉 -2.684488 4.554642 1.423806 -3.010860 0.105075 4.432950 4.785903 -1.081959 -5.103518 -0.975128 
城鎮 0.619144 0.603448 1.000828 -1.142070 1.981957 -0.837795 -1.408773 0.093667 -2.841291 0.629364 
腓尼基人 2.371182 0.883376 2.799550 -3.843581 -0.473630 0.833342 -2.308128 0.094103 -2.669106 -1.638600 
永嘉 0.860378 -2.550130 5.604604 -2.479515 -6.152153 0.001692 1.784807 2.602534 -1.677569 0.360544 
墨西哥 -0.362333 -1.495865 0.531398 -1.248892 5.677178 2.164217 -1.551799 0.783397 -0.239445 2.512093 
北郊 -5.088337 4.510513 4.380319 -3.759447 -3.172852 -1.196525 -0.329010 1.735243 -2.502411 0.812150 
燕 -0.423882 -4.602167 1.430046 -1.681203 -1.823331 2.394660 4.280516 0.900779 -1.424835 1.548395 
亞美利哥 1.853077 1.527317 3.620260 -2.105449 3.649339 2.463909 -4.262889 -4.723097 2.482948 5.604603 
都城 0.445528 -2.895971 0.445076 -2.327607 -3.818413 1.443859 -3.627891 0.662965 -3.293108 1.898826 
高雄港 -2.817481 0.210306 -1.463688 -2.026603 -0.304747 1.652327 -0.448368 -0.760903 -0.413529 3.899253 
黃興 -2.125312 4.869455 2.505033 2.167702 -1.942011 6.452432 1.738455 3.752456 -0.624523 0.193315 
哈里發 1.227760 2.632241 0.211295 -4.148380 0.404358 2.500316 0.530119 -1.835880 -8.126851 1.098063 
高雄市 -3.112010 1.896725 -0.440849 -5.418485 0.500261 -0.849170 -2.250263 -1.941270 0.830895 2.412868 
君 1.316763 -1.493624 0.024166 -3.164242 -1.913222 -0.102928 0.494721 -0.394614 -0.038502 1.809270 
臺東 -2.989713 2.405641 0.340955 -1.169649 -0.761286 1.165066 -3.962326 -0.184128 -0.476707 0.998965 
治國 -1.003053 -0.113152 1.299217 0.620326 -0.769695 2.426770 1.861032 -0.927145 -1.288647 0.299403 
柏林圍牆 -4.715011 -3.284392 2.939645 -2.567397 1.991955 0.249346 -0.271147 0.678468 -5.937479 -0.122622 
百年戰爭 2.145965 3.629953 5.081700 -3.387498 0.269210 -3.512942 2.608603 -0.328162 -1.501442 4.294584 
革命黨 -1.976437 1.082560 -0.746599 -0.079182 0.455469 5.230402 2.323544 3.162531 0.668113 1.031832 
卑南 -3.174649 1.065501 2.704942 -4.568299 0.227129 0.625705 -4.484179 -2.137532 0.731427 0.127795 
十字軍 2.786999 3.217193 0.917431 -3.722040 0.577962 -1.470688 -3.894707 1.780279 -1.714296 1.679751 
明成祖 -1.075446 -1.112882 4.483873 0.239273 -0.333661 -2.362190 0.297200 -2.951473 -4.472188 3.875919 
漢文 -1.459589 0.835158 -2.154913 -2.254871 -2.597361 4.228770 0.612901 -1.279806 -1.849999 1.010791 
河北 0.193452 -2.786187 0.796571 -1.566975 -3.051160 2.436417 3.541706 3.390866 0.273192 1.322299 
國民會議 1.588551 0.686194 -0.906077 1.722572 1.207061 6.223154 0.159624 3.551575 -3.052418 2.076025 
江戶 1.289529 -0.427735 -2.261178 0.968315 2.959660 5.032146 2.966805 -3.071318 -3.389816 2.225770 
太陽神 4.372512 -2.604040 3.576219 -2.733863 -0.376932 2.797110 -2.309479 0.330193 0.078819 1.579955 
臺中市 -3.827308 3.540559 0.301413 -3.004477 -3.589719 3.143205 -1.279595 -4.017333 -0.779363 1.882463 
尼 0.706520 3.001810 0.832075 -0.001459 0.062456 -0.034415 -0.703439 -0.483867 -6.040051 2.775597 
光緒帝 -2.474222 -1.935344 1.297148 0.303493 0.312611 -1.627739 1.707647 1.176594 -1.262029 6.406067 
緬甸 -3.356018 3.457616 0.663609 -1.086776 2.648297 0.449718 -1.742042 0.568819 -4.068903 1.158200 
藩 -0.812150 2.051967 -0.355944 -1.199616 1.038143 -0.777333 2.803695 0.914124 -0.734531 3.060610 
社會變遷 -3.263251 -3.749006 -1.343240 -0.277352 0.279778 6.188893 0.425904 -3.076959 0.391956 2.447371 
匈牙利 1.231584 -1.695288 4.917987 -2.772656 2.277212 -1.420448 1.384118 5.408329 -4.553191 -1.296978 
靖康 2.444285 -1.458112 -1.747651 -2.179195 -5.225272 1.229825 2.452386 4.821229 -4.563239 4.087720 
索菲亞 0.789237 -2.533878 0.479663 -7.680440 2.641886 -0.879124 -1.753141 0.639968 -0.162408 0.152778 
雲漢 -3.641616 -0.266043 0.260038 2.347210 -1.666547 4.883696 0.088689 2.687987 0.944643 2.662324 
二次革命 -0.491967 1.387630 -0.347930 0.223285 -0.091735 5.037828 2.893430 4.209805 1.742253 1.706895 
黃玉 -3.261150 3.654828 1.362083 -2.512775 0.817828 4.835588 -2.101998 1.269986 5.355108 1.751779 
康 -2.893834 -3.479887 1.256689 1.070397 -3.539278 1.718851 2.554209 -0.892589 -0.735388 3.053116 
長崎 -2.062093 0.495507 -2.613665 -0.706568 3.658509 4.012009 2.838871 -1.993619 -3.200743 1.982999 
楔形文字 6.590687 -0.719334 3.625153 -0.961191 -0.990613 5.716247 -3.449592 -0.364191 -3.482003 1.589750 
孫權 -0.242643 0.384787 4.401111 -4.906373 -1.030610 -1.800588 2.370660 7.444663 -1.220519 -0.047482 
顏思齊 -1.996630 2.152386 -1.785527 -3.144814 -1.439568 0.597177 0.665225 -2.910947 -3.800406 6.743471 
羅馬公教 3.687451 0.042126 0.363487 -4.163658 1.664532 -1.860930 -1.919279 0.742356 0.830158 2.814957 
西方人 -0.932061 0.214231 -0.553158 0.459968 -0.641079 2.783551 0.277949 -2.284472 1.169557 5.089430 
寶 1.096960 1.841128 -1.035428 -2.591039 -3.257433 2.121160 -0.227548 -1.301422 -1.128472 0.033025 
西西里 3.207782 0.853684 1.355825 -4.041059 3.786418 1.565312 5.880116 0.291396 -3.449845 0.268227 
塞爾柱 0.119885 -0.260193 2.250227 -7.600140 0.117520 -1.732967 -3.680649 -0.131860 -5.126536 -1.211648 
恆春 -4.598859 3.025178 0.665964 -4.015337 -0.293687 -0.010162 -4.723796 -0.724727 -1.221347 0.603846 
玻利瓦 0.725692 1.321835 0.208440 -1.558397 5.828491 3.845253 -0.007668 3.320040 1.998435 3.409428 
大沽 -4.316705 -0.651436 4.109237 -0.886514 1.192668 -2.248008 3.106804 2.105890 -0.119715 5.956771 
天文 3.170476 -2.013015 0.419766 -2.760219 -0.723187 2.403277 -0.497582 -0.426534 0.730724 1.725631 
班固 4.050545 -7.303720 3.861722 -2.179186 -1.763887 3.005567 0.481820 2.631924 1.266754 3.782232 
泰雅族 0.407449 -0.173447 0.456370 -5.905759 1.085320 5.777937 -0.823174 -4.179404 3.694769 1.277371 
光榮 1.228446 -0.302194 0.767887 -1.512509 1.920734 0.842977 1.838463 0.100599 -1.200330 1.431154 
腓特烈二世 3.788196 -3.031084 5.851209 3.411715 -0.125384 3.944334 0.511078 -1.048377 0.638069 5.239118 
文武 -0.577831 1.454634 -0.923024 -1.771776 -1.241083 0.399960 1.453414 -0.222612 2.094608 4.958749 
查理一世 1.434326 4.287703 3.633404 -0.934343 -0.076805 1.148713 2.209128 -2.312496 -0.786712 5.813838 
新港 1.319964 6.048258 -3.419660 -5.785989 -2.325018 6.498437 0.828690 -0.035697 -1.698637 0.889532 
市民階級 0.747708 4.563103 5.089450 -4.345261 1.638795 -0.751733 -2.496537 -0.137488 2.144863 0.634387 
英文 0.335936 0.395116 2.615165 0.065562 -0.341678 -0.022988 2.763842 -0.011409 1.340900 1.661362 
大西洋 2.135478 1.064385 1.112921 -1.012422 5.980615 -0.410949 -2.351478 0.276490 -3.005899 3.299788 
阿美族 -1.088814 1.096401 1.178415 -5.456151 1.354617 4.344302 -4.593695 -4.548102 -0.008993 0.550785 
唐太宗 -1.412474 -1.233158 3.188355 -0.931196 -3.872714 2.113420 -3.591085 -1.011427 -5.938991 0.298125 
九一八事變 -6.445189 -1.445074 2.088719 -1.996605 1.508145 2.339851 1.728003 0.533192 -0.005841 -0.540715 
黃巢之 -1.863552 -1.337612 1.814218 -0.751709 -4.507641 -0.478579 -0.124351 1.933735 -2.936837 1.749833 
小亞細亞 1.658525 -2.607751 1.696189 -4.842811 0.842934 3.664486 -2.061288 0.744877 -2.745667 -3.266013 
蔣經國 -2.719831 0.127656 -1.402013 0.061110 -0.121743 2.684047 -1.190283 -0.062422 -0.182331 1.996664 
鹿皮 -1.918665 3.664979 -1.609071 -5.558444 3.146557 0.834606 2.716624 -2.492991 -0.290005 1.674537 
印度洋 -1.504979 0.872456 1.595562 -1.941941 3.075055 -1.336381 -1.435366 -2.615954 -4.150620 2.709099 
亞述 4.835221 -1.762370 3.155909 -1.955939 -0.703074 6.168013 -2.623394 0.938771 -1.169247 -1.268330 
獨立戰爭 -0.142930 2.631360 1.635004 0.284697 6.289778 2.913713 -0.076282 1.199443 0.442991 4.328930 
新大陸 1.714765 2.964994 2.592375 -1.656185 5.136647 1.072424 -3.807879 -3.207521 0.014973 4.155123 
花蓮 -2.412891 1.828285 0.042690 -1.815641 -0.394739 1.658953 -4.836931 -1.294330 -0.338699 0.714440 
莎士比亞 4.729084 6.642975 1.568221 -2.031942 -1.640330 4.548047 2.219115 -1.304114 -1.734748 0.685877 
嘉義 -3.112250 3.724187 -0.585137 -2.732340 -2.921935 0.983538 -2.260233 -0.177814 -1.947574 1.630477 
郭懷一 -0.043747 3.894742 -2.538214 -4.954877 2.475256 3.043787 1.198565 0.117205 0.041234 0.796467 
安徽 -1.378375 -0.766702 2.136277 -0.071852 -0.072560 1.003143 1.062652 0.836537 0.290135 1.573413 
智慧 1.483063 0.096585 1.143150 -2.327601 -0.105243 3.341599 -0.875035 0.770854 1.587332 -1.093702 
臺灣島 -2.126925 4.185386 0.878819 -2.504177 0.284656 1.726170 -0.443943 -1.926687 3.866352 3.879782 
南明 -2.101884 2.980988 -0.274241 -1.859524 -1.529437 -1.057737 3.533913 1.279050 0.530190 4.576594 
曹 -0.758792 3.029858 0.116953 -2.537351 -1.351799 0.216673 1.182029 0.989063 0.102449 0.444339 
二戰 -1.392631 -0.639140 0.214827 0.150904 3.777146 1.012193 -0.117756 0.851874 -5.018515 0.783202 
南北戰爭 0.104759 1.853567 1.623085 3.063232 3.202906 6.650314 -0.431187 2.451680 0.518682 4.887734 
立體派 -2.652088 -4.462216 -3.139903 -4.867028 1.634994 4.120228 1.247248 3.130256 2.012271 4.964801 
福爾摩沙 0.536714 3.410055 -0.874716 -3.740127 1.501504 1.502040 0.154078 -1.309843 3.918424 4.236239 
唐三彩 -2.469845 1.245933 6.027730 -2.524682 -1.298347 -0.852163 -1.496569 1.220190 -0.459417 -2.168914 
武昌 -2.461540 1.190033 2.661592 0.799836 -2.148760 2.983434 3.131070 5.269280 0.209591 0.815005 
魏孝文帝 0.102137 -0.473950 5.863395 -6.891018 -6.414020 -2.363763 -1.208964 1.171374 -0.324381 1.434868 
臺灣電力 -1.906535 -0.082292 3.109391 0.246307 -1.404075 3.256914 -2.861134 -0.559168 -2.001685 -0.878332 
萬曆 0.092768 1.661735 0.341323 0.105319 -1.697771 0.180660 0.698093 -1.232181 0.214378 4.597682 
玉米 -0.447070 -3.501617 -0.097247 -1.828492 2.580886 0.689671 -4.559749 0.685456 1.023200 2.057836 
人權宣言 3.098122 2.799121 -1.068302 2.015621 1.848548 5.695918 0.059543 2.026895 -1.277494 4.510234 
漢摩拉比法典 6.622233 -0.648144 2.897266 -0.652400 -1.295309 5.598248 -2.741579 -1.054299 -3.670330 1.917409 
摩尼教 -0.377973 -0.802878 1.814092 -2.032676 -0.787892 1.051025 -0.915647 -1.310790 -3.403870 -0.908699 
瑞士 0.684891 -0.604263 -0.276938 0.020496 2.615205 1.601950 -0.021228 0.976648 0.899267 2.324527 
法老 2.568709 -2.182020 1.052155 -4.354710 -0.678870 1.814531 -6.993381 -0.575182 -0.940591 1.005158 
隋文帝 0.221459 -0.897410 3.811270 -0.190239 -4.339901 1.067602 -3.917259 1.496165 -2.411573 3.135654 
兒玉源太郎 -2.771531 1.910223 -0.383086 -1.282209 -0.030547 4.761621 0.445023 -0.813590 1.509614 1.581566 
屋大維 3.283523 -1.172654 -2.181930 -3.594874 2.554304 2.718417 1.673783 4.465300 -2.639829 2.288512 
曼 3.232316 -0.808326 -0.563781 -2.473489 -0.153856 2.184659 1.869411 -1.588403 -1.885196 -0.288360 
耶和華 0.373890 0.000688 0.155423 -1.041015 -0.077593 1.824575 -2.453819 0.635148 -2.165282 0.427149 
杭州 -2.181295 1.257030 1.503644 1.343496 -2.995040 1.309356 2.191767 1.492847 -2.994889 1.945048 
河姆渡 -6.276265 -3.601412 4.452126 -0.566170 -4.201478 1.451062 1.181204 -2.867119 0.487880 2.805644 
神聖 3.757818 -0.303641 0.181183 -0.870546 1.091310 2.440940 0.478347 0.427199 -0.721664 1.855405 
陝西 -3.029904 -2.522585 1.540271 -1.732736 -4.199085 0.192974 0.397432 -0.252979 -0.522544 1.835431 
狄德羅 2.357915 1.874672 4.169430 0.490401 2.609080 5.672254 2.490474 3.484450 3.882846 2.847343 
成吉思汗 -0.403366 1.734509 3.825782 -1.755907 -1.584687 0.056657 -4.709157 3.648284 -7.121920 -0.150484 
朝野 -3.531938 -0.828160 0.459858 2.785355 -0.450374 2.683585 1.121750 -0.209341 -1.104655 3.914538 
孟德斯鳩 3.251865 1.992459 2.557927 0.827024 3.560542 5.366540 1.202173 -0.938092 2.538111 1.463347 
亞里斯多德 0.674945 -0.826201 1.726781 -3.903581 0.004371 2.999468 3.381370 -1.734518 1.181356 -1.222522 
下議院 2.578805 1.337084 0.773966 2.927211 0.065188 0.560792 1.112567 0.700292 -4.604138 7.640918 
蘇格拉底 -1.651472 -0.065851 1.647110 -8.136909 2.027757 1.991872 2.924081 2.398720 3.138515 -2.303908 
西柏林 -5.472740 -1.497737 3.430572 -3.989841 3.461633 -2.257766 1.957422 0.709356 -1.948307 1.143261 
朝鮮半島 -3.377593 -3.617101 0.288554 0.494149 1.780735 2.232615 -2.220378 -0.090052 -4.084701 1.423781 
海峽 -1.668055 0.943097 1.489565 -3.155308 4.569184 -1.853644 0.329127 -0.845703 -0.225848 0.995071 
莫內 1.466518 -3.327507 -0.874322 -1.173394 1.723367 2.785463 1.627012 2.364971 0.902442 4.114657 
西南 -2.670925 0.942601 2.041175 -0.879200 0.968208 -1.732452 2.094680 1.576577 -0.922549 0.094374 
文化的發展 0.179153 -1.066251 0.607351 -2.944228 -1.433362 -0.900929 -1.659375 0.173105 -1.419894 0.566273 
抗衡 -1.374920 0.501721 0.260732 -0.832736 0.411105 -0.348705 0.692463 2.478226 -0.117272 0.628067 
廣島 -2.736216 -1.587909 -1.956396 0.938255 4.747783 5.982694 1.757633 1.211243 -5.061610 0.201545 
普通 -3.615963 -1.361497 1.026454 -0.330890 -1.648933 4.381608 1.025613 0.465368 -2.761550 -0.971595 
巴格達 1.804398 1.020011 1.063598 -5.037253 0.325404 1.026290 -2.030676 -2.143198 -4.170431 -0.495802 
迪南 0.028589 3.317114 3.294156 -3.867345 3.452394 -3.301354 -0.200961 -0.594557 -5.192243 4.018558 
王宮 2.258614 -2.452155 1.838211 0.193278 1.029610 4.978263 -3.654847 0.346239 -2.122207 -0.665235 
沈 -1.184840 1.276701 -2.644240 -2.798196 -0.554814 0.151103 -0.645400 0.400956 2.017066 2.448291 
滿洲 -3.168960 -1.690175 1.647305 1.104495 -0.027239 -0.133467 0.723647 1.832865 -1.961245 2.419779 
斯拉夫 0.454695 -0.676397 4.166694 -4.573123 3.751258 -1.744881 -0.159966 2.448584 -2.530741 -0.551317 
景教 0.443776 0.378279 1.270000 -1.899328 -0.629189 0.898795 -1.504276 -0.743188 -3.232653 -1.695311 
古老 -0.075410 0.619361 0.551317 -2.981003 2.017488 0.098814 1.250737 -3.608100 0.068013 0.370545 
馬志尼 1.783718 -0.122371 2.626438 -2.753500 4.553736 2.441059 6.476709 0.665215 -1.666211 0.355315 
李登輝 -2.354396 -1.483698 -1.923342 -1.101891 -1.018702 3.750232 -0.917593 1.048040 -1.366849 0.688689 
羅馬教會 5.227512 0.425891 1.059792 -5.438294 1.180957 -0.905948 0.989033 0.173413 0.368770 4.271139 
安撫 -1.245227 1.671261 -0.535019 -1.781808 0.305215 1.656406 -1.003880 1.653541 1.269658 0.039568 
海關 -1.286952 2.223091 0.857877 0.404221 0.790691 -0.275023 -0.746495 -0.125388 -1.065336 3.700141 
三級會議 2.374491 4.556556 1.970638 2.964894 1.066470 5.148588 -0.225838 3.682207 -2.221685 2.967554 
慕尼黑 -0.465087 0.415019 -1.061379 0.656778 1.665183 0.936280 2.334209 4.878053 -4.956742 3.157809 
紐約 -2.328738 1.130131 -0.259020 -0.129251 1.820934 2.220285 -0.556841 0.734256 -1.413980 0.702598 
福建省 -3.358728 3.612944 -0.141370 -2.229200 -2.935615 0.760589 -1.045462 -1.027351 0.055806 3.607247 
紅毛城 -0.643388 2.543086 -2.631813 -3.139952 3.228052 0.860568 1.731796 0.104842 0.940973 3.280831 
穆罕默德 0.247455 0.369271 0.269764 -4.302059 3.052337 0.962713 -0.988789 -3.243719 -6.590199 0.960904 
司馬光 3.696723 -3.280387 -1.820154 -0.971949 -3.509869 7.198403 -1.986299 -0.680347 0.565607 2.901480 
科考 -2.681967 1.439152 3.550388 0.083909 -2.788638 -0.502129 -0.471509 -0.252024 -0.346439 1.642144 
瓦特 1.269743 -1.244408 2.338813 1.543880 0.341348 4.002561 0.772528 -5.991226 -3.486458 7.161279 
南京大屠殺 -5.721298 0.757929 -0.179370 -0.831684 0.959916 3.269301 0.301675 1.962398 -2.869755 0.006003 
伯爵 3.985668 4.765050 3.656748 -0.095586 -0.353801 1.656757 0.881721 0.387144 -1.439178 2.010159 
阿美士 0.660764 3.162219 -1.101461 1.603750 0.213709 1.254453 0.865832 -1.009554 -7.230170 6.669107 
項羽 0.530322 -3.559077 3.801588 -0.202220 0.599927 3.235183 2.021787 3.064084 -2.391770 -1.065463 
臺灣地區 -3.573402 4.560190 0.402543 -1.751770 -0.980559 0.390281 0.644348 -0.239803 -0.359393 2.293596 
張之洞 -3.620284 2.444402 3.508704 1.951972 -2.208772 0.744484 2.063989 4.694453 0.131786 3.472841 
立國 0.107743 -1.704649 0.962679 1.457937 -3.532708 1.829135 -1.297470 2.040879 -3.435389 2.516858 
大族 1.875345 -0.095024 4.194568 -0.310933 -5.361570 2.593929 -2.254097 2.958567 0.118158 1.163668 
馮國璋 -2.772983 1.415209 2.300817 -4.847831 0.782051 0.964398 4.229885 3.097182 2.236840 2.583317 
童 -3.188879 -3.164916 -3.036328 -3.158841 -0.091547 4.513655 -1.483752 -0.172811 -2.928917 -0.201055 
丹麥 -0.079053 2.061236 3.634290 -0.297772 3.295027 -0.309107 3.835239 1.172412 -2.267483 2.544864 
歸納法 1.656054 -0.691469 -0.548027 -1.071420 -2.731480 4.986741 4.117874 0.275391 1.189828 4.253210 
拉斐爾 4.123130 1.408591 2.385595 -7.110718 -1.156406 2.899493 -0.336932 -0.589580 2.462824 -0.512453 
中西 -1.877790 -0.818764 2.998324 2.998807 -1.551242 -0.235949 1.474184 -0.986938 -3.618078 3.711673 
阿利安人 1.740798 1.413638 5.654951 -3.488413 1.002133 3.179081 -3.019214 -4.850069 -3.374796 1.362213 
種姓制度 0.559103 0.937973 5.235578 -1.640893 1.510308 2.640742 -1.941803 -5.026442 -2.668301 2.052471 
社會秩序 0.872638 0.074583 0.992281 0.305648 -0.321580 1.742919 -1.063669 1.627046 1.104607 1.293490 
史綱 0.945974 0.520628 0.137092 -0.178363 -0.549868 0.743943 -0.057714 1.540832 -0.311832 0.852720 
上臺 -1.536910 -0.982823 -0.737851 -0.526992 1.110297 2.600103 -1.499627 2.992599 -2.297942 -0.930368 
京城 -0.355674 -1.179697 0.441220 -0.641266 -2.314670 2.172174 -0.908181 0.251805 -1.239045 2.055862 
劉少奇 -3.327199 -2.603225 0.544437 -1.743398 -0.806979 3.732999 -3.134599 4.369753 0.372269 -1.814464 
沿海地區 -2.351943 1.644289 0.979325 -0.968279 1.291162 -0.554145 -1.004763 -1.447723 0.088109 4.503139 
開山 -1.944382 2.500549 1.462330 -1.515217 -0.734705 0.258161 -1.854724 0.932496 -0.033368 0.923208 
希臘化 3.129422 -2.167676 1.206012 -5.758786 1.969922 2.236897 1.216890 -1.576287 -1.913595 -1.381098 
孟子 0.112204 0.123107 6.765639 -2.279004 -2.041459 2.987587 3.185107 -0.030896 7.667601 3.503508 
荊州 0.912111 2.729628 2.807503 -4.674537 -1.977287 0.180953 1.080311 8.141535 -0.956242 1.100385 
大屠殺 -1.532663 1.553773 -2.904005 -3.351441 3.393161 2.361590 -1.528528 3.303631 -3.247928 -1.303615 
貝多芬 5.030612 -3.859837 0.899438 -0.657950 2.558638 5.287571 2.371916 3.987237 -0.895602 4.332258 
歸順 -3.463276 1.119028 2.250263 -1.956287 0.328662 0.185399 -0.142094 -0.772350 -0.553064 -0.149595 
成都 -3.125204 -0.478016 4.199265 -1.490403 -1.155002 0.588475 1.033453 3.283567 -0.061872 -2.068376 
邦國 2.698702 -1.370222 4.051527 0.320517 2.583715 0.931904 2.146441 1.182837 -0.007418 2.137941 
阿里山 -1.186059 0.693911 0.607837 -2.173956 -0.373255 1.423854 -0.538577 -0.447611 -0.809677 0.845624 
閩南語 -3.927478 1.350317 -2.902928 -3.766867 -0.947604 3.044827 -0.160542 -2.318265 -0.129512 1.411337 
克麗奧佩 1.938838 -6.182500 -1.299401 -2.693810 0.920196 3.669014 -1.057863 4.137902 -4.176729 0.620572 
王后 4.421668 2.742107 3.232846 0.320728 -0.703149 2.518012 -0.234932 0.738384 -1.660775 1.052336 
達文西 5.644436 1.827245 1.324836 -5.648870 -3.106367 3.491554 2.837974 -2.495641 2.431886 3.502027 
黃河 -1.839741 -1.679852 2.673935 -1.733771 -2.194324 1.790314 -0.060235 -0.887644 0.961999 0.412497 
十年建設 -5.071162 -0.410035 0.984777 -0.325354 0.869957 3.343432 2.228541 1.291888 0.791367 -0.498330 
歐陸 -0.020194 1.761532 1.744704 1.739628 2.738781 0.529777 0.960007 0.096120 -4.674551 3.553200 
捷克斯洛伐克 -0.672499 0.206656 0.319682 -0.325343 1.678474 0.698312 2.177069 5.968611 -4.841858 2.590569 
太平 0.550622 -0.694081 2.712556 0.805227 -2.346720 1.298976 0.841908 0.433777 -1.174999 3.695005 
美的 2.050482 -0.515683 1.637772 -4.623285 -0.219477 1.965492 -0.084019 0.824015 3.979310 1.722088 
喬治 -0.906476 1.298110 0.977688 2.035206 2.148419 0.966131 3.501246 1.080460 -3.667004 4.210370 
遼東半島 -4.690058 -0.699461 1.835527 2.086037 1.689412 0.399914 -1.123331 3.630250 -3.470567 2.636275 
新加坡 -6.369852 1.469524 -0.700236 -0.403151 4.981992 3.393600 -2.234312 -1.830861 -2.477621 1.602393 
司馬遷 1.408552 -4.235453 3.230697 -0.210666 0.034948 2.439538 0.799845 0.500022 0.432774 1.506207 
黨爭 -0.052866 -3.780347 -0.777585 1.648933 -2.506116 4.280931 -0.565911 -0.756523 -1.522196 5.260385 
中東 -0.463999 2.297756 -0.055318 -2.100270 2.709157 0.105568 -0.642399 -0.330765 -4.759341 -0.388702 
托勒密 2.484130 -4.449901 -1.167763 -4.570287 0.606451 3.413179 0.856525 0.309393 -0.263287 0.939255 
吉 -1.016328 -0.178033 0.458889 -2.200269 -0.199735 0.680372 -1.011925 -0.391663 -1.728070 -1.687683 
王攘夷 1.262151 -2.262537 5.519482 1.660168 5.129378 6.021825 -0.859473 -1.485359 -0.842902 0.425122 
莊 -1.752766 2.018439 0.119439 -1.550729 -0.808524 0.230538 0.044242 -1.860931 -0.271633 0.156110 
和談 -4.187667 1.376902 0.432387 0.487430 -0.260167 -0.144789 0.608218 3.842752 -2.510579 2.160125 
瀋陽 -7.374932 -2.322271 2.808696 -3.020083 0.340305 1.948156 2.267812 0.818058 0.524962 -0.925421 
三民主義 -2.377310 2.361238 -0.175661 1.559803 0.315578 6.414693 2.872209 2.047409 0.276080 1.159041 
柏拉圖 -0.504257 0.159270 2.039706 -6.179056 0.382809 2.780168 3.479781 0.729932 2.996121 -1.177401 
朱熹 0.954766 1.367156 2.020445 -2.031437 -7.437774 2.023604 1.125075 2.861325 3.023676 2.691661 
賽 -1.706253 -1.402091 2.583575 -0.587355 1.052589 1.163507 -1.399756 2.148536 -0.009487 -1.174607 
小國 0.040453 -1.400701 6.897920 0.312775 3.712034 -0.594212 -1.704646 0.538170 -1.294523 2.229857 
澎 -1.522044 1.681802 -3.394261 -0.687892 3.792689 3.660252 -0.970624 -0.405439 -0.257142 3.655725 
保安 0.053659 1.357528 -1.896551 -2.864102 -1.631093 3.149797 5.744657 -1.140202 -2.817042 1.881245 
甘 -0.115511 0.025584 1.898920 -0.686228 0.306661 0.932886 -0.381246 0.780472 0.054204 -1.124232 
權利法案 3.400676 3.942415 0.676479 1.031809 0.412000 3.731633 0.152570 -2.069236 -1.681866 5.100069 
伊比利半 3.871969 3.045021 2.865735 -3.455774 2.889302 -1.887744 -0.166741 -0.845075 -4.722186 1.796226 
釋迦牟尼 3.104454 2.230836 5.944971 -2.306806 -0.569033 3.539615 -0.512059 -5.348375 -3.252110 1.289177 
博 -2.342895 0.863867 3.549129 2.174665 -1.911206 1.067427 1.079346 0.062371 -0.955469 1.181299 
梁武帝 3.764764 1.285636 6.002978 0.295866 -5.133266 4.583572 2.958930 -3.093474 -2.868917 1.848465 
利瑪竇 2.183396 0.818879 -0.291734 -0.340369 -0.166919 0.059167 -2.053882 -1.391067 -0.447393 6.199363 
廖添丁 -2.918936 -1.085938 3.143018 -1.781802 -1.432372 4.800196 -0.608132 -5.262192 -1.668063 -1.796347 
通訊 -3.205727 1.240214 -2.702614 -2.009185 0.846272 2.203247 -0.325961 0.151754 0.070279 2.824731 
顧問 -2.906960 1.060862 0.460275 0.025791 1.989452 1.152141 2.387505 1.242886 -2.068159 0.869512 
華盛頓 -3.649345 1.838667 -0.614259 0.404600 5.618306 2.898242 -1.001544 1.695521 -2.185821 1.915348 
巴爾幹 -0.642410 -0.868838 3.823682 -4.317112 5.392179 -1.153406 2.746966 1.018376 -0.685714 -0.257202 
安平古堡 1.825927 4.147300 -2.194056 -5.671843 1.936694 0.518069 1.904914 2.549567 0.911870 2.518771 
美索不達米亞 2.434714 -3.445677 2.382635 -3.832455 1.593601 3.445404 -4.039490 -0.513010 -3.303187 -0.511078 
麥田 -0.233726 0.919468 0.429183 -2.317080 1.946355 1.012797 -2.028590 -0.234598 -1.074580 0.380984 
蘇格蘭 2.415324 4.572750 3.256654 -0.182363 -1.208495 1.019241 2.776420 -1.670277 -2.631879 4.801748 
米開朗基羅 5.455516 2.684925 1.354411 -4.652039 -1.564209 2.551182 2.561717 -0.130807 1.807083 1.808269 
阿富汗 -2.233919 2.175049 4.891974 -0.955976 3.435959 0.862993 -2.349869 -0.573430 -7.397937 0.324030 
印加 1.969394 -5.109311 0.539061 -3.345058 5.057394 3.314022 -5.100933 -1.340883 0.309574 4.816463 
蘇軾 2.150609 -2.481927 -1.599673 -2.926400 -5.866005 4.664346 -3.470068 -0.252946 -1.035975 2.144412 
王子 3.588897 2.058577 3.531936 -2.266060 -0.805064 1.511146 3.050350 0.150651 -0.602988 0.323370 
歐亞 -0.187840 2.252634 2.951229 -1.242014 0.811706 -0.274857 -3.555511 0.751051 -2.994898 0.445068 
清教徒革命 3.332662 3.203838 1.998343 -0.535186 -0.672648 1.071638 1.829719 0.358105 -1.679817 7.035660 
張靜江 -1.386088 1.633194 2.193422 -1.651686 3.213245 8.424191 1.896693 -0.143127 3.138452 -1.500575 
朱元璋 -0.107235 -0.271759 0.726868 -1.758875 -2.626055 -0.880619 1.659907 -0.127728 -2.046245 2.813483 
王爺 -0.847552 4.632919 4.088866 -4.022830 -2.296373 -0.802955 1.777467 -4.507961 -0.601882 2.257851 
練兵 -2.980057 -1.455324 2.396817 -0.128466 -0.432054 1.203944 2.950397 3.191068 1.297047 4.133514 
君權神授 3.542365 1.418608 3.173066 1.010723 0.355093 2.814675 0.892279 -1.680368 2.411280 6.440062 
北平 -5.411293 -0.118108 2.799883 -1.697952 0.298356 0.473674 1.594952 2.041388 0.739701 -0.884387 
範圍圖 -3.909040 -1.842674 -2.173940 -2.794801 0.333043 -1.404097 1.399320 -1.678083 -2.707665 4.244800 
泉 -2.090214 2.279810 -0.299937 -2.915385 -4.240665 -0.813916 1.587521 -0.288492 -3.807411 1.202711 
建安 1.065780 0.500215 3.718780 -4.678146 -1.246310 -0.313355 2.409590 8.565395 0.269432 0.290588 
蘭陽 -0.817846 4.164804 -0.370744 -4.238470 -1.847584 1.167251 -5.080912 -2.540392 -4.296176 3.345756 
興城 0.190677 -2.061088 3.014677 -1.323260 -3.644982 0.854706 -3.817856 1.378280 -3.268793 1.349288 
宋元 -0.425463 1.113316 -0.146869 -1.292102 -3.468009 -0.783528 -0.951601 -0.263182 -4.847840 2.053923 
渡海 -2.385249 2.694194 0.294343 -2.591321 -0.574045 1.031986 2.631400 -3.038582 -2.046434 1.331461 
普羅民遮城 -0.529972 3.444448 -2.730715 -5.674187 2.543011 0.659525 0.938205 2.954346 1.638694 3.490321 
三權分立 0.097025 2.891290 0.376716 2.087460 4.174579 4.688673 0.704962 0.410467 1.375718 1.958644 
大城市 -0.255290 -0.621351 1.271941 -1.175734 0.400486 1.663350 -0.974616 -1.938171 -0.829383 -1.348993 
壯丁 -2.708242 0.471563 -1.008516 -2.045955 0.390465 3.308115 1.665183 -2.357933 -1.118888 1.349605 
卑南族 -1.180769 -0.558519 3.312337 -5.667334 3.138862 4.125958 -2.519732 -4.424656 2.542098 0.056128 
張伯倫 -1.451175 -0.842030 -1.499472 0.001166 1.908643 1.050443 3.842968 5.770323 -5.480565 3.450945 
漢字 -2.563553 -0.918401 0.089664 -1.504952 -3.377005 4.341086 -5.139792 -2.273332 -5.490041 -0.998100 
十二表法 5.403946 2.719447 -1.866314 -3.288506 0.863571 3.358013 0.912487 0.806078 -3.866539 0.821955 
杜魯門 -4.343088 -0.987990 -1.181051 -0.319214 4.470947 1.255231 -0.945114 2.444767 -2.477813 2.521339 
施 -1.157996 3.352656 0.661348 -3.511994 -2.692913 2.408828 3.644222 -0.164971 -1.741387 -2.114079 
希臘文化 2.842793 -1.387740 0.792134 -4.078671 1.540267 3.478673 1.106708 0.134536 -2.111404 -2.228517 
三皇 -0.617840 -4.930409 3.210570 -4.642108 0.090141 -1.006790 4.396742 -3.046594 -0.067617 4.059843 
王維 -3.268686 5.276857 8.029049 -4.042364 -2.379565 4.013135 1.734448 -2.035846 1.181477 -1.050324 
唐玄宗 -1.708692 -0.365599 2.417927 -1.102093 -3.470799 2.287230 -0.789982 0.929684 -4.302873 -1.872816 
奧古斯都 4.587269 -4.485912 -0.981076 -4.272322 2.601202 1.715274 2.145174 2.466883 -2.075492 2.288470 
鄂圖曼土耳其人 1.748293 1.193911 1.678622 -4.628214 2.492870 -1.713019 -1.992464 -0.855110 -0.957720 0.633143 
史詩 2.126548 -0.687451 2.928626 -4.833542 -1.260989 3.648151 2.153632 0.631981 0.811018 -3.319040 
英格蘭國教 5.109500 1.925728 0.835415 -1.207920 -1.295932 0.889726 -2.187365 -1.119811 0.721220 7.397093 
何謂 0.395343 -2.225700 -0.526362 -0.203221 1.262382 2.489789 -0.156640 0.521911 -0.155665 0.764965 
小琉球 -1.057517 3.930322 -0.908427 -4.353199 1.672186 1.843972 0.744795 -1.813694 2.180002 3.827401 
高山族 -1.043835 1.650006 -2.757226 -4.931507 0.854060 3.837410 -3.633348 -2.440303 0.156783 1.589424 
立法權 -0.522060 2.342462 -0.920579 0.879112 1.606012 5.141417 0.533264 1.099129 -1.635700 2.306479 
重慶 -4.762508 0.664852 -0.216213 0.570183 -0.096864 2.741204 -0.532092 1.527828 -2.393574 0.591815 
顏真卿 -1.492674 0.270461 3.239894 -1.371441 -1.843855 0.094509 -0.013229 -0.048213 -1.293550 -0.687387 
長大 1.059637 -2.940721 -0.642418 -3.254327 1.069683 0.468873 1.040595 -0.125149 0.599868 1.057609 
隋煬帝 -1.215189 -3.272660 3.468834 -0.879525 -2.340064 1.016267 -2.720295 2.235089 -2.025876 -0.309596 
汴京 2.041809 -0.360754 -0.802853 -2.378580 -4.487936 1.260503 0.419555 3.245230 -3.617665 2.974448 
秦王 -0.133866 -4.705252 3.791314 -2.333776 2.337607 1.015122 3.121490 -1.469238 0.561715 1.035454 
景德鎮 0.249227 -0.633207 0.971518 -0.895731 -1.383689 -0.299234 0.398728 1.424363 -0.267317 0.875757 
華北 -3.956414 -0.002632 1.250140 -0.504184 0.025902 1.726927 0.321630 1.526790 -1.260373 -0.190266 
新舊 1.237437 -2.449362 -1.664794 0.291357 -0.834140 2.852846 -0.750342 -0.590697 1.098209 3.381809 
修道院 3.714746 1.040548 0.535681 -2.192100 0.648453 1.010618 -1.493458 1.190207 0.728008 2.224498 
太平洋戰爭 -4.002896 0.972311 0.971599 0.961472 1.889558 2.723085 -1.648200 0.993109 -2.892089 0.499697 
雅典娜 2.190324 -0.678618 2.757493 -5.223542 -1.957305 6.682526 -0.657281 2.830752 1.583455 -2.149467 
尼亞 -1.061909 1.490249 2.498291 -4.037859 4.081637 -1.549640 2.051960 0.413649 -5.034922 -1.034895 
愛琴海 0.676051 -0.338599 2.582155 -3.738144 0.148820 3.925010 -0.674678 -0.155305 -1.383817 -3.235531 
江 -1.800614 0.235864 1.896847 -1.158608 -2.942506 -0.526627 0.470579 1.552503 1.035199 2.298944 
開元 -1.165851 0.713367 1.906008 -1.381640 -3.887701 0.636128 -0.253885 0.231353 -3.094670 -0.393024 
郡縣 -0.774018 -5.020363 2.362019 -2.479832 0.123948 0.304538 4.134447 0.169127 -0.722549 2.423763 
猶太教 4.044278 2.034781 -2.176426 -3.991823 -0.143209 5.034606 -4.702980 2.370162 -6.008838 1.546103 
開皇 0.655881 -1.626568 3.769374 -0.767884 -3.714388 1.042289 -3.407002 1.664932 -2.432198 2.549229 
行會 1.334337 3.936928 4.928392 -3.428638 1.370633 0.944096 -5.041273 1.587428 1.296414 1.726764 
楊堅 1.614370 -0.993404 5.425767 0.072515 -4.050759 0.374240 -3.210856 3.054121 -1.155881 3.415237 
梵谷 2.249679 -3.892785 -1.661960 -0.454364 0.531891 3.231601 2.564805 2.587613 1.711579 5.051935 
加拿大 -3.055478 1.867206 0.151938 -0.127371 3.823918 0.411628 -0.410856 1.310843 -0.294747 2.535706 
嘉南 -3.422413 3.128982 2.746003 -3.094006 -0.804967 4.775290 -0.700891 -0.682177 -2.706795 -3.213142 
發動戰爭 -0.473745 -0.571944 0.809505 0.737291 2.551855 0.864409 0.266768 1.932590 -3.192270 0.671448 
榮耀 2.135925 -0.382168 1.969267 -2.154723 -0.220794 2.385836 -0.440955 0.248366 1.402525 0.305176 
紫禁城 -3.846494 -1.730403 3.947681 -1.340730 0.055735 -1.778898 3.905244 -1.453673 -0.459116 4.458204 
黃河流域 -2.650246 -2.863941 3.737228 -2.323242 -1.947860 -0.604174 0.868685 -0.136666 0.737013 0.228718 
馬加爾 0.413601 3.876117 0.410591 0.502592 -0.645809 0.322876 -1.269965 -1.102728 -6.991580 5.935522 
江青 -3.245473 -3.083132 3.688586 -3.142945 -2.677435 4.138584 -1.506750 1.784077 2.526038 -2.324660 
山林 -1.248781 0.743629 1.038847 -1.018872 -1.930867 2.751785 -0.330199 -2.495710 1.061419 1.328900 
容納 0.453670 1.998250 -1.645367 -3.819527 -1.166815 1.581758 -1.046604 0.449681 -0.853210 -0.248014 
馬尼拉 -0.357178 3.098127 -1.049843 -3.137455 5.032509 0.365626 -0.884212 -0.958646 -1.300336 3.826810 
許可 -0.935188 2.503347 0.178575 0.751054 -0.032479 1.402458 1.023066 -0.562203 -0.962634 2.224962 
中英 -3.504255 2.478585 3.950217 1.234576 1.016398 -0.242027 1.572102 -0.597038 -1.178243 4.902340 
開國 1.160499 -1.837051 0.135474 0.203775 -2.506477 2.333627 -1.162913 -0.652022 -1.168700 2.122933 
劍橋 -2.397315 -1.093694 0.648537 0.662098 -2.898303 3.085354 1.451988 0.011059 2.023225 3.608232 
新約 -0.832826 1.179911 -1.996258 -1.892982 0.743969 2.337758 -0.667872 2.380689 -1.651833 -0.153800 
上古 1.739978 -1.871469 0.682986 -1.979954 -0.572881 2.066432 0.681810 -0.235717 -1.025812 -1.156827 
望遠鏡 3.317130 -2.390625 0.223253 -3.990928 -2.088966 4.417672 1.011639 -1.966641 2.902385 3.573603 
笛卡兒 1.058293 -0.604763 0.305457 -1.730505 -3.524660 4.579858 4.681519 0.388977 2.585815 3.907002 
立憲派 -1.158210 -0.127515 1.053451 3.298730 -1.650443 3.977259 0.114831 3.118319 -0.637646 4.874279 
紐 -1.004174 -1.655265 0.493263 -2.536678 5.166152 0.452665 3.798247 -1.292733 -2.177612 1.195050 
欽 1.465212 -0.961840 -1.594483 -1.009220 -2.017588 0.191576 1.047061 2.698804 -4.240023 2.447148 
東寧 -1.148869 0.540657 -1.289843 -4.420568 0.148820 -3.231064 -0.480513 1.997697 0.583797 6.230101 
阿拔斯 2.993083 -0.046728 0.912251 -6.072682 -0.296794 0.848840 -0.472038 -3.184350 -6.403342 -0.410901 
格林威治 -0.361100 2.417207 -2.362179 -3.990674 2.218821 5.980797 0.248610 -2.529714 -0.117437 0.997489 
遠古 -1.478005 -3.874761 3.349300 -4.082455 -2.506025 1.125542 0.704844 -4.751189 0.308455 2.902226 
漳州 -2.124960 5.281209 0.287429 -2.476479 -3.116085 0.309069 0.983169 -0.460973 -1.670797 2.145055 
蘭嶼 -0.930934 -0.640025 -0.080114 -5.680623 2.670283 3.309579 -1.836944 -5.725104 0.380741 0.279431 
太后 0.608057 -4.834202 1.949155 -0.932675 -1.987195 1.847284 0.542515 0.151707 0.414482 2.699293 
大百科全書 0.907235 3.459014 0.956414 -0.003197 -0.149554 0.652419 0.902083 0.397142 0.688231 1.291959 
白話文 -2.429045 -4.328148 0.304414 -0.493154 -0.908677 7.954882 1.495972 -2.119916 -0.207199 1.226531 
美德 2.449916 1.190061 0.359708 -1.223730 0.774692 4.129540 1.497268 1.448780 -0.436723 -0.898508 
玄奘 0.060094 0.517239 1.987614 -0.547176 -0.489504 0.535575 -0.607723 -1.137097 -2.094186 0.069676 
鐵木真 2.167913 5.450486 2.090708 -1.487163 -4.685524 2.437855 -3.620401 3.962308 -6.219211 0.787178 
福祉 3.142728 -0.355829 0.705401 1.201958 -0.274478 1.567619 0.518606 0.533122 -0.260406 2.902717 
沙皇 -0.759444 -1.614998 4.718257 0.381099 1.830329 0.077852 -0.247036 0.453064 -1.720347 0.082571 
諸如 -0.265696 -0.115061 1.181642 -1.639407 -1.288527 0.949991 -0.390527 0.627960 0.395177 -0.113742 
永曆 -0.643188 2.208096 -0.190627 -3.657457 -1.334094 -1.447159 1.965130 1.311289 0.693615 4.320753 
反革命 1.364048 1.377264 1.036557 0.315446 0.058899 4.143600 -0.354643 4.985632 0.606108 -0.458045 
費正清 -3.208973 0.148516 0.917605 0.875028 -1.888820 2.781420 0.193168 1.778735 2.597798 2.619570 
腓力 2.178520 1.735886 1.308795 -0.322519 1.283219 2.119512 5.443388 2.268373 -2.614493 0.567500 
寧漢 -4.417190 0.565100 0.726976 -0.164377 0.776014 3.262851 1.334089 1.224736 0.041493 0.625193 
莫斯科 -2.415820 -0.886655 1.139007 -0.468017 1.311788 1.918654 -1.895939 4.848559 -2.292669 -0.852201 
羅伯斯比 3.918002 4.810351 1.673345 0.959759 0.710441 6.584994 1.481097 4.560373 -3.745533 0.238617 
中斷 -0.101662 -0.818131 -0.344618 -0.618143 1.090751 -0.915695 -0.994761 0.982075 -0.959009 1.034734 
西拉雅 -0.386912 4.087335 -1.844607 -5.140888 -0.506096 6.171692 -1.660667 -3.057774 0.078155 0.427687 
蘇臺德 -1.410827 0.464129 1.161161 -0.561384 0.521410 0.916973 2.101003 4.107778 -3.223965 2.015144 
史前時代 -2.718163 -0.874362 0.090007 -4.982338 -0.831825 2.124690 0.452232 -4.099565 0.651364 2.993127 
三山 -0.842220 4.734529 1.102897 -3.209903 -4.726167 4.027743 0.011376 -3.306398 -0.094247 2.243118 
關羽 2.324659 0.463280 2.329388 -2.988669 -0.821452 -0.290592 1.858512 5.858186 2.929609 2.808347 
新興國家 -2.531386 -1.436233 1.366595 -2.740625 3.768789 2.380216 -2.474788 0.170940 -2.515879 0.091748 
李斯 0.608474 -4.799987 3.879467 -1.586435 1.533503 2.241619 2.105895 -1.071488 1.200374 2.138787 
藩鎮 0.724644 -2.600035 1.033253 -0.471675 -4.564263 3.161112 -0.286743 -0.382974 -2.219896 3.218394 
林彪 -2.703588 -2.590733 2.867277 -4.950615 -0.753871 2.292219 -0.419801 4.968400 3.645469 -0.357682 
墨 0.440682 -2.656829 3.576393 -1.120191 0.386129 2.230652 -0.808242 0.413146 0.980246 -0.416655 
魯 0.199238 -0.258788 1.209276 -0.981846 1.299325 1.329787 0.691067 -0.634937 1.026545 -0.410530 
廈 -2.650641 3.972834 0.074584 -3.298951 -2.804479 -1.108703 1.592834 1.716218 -2.842220 2.717621 
祕魯 -1.236684 -2.654861 0.254428 -1.345432 6.791715 3.018292 -1.940477 1.516707 1.647392 3.254589 
伊斯坦堡 0.080000 -1.940955 0.061590 -6.824164 3.372269 0.132267 -1.240419 1.363344 -0.444251 -2.258584 
神農 -1.924123 1.114246 -0.120707 -8.798626 -0.657906 -0.999803 -2.327743 1.584712 0.514257 1.967686 
基督 3.054898 2.333987 -0.891517 -4.192023 -1.451426 1.377410 -2.760627 0.686054 -0.560428 2.784407 
德國人 -0.654550 0.849218 3.469975 0.281393 3.816539 0.845525 0.157336 4.219729 -2.056825 0.962396 
宇文 0.578225 -0.705105 5.583434 -0.547195 -4.519228 0.018129 2.597369 -0.441503 -2.356117 0.278646 
關懷 -2.024385 -0.736448 -2.640189 -4.796091 -0.880189 3.174308 0.258297 -0.970814 0.666003 -0.065750 
保加利亞 -0.718889 -1.462164 2.847980 -4.671901 3.562698 -1.172925 0.250848 3.012358 -2.766217 -1.918368 
中西文化 2.124848 -0.090910 0.983514 -0.721432 -0.230571 -1.686928 -1.893714 0.370367 -2.087843 4.237676 
藩屬國 -1.082593 0.484272 -0.385691 -0.521185 0.578480 0.044780 -0.733577 1.215975 -0.750461 1.829158 
西臺 4.918146 0.344932 3.659850 -3.266809 -1.167155 2.461548 -2.435445 2.064790 -2.731010 -1.644379 
西亞地區 2.886162 -0.030724 2.716186 -3.178828 1.486700 2.320454 -3.132314 -1.094912 -3.127778 -1.522752 
賽德克族 -0.064847 1.920377 -1.367967 -2.227802 2.398433 4.802801 -1.154449 -2.266731 0.909585 0.092552 
倫巴 4.602105 0.899859 2.838582 -3.642017 2.987178 -0.054996 1.142478 0.269052 -1.983531 2.249153 
殷 -1.250310 -2.381194 5.881013 -0.476382 -1.931167 2.492330 -5.534728 -1.834893 2.435926 1.935147 
遠東 -0.382142 0.257685 2.483049 -1.566858 3.725420 -2.124139 -1.623272 -1.668392 -1.545353 0.128167 
琿 -5.162081 0.431862 5.826147 -0.555379 1.364400 -3.454090 0.897741 0.430312 -2.747709 4.626536 
同安 -0.572879 2.987402 0.412304 -4.127218 -4.509996 -0.768838 2.539027 -2.163927 -0.241500 4.168280 
海瑞罷官 -0.691550 0.201482 2.587781 -1.537602 -2.926504 4.960502 -4.361885 3.132623 2.980276 -1.125890 
巴士底 2.690566 1.904318 0.204741 1.280458 1.047522 3.364254 2.279988 1.832696 -1.219049 2.507309 
七七事變 -5.672152 -0.392482 -0.160377 -0.622725 0.947185 3.978987 0.888792 0.826214 -2.930788 -0.071359 
黎 -0.936349 1.598689 1.183860 -3.061310 0.437028 1.790321 3.399067 4.242297 2.116576 1.047805 
桂 -1.276183 1.404220 0.942945 0.459132 -1.315867 0.352569 1.502337 3.121178 0.585325 3.267985 
陳述 0.601591 0.415294 0.389710 0.657012 1.040724 2.359996 -1.794538 -0.035364 -0.665676 0.108037 
南美洲 -0.697830 -0.428098 0.524512 -1.700702 5.418392 1.496375 -3.138844 -1.407422 0.523030 4.185798 
永發 -3.250750 -1.813905 0.689100 -0.864469 -0.341626 3.755900 -3.227680 4.553306 1.684144 0.813230 
哥德人 3.509720 -1.227325 1.577826 -5.325536 1.441270 -1.429007 2.362542 1.989808 -4.407910 2.315985 
中南美洲 1.391811 -0.241115 0.221799 -1.192554 3.752879 1.659500 -0.028262 0.268307 1.671120 4.256799 
馬基維利 4.561794 1.905228 4.174486 -2.014651 0.752156 2.999385 1.136853 -1.492437 2.879975 1.597922 
明治天皇 -0.962791 -1.759088 1.325537 3.269148 2.786749 4.050229 -0.411740 -1.068286 -3.161131 2.054607 
黑海 -1.053704 0.818557 4.570636 -2.674488 3.091264 -1.159710 -0.465711 2.149854 -2.518288 -2.191286 
從政 -0.392013 -0.246436 1.957813 0.466048 -0.686933 1.277068 0.524201 -0.538128 -0.296083 0.842468 
狄奧多西 2.643306 -1.200277 -2.104932 -6.292181 0.512648 0.982125 1.127311 2.808574 -2.372918 0.470089 
祆教 1.161155 -0.462320 0.924320 -3.839542 -1.015579 2.262847 -2.002673 -0.566318 -5.789847 -1.536708 
藍波 1.399012 -2.299052 0.234097 -2.611009 0.405317 3.517255 -2.619071 -5.026845 -2.688857 3.432721 
龍山文化 -5.004762 -4.584548 5.716299 -4.882660 -4.071067 0.148000 -0.518032 -3.038440 0.936815 2.757506 
徵召 -2.190005 -0.773989 -0.915679 -1.295269 -0.480208 3.070830 0.992596 0.650368 -3.955723 -1.184004 
民國初年 -2.803751 -3.807543 1.620761 0.356371 1.086013 3.958727 2.654352 -0.066839 0.472697 0.330204 
蔡鍔 -1.804182 1.924438 -0.569801 -1.822601 -0.266883 4.730515 3.167481 5.564742 1.171285 1.240537 
敦煌 0.454793 -3.528698 5.181682 -2.762157 -2.279402 -0.681015 1.068632 -0.928135 -4.157433 1.017014 
羅馬教廷 3.450497 0.696745 1.063373 -3.917311 0.355675 0.173861 -1.317544 0.164768 1.290914 2.534512 
十月革命 -1.951742 -1.667849 1.484725 1.322487 0.388628 2.045091 0.092775 1.916023 -0.709880 -0.085252 
黃花岡 -2.788242 4.533357 3.198456 0.992876 -0.794595 4.416199 0.217893 1.776905 -0.790809 0.101550 
伊 0.705679 1.854535 -0.048849 -4.067648 -0.792487 1.954254 1.923727 -0.668703 -2.707335 -1.537109 
區域衝突 -1.592991 -3.180968 -0.810236 -2.139770 2.310642 1.562686 -2.557721 0.802825 -2.327353 0.017704 
詹姆士二世 2.836120 4.422678 1.677497 0.834784 -1.479037 1.204610 0.712765 -1.144693 -0.728457 4.704297 
塔利班 -1.161394 2.778488 4.090446 -0.612486 3.868047 2.505511 -0.396311 0.250704 -6.499989 -1.424846 
亞當斯密 0.105048 3.181357 0.794722 1.823203 2.409780 4.958988 0.148802 0.879334 2.846067 4.946571 
廖 -2.139221 0.632346 3.520675 1.521359 -2.571788 0.903103 0.084706 1.088629 -1.119001 2.720967 
江蘇 -1.531372 0.314078 1.927591 0.158723 -2.257405 0.768320 2.772933 1.398250 -0.244151 1.048612 
虎門 -3.938573 4.962650 4.127287 1.027897 -0.417540 -0.319922 0.344194 -1.244426 -1.956334 3.642261 
印度教 1.914870 2.187145 5.088118 -2.096996 0.725269 3.076566 -0.652014 -5.408336 -4.054930 1.641239 
唐繼堯 -3.446748 3.160683 0.406879 -1.898894 0.085143 3.833384 2.172354 4.742662 0.898546 0.531557 
潘 -1.131728 1.080848 -0.381812 -1.422432 -0.163319 3.189498 -1.060599 3.345613 1.415418 0.087959 
唐王 -1.140986 2.342084 0.454671 -0.643770 -1.631940 -0.215185 2.556184 1.254549 0.128775 2.924562 
伊莉莎白 2.467430 1.538889 2.053594 0.511358 -0.947838 -0.066655 1.668179 0.791014 -1.451397 3.317157 
長安城 1.540551 -2.789242 1.233921 -2.647573 -3.882331 0.105513 -4.736867 1.155399 -2.731276 0.676980 
四國 -2.850236 0.390144 2.216976 -0.083687 2.854973 0.725662 0.443647 2.746740 -1.322180 1.253499 
諸子 1.104382 -0.758659 4.817935 0.590590 -1.390550 -0.101008 0.894244 -1.079143 0.597302 2.511107 
姚文元 -1.765331 -0.398680 3.027142 -2.523478 -3.208552 5.098025 -3.686537 1.056870 1.153056 -0.801674 
改革派 0.120891 0.685048 -0.279976 1.415386 -1.019927 3.332952 -0.849731 1.845369 1.689722 4.681409 
保守派 -0.632370 -2.394808 0.088761 -0.718256 1.657048 2.048279 -0.046718 3.601407 -2.399074 -0.773950 
原住民族的社會 -2.627710 -1.875337 -0.671522 -5.642050 1.116043 1.924413 -1.712143 -4.303432 -0.705329 2.811867 
臺地 -2.194971 0.984451 0.365967 -2.019673 0.333179 -0.445394 -0.126165 -0.767404 0.326844 1.174652 
永和 -0.261104 4.681802 -0.584619 -2.846074 -0.742861 0.238098 -0.559156 -0.484217 -0.746836 2.099488 
華麗 1.199912 0.095510 1.508514 -2.342383 1.040465 0.313972 0.622557 -0.853183 0.824319 2.407568 
達成協議 -2.257880 0.198688 -0.105101 -1.250884 1.550462 0.119432 0.050386 2.353457 -1.201880 0.762042 
齊桓公 1.542918 -2.785032 6.871272 0.434101 3.872482 7.009659 -0.813197 -0.866113 0.060718 -0.002825 
東都 0.552599 -0.402410 1.164381 -3.409000 -0.412240 -2.870764 0.104056 1.252168 1.733446 4.725615 
哥哥 1.359386 -1.125913 5.100229 -3.497896 0.720595 -1.015794 3.274869 -1.566375 0.802655 3.095714 
北齊 1.468954 -0.357839 4.559571 -2.923795 -3.196692 -1.452461 -3.760110 4.014324 0.163840 3.845763 
鳳山縣 -2.183559 3.709118 -0.206684 -3.600954 -1.373245 -0.881447 -2.558974 -0.482698 -1.222394 2.785180 
淮 -1.843701 -1.708322 2.646129 0.734224 -2.275372 -0.436186 -1.032523 3.279992 0.220292 2.934397 
中古史 3.311141 0.742402 2.746400 -2.494717 0.582436 -0.341906 -2.064106 0.828657 -0.667449 1.260463 
港灣 -3.373821 -1.522097 2.007759 -0.343220 0.179917 -0.985276 0.550537 1.412966 -4.139752 2.023329 
平城 -0.135117 0.902662 1.494240 -4.741205 -3.533040 -1.277186 -0.762188 0.641243 -0.275118 0.457141 
厝 -2.213095 3.778695 -1.642347 -3.205107 -2.209809 0.940686 1.648302 -0.334002 -1.926443 0.608196 
人文主義 4.075371 1.055882 1.182943 -5.265127 -0.025902 2.568821 -0.180960 -1.595973 2.606058 0.278230 
陸 -0.639987 0.859447 -0.243101 -0.749419 1.168479 0.970164 0.655440 0.790326 0.981325 0.586838 
洛林 2.581123 0.734325 1.784552 -0.354670 2.393476 -0.122471 -0.680570 4.371644 -2.871587 1.667315 
黎明 0.064302 0.715452 0.419274 -0.091093 0.056139 1.168783 -0.632365 -0.755402 -0.293273 -0.443371 
愛德華 2.632425 3.686515 3.710625 -2.222598 0.473149 -1.308317 1.462111 0.574165 -1.763791 4.742221 
大將軍 1.655416 -1.848269 -1.901068 0.399012 2.641451 4.629616 1.885469 0.842114 -3.524336 2.539259 
江澤民 -2.942655 0.646040 -1.513986 -1.310265 -4.039369 4.457258 -2.389932 2.385616 2.134535 2.532946 
田賦 -1.397074 0.638074 0.816392 -0.135499 -1.663266 2.042440 -1.501319 -1.154163 -0.197950 3.262940 
葡 0.152252 0.672232 -0.604128 -0.587056 5.048931 2.185108 0.052415 1.004367 2.059152 5.194654 
旅順 -4.095866 -1.214487 2.140566 0.418182 1.530442 -0.098637 1.457043 1.439197 -4.156796 1.208282 
羅漢 -4.921783 -1.053263 -1.005030 -2.543075 -0.426569 0.818656 -1.382929 -1.607873 -0.509583 4.503321 
開羅會議 -1.461997 -0.171502 -1.896672 0.187074 2.566520 1.557648 -0.139530 1.185963 -3.462454 -0.080476 
河 -0.512503 -0.688868 3.345681 -1.752630 -0.691350 2.267814 -5.306411 1.003191 -1.095896 -0.439004 
廉 1.154554 -3.588893 3.655339 1.807279 2.937061 3.547053 1.277008 0.385873 -2.500329 0.784587 
狄更斯 2.689267 -2.794696 -0.490704 0.772338 0.572755 4.105755 3.045794 2.603557 0.173501 4.301317 
寧靖王 -0.357209 3.033595 -0.385106 -3.744270 -1.772475 -0.823302 3.344001 1.120350 0.567229 4.076187 
南陽 1.168895 -2.678455 4.663136 -3.184341 -4.329147 0.418023 3.400856 4.075056 -1.800615 -0.959115 
秋瑾 -1.672035 -0.328750 5.471518 3.315799 -0.973667 6.434114 1.908450 1.669198 -4.553431 -0.793499 
武帝時 0.958982 -3.252298 3.058351 0.113873 -0.050681 2.520355 1.379604 0.561314 -2.164139 0.265693 
陝北 -5.706899 -0.757282 -0.029386 -2.191149 -1.037545 3.438383 -0.331358 1.477086 0.190335 -1.734596 
大元帥 -3.484274 4.173516 0.546094 -1.558465 1.734421 3.357487 3.326385 1.834213 0.574516 -0.143052 
拉美 0.184196 -1.658184 1.509032 -1.590257 5.597724 0.009322 0.096228 2.104741 2.077963 3.112906 
十國 -1.202115 -2.131888 1.102133 -1.735811 -1.952513 0.213199 -0.251775 -0.594379 -3.634128 0.546927 
公正 -0.079787 0.735926 0.836339 -0.366622 1.627529 0.204488 0.317996 0.578285 -0.941093 1.207234 
羅馬城 4.362750 1.197640 -0.709892 -4.574538 0.730852 1.999777 2.818976 1.869478 -2.909696 0.024161 
卓越 2.400288 -0.859646 -0.107226 -2.118589 -0.715207 1.310091 1.124383 1.803780 0.251495 0.782416 
蘇秦 0.213110 -1.149328 4.548624 -3.488934 2.195392 4.363432 2.382670 -1.179389 2.921808 -0.582555 
英方 -1.898695 4.605957 2.157448 0.767030 -0.679721 0.959182 1.241397 0.260088 -1.906179 3.065084 
西林 -0.195816 1.425449 3.698734 -0.445979 -0.107736 -0.967113 1.428923 1.097702 0.738504 5.481205 
鄭克 -0.816241 1.741147 -1.857144 -4.172328 0.162091 -1.801816 1.725012 0.845347 -0.462169 3.986686 
民主運動 -1.458695 -0.072607 -1.784269 -0.634104 -1.676219 3.680210 -0.596034 2.040538 0.506233 -0.064247 
西亞古文明 1.750308 -1.797503 3.048164 -2.058466 0.504917 2.491080 -3.280606 -1.436925 -2.631403 -0.381262 
大月氏 0.347413 -3.529655 1.437012 -2.126123 0.305278 0.032334 0.498689 0.212654 -4.478680 2.403853 
延平郡王 -1.150514 3.872176 -0.587719 -1.872571 0.724695 -0.100499 0.131278 0.406727 0.424106 1.159869 
天街 -4.566221 1.646302 0.605591 -5.772045 -2.448903 -1.295977 -2.679013 4.815870 -1.134313 1.556013 
鄂 -1.484110 2.649473 2.290037 -1.385647 1.252118 0.313838 0.556375 2.760058 -0.014069 -1.068120 
黑龍江 -4.335102 0.050151 4.552822 -1.036384 0.781292 -2.354588 1.226673 0.993814 -2.574288 4.168700 
南非 0.589981 1.585575 1.878758 -1.772097 4.365592 -0.147771 -0.012623 -1.856493 -2.593173 1.876384 
論文 -0.793680 1.230545 -1.416375 -2.622782 -2.835722 2.508809 1.156833 -1.308019 1.573206 1.465698 
汪 -4.037925 0.183469 -1.282597 -0.024193 0.927525 3.789129 -0.254092 1.003658 -1.208236 0.631738 
宋史 -0.213466 -0.479789 -1.236839 -2.224784 -3.111894 1.385784 -0.185056 0.996038 -2.083271 2.093146 
徵兵制 0.480142 0.267908 2.011377 1.184705 1.983933 0.513629 1.438067 2.823283 -1.164286 1.248862 
賽德克 -0.349963 1.423872 0.969005 -3.208677 0.309259 2.722956 -4.095908 -2.088855 2.201734 1.323068 
小三通 -3.331812 0.952653 0.685203 -0.939247 0.916142 1.409905 -2.287890 -0.755990 0.793885 4.381121 
安祿山 -1.007777 0.273477 1.613598 -0.950733 -1.523863 0.652635 -0.231178 0.723608 -2.185775 -0.510625 
法蘭克人 4.700697 1.404428 2.595778 -3.039557 0.306679 -1.514206 1.714380 3.185226 -4.372684 2.693690 
麥加 0.840857 -0.423942 1.263611 -7.119010 1.422784 1.061674 -3.205689 -3.158074 -6.800500 1.127929 
巴比倫人 5.088712 -0.438077 3.136111 -2.579742 -1.453826 5.676767 -3.209588 0.462831 -2.474475 -0.558137 
楚漢相爭 0.911090 -3.791014 3.461204 0.188972 0.520650 3.744024 2.133646 2.517379 -2.908447 -0.742960 
新莊 -0.600070 1.710004 -0.922223 -3.527905 -3.902728 -0.237431 -1.039631 -3.021717 -0.694330 4.903076 
屏東 -1.658199 2.909345 -0.273792 -1.966286 -0.620411 0.995046 -4.145083 -0.822735 -1.085773 1.461975 
景美 1.505461 -0.368834 -1.137272 -2.459766 -4.210464 -2.032664 4.037376 3.798505 -1.888392 5.143126 
貞觀 -0.377367 -0.435436 0.938115 -1.128097 -1.256525 1.252030 -1.565304 -0.263086 -2.494716 0.664437 
陸榮廷 -3.764760 4.593567 1.988208 -0.022568 -0.548394 3.160681 0.689902 6.952865 2.116994 2.669828 
印度人 1.154543 1.545083 3.139073 -0.660010 1.353225 1.150095 -0.019442 -1.173684 -2.368946 0.142332 
但丁 3.743628 1.934435 3.287395 -4.715518 -1.003377 3.091916 3.390274 1.114819 2.272014 0.086089 
古城 0.717683 1.246984 1.978119 -3.994760 2.046644 0.227961 -1.347531 1.986277 0.596063 -0.870055 
張儀 -0.367876 -0.609794 5.343307 -3.871992 4.302199 4.696409 1.085732 -1.233496 2.596541 -0.041555 
田園 -1.941800 3.112285 -0.748680 -2.535759 -2.116279 1.044375 -2.343151 -1.375415 -0.496769 3.817019 
紀傳體 1.811907 -5.643270 3.880771 -1.013538 -2.203960 2.063909 1.369068 2.446217 1.453621 2.135222 
世界大戰 -2.245217 -1.173041 -0.435787 -1.178633 3.315904 0.647921 0.081879 1.805441 -2.220821 1.176647 
紅樓夢 2.099471 -0.921954 2.402653 -0.617547 -0.272605 -1.046966 -0.943346 1.333816 0.828570 3.534287 
才華 -0.310454 1.495192 1.125020 -0.649580 -1.648744 4.271104 1.482840 1.258507 1.512835 -0.809024 
蜀漢 -0.565715 0.216560 4.979769 -4.335172 -2.473706 -1.206340 2.730513 6.391389 -1.106700 -0.426585 
