1963 10
</s> 0.040027 0.044194 -0.038303 -0.032780 0.013666 0.030211 0.009409 0.002113 -0.036035 0.022185 
臺灣 -0.043564 0.012495 -0.007513 -0.009572 -0.033157 -0.018822 0.025793 0.030254 0.029691 0.015974 
中國 0.015448 -0.038026 -0.040958 0.049696 0.038013 0.030901 -0.006039 0.040157 -0.004950 0.007347 
日本 -0.001492 -0.029832 0.013123 -0.013374 -0.038254 0.047542 0.043793 -0.010951 -0.002261 0.005092 
美國 -0.036377 -0.040071 0.045547 0.000630 -0.025824 -0.030421 -0.030765 0.016969 0.002014 0.013310 
歐洲 -0.042136 -0.038078 -0.001300 0.011436 0.025497 -0.031700 0.040796 0.009270 0.011197 -0.006084 
英國 0.029865 -0.022878 -0.020975 0.021584 -0.007532 0.010307 0.018045 -0.040886 -0.019830 0.029137 
義大利 0.042319 0.039320 -0.030469 -0.021077 -0.009091 0.020015 -0.037885 0.029979 0.027878 -0.015990 
臺北 -0.015515 -0.022383 0.042288 0.039119 -0.011798 0.042149 0.048203 0.018153 0.049829 -0.031111 
法國 -0.015317 -0.021074 -0.029071 0.028148 0.015793 0.004250 -0.021936 0.015239 0.030594 0.001936 
德國 0.022797 -0.049525 0.043149 0.004799 -0.018311 -0.020833 -0.007480 -0.029350 -0.043695 -0.028371 
羅馬 0.042770 -0.017699 -0.026794 0.023174 -0.017038 0.047566 -0.016046 -0.045888 0.027158 -0.000743 
基督教 -0.034888 0.009758 0.014420 -0.004814 0.018243 -0.039577 0.008810 0.018166 -0.030090 0.001421 
十九世紀 -0.000607 -0.023991 -0.028326 -0.046938 0.000229 0.001527 0.000098 -0.039339 -0.049619 -0.047466 
原住民族 -0.043256 -0.005470 0.013913 0.011842 -0.031824 0.049980 -0.020114 -0.012737 -0.014044 0.047325 
抗日 -0.037637 0.011610 -0.013354 0.031877 0.000406 0.042696 -0.028192 -0.026051 -0.041922 -0.036668 
中華民國 -0.031995 -0.031148 0.024442 -0.018669 0.026801 0.036900 0.013559 0.029506 0.024756 0.023405 
建國 -0.035507 -0.034331 -0.036566 -0.001320 0.041306 -0.027367 -0.030603 -0.041963 0.033060 -0.041789 
亞洲 -0.005792 0.021788 -0.046182 -0.044786 0.014429 0.035246 0.042642 0.021455 0.031622 -0.031276 
北京 -0.036404 0.039748 -0.027649 0.017534 0.005740 0.017903 -0.011823 0.001988 -0.016861 -0.011266 
史稱 -0.044336 -0.032600 0.034854 0.010054 -0.023627 -0.015919 0.024948 -0.035326 -0.023132 0.047343 
荷蘭人 0.042484 -0.039592 0.008710 -0.022499 0.001523 0.030067 0.048462 0.019865 0.041129 0.031465 
蘇聯 -0.002313 0.044749 0.025363 0.047414 -0.017053 0.047466 0.043289 -0.014275 -0.044196 0.048326 
拿破崙 0.008969 -0.020787 -0.007178 -0.007356 -0.038535 -0.014311 -0.004437 -0.049269 -0.035159 -0.012035 
第一次世界大戰 -0.009412 0.017900 0.008157 -0.006145 0.029462 0.014464 0.005478 0.036171 -0.011255 -0.014265 
長濱 -0.004135 -0.027275 -0.029999 0.002025 0.043381 -0.013670 -0.000208 -0.041353 0.037088 -0.015202 
中世紀 0.029681 -0.024086 -0.008951 0.000941 0.036230 -0.000862 0.044327 -0.007426 0.021002 -0.001369 
卑南文化 -0.039017 0.042506 0.010559 -0.030293 0.030081 -0.041447 -0.043536 0.032677 -0.034317 -0.026476 
臺南市 0.035278 0.032854 0.006851 0.045235 0.048566 0.040550 0.017648 -0.043504 0.022888 -0.048921 
美 -0.012863 0.015120 0.009808 -0.015248 0.029379 -0.046080 -0.014111 -0.013118 -0.016562 0.030708 
蒙古 -0.047308 0.027782 0.013376 0.028297 0.036780 0.002763 0.008255 -0.045500 -0.010284 0.032140 
文明 -0.017862 0.042128 -0.011938 -0.038777 -0.025912 0.048994 0.033380 -0.039674 0.048166 -0.042088 
西域 -0.047766 0.024760 -0.006564 -0.023308 -0.003815 -0.025160 0.023959 0.038149 0.041797 -0.044124 
希臘 -0.021201 0.000093 -0.009369 0.038182 0.022018 0.045338 -0.030750 0.017070 0.042679 -0.018303 
佛教 0.029218 0.012852 -0.045157 0.041982 0.047095 -0.029158 -0.002426 -0.015996 0.024445 -0.038649 
二次大戰 0.034933 -0.009422 -0.012170 -0.020308 -0.044016 -0.030486 -0.011188 0.046178 -0.025211 -0.046373 
印度 0.003955 0.006120 0.030411 0.000728 0.034821 0.029832 -0.013089 -0.006371 0.007971 0.012627 
南京 0.033353 0.040144 -0.025031 -0.025185 -0.016202 -0.026915 0.012378 -0.038289 -0.022690 -0.049736 
金屬器時代 0.021759 0.043626 -0.022049 -0.045506 0.029675 0.015874 -0.025217 -0.006413 -0.012311 -0.001234 
鴉片 -0.018130 0.000356 -0.027637 0.037614 0.038272 0.032613 -0.014740 0.002733 0.008054 -0.026830 
十六世紀 -0.047058 -0.010567 -0.019724 0.029842 0.026971 0.018028 -0.030997 0.035439 -0.016089 0.033830 
秦始皇 0.013297 0.047774 0.025323 0.007152 -0.022781 0.049660 -0.022229 0.033305 0.049832 0.048909 
新石器 -0.007184 0.032603 0.045200 -0.021666 0.047021 -0.049641 0.002383 -0.004253 0.041949 -0.043117 
袁世凱 -0.014554 -0.016039 0.004163 0.047490 -0.016550 -0.049211 -0.014777 0.042491 0.010458 0.029042 
十七世紀 -0.038306 -0.012801 0.005533 -0.023466 0.035138 -0.048073 0.032736 -0.023924 0.032117 0.031987 
東北 -0.018869 0.035481 0.004193 0.047691 -0.035220 -0.012437 0.027930 0.044353 0.022745 -0.009868 
和平 0.004889 -0.007716 0.019089 0.026003 -0.038367 -0.013203 0.042874 0.002986 0.049725 0.048204 
埃及 0.008163 -0.046104 0.045728 0.021819 -0.045981 0.036543 -0.048798 -0.022047 0.044504 0.033742 
李鴻章 -0.007288 0.011919 -0.031320 -0.046696 0.021820 0.044029 0.040610 0.028041 0.015088 0.019597 
王 -0.000644 0.015767 -0.025922 0.008934 0.008981 -0.000706 0.025354 0.007353 -0.041452 -0.013567 
張學良 0.020477 0.035167 -0.037881 0.009999 0.036011 0.037688 -0.041245 0.027803 -0.026483 -0.014772 
宋 0.012521 0.022658 -0.040442 -0.026900 0.012479 0.002376 0.045697 0.021617 -0.027310 -0.000230 
俄國 0.008496 -0.023909 0.032217 -0.027348 0.049518 0.006834 -0.044876 0.003835 -0.004675 0.009160 
孫中山 0.030472 0.001131 -0.002521 0.003380 -0.027676 -0.002647 0.032544 0.034807 0.019742 -0.049687 
唐 0.002081 -0.026247 0.036789 0.042824 0.032654 0.015532 0.012527 -0.017302 -0.024176 -0.019545 
朝鮮 -0.038980 0.002748 0.008154 0.013835 0.021329 -0.039214 0.031207 -0.014015 -0.042484 0.039626 
拜占庭帝國 -0.028455 -0.007784 -0.041354 0.047078 -0.019269 -0.047157 0.038779 0.015956 0.035327 0.013176 
太平天國 0.036978 0.004073 0.036896 0.043529 0.017307 -0.005760 0.012000 0.039214 -0.031174 -0.005730 
自強運動 0.012201 0.020543 0.005600 0.036977 0.014062 0.032829 -0.033310 -0.019829 0.019147 0.046385 
福星 0.016159 0.006667 -0.045984 -0.043477 0.043069 0.024275 -0.029767 -0.016444 -0.038516 -0.034190 
王權 0.044360 -0.027205 0.010464 -0.010918 -0.022040 -0.005446 -0.045926 -0.023094 -0.002405 0.044145 
甲午戰爭 -0.018625 0.037093 -0.045172 0.041881 0.006430 0.002455 0.026221 0.033073 -0.031699 0.030806 
中華人民共和國 0.013336 -0.011964 0.031052 0.004958 0.042737 0.002080 -0.016257 0.032722 -0.034015 -0.004482 
西征 0.040439 0.046913 -0.040356 0.013664 0.040201 0.005342 0.025275 0.026830 0.047092 -0.009178 
沈葆楨 -0.010559 0.030327 -0.049826 0.011165 0.003705 0.044469 -0.036490 -0.000816 0.044629 0.014568 
工業革命 0.026163 0.012691 0.013776 0.010936 0.002194 0.034499 0.037708 0.028886 -0.019333 -0.027580 
外國 -0.032013 -0.011269 -0.024356 -0.040733 -0.018823 0.035783 0.026187 -0.047148 -0.021161 0.040355 
馬克 -0.003641 0.035988 -0.012463 -0.002242 -0.024777 0.016487 -0.041168 0.028307 -0.023160 0.027162 
德 -0.030713 -0.022688 0.040274 0.025826 0.020465 0.015086 0.029587 -0.004710 0.038928 0.036943 
上海 0.033841 0.043367 -0.023761 -0.036806 -0.032901 0.002870 0.008960 0.039153 -0.031577 0.031612 
西班牙 0.038654 0.035130 0.001877 0.012404 -0.008118 0.046440 -0.043478 -0.046941 0.020209 -0.006606 
臺北市 0.046420 -0.013609 0.000195 0.021306 0.010635 -0.029790 0.033405 0.000487 0.013229 -0.012669 
澎湖 0.046399 0.026250 0.043265 0.045564 -0.009259 0.018907 0.014804 -0.022276 0.042993 0.023772 
毛澤東 -0.033090 0.041621 0.004718 0.011156 -0.036356 0.020070 0.002478 -0.023628 -0.005930 0.020882 
魏 -0.012164 0.039732 -0.027750 -0.023131 0.037354 0.046550 0.037247 0.045845 -0.047406 -0.032863 
日耳曼 -0.046878 0.010622 -0.039880 -0.003194 0.008939 -0.020988 0.011493 -0.044130 0.018759 -0.016173 
羅馬帝國 -0.016724 -0.010359 0.021646 -0.017119 -0.022968 -0.031569 -0.018338 -0.041014 0.019324 -0.012447 
江南 -0.012131 0.019954 -0.038287 -0.032680 -0.045670 -0.001402 -0.019238 -0.046956 0.020108 -0.047270 
經濟發展 -0.021967 0.015038 0.049265 -0.034837 -0.019910 0.048613 0.030862 0.043709 0.038495 -0.025917 
歐 -0.021036 0.021181 0.029810 0.036760 0.032632 -0.044609 -0.044403 0.006956 -0.044070 0.029152 
殖民地 0.042419 -0.020015 0.037918 -0.049724 0.041840 -0.023842 -0.007339 -0.048424 0.030420 0.040788 
十八世紀 -0.040781 -0.009135 0.009723 0.044188 0.001657 -0.049046 0.006311 -0.018330 0.009036 0.039656 
美洲 -0.028253 -0.026454 -0.004581 -0.010216 -0.017407 -0.034871 -0.000131 -0.040849 0.040411 0.026732 
非洲 -0.013553 0.030568 -0.028235 -0.046333 0.044217 0.011848 0.028217 -0.033754 -0.012759 0.035805 
西歐 -0.013672 0.009782 -0.045419 -0.039751 0.047662 -0.045412 0.010300 -0.032005 0.038782 -0.004024 
藉此 0.043460 -0.033147 0.011249 -0.045741 -0.031876 -0.010362 0.041626 -0.025252 0.023355 -0.005840 
張騫 0.031476 0.027757 -0.026785 -0.036766 0.007361 0.008598 0.006766 0.004671 0.020844 0.037584 
西亞 0.038071 -0.048717 0.048486 -0.039973 0.006192 -0.039116 -0.008148 0.046239 -0.024808 0.016286 
西漢 -0.022498 -0.008467 0.034134 0.025301 -0.042999 0.016222 -0.002921 0.020741 0.006909 -0.034383 
查士丁尼 0.003091 -0.039580 0.028790 0.010033 0.016232 0.027150 0.049207 0.044780 0.025565 0.028743 
開港 0.019720 -0.009828 0.045151 -0.001988 0.016895 -0.008479 0.014053 -0.007231 0.042291 0.019139 
晉 -0.003665 -0.004173 0.022473 -0.031660 -0.018942 0.014998 0.009003 -0.040565 -0.017715 -0.016905 
亞美利哥 -0.021558 0.037737 0.039078 -0.042070 0.032355 -0.026442 0.015500 0.022316 -0.002698 -0.037788 
蔡元培 0.000613 -0.015935 0.024847 0.024010 0.008481 -0.024010 -0.008447 0.004265 -0.021835 -0.044096 
劉銘傳 -0.001019 -0.026711 -0.026273 0.006618 -0.026306 0.026396 -0.015768 0.035945 -0.032745 -0.016103 
蔣中正 0.023740 -0.023302 -0.043774 -0.008894 0.031314 -0.013310 0.042169 0.018333 -0.028983 0.048732 
東南 -0.048352 -0.039107 0.031912 -0.029362 0.036224 0.039098 0.028061 -0.014781 -0.027539 -0.001741 
拉丁美洲 -0.001474 -0.049712 -0.038080 0.008690 0.007370 0.048659 0.031165 -0.034297 0.043655 -0.011858 
南北 0.031757 -0.010390 0.021445 0.001552 0.040259 0.025725 -0.020200 0.046700 -0.041766 0.044359 
隋 -0.017215 0.006398 0.012244 0.040825 0.019461 -0.011540 -0.046149 0.035435 0.003891 0.025697 
咸豐 -0.040381 -0.026497 -0.024863 -0.024077 0.031110 0.025340 -0.002737 0.021950 -0.005115 -0.013741 
福建 -0.040671 -0.028410 0.002509 -0.023427 -0.024600 -0.042345 0.030542 0.041594 -0.015463 0.037959 
荷蘭 -0.019452 -0.048366 -0.049197 -0.004686 -0.020911 0.002007 -0.036740 0.037532 -0.022272 0.013023 
範圍圖 0.035971 -0.002574 -0.046973 0.029997 0.007999 0.032808 0.006549 0.023241 0.043405 0.026491 
法典 -0.035144 -0.011934 0.031253 -0.013713 -0.020490 0.044786 -0.014395 0.045009 0.027075 0.038713 
關聯 0.045523 -0.039531 0.009113 0.040160 -0.024930 0.015480 -0.047815 0.044438 -0.036691 0.017854 
明白 0.007855 -0.028139 0.024301 0.000404 -0.047314 -0.032259 -0.002890 0.020943 -0.011761 0.002391 
史前 0.045798 -0.037718 0.041077 -0.028877 -0.040573 0.032234 -0.037238 -0.005751 -0.047940 -0.036388 
聖經 0.029858 0.017082 -0.037241 0.014229 0.043927 0.009935 -0.044412 -0.033104 0.031531 -0.031880 
希特勒 0.019608 0.029427 0.044232 0.011949 -0.031119 0.034633 -0.041406 -0.013264 0.042471 0.040327 
周 -0.023822 -0.037209 0.004440 0.029323 0.023547 0.035429 0.043851 0.009431 -0.047736 0.024962 
臺南 -0.025235 0.013466 0.038892 -0.023299 0.036246 -0.000761 -0.015009 -0.039040 -0.007645 0.049562 
鴉片戰爭 0.017126 -0.026949 0.032156 -0.027751 -0.013141 0.033287 -0.030289 0.000111 -0.029248 -0.013020 
北韓 0.044083 -0.009038 -0.029633 0.004442 0.019333 0.027614 0.012268 -0.019014 -0.015475 0.017879 
長城 0.048016 0.036925 -0.046280 -0.005431 -0.045825 0.017570 -0.034018 0.015498 0.032306 -0.006764 
大戰 -0.014627 -0.036522 0.008972 -0.040767 0.000955 0.046321 0.035736 0.035875 0.026791 -0.003160 
廣州 -0.010840 -0.031526 0.001944 -0.027153 -0.029193 0.027342 -0.009525 -0.042845 0.007239 0.007793 
阿拉伯 -0.018552 -0.042424 -0.049982 0.030138 -0.011075 0.006923 -0.024292 0.039690 -0.048032 -0.036992 
韓戰 -0.014130 0.006761 0.034641 0.008644 0.007068 0.026665 0.026004 -0.048357 -0.009137 0.019713 
經濟大恐慌 0.040121 0.024818 0.013818 0.031218 0.016055 -0.014018 -0.022504 0.031493 0.017868 0.017946 
共和 0.008459 0.015849 0.034622 0.028523 -0.041730 0.004601 -0.019620 -0.049474 0.003491 0.043059 
城邦 -0.005795 0.041768 0.045685 0.001537 0.040158 -0.014940 0.011414 -0.024654 0.007303 -0.011784 
日月潭 -0.047760 -0.015199 0.009702 -0.015953 0.044727 -0.024788 -0.013583 0.030367 -0.009564 0.016893 
漢武帝 0.001511 0.009987 0.015930 0.005156 0.044046 0.030721 -0.027228 -0.039687 0.028085 0.025380 
陳永華 0.037524 0.027678 -0.007309 -0.048222 0.011749 -0.022438 0.001926 -0.007274 0.022009 0.005278 
雅典 0.044852 -0.043962 0.019867 0.031139 0.035532 -0.025475 -0.018115 0.000456 0.013028 0.006001 
北 0.009625 -0.016457 0.041403 0.033278 0.029651 -0.024287 0.009720 -0.035832 -0.006476 -0.002724 
越南 0.032040 0.031483 -0.022192 -0.006453 0.047427 -0.006963 -0.015936 0.034837 0.019943 0.031642 
史前文化 0.038855 0.016460 0.038651 -0.044890 -0.006256 -0.041273 0.017612 -0.003746 0.025293 0.006950 
李白 -0.004111 0.012886 0.035065 0.031444 0.037546 -0.012181 0.049622 0.027519 0.031644 0.028865 
文藝復興 0.020526 0.015489 -0.007755 -0.031163 0.024341 0.040666 -0.041586 -0.034453 -0.037372 -0.026637 
秦 -0.005789 0.001808 -0.038049 0.008891 -0.011301 -0.014568 -0.026129 -0.032436 -0.044058 0.049232 
南韓 -0.025049 -0.005305 0.035001 -0.048979 -0.033246 -0.039406 -0.010062 -0.026390 -0.024158 -0.039424 
新文化運動 0.009818 0.024812 -0.046222 0.014952 0.008701 0.037440 -0.022876 -0.030965 0.025650 -0.030693 
第二次世界大戰 0.047443 -0.006862 0.024728 0.003224 -0.008704 -0.017427 -0.005002 0.047005 -0.039752 -0.042348 
興盛 -0.049478 0.033461 0.030859 -0.036311 0.030362 0.020406 0.004694 -0.029005 -0.001419 -0.009349 
鹿港 0.008313 -0.025117 0.044241 -0.047990 -0.006720 -0.004335 -0.018594 0.037294 0.036157 -0.021346 
鄭 0.049136 0.004317 0.038507 -0.005836 0.011496 0.035890 0.026892 0.037505 -0.042453 0.039827 
明太祖 -0.047125 0.028990 0.001352 0.048940 -0.006982 0.013933 -0.018027 0.021040 0.048883 -0.037355 
西班牙人 -0.036526 0.038942 0.047034 -0.029561 0.034915 0.010457 0.039032 -0.042372 0.010361 -0.031602 
秦國 0.001440 -0.030476 0.028873 -0.029424 0.035822 -0.023561 -0.045486 -0.000194 -0.031262 -0.026314 
史 -0.023654 -0.036101 -0.048248 -0.018422 0.008432 -0.004332 -0.038574 0.045427 -0.010165 -0.047075 
奧 -0.000677 0.035545 -0.015384 0.018483 -0.007996 0.047246 -0.018161 0.000154 -0.008966 0.000841 
盛世 -0.004434 0.030751 -0.027026 0.041643 -0.035141 -0.031914 0.039386 0.039964 -0.046219 -0.005028 
彰化縣 0.016833 -0.008882 -0.048605 0.019221 -0.043121 0.015416 -0.028238 -0.026353 0.036084 -0.041829 
歐洲各國 -0.046054 0.016060 -0.043988 -0.010304 -0.037991 0.029274 0.043225 0.005302 -0.014987 0.021101 
林則徐 0.049286 0.025304 0.037021 0.024355 -0.049243 -0.004988 -0.042905 -0.003154 0.049200 -0.015260 
南島 0.009299 0.021388 -0.028821 -0.010201 -0.017307 0.005794 -0.031744 0.030504 -0.008658 -0.017125 
香港 0.016992 -0.047835 -0.025693 0.010445 0.018951 0.025096 -0.004349 -0.028685 0.000696 0.044609 
伊斯蘭 0.044437 -0.026701 0.013788 0.031017 0.034726 0.049208 0.034790 0.029631 0.005582 -0.043144 
孔廟 -0.034735 0.010765 0.021066 -0.020946 0.031775 -0.030269 -0.029758 0.023616 -0.014117 0.026842 
臺灣省 -0.032828 0.023354 0.004150 0.027409 -0.049081 0.036079 -0.011859 0.041747 -0.014456 0.044606 
社會主義 -0.035583 -0.034834 -0.039890 -0.043254 -0.015460 0.017979 -0.011319 0.005312 0.025073 0.045500 
東南亞 0.010318 0.048116 -0.012421 0.018040 -0.010916 -0.032030 -0.001379 0.030913 0.014041 -0.027312 
哥倫布 0.009760 0.004430 -0.000748 -0.004918 -0.002441 -0.016096 -0.016220 -0.007036 -0.036420 0.039647 
維也納會議 0.031686 0.049147 0.034387 -0.033028 0.032034 -0.028557 -0.038458 -0.013808 -0.001114 -0.007335 
耶穌 0.021606 0.042619 -0.028696 -0.029375 0.016144 0.006566 0.013351 -0.011864 -0.028284 -0.026656 
朝廷 0.014090 -0.046989 0.039886 -0.036732 -0.012418 -0.001939 -0.002783 0.021648 -0.027109 -0.018901 
美麗 0.045270 0.018797 0.034079 -0.015062 0.010608 -0.049971 -0.039792 0.017390 0.044794 0.035655 
府 -0.034659 0.011269 0.024390 0.020988 -0.011459 0.024385 -0.049042 -0.023659 -0.006131 0.039552 
西安事變 -0.048938 -0.002974 -0.029611 -0.035417 -0.023737 0.003355 0.032162 0.032289 0.003125 0.040642 
諸侯 0.018253 0.000484 0.033209 -0.020802 -0.007278 -0.048021 -0.006921 0.014336 0.044632 -0.005412 
鄂圖曼土耳其 0.034296 -0.033632 -0.011954 -0.038878 0.033423 -0.019392 -0.037973 0.009395 -0.007977 0.027367 
法國大革命 0.030637 0.022218 0.036658 0.001958 -0.017062 0.007405 0.018890 0.024693 0.032993 -0.002232 
政治社會運動 0.015283 0.040886 0.019864 -0.048882 0.027399 0.020848 0.007614 -0.049730 -0.018201 -0.040108 
對外貿易 -0.014694 0.003035 0.030048 -0.021669 -0.032999 0.042226 0.048706 0.021477 -0.008237 0.025655 
五四運動 0.039337 -0.040358 0.023654 0.036134 0.028503 -0.011861 -0.048264 -0.018523 -0.032233 0.027281 
三國 -0.009927 -0.005504 0.033691 0.022380 -0.022275 0.033003 0.027838 0.043748 -0.021243 -0.020189 
溥儀 -0.023230 -0.013301 -0.017770 0.042732 0.032050 -0.028456 0.002206 -0.045421 -0.029761 0.043596 
金 -0.022250 -0.026836 -0.007098 -0.026833 -0.027078 -0.018700 0.026599 -0.044429 -0.023215 -0.013200 
伊斯蘭教 0.022894 0.011119 0.003403 0.022475 -0.041650 -0.014876 -0.008163 0.046138 0.034528 0.047899 
重鎮 0.006149 0.040602 -0.022009 -0.005244 0.035403 0.013680 0.040302 0.046007 -0.006339 -0.001817 
明治維新 -0.001978 0.046965 0.019986 -0.048076 -0.047284 -0.032057 -0.021561 -0.042284 0.030945 0.004253 
猶太人 -0.041916 0.023372 -0.015729 -0.023793 -0.027017 -0.018297 -0.010742 0.029118 -0.037802 -0.009477 
索菲亞 0.047467 0.033299 -0.010208 0.032643 -0.014539 -0.015938 0.044827 0.015877 -0.045197 0.001720 
山東 0.041367 -0.026964 0.032056 0.031584 0.018472 -0.038066 0.018781 0.043968 0.040207 -0.034618 
阿育王 0.041541 0.034184 -0.004367 -0.008806 -0.048102 0.022545 -0.001187 -0.027818 0.026416 -0.045638 
亞歷山大 -0.011191 -0.033842 -0.033344 -0.000050 0.029684 -0.044066 -0.000818 -0.045381 0.010501 0.049324 
安平 -0.024445 0.038683 0.045322 -0.020860 -0.027661 -0.002547 -0.026791 0.003194 -0.008905 0.001244 
雍正 -0.041776 0.004298 -0.041614 0.045366 -0.010568 -0.009734 0.025775 -0.049867 -0.019107 -0.006090 
史實 -0.030176 -0.039143 -0.028329 -0.026958 -0.007904 0.047850 0.025827 0.010475 0.019153 0.006425 
格林威治 0.032425 0.014021 0.002557 -0.043105 0.005527 0.016493 0.018872 0.044572 -0.015805 -0.024297 
天街 -0.030341 0.039769 0.032492 -0.025536 -0.018518 0.037798 0.039481 0.020589 0.005902 -0.041029 
神農 0.019223 0.046889 0.019482 0.048601 0.010782 0.011177 0.023785 -0.023000 -0.021780 -0.003734 
平原 0.045374 0.039482 0.010599 0.009969 0.035809 -0.043642 0.021982 -0.014903 -0.028345 -0.027058 
府城 -0.048569 -0.020537 -0.045526 -0.040456 -0.036990 -0.024120 0.010828 0.011479 0.045779 -0.017839 
平埔族 -0.007721 0.049059 0.013803 0.031117 -0.024609 0.017595 0.006143 -0.019438 -0.038275 -0.012599 
二二八事件 -0.013138 0.013307 -0.022156 -0.046211 0.045023 0.037166 -0.024689 0.037071 -0.005313 -0.015050 
抗議 0.030688 -0.017439 -0.025082 0.014473 0.045538 -0.039430 0.049777 0.008546 0.046423 -0.033589 
呂不韋 0.008328 -0.025017 -0.015094 0.020396 -0.035367 0.046596 0.037549 -0.032161 -0.042245 -0.018803 
泉州 0.005914 -0.020949 -0.048245 -0.038402 0.016565 0.049345 0.035696 -0.004387 0.021063 -0.000966 
黃玉 0.023642 0.016054 -0.004028 -0.026570 -0.045346 -0.019267 0.042853 0.042845 -0.007205 -0.027538 
農耕 -0.011731 0.002592 0.027127 -0.000945 -0.016217 -0.027016 -0.028287 -0.006676 0.005957 -0.000667 
培根 -0.034384 0.013081 -0.043646 -0.048048 -0.027103 0.041139 -0.038464 0.026152 -0.017380 -0.014690 
共產主義 -0.026935 0.042247 0.008847 -0.021593 -0.032495 0.045549 -0.009360 -0.021758 0.046417 0.006371 
長安 -0.007938 -0.032372 0.036365 0.020024 0.002176 -0.045622 -0.011090 0.006822 0.035043 -0.028697 
波斯 -0.019385 0.012077 0.029727 -0.023784 0.013043 0.006102 -0.049710 -0.048070 0.012756 -0.015791 
金字塔 -0.014206 0.006258 0.031317 -0.033290 -0.049698 -0.027989 0.045288 -0.001082 -0.017123 0.007002 
巴爾幹半島 -0.043768 -0.048854 0.047580 -0.005956 -0.009290 0.018706 0.033475 0.040950 0.000287 0.021910 
藉由 -0.045377 -0.019469 -0.038477 0.006071 -0.049911 -0.029399 -0.024017 0.041502 -0.016068 -0.006029 
林立 -0.029773 0.023515 0.045218 -0.041545 -0.004181 -0.027577 0.048007 -0.003136 0.029321 0.033537 
畢卡索 0.031363 -0.032988 -0.027704 -0.022829 -0.040652 -0.048289 -0.048694 -0.001363 0.021024 -0.041228 
南洋 0.017914 0.018248 0.030453 0.021010 0.048682 -0.018684 0.026700 -0.003764 0.045172 -0.041847 
古希臘 -0.026175 -0.032738 0.033948 0.044072 -0.039108 0.041902 -0.033429 -0.040614 0.001962 -0.047032 
渭水 0.019604 0.049406 0.036099 -0.041728 -0.005389 -0.015553 0.027365 0.040627 0.018152 -0.040181 
洛陽 -0.035178 0.007845 0.041791 -0.004164 -0.037466 -0.007262 0.042090 0.037810 -0.040439 -0.046880 
南 0.020612 -0.043947 0.019968 -0.028197 0.003918 0.045879 0.032816 -0.043401 0.043573 0.027599 
鹿港鎮 0.012167 0.040321 0.016138 0.046526 -0.002914 -0.019218 0.023175 -0.027028 -0.048367 -0.039207 
六國 -0.008752 0.002251 -0.035129 -0.011833 -0.028082 -0.045326 -0.049136 -0.004283 0.041748 -0.024446 
凡爾賽 0.048672 0.041255 0.002301 0.035204 0.022360 0.007594 -0.019861 0.028935 -0.039011 0.002547 
楔形文字 0.026825 -0.022939 -0.021378 -0.041075 0.018921 0.024895 0.014322 0.034541 -0.042010 0.042747 
胡 0.032150 0.012209 -0.029407 0.025932 0.021170 -0.000261 0.008295 -0.005238 -0.004556 0.029945 
胡人 0.047656 -0.005452 -0.005966 -0.039360 -0.009760 -0.004396 -0.018997 -0.025365 -0.037390 -0.006758 
長崎 0.045413 -0.020256 0.016327 0.007774 0.001328 0.008778 0.027954 -0.015486 -0.012192 0.019551 
陳 -0.000946 -0.006227 -0.031082 -0.005125 -0.043811 0.030864 0.033719 0.042561 -0.049078 0.016100 
凡爾賽宮 -0.003726 -0.004576 -0.040186 -0.005208 -0.004355 0.011275 -0.015570 0.037254 -0.004105 -0.027074 
黃巢之 -0.048669 0.038799 -0.013913 -0.011809 0.012079 0.019737 -0.019717 -0.010118 0.043237 0.025383 
啟蒙運動 0.017545 0.035811 0.046368 0.026048 -0.038065 0.008791 0.048035 0.017046 0.002518 0.016634 
以色列 -0.000201 0.018687 -0.046646 -0.007848 -0.021777 -0.023714 -0.046494 -0.006841 -0.015131 -0.039845 
社會變遷 -0.032962 0.002467 0.046301 -0.034395 -0.016989 0.027888 0.014081 0.012950 0.015488 0.002235 
柏林 -0.035229 0.047502 0.003531 -0.016679 -0.000067 0.039574 0.011203 -0.046043 0.046130 -0.015523 
加里 0.027567 0.021956 -0.045074 0.002525 -0.033316 0.020131 0.002881 0.039030 -0.032382 0.006294 
達悟族 -0.008441 -0.035695 -0.005569 -0.036742 0.047522 -0.026338 0.036185 -0.001164 0.022333 -0.012587 
東歐 0.006943 0.045839 -0.007446 -0.049129 0.045767 -0.037920 -0.040253 0.034349 0.016721 0.030373 
英法聯軍 -0.049524 0.033159 0.008865 -0.041472 0.016302 -0.032387 0.036264 -0.020641 0.033789 -0.016975 
蓬萊米 0.037979 -0.049321 0.004498 0.049706 -0.021927 -0.044701 -0.045007 -0.037032 0.045609 0.001033 
藉口 0.036835 0.043126 -0.045352 0.020692 0.026587 0.035490 0.044254 -0.027910 0.025812 0.010374 
嘉南大圳 -0.021512 0.038039 -0.038928 -0.036909 0.046414 0.026350 -0.016071 0.013951 -0.037906 -0.030162 
紐約 -0.029053 0.008269 -0.035410 0.026314 0.023688 0.016356 0.017966 -0.021410 -0.031287 0.033525 
十字軍 0.011282 0.034480 -0.042413 -0.019911 -0.041397 0.026796 -0.033130 0.001360 -0.001010 0.013350 
波及 -0.001874 -0.032350 -0.003494 -0.023045 -0.022083 -0.025728 0.040213 0.025423 -0.042194 0.041539 
鎖國 0.044174 -0.008434 0.014355 0.014763 0.047452 0.033199 0.049127 -0.035744 0.014108 0.033131 
斯巴達 -0.011316 -0.014668 0.033206 -0.000822 -0.015411 -0.001698 0.018808 -0.035851 0.013403 0.048479 
大躍進 0.009976 -0.014140 -0.023309 0.006175 -0.029227 0.047121 0.001013 -0.033296 -0.009738 -0.044255 
加富爾 0.037933 -0.049623 -0.017496 0.044545 -0.035986 0.002507 -0.013437 -0.028667 -0.019183 -0.006593 
西夏 -0.033499 0.018922 0.014905 0.018388 0.011380 -0.004875 0.017841 -0.002235 0.035263 0.032753 
黃帝 -0.033813 -0.023152 -0.022787 -0.010381 -0.038495 0.025951 0.001291 0.048537 0.030359 0.040385 
馬關條約 -0.003439 0.017317 0.024310 0.040465 -0.022916 0.028773 0.019922 -0.028499 -0.018076 0.040718 
改革開放 0.018756 0.003807 -0.024857 0.035963 0.047375 0.032695 0.045804 0.022322 -0.042657 -0.021523 
巴黎 0.007968 0.032607 0.025220 -0.013533 0.000699 0.024629 -0.047430 0.026976 -0.011942 -0.018797 
新興國家 -0.034045 -0.004683 -0.040891 0.010139 0.016937 0.011803 0.027914 0.044252 -0.017920 0.021745 
君士坦丁堡 0.033536 0.041353 -0.037054 -0.004543 0.040036 -0.015746 -0.013904 0.028252 0.036478 -0.019231 
嘉慶 0.003094 0.040440 0.036923 -0.036290 -0.009497 -0.022664 -0.019565 -0.009111 0.049884 0.009251 
英王 0.031076 0.045119 0.007800 0.031499 -0.022092 0.034212 0.015814 -0.035609 0.034995 -0.009019 
夏 -0.049512 -0.046761 0.041397 -0.026762 0.013385 -0.031642 -0.038821 -0.036205 0.031067 0.005058 
南郊 -0.016599 -0.029533 -0.044904 -0.016347 0.022128 0.026064 -0.037964 0.049455 0.016422 -0.011601 
北郊 -0.046552 -0.027223 0.030344 0.040285 -0.044104 0.048930 -0.047043 -0.010466 0.020941 -0.001772 
新平 -0.001675 -0.031041 0.025146 -0.034016 0.005508 0.036372 -0.029926 0.022508 0.038571 -0.025414 
乾隆 -0.017712 -0.036885 -0.013425 -0.008586 0.013348 0.008116 -0.036417 0.019667 0.039819 0.002824 
查理曼 0.008658 0.017159 -0.036737 0.017552 -0.014139 -0.033299 0.010242 0.047612 -0.015744 -0.023894 
八股文 0.032318 0.013316 0.017905 -0.021812 0.006055 -0.040022 0.025870 0.030757 0.033014 -0.042091 
師生 -0.027786 0.016628 0.039758 0.002422 0.045999 0.043611 -0.022150 0.013829 -0.038712 0.044521 
廣西 0.023853 0.037444 -0.042856 -0.022832 -0.020673 0.043578 -0.002371 0.024367 -0.029163 0.027544 
永吉 -0.028195 -0.006071 0.049945 0.009654 -0.006265 0.018666 -0.006787 0.035222 0.002481 -0.043608 
吳三桂 0.002203 -0.025441 -0.037894 -0.010081 0.003479 0.022978 -0.038327 0.027058 0.048602 0.000792 
廣東 0.015244 0.000624 0.014136 -0.046687 -0.038120 -0.031572 0.001642 -0.049147 -0.034354 0.013283 
中西 0.037683 -0.011275 0.015604 0.043001 -0.026178 -0.012758 0.025815 -0.009605 -0.013379 -0.008284 
辛丑和約 0.035342 0.013277 -0.022357 -0.027541 0.008249 -0.005540 -0.026550 0.024785 0.033597 0.041756 
腓尼基人 0.025604 -0.030995 0.025449 -0.012022 0.010669 -0.049568 0.022867 -0.009062 0.030206 0.039378 
苗栗 -0.010086 0.033449 0.010779 0.031157 0.015652 0.023323 0.003949 0.046080 0.014145 -0.006627 
烏山頭 -0.013721 0.029460 0.024454 0.001411 -0.040668 -0.048390 0.010641 0.030251 0.049670 0.007841 
古文明 -0.038229 -0.012297 0.008856 0.018468 -0.008096 0.006581 0.013452 0.028801 0.040103 0.044698 
新石器時代 -0.034979 0.009154 -0.029568 -0.015135 -0.009875 -0.045161 -0.028049 0.034895 0.040326 -0.013832 
西洋 -0.041275 0.027602 -0.007812 0.048454 -0.030185 0.020796 0.047272 0.012010 -0.030716 -0.002708 
路易十四 0.032141 -0.027852 0.046194 -0.035100 -0.001642 0.049181 0.014609 -0.043565 0.022485 -0.011580 
德意志 0.013589 0.029707 0.006085 -0.039821 0.007199 -0.032469 -0.024280 -0.040230 -0.015500 -0.022282 
王朝 -0.017047 0.007506 -0.040445 -0.006920 0.004346 0.048698 -0.028574 -0.028569 0.041461 -0.046339 
祖先 -0.015823 -0.004417 0.020862 0.017705 -0.013132 -0.026653 -0.005890 -0.038857 -0.006436 0.037538 
瀋陽 0.037769 0.029289 0.043326 0.045967 -0.046600 -0.007545 0.000217 -0.018553 -0.032434 0.045952 
伊比利半 -0.046701 -0.048210 0.031830 0.010094 0.016635 -0.010191 0.022754 0.030193 0.029288 -0.046684 
泰雅族 0.041901 -0.023439 -0.044681 0.025124 0.015833 0.044511 -0.016208 0.013045 -0.003888 -0.045644 
三皇 0.028769 0.049892 -0.040698 -0.048592 0.029312 -0.006523 0.006964 0.005980 0.049484 0.026613 
戊戌變法 -0.034338 0.013383 -0.021652 -0.042888 -0.013043 -0.006068 0.029965 0.017787 0.047412 -0.007063 
舊石器時代 0.043399 -0.033549 0.048590 -0.019289 -0.017288 -0.014085 0.017053 -0.047432 0.036966 -0.016008 
兩河 0.004364 0.028819 0.020224 -0.006505 -0.012915 -0.045222 -0.028452 -0.027763 -0.033221 0.000755 
丁尼亞 -0.044998 0.003029 -0.029993 -0.037935 -0.040353 -0.006316 0.048334 -0.040981 -0.000455 -0.022984 
天安門 -0.021680 0.036931 0.013760 0.010835 -0.038470 -0.033888 -0.033646 -0.022044 0.024524 0.041875 
古巴 0.046390 -0.013811 0.018866 -0.015468 -0.032071 -0.031651 0.021118 0.039397 -0.029965 -0.017754 
新港 0.032843 -0.023219 0.016769 0.010695 -0.019397 -0.008003 -0.002805 -0.038493 0.015961 0.005357 
阿拉伯人 0.025375 -0.032506 0.015479 -0.037825 0.040372 -0.013530 -0.019281 0.032762 0.006247 0.001247 
獨立宣言 0.038245 0.012431 0.012064 0.019637 0.039618 0.021495 -0.028116 -0.025548 -0.038599 0.005266 
南北戰爭 0.024771 0.023506 0.005157 0.034056 0.034787 0.049611 -0.002551 0.003178 -0.009006 -0.039421 
梅特涅 -0.010162 0.032945 0.007455 -0.010777 -0.041113 -0.031331 0.023233 -0.006645 0.006158 -0.019337 
瓦特 0.002390 -0.044212 -0.041785 -0.035762 0.033987 -0.015666 -0.033380 0.039708 0.032089 0.011806 
宣言 0.007935 -0.047615 0.035757 -0.003984 -0.016278 -0.027419 0.009055 0.019777 0.020544 -0.004390 
漢摩拉比法典 0.041043 -0.009099 -0.030035 0.041783 0.045786 0.042201 0.008545 -0.043587 -0.037656 0.031490 
古文明的發展 0.037848 0.009813 -0.045218 0.041579 -0.015564 -0.002705 0.012161 -0.019719 -0.000128 0.039171 
金蘋果 0.048544 -0.019591 -0.039282 -0.019246 0.002994 -0.000224 -0.031464 -0.007643 0.039572 0.021193 
宗教改革 0.049890 -0.030708 0.047342 -0.047527 -0.043658 0.031871 0.040366 0.026430 -0.035547 0.025407 
封建制度 -0.042294 0.000874 -0.024213 0.020213 -0.036575 -0.041380 0.016907 0.011601 0.046585 0.007478 
蔡 0.039374 0.019884 0.021249 -0.019737 0.019751 -0.009627 0.026480 0.034785 -0.040399 -0.006618 
宮 0.026340 -0.046141 -0.014514 0.024223 0.009891 0.045296 0.048969 0.003209 -0.008804 0.041908 
太陽 0.026611 -0.024348 0.009317 0.001509 0.019977 0.011864 0.028317 0.006911 -0.044373 0.007158 
新竹 0.037259 -0.034074 -0.014874 -0.018153 -0.049796 0.011366 -0.014966 -0.018758 0.006216 0.001045 
蘇軾 -0.043085 -0.024342 -0.030643 0.017775 0.027332 -0.039595 0.028690 -0.030632 0.047845 -0.044203 
文教 -0.001724 -0.011363 -0.004980 0.007146 0.017178 0.033394 -0.029584 -0.015236 0.049460 -0.013548 
薩 0.000598 -0.016035 -0.015817 -0.044377 0.037128 0.025060 0.035410 -0.026280 -0.043433 -0.046638 
俄羅斯 0.042203 -0.001445 -0.039520 0.039183 -0.031375 0.012941 -0.024573 -0.022163 0.003738 0.024690 
伊斯蘭世界 -0.047028 -0.010365 -0.038394 -0.033385 -0.030322 0.019890 -0.018710 -0.003471 0.027106 0.038914 
特洛伊 0.026852 -0.002757 -0.048181 0.042021 -0.012643 -0.023430 -0.004620 0.049522 -0.023135 -0.032677 
東西 0.034351 0.006731 0.034439 0.027315 -0.029706 -0.016042 0.024142 0.039357 0.029773 -0.023482 
滿清 0.035037 0.011263 -0.035651 0.004723 -0.018814 -0.024156 -0.049414 0.013884 0.001651 -0.009087 
基隆港 -0.009955 -0.025685 -0.039505 0.039284 0.009290 -0.018672 0.046780 0.028767 -0.040118 -0.044765 
鄧小平 -0.025430 -0.007823 0.018384 0.041350 -0.017075 -0.012675 -0.013641 0.009984 0.035910 -0.002977 
張作霖 -0.009631 -0.043550 0.022586 0.029085 -0.018024 0.001060 -0.042984 0.016322 0.037744 -0.010872 
地中海 -0.021738 0.016548 -0.040765 -0.009035 -0.049612 0.012575 -0.026990 0.001884 -0.037546 0.012215 
王昭君 0.030634 0.042198 0.028525 0.048280 0.008667 -0.042781 -0.012338 -0.021416 0.008673 0.017259 
基隆 0.003928 -0.014061 -0.042786 0.017632 -0.033615 -0.021843 0.005853 -0.021352 -0.010904 -0.011949 
新大陸 0.031152 0.045622 0.011124 -0.026567 0.034674 -0.011134 -0.003470 0.017116 0.042981 0.003691 
祖母 0.034378 0.026912 0.007635 0.010411 0.038730 0.035634 0.005200 -0.045662 0.048648 0.001094 
抗戰 0.037238 0.005785 0.028195 0.006105 0.030310 -0.039937 -0.033566 -0.041521 0.035980 0.037486 
慈禧太后 -0.022574 -0.008971 0.030811 -0.016634 0.000235 -0.038432 0.016364 -0.031984 -0.001077 -0.047093 
印尼 0.019202 -0.013252 -0.037448 -0.027141 -0.009113 -0.040126 0.005185 -0.045763 0.007983 0.032707 
二十世紀 -0.034116 -0.045146 -0.027948 -0.024440 0.008713 -0.042479 0.009656 -0.016255 0.022733 -0.029948 
紅衛兵 -0.027643 -0.022426 0.022006 0.025258 0.036719 0.002361 0.045596 -0.019048 0.004303 0.028416 
拉丁文 -0.042435 0.019948 0.001672 -0.048946 0.046976 -0.049944 -0.019611 -0.009413 0.027890 0.004091 
新教 0.017017 -0.007674 0.039371 0.039864 0.013116 0.026585 0.045480 0.040187 -0.004749 -0.011324 
歸納法 0.035281 0.012874 0.014984 -0.001088 0.022836 -0.009264 0.048877 0.002605 0.047208 0.031587 
靖 -0.001508 -0.029933 -0.027542 0.018239 -0.009607 -0.003389 -0.012350 -0.041496 -0.023859 0.002550 
法西斯黨 0.006845 -0.014806 0.032300 0.033195 -0.030893 -0.043877 -0.039569 -0.041139 0.038498 -0.045897 
法西斯 -0.012903 -0.025142 0.004080 -0.013054 -0.036139 0.001500 -0.020084 -0.012535 -0.032715 -0.015901 
奧國 0.005069 0.013472 -0.001068 -0.007033 0.043600 0.047780 -0.014636 0.023418 -0.015427 -0.001799 
文化的發展 -0.021857 -0.004237 0.042050 -0.002452 -0.046167 -0.044685 -0.044907 0.003633 0.013995 -0.027614 
太平道 -0.012234 -0.000731 -0.014807 0.042290 0.029129 -0.007732 0.018988 -0.014662 -0.006754 0.015443 
國際貿易 -0.008057 0.046843 0.019180 0.026607 0.005621 -0.002882 -0.029007 0.008571 -0.013416 0.031474 
科學革命 0.037747 -0.030852 -0.013605 -0.029774 0.033505 0.041151 -0.018384 -0.041316 -0.002670 -0.017607 
法蘭克 -0.026190 -0.032838 -0.006717 -0.024315 -0.010461 -0.009029 0.010428 0.028841 -0.019635 -0.049574 
蜀漢 -0.037173 -0.025328 0.022852 -0.009163 -0.010458 -0.029008 0.018561 -0.017482 -0.045364 0.000612 
歸順 -0.005945 0.020781 0.047171 -0.028654 0.000897 0.025938 -0.018790 0.016005 0.015649 0.043303 
景教 -0.004184 -0.007597 0.039874 0.043187 -0.044949 -0.016649 0.000134 0.020903 0.047977 -0.003337 
高雄市 0.047992 -0.003236 -0.011343 -0.034850 -0.039990 0.016081 0.016153 0.046626 0.037750 0.049168 
匈 -0.005472 0.023903 0.007776 -0.008662 0.012845 0.004793 0.021649 -0.037099 -0.014835 0.022108 
漢元帝 -0.044067 0.009172 -0.049448 0.033662 0.012189 0.000462 -0.026932 0.022267 0.016980 0.032085 
釋迦牟尼 0.041776 -0.004265 0.021869 0.024352 -0.029263 -0.013121 0.003418 0.022575 -0.000986 -0.046489 
都市 -0.036810 -0.002931 -0.009329 -0.021556 0.027747 0.043144 0.034769 -0.030510 0.048651 -0.018886 
門第 0.045370 -0.040538 0.002466 -0.043709 -0.038461 0.006172 -0.009247 0.038988 0.047336 -0.007567 
太平洋 0.040076 0.024516 -0.008176 0.026057 0.001996 0.033189 0.009067 0.039857 -0.046924 0.010320 
西林 0.038126 -0.008354 -0.005121 0.026219 0.043063 -0.035765 -0.046033 -0.023799 0.012943 -0.034563 
立國 -0.018097 -0.019423 -0.038174 0.028065 -0.044751 -0.015340 0.028775 0.009932 -0.024432 -0.041237 
西北 -0.022147 -0.006151 -0.030579 -0.001802 -0.001877 -0.012370 -0.011627 0.023277 0.003647 0.024086 
曾國藩 0.008984 -0.020686 0.033487 -0.038969 0.032819 0.036620 -0.048294 -0.018724 -0.013562 -0.009492 
葡萄牙 0.047366 -0.007365 0.021405 -0.038710 0.034531 0.027919 0.014282 -0.005721 -0.047739 0.044942 
哥白尼 -0.033368 -0.040211 -0.035379 0.026515 0.005017 -0.046870 -0.039328 -0.019548 -0.019000 -0.005385 
佛羅倫 -0.045523 0.039565 -0.028857 0.029558 -0.014902 -0.038335 -0.022992 0.028270 0.016599 0.029567 
四川 0.025159 -0.013936 0.038040 -0.048918 -0.032843 0.023253 -0.036514 -0.040977 -0.020435 -0.014851 
尼羅河 0.031998 0.011201 -0.036053 0.042064 0.007639 -0.009569 0.046863 -0.010689 -0.020529 0.004524 
藩 -0.020123 0.047203 -0.038443 -0.013707 0.039551 -0.038948 -0.007040 -0.006450 0.027448 0.001170 
拜占庭 0.037741 0.009108 -0.029871 -0.037129 -0.015036 0.040779 0.019159 -0.033534 0.048691 0.021376 
北非 -0.048901 -0.042732 -0.032016 0.008711 -0.032489 0.005589 0.006906 -0.014403 -0.005042 0.006743 
同盟國 -0.045480 -0.040154 -0.014996 -0.018959 0.024887 -0.035728 0.014209 -0.026204 -0.042929 -0.043315 
鄂圖曼土耳其人 -0.015863 -0.044679 0.015134 0.019899 0.021350 0.020927 -0.011862 -0.038274 -0.022589 -0.009071 
班超 -0.009854 0.014980 0.028882 0.010637 -0.039780 0.037471 -0.022675 -0.049635 -0.037576 0.012013 
東亞 0.049304 0.005424 -0.014182 0.046419 -0.003619 -0.003871 0.044467 -0.026500 -0.004883 -0.032210 
猶太教 -0.022568 -0.048930 0.047076 -0.009279 0.048776 -0.038060 -0.021179 -0.039766 0.047562 0.013924 
明治天皇 0.041913 -0.003358 -0.012149 0.039833 0.012915 0.045256 0.008707 -0.002519 -0.006610 -0.023610 
謝道韞 -0.025809 -0.030321 0.009900 -0.014644 -0.026633 -0.035759 0.014008 -0.007533 0.020297 0.013979 
長江 -0.017725 0.043034 -0.045956 -0.023296 0.016266 0.007372 0.038669 0.035231 0.042542 -0.019209 
劉邦 -0.036765 -0.002629 0.012665 -0.016396 0.041806 -0.004063 0.003198 -0.038875 0.013443 -0.011259 
羅馬公教 0.015704 -0.016335 0.042209 -0.041405 -0.023254 0.046538 0.017166 0.013313 0.037885 -0.029945 
郡縣 -0.047623 -0.014293 -0.024316 -0.000471 -0.013095 0.033589 -0.008295 0.005272 -0.015189 0.039772 
太陽神 0.012512 -0.017403 0.035159 0.012068 -0.010333 -0.048183 -0.047989 -0.016710 -0.000269 -0.041756 
古羅馬 -0.025571 0.011250 0.044269 -0.027809 -0.033524 -0.021239 0.049841 -0.011031 0.017215 -0.006364 
孔子 -0.031989 0.028893 0.040707 -0.011314 -0.024658 0.037273 -0.023984 0.021724 -0.026605 -0.015578 
百年戰爭 -0.012796 -0.024437 -0.011267 -0.034346 -0.036667 -0.041985 -0.027081 0.001280 0.018466 0.001894 
南明 0.002515 0.036613 -0.008334 -0.034990 -0.020917 0.041966 0.046994 0.030177 0.029187 0.012651 
光榮 -0.026486 0.005208 0.004388 -0.031020 -0.014713 0.022914 -0.018750 -0.043733 0.021378 0.041109 
莊園 -0.038666 0.044823 0.045847 0.042604 -0.028796 0.029961 0.047757 0.035213 -0.037579 0.031993 
卑南族 0.041171 -0.048253 0.011548 -0.003767 -0.034848 -0.049980 0.020148 -0.007008 -0.016238 0.012843 
永嘉 0.014783 0.017583 -0.013937 0.048030 0.047015 -0.009682 -0.013882 -0.011607 -0.006592 -0.043489 
乾隆皇帝 0.022989 -0.008257 -0.044476 -0.013527 -0.039261 0.040895 -0.040076 -0.024483 -0.011569 0.043660 
古埃及 -0.041827 0.043956 0.020126 0.032851 0.026831 0.037102 -0.005112 -0.033720 -0.032538 0.025267 
梵谷 -0.023221 0.026759 0.006628 0.003764 -0.045139 0.022102 -0.004108 -0.007094 0.043198 -0.014879 
大國 0.011816 0.038005 -0.019150 -0.026372 -0.044037 0.009373 0.031882 -0.029564 -0.045105 0.002324 
滿洲國 -0.014645 -0.016643 -0.039825 0.037169 -0.044669 0.045204 0.048364 -0.040779 -0.019125 0.013789 
神宗 0.021027 0.038792 0.026047 -0.028075 0.004724 -0.028804 -0.020090 0.027425 -0.048981 -0.023256 
土耳其 -0.043472 0.013100 0.036475 0.000749 -0.005038 -0.013237 -0.037347 0.013524 -0.040726 0.031227 
西安 -0.043884 0.010381 0.038528 -0.045695 -0.031573 0.011632 0.046786 -0.011192 -0.023853 -0.037410 
嘉南 0.023111 -0.007451 -0.019159 0.033568 0.031564 0.048341 0.009070 0.019878 -0.038791 -0.036003 
蘭嶼 0.012396 0.041832 0.026108 -0.027672 -0.032617 0.044743 -0.034677 0.031148 -0.024408 -0.001076 
沈 0.042917 0.023268 -0.036414 -0.000313 0.047952 -0.043498 -0.017072 -0.032655 -0.005508 -0.036339 
喀爾文 0.010181 0.047209 0.021597 0.002559 0.046906 0.009593 -0.006668 -0.043993 0.019666 0.049809 
毛語錄 -0.001242 0.031819 -0.019977 -0.011830 -0.048062 -0.037193 0.004541 -0.030013 -0.008066 0.006783 
文化大革命 -0.005219 -0.034425 -0.017191 0.046559 -0.022693 -0.029756 0.013626 -0.010051 0.003680 0.004308 
伊斯坦堡 -0.001553 -0.030235 -0.049536 0.013078 -0.023666 0.043819 0.019220 -0.033131 0.011349 -0.005077 
漢摩拉比 0.036511 -0.039009 -0.007443 0.030891 -0.046100 0.015758 0.034018 -0.015465 0.047949 -0.023518 
木乃伊 -0.025204 0.013667 0.020221 0.013475 -0.021048 0.001100 -0.002722 0.022050 0.035550 -0.045354 
古典 0.030682 0.022520 -0.041348 0.007118 -0.003003 -0.039803 -0.012680 0.016328 -0.002216 0.005394 
希臘人 -0.014383 -0.034911 -0.040393 -0.046577 0.042606 -0.038786 0.034027 0.024596 -0.027652 0.037514 
雅典娜 -0.002393 -0.035774 0.013907 -0.048198 -0.048090 0.042625 0.031345 -0.013109 0.023499 -0.044893 
原住民族的社會 0.013724 -0.049406 -0.036066 0.021983 -0.024893 -0.024278 0.049780 -0.011433 -0.045444 0.020088 
史前時代 -0.017401 0.025169 0.016135 -0.033495 -0.011047 0.027104 0.048904 0.022786 0.020404 0.014684 
米開朗基羅 -0.033072 0.021742 -0.046484 0.033220 0.009268 0.021187 -0.010150 -0.046974 0.039987 0.003932 
天主教 -0.044031 -0.030586 0.048148 -0.022209 0.003436 0.002696 0.047812 -0.024425 0.008813 -0.001814 
孟子 -0.021957 -0.044902 -0.026337 0.026195 0.002902 -0.000829 0.024548 -0.017964 0.011453 0.015608 
希臘正教 0.013031 -0.013979 0.017758 0.037221 0.015674 -0.016536 -0.039120 0.021822 0.034039 0.044676 
穆斯林 0.004880 -0.047777 -0.005310 -0.035030 0.038821 0.036238 0.049188 -0.035341 -0.023233 0.006679 
江戶 -0.025903 -0.010945 -0.042221 0.021358 -0.029022 0.008470 0.045920 -0.036913 -0.033606 0.018217 
施政 0.030252 0.039680 0.011908 0.038609 0.024838 -0.016051 -0.015918 0.014958 -0.031259 -0.046294 
市民階級 -0.015521 0.017577 0.026022 0.031764 0.039661 0.041777 -0.014255 0.025935 0.001190 0.007872 
長達 -0.038028 -0.030968 0.045630 -0.038826 -0.006235 0.018867 -0.025458 -0.028004 0.045187 -0.041747 
羅馬教會 0.014490 0.035649 0.005301 -0.004997 0.017035 -0.027553 -0.011832 -0.038072 -0.041260 0.027702 
普魯士 0.032852 0.016841 0.041168 -0.028273 0.003415 0.042555 -0.009119 -0.000166 -0.011081 0.046883 
獨立戰爭 -0.040558 0.032335 0.003427 -0.037364 0.023413 0.014543 -0.013998 0.047627 -0.015643 0.016771 
路易十六 0.000705 -0.015331 -0.031165 0.034331 0.036600 -0.018425 0.028412 -0.012465 0.007748 -0.028844 
文化發展 0.039648 0.021696 -0.046786 0.011226 0.004108 0.007127 0.037057 -0.015404 0.048352 0.039140 
國教 0.048343 -0.000920 0.023944 0.038048 0.001132 -0.012511 0.007446 0.049162 0.034488 0.007637 
德軍 0.000421 0.042796 0.012473 0.042336 0.029431 0.014262 0.024149 -0.000603 0.046039 -0.016127 
立體派 -0.016422 0.011635 0.026807 -0.003059 0.029825 0.036861 -0.026703 0.023778 0.026950 -0.042113 
華盛頓 0.012073 -0.040303 -0.035983 -0.017473 -0.005304 0.025011 -0.044913 0.043593 -0.002271 -0.034969 
波蘭 0.039224 -0.001103 0.022736 -0.049928 -0.019510 0.031252 -0.003723 -0.024556 -0.032053 0.048470 
鹿皮 -0.030084 -0.038539 0.015659 -0.016637 0.020215 -0.046565 -0.037314 -0.006255 0.048737 0.021678 
列寧 -0.026907 -0.037572 -0.017957 -0.038496 0.035941 -0.002776 -0.028302 -0.006776 -0.034708 0.030946 
史達林 -0.005737 -0.037849 0.000211 0.021407 -0.048700 0.038597 0.004758 -0.048582 -0.030627 0.017876 
納粹 -0.032004 0.028792 0.000043 0.020299 0.003989 -0.013658 0.019873 -0.008821 -0.048203 -0.018120 
東德 0.030426 0.000829 -0.024515 -0.001781 -0.041736 0.044560 -0.035886 0.043172 -0.045050 0.042686 
柏林圍牆 0.031747 0.049550 -0.002954 0.040520 0.017447 -0.024834 -0.013885 0.008372 -0.014725 0.002834 
權威 0.048718 0.041557 0.024295 0.040364 0.036420 -0.039613 0.048569 0.020570 0.025781 0.010173 
王攘夷 -0.002841 0.001265 0.018365 -0.038771 0.034128 -0.034740 0.040735 0.008867 0.048538 0.020369 
小國 0.044452 -0.026601 -0.045547 -0.000597 0.006079 0.000139 -0.009067 -0.039824 0.027179 -0.040602 
長江流域 0.022043 -0.014500 0.034314 0.046489 0.036844 -0.016814 -0.020953 -0.018275 0.049399 -0.013951 
富國強兵 0.037939 0.010417 -0.001230 -0.048100 0.012555 0.002879 0.049020 -0.036449 0.029456 -0.045576 
普及 -0.010788 0.028816 0.040204 -0.014638 0.033408 -0.019493 0.021362 0.041008 0.020670 -0.023564 
君王 -0.025507 -0.008327 0.015060 -0.000584 0.026160 0.032671 0.005643 -0.042741 0.027924 -0.015688 
廉 0.006479 -0.017223 -0.043652 -0.008089 -0.043369 0.033784 0.012994 0.025780 0.020163 -0.006908 
唐王 0.024426 -0.018770 -0.013864 -0.031487 0.042206 -0.021425 -0.031387 -0.007140 0.042896 -0.036873 
廈門 0.006656 0.023946 0.028058 0.005199 -0.035672 0.044582 0.024255 0.000102 0.030692 -0.037419 
梁 -0.016949 -0.031850 0.019809 0.010756 -0.018994 -0.045345 -0.029257 0.046919 0.019684 0.029930 
十國 0.047556 -0.046117 0.025647 -0.010713 0.039310 0.039461 -0.049542 -0.046962 -0.039932 0.036464 
武則天 -0.029321 -0.033504 0.048892 0.002705 -0.012128 -0.000026 -0.030154 0.020998 0.028601 0.048784 
中西區 0.011990 -0.000847 0.044427 0.033238 -0.010611 -0.030016 0.011914 -0.001350 0.041104 -0.008696 
五福 0.032623 0.015331 0.031198 0.045924 0.033118 -0.021407 0.048734 0.041658 -0.035040 0.008751 
中山路 0.007773 0.011317 0.004712 -0.048885 0.047379 0.012715 -0.046063 -0.024001 0.031613 0.028664 
臺灣地區 0.039197 -0.021284 0.049539 -0.033025 0.012054 -0.020424 0.015219 -0.039537 0.049072 0.023894 
阿美族 -0.032285 -0.033061 -0.048187 -0.018019 -0.028909 -0.030785 0.046838 0.049150 0.014407 -0.024895 
林爽文 -0.014288 0.045714 0.011728 0.017421 0.044995 0.016985 0.002115 -0.046025 0.026251 0.033275 
王安石 0.049631 -0.032420 -0.043958 -0.010103 0.043338 -0.033952 -0.014069 0.007164 -0.002701 -0.017809 
朝貢 -0.007520 0.030388 -0.049423 -0.026176 -0.022748 0.029881 -0.032767 0.023756 -0.033191 0.000957 
百科全書 0.036331 0.039803 0.012714 -0.036073 -0.028067 -0.045226 -0.008472 -0.035896 0.013101 0.026485 
耶穌會 0.004816 -0.028200 0.023898 0.037746 -0.020862 -0.017671 -0.006613 -0.003630 -0.033942 0.016002 
歐陽 0.035629 0.035170 0.042139 0.018132 -0.010312 0.011958 0.008942 -0.040968 0.019626 0.009547 
西方人 -0.006970 0.034013 0.014505 0.035750 0.045966 -0.036610 -0.011612 0.023378 0.044312 -0.007527 
天津 -0.019662 0.030244 -0.010370 -0.008424 -0.045584 0.039162 0.008484 -0.043990 -0.000314 -0.042058 
封鎖 -0.047565 0.006090 0.030209 0.019398 -0.001953 -0.012874 -0.014951 -0.018657 0.046881 -0.030568 
光緒皇帝 0.028268 0.026588 0.025500 0.048320 0.048929 -0.037053 -0.014532 0.044102 -0.038907 0.023232 
練兵 0.003345 0.002092 0.003824 -0.034746 -0.019305 -0.007399 0.041183 -0.028172 0.044080 0.010942 
港灣 -0.037766 -0.049236 0.045062 -0.022572 -0.018961 0.034877 -0.039795 0.037370 0.036661 -0.018022 
西化 -0.008929 -0.038918 -0.006839 -0.025121 -0.035779 0.043877 0.039603 0.021394 0.031219 0.006065 
日語 -0.009952 -0.045665 -0.031372 -0.007039 -0.016440 0.031514 -0.021991 -0.025124 -0.015799 0.035744 
道教 -0.014075 0.047124 -0.018967 -0.025163 0.043939 0.030016 -0.011880 -0.018394 0.028613 -0.031136 
隋唐五代的盛衰 0.044522 0.013863 0.041510 0.033983 0.014304 -0.045580 0.009192 0.020683 -0.013474 0.011092 
宋遼金元的競爭與融合 -0.016779 0.049278 -0.024747 0.016689 0.040161 -0.034920 0.019547 0.029024 -0.018427 0.038402 
明代與盛清的發展 -0.016531 0.030910 0.034021 -0.035445 -0.043918 0.030159 0.049066 -0.036147 -0.048550 -0.040416 
下議院 0.003271 -0.018391 0.008633 -0.023003 -0.001801 -0.011867 -0.008304 -0.034789 -0.039587 -0.021260 
安撫 -0.010300 0.032039 0.041473 -0.026259 0.016708 0.010292 0.017944 0.018449 0.011783 -0.042216 
改革運動的展開 -0.008612 -0.016823 0.038986 -0.042674 -0.011633 -0.036763 -0.012619 0.016731 -0.039557 -0.021059 
晚清的變局 -0.028970 -0.031187 -0.015820 -0.024397 0.028995 -0.028618 -0.038861 0.023534 0.025339 0.007253 
紐 0.017883 0.018047 0.049124 -0.015764 0.005975 -0.020546 0.014413 0.035146 0.001978 -0.046931 
曹魏 -0.039731 0.017793 0.007452 0.009203 -0.049246 0.014992 0.048962 0.043169 -0.025070 0.034554 
鹿 -0.021930 -0.024721 0.046860 0.009291 -0.028662 -0.049153 0.005606 -0.002983 0.030328 0.040184 
曹錕 0.015231 -0.019456 -0.018396 0.038603 -0.035202 -0.032317 -0.023273 -0.033583 -0.031631 -0.008751 
新加坡 -0.007739 -0.031062 -0.034995 0.009053 0.029767 0.016478 0.018771 0.003908 0.015808 0.004350 
巴士底 0.018729 -0.016374 0.001947 -0.047133 -0.021060 -0.018980 -0.035254 0.007341 0.038467 -0.046098 
唐太宗 0.005768 0.038084 -0.038626 -0.014915 -0.048425 0.040410 0.036722 -0.017619 -0.046271 0.034630 
李世民 -0.021426 -0.021397 -0.011206 -0.033943 0.025992 0.031563 -0.041669 0.005003 0.043039 0.024074 
行會 -0.011096 0.046782 0.018777 -0.036052 0.032074 0.011705 -0.032730 -0.016002 -0.035596 0.045085 
蘇美人 0.027579 0.042036 -0.012543 0.017235 -0.036234 0.020876 0.027795 0.023466 -0.035104 0.028328 
英格蘭國教 0.036981 -0.015907 0.045029 -0.002794 -0.008423 0.044426 0.043228 -0.014677 -0.006854 -0.025221 
玄武門 0.023557 -0.024510 -0.031750 -0.029536 -0.024924 -0.024480 -0.031549 -0.048207 0.011850 0.018227 
河姆渡 -0.029687 -0.035921 -0.027060 -0.038579 -0.024603 -0.022365 0.022409 -0.012083 0.010266 -0.012227 
愛琴海 0.049319 0.005525 0.026483 0.014806 -0.032266 0.047060 0.000610 0.004045 0.016714 -0.029668 
愛琴 0.034210 0.025804 -0.039676 -0.041844 -0.046155 -0.024605 -0.012375 0.018343 0.011078 -0.026869 
朝野 0.012680 -0.016295 -0.017529 -0.035677 -0.025449 0.012056 -0.030414 0.019286 0.037302 -0.013792 
小三通 -0.001013 0.033330 -0.010007 0.013972 0.022235 0.026768 0.046689 0.028163 0.015894 0.044914 
高雄港 0.046451 -0.013408 -0.018475 -0.041920 -0.046658 -0.027928 0.045691 -0.038423 -0.043576 -0.007585 
直隸 -0.040045 -0.024281 -0.030240 -0.019566 0.000879 0.045818 0.032413 -0.006059 -0.029974 0.042186 
浙江 0.008444 0.015749 -0.006042 -0.039864 -0.013083 -0.046330 0.024237 0.019981 -0.018106 0.040517 
亞述 0.037427 -0.032967 0.032437 0.034102 0.035089 -0.028395 0.002609 0.017238 0.043787 0.029008 
七七事變 -0.018527 -0.002263 0.015082 -0.040443 -0.016910 0.008412 0.025537 0.008562 0.046524 0.007076 
顏真卿 -0.023285 0.046336 0.035837 -0.023460 -0.004822 -0.031807 0.040091 0.024617 0.032489 -0.005556 
恆春 -0.026651 -0.015880 -0.034790 -0.029597 -0.025327 0.012862 -0.005096 -0.033620 0.008127 -0.006346 
竹林七賢 0.048132 -0.022310 -0.037228 0.034309 -0.023541 0.024644 -0.047330 -0.032359 -0.043555 -0.047444 
十九世紀的文藝發展 0.016885 -0.048540 -0.010345 0.031737 0.019479 -0.031419 0.002649 -0.042500 0.049515 0.026814 
遠古 0.046991 -0.049843 0.021054 -0.041026 -0.000757 -0.044978 -0.026840 0.022871 -0.039032 0.042406 
西亞古文明 -0.030106 0.001320 -0.041272 0.007622 0.000320 0.002132 0.044086 -0.029018 -0.021500 -0.041881 
法律條文 -0.006396 -0.022200 0.043497 0.027095 0.008844 -0.001613 -0.040628 -0.008128 0.016370 0.028056 
吳 0.015189 -0.039738 -0.032257 -0.012880 0.025009 -0.034923 0.039526 0.020891 0.027896 -0.035869 
通訊 0.033282 -0.000319 -0.012088 0.040236 -0.024426 0.018803 -0.005881 0.001204 0.017963 -0.001430 
宮殿 -0.039420 -0.020152 0.037012 -0.015706 0.026358 0.033980 0.034283 0.046288 -0.044485 0.046413 
印象派 0.036340 -0.020137 0.037112 0.024959 -0.005255 0.005333 -0.014786 0.002431 -0.013940 -0.031990 
宗 0.038882 0.036641 0.011847 0.038206 -0.037820 0.010402 -0.001331 0.011235 0.044168 0.031526 
社會秩序 -0.001910 0.007408 -0.001089 0.032826 -0.013330 -0.027962 -0.034531 -0.027885 -0.034027 -0.024562 
治臺政策的演變 0.007907 0.032204 -0.037439 0.012920 0.015286 0.020906 0.027997 0.004796 0.001669 -0.028966 
郭懷一 0.038843 -0.003621 0.006119 0.040401 -0.003339 -0.042018 -0.007303 0.011818 0.028015 -0.015083 
庚子 -0.049533 -0.006902 -0.015533 -0.002504 -0.006509 0.017055 0.042578 0.041032 -0.039169 0.041499 
汪達爾 0.003912 -0.014162 0.016550 0.049245 -0.004968 0.027226 0.049710 0.048103 -0.032501 -0.014491 
希伯來人 -0.025626 -0.029112 -0.002124 0.005998 0.029605 -0.024590 -0.012274 -0.040993 -0.020535 0.044484 
波斯人 -0.036389 0.039848 0.013016 -0.014079 -0.022906 -0.031166 0.044321 0.032533 0.004736 -0.008723 
河南 0.012442 0.042134 0.048102 -0.022511 -0.018558 -0.002464 0.033752 0.022783 0.040384 0.006551 
奧古斯都 0.013251 0.047472 0.003329 0.001991 -0.036841 -0.003133 0.009341 0.041670 -0.014960 0.041283 
泉 0.022482 0.008400 0.005457 -0.023970 0.031815 0.009993 -0.024030 0.021422 -0.048599 -0.020738 
近代歐洲的興起 -0.026855 0.022771 0.020303 -0.025981 -0.001459 -0.049611 0.002585 -0.022923 -0.021277 -0.000410 
國語 -0.012692 -0.003752 -0.034747 -0.009315 -0.011465 -0.035655 0.034692 -0.031013 0.045328 0.039180 
徵召 -0.011395 0.004808 0.021750 0.003566 -0.046448 -0.006538 0.006863 -0.034685 -0.018903 -0.044740 
屋大維 0.014731 -0.042760 0.047803 0.035515 -0.015585 0.037154 -0.044769 0.004539 -0.020023 -0.012132 
噶瑪蘭 0.029944 -0.042354 -0.009518 0.017195 0.023505 0.015147 0.029990 -0.042052 0.012476 0.022356 
印度洋 0.037564 -0.032060 -0.001581 0.049583 -0.022733 0.029982 0.007898 -0.007857 0.038162 -0.048112 
天安門廣場 -0.007526 -0.029652 0.034311 -0.033531 0.028711 0.029509 0.004776 0.031538 0.018170 0.039940 
婆羅門教 0.013620 0.029909 -0.012585 -0.003047 0.049905 -0.030608 -0.011993 0.020860 0.027695 -0.017198 
中南美洲 -0.003491 -0.043025 -0.013950 0.027950 0.014484 -0.024391 -0.010965 -0.012352 -0.031506 -0.027925 
三通 0.025711 -0.030290 0.010101 -0.033315 0.010141 0.006947 0.015869 0.004753 -0.018613 -0.042827 
莫內 -0.012640 -0.043410 0.003513 0.003200 -0.048865 0.017509 -0.034421 -0.047160 -0.041241 0.007823 
萬曆 -0.018350 0.038905 -0.013208 -0.027156 -0.009213 0.019209 0.036798 -0.017116 -0.042947 -0.023436 
奧地利 0.035339 0.033257 -0.030490 0.018782 0.033978 0.044273 0.042221 -0.021324 0.009277 -0.038753 
保安 0.014249 0.014058 -0.037201 -0.045509 0.049655 0.007741 0.021106 0.019316 0.037503 -0.032463 
城堡 0.035760 -0.023964 -0.008145 0.026259 -0.016675 -0.030037 -0.048227 0.041719 -0.034637 -0.028590 
中日戰爭 -0.018680 -0.003270 0.008435 -0.024312 -0.030441 -0.000896 -0.035895 0.003111 0.030551 -0.018346 
柳公權 0.008936 -0.001009 0.003360 0.002193 0.044489 0.033641 -0.047952 0.043532 -0.002673 0.002373 
達文西 -0.034323 0.013484 0.019012 0.025499 -0.041690 0.044862 -0.013892 0.048332 -0.030991 -0.004521 
馬志尼 0.000177 0.041185 -0.038162 0.048146 -0.012219 -0.000630 0.025858 0.010677 0.000482 0.043199 
岳飛 -0.024869 0.015883 0.014844 0.017986 0.048721 0.021577 0.032428 -0.005959 0.010690 0.010573 
新疆 -0.020203 -0.033321 -0.049899 -0.009319 0.008514 -0.043788 -0.018985 -0.005284 -0.004858 0.007951 
朱熹 0.042496 -0.019511 0.041241 -0.007790 -0.001395 0.030812 -0.026624 0.004301 0.038406 -0.046501 
達爾文主義 0.043109 -0.035463 -0.024039 -0.018639 0.027002 0.018230 -0.049667 -0.027788 0.026617 0.035692 
紀傳體 0.025583 0.008864 -0.031482 0.012236 -0.009225 -0.000871 0.004266 -0.031825 -0.040030 -0.024181 
同安 0.010425 0.048820 -0.027768 -0.003252 -0.011444 0.024486 -0.008377 0.044728 -0.034778 -0.009517 
英法 0.007205 0.027571 -0.008014 -0.032875 0.033041 -0.021910 0.045410 -0.000276 0.008194 -0.045903 
文教發展 0.027057 -0.041408 -0.003275 0.038405 -0.036511 0.039043 -0.012302 0.038826 0.006268 -0.038612 
西西里 -0.004825 -0.011827 0.031958 -0.029060 -0.041782 0.044258 0.042120 0.038011 0.040891 -0.010106 
九一八事變 -0.036682 -0.042085 0.032254 0.032893 0.047113 -0.049037 0.046371 0.006068 -0.029932 -0.037532 
孟德斯鳩 0.022305 -0.032768 0.033746 -0.037257 0.024118 -0.000804 -0.035291 0.047099 0.040872 0.009773 
毛 0.014520 0.035851 -0.013370 0.031776 -0.040259 -0.025691 0.000455 0.023018 0.001935 0.032787 
腓特烈二世 0.046408 -0.033690 -0.032336 0.006596 0.013553 -0.030534 0.008490 0.016051 0.015952 -0.034703 
魯迅 0.000977 0.006462 -0.007333 0.011617 0.046686 0.048143 0.007761 -0.008763 -0.027820 0.036406 
子孫 -0.049704 0.011971 0.029022 -0.008437 0.034335 0.006630 -0.006226 -0.041072 -0.001059 0.033028 
大西洋 -0.032001 0.008812 0.008176 -0.026024 -0.021741 0.036528 -0.048898 0.037288 -0.023883 -0.037611 
五霸 0.041782 -0.044225 0.038135 0.031706 0.019278 -0.012749 -0.034125 0.014793 0.047653 0.014528 
馬歇爾 -0.014099 0.006963 0.015970 0.045418 0.049774 0.028526 0.038290 0.012733 0.034058 0.024797 
道德 -0.046323 -0.025713 0.040314 -0.033913 0.026193 0.012892 -0.004895 0.047710 0.044901 0.036360 
十二表法 0.049994 -0.010023 0.023862 -0.022496 -0.018457 0.038200 0.002139 -0.005864 -0.008685 -0.037306 
三山 0.043796 -0.030931 0.005872 -0.041231 0.037894 0.010115 -0.023224 0.046739 -0.001505 -0.049913 
趙匡胤 -0.019409 -0.028084 -0.035336 0.046797 0.018878 0.004613 0.000461 -0.016942 0.018201 0.040141 
德蘇 -0.005051 -0.033318 0.030121 -0.001186 -0.037808 0.030482 0.031201 0.025945 0.041251 0.032271 
捷克 0.023004 -0.008156 -0.003812 -0.045140 0.032092 -0.008174 0.016068 0.006062 0.010028 0.046202 
兩國 0.014951 0.018690 0.033374 0.000285 0.031900 -0.049443 0.003693 0.024388 0.030978 -0.015526 
諸葛亮 0.047546 0.013823 0.001248 0.028255 0.016498 -0.011098 -0.043228 0.014711 -0.012891 -0.005061 
萬華區 0.036612 0.001656 -0.039056 0.002245 0.004831 -0.028099 -0.035437 0.006133 -0.049509 0.033260 
基礎建設 0.049530 0.026915 -0.012344 0.018544 -0.007593 0.009904 -0.044614 -0.014433 -0.005243 0.025414 
蘇秦 0.017746 0.017140 -0.016858 -0.031245 -0.036203 0.021077 0.009125 -0.039760 0.007602 0.030190 
張儀 0.049268 0.045183 -0.011777 0.002290 0.005133 -0.006105 -0.030276 0.020192 0.003284 0.001689 
范 0.041165 -0.008293 -0.004718 -0.011122 0.016611 0.049648 -0.042310 0.000774 0.035123 -0.048174 
卿相 -0.007928 0.007689 -0.039236 -0.018944 0.024988 0.004936 -0.017404 0.045149 0.008002 0.012828 
秦王 0.014682 -0.023082 0.017676 -0.023323 -0.003915 0.034175 -0.044427 -0.033205 -0.009134 -0.000267 
遠古到三代 0.048254 -0.021504 -0.011911 -0.018596 0.047284 0.032091 0.001816 0.012001 0.029224 -0.027107 
漢書 -0.028891 0.049336 -0.004364 -0.028786 -0.039969 -0.023778 -0.026917 0.022368 -0.042355 0.000471 
賽夏族 0.013129 0.046666 -0.021988 -0.045103 -0.007666 -0.010579 -0.039804 -0.002690 0.012262 0.020946 
宗族組織與宗教信仰 -0.031741 0.010524 -0.000525 0.036552 -0.008737 0.002351 0.005536 -0.043446 0.043271 0.005605 
秦漢帝國的興亡 0.007007 0.026262 -0.036655 -0.021904 0.005450 0.015990 0.015549 0.002638 0.027429 0.021049 
黨爭 -0.011057 -0.012956 0.024506 -0.038246 -0.002408 -0.035875 -0.026758 -0.016585 -0.019443 -0.008305 
鄭氏治 -0.024799 -0.043654 0.001901 -0.047435 -0.043054 -0.024141 -0.049313 -0.045451 -0.029962 -0.037733 
陳述 0.040976 0.030458 -0.008960 -0.039119 0.011832 0.038106 0.021515 0.042015 0.027316 -0.039696 
祖 -0.011975 0.000981 -0.023508 0.004866 0.042133 -0.041908 -0.026578 0.004604 -0.039600 -0.041341 
俄國侵略 -0.042831 0.017329 0.044391 -0.027003 -0.008206 0.025856 0.020667 -0.003584 -0.033640 0.037996 
諸子 0.040790 0.049229 -0.005069 -0.013438 -0.018677 -0.023250 0.016568 0.029366 0.043829 0.049290 
華 -0.004666 0.049220 -0.045129 -0.037837 0.020291 -0.046062 -0.033990 0.035680 0.005502 -0.023668 
中華 -0.046191 0.015154 -0.009970 -0.025786 0.019830 -0.029103 0.037936 0.030397 -0.009363 -0.001778 
國聯 0.038284 -0.047307 0.017792 0.017442 0.005136 -0.026085 -0.022144 -0.026131 -0.022446 -0.048125 
帕里斯 -0.027606 0.037816 0.019601 -0.030614 0.027966 0.004594 0.020340 0.034261 -0.003864 -0.005482 
土地拓墾 -0.006168 -0.020689 -0.046533 -0.047102 -0.020859 -0.037651 0.001520 -0.049953 0.040329 -0.033812 
貞德 -0.033142 -0.018721 -0.033542 -0.001360 0.001044 -0.033095 -0.028409 -0.007481 -0.019360 -0.047762 
中美 -0.005209 0.005635 0.007208 0.007591 0.000119 0.020802 0.007312 0.028276 -0.023361 0.045833 
長安城 0.032513 0.034605 0.038412 0.013539 -0.040625 -0.028108 0.024503 -0.018266 -0.010541 0.010448 
中華人民共和國的建立 -0.001028 0.033229 0.049329 0.045586 -0.049118 -0.024162 -0.009454 -0.002382 -0.005704 0.042372 
魏晉南北朝的分合 -0.010327 0.011858 -0.031723 -0.009355 0.048273 -0.041383 0.036887 0.003468 -0.007092 0.033208 
朝鮮半島 -0.010812 -0.011345 -0.024860 -0.044057 0.039243 -0.020982 -0.028467 -0.027864 0.026114 0.032368 
嬴政 -0.016351 -0.047902 0.013864 0.031520 0.038049 -0.008858 -0.008444 -0.015715 -0.013702 0.009581 
摩尼教 -0.026749 0.023476 0.004956 -0.047273 -0.001987 0.006905 -0.004413 -0.009108 0.029904 0.017384 
西柏林 -0.015247 0.019389 -0.042014 -0.037273 0.024017 -0.041469 -0.003677 -0.024254 -0.010059 -0.046370 
大三通 -0.016025 0.014253 -0.015912 -0.025002 -0.014993 -0.038939 0.033020 0.017949 -0.011520 0.023982 
從北伐到抗戰 -0.011700 0.002794 0.008456 0.035829 0.026489 -0.025154 -0.016000 -0.045586 0.049152 0.004417 
新約 -0.020828 -0.037450 -0.017151 -0.013179 -0.016965 -0.031950 -0.020856 0.042369 0.009653 0.003725 
西拉雅 0.014600 0.016374 -0.001913 0.027388 -0.009222 -0.020851 0.012399 0.021852 0.034241 0.026006 
麥加 0.041653 -0.005070 -0.003448 -0.022743 -0.000089 -0.020567 -0.045728 -0.021785 0.026236 0.033174 
越戰 0.008966 -0.000807 -0.015311 0.038966 -0.012805 0.035503 -0.035666 0.004622 0.040521 0.007457 
多國 -0.020767 -0.037047 0.045508 -0.039632 -0.031552 -0.028227 0.003717 -0.035451 -0.003958 0.013893 
盧梭 0.041711 0.015312 -0.048923 -0.002873 0.011053 0.032970 0.047617 -0.045714 -0.011694 -0.037166 
民初的政治與文化 0.024722 0.043184 -0.024969 -0.024782 0.046457 0.046632 -0.002209 -0.034566 0.001883 -0.027556 
從改革到革命 0.008148 -0.046205 0.005063 -0.046568 -0.017334 -0.014388 -0.004941 0.047408 0.022906 0.031200 
咸陽 0.035934 0.037184 -0.044568 -0.014131 0.016751 0.030574 0.031805 -0.030067 -0.048428 -0.039610 
萬里長城 0.028589 0.028703 -0.020541 -0.015556 0.047345 0.032494 -0.035526 -0.014452 0.014636 -0.023384 
楚漢相爭 -0.004318 -0.028484 -0.017975 -0.018617 -0.012857 -0.024840 0.026074 -0.007893 -0.022079 -0.045708 
教育發展 0.048346 -0.020900 0.032077 -0.008275 -0.024597 0.037675 0.038675 -0.004729 -0.041193 -0.011855 
玄奘 0.011777 -0.002257 -0.024878 -0.024178 -0.009555 -0.043047 0.025909 -0.028981 0.038742 -0.044286 
武帝時 0.037732 -0.030952 0.045731 0.001839 -0.037848 -0.009779 0.025473 0.028139 -0.024268 -0.020149 
町 0.017032 -0.007573 -0.019965 0.008250 -0.015530 -0.022484 0.001624 -0.029268 0.016849 -0.008781 
賽 -0.007941 -0.012392 0.028232 -0.033653 0.027905 0.004192 -0.042319 -0.039287 0.010724 -0.009206 
英文 -0.030740 -0.042870 -0.032922 0.042729 -0.047971 -0.036589 0.048529 -0.019691 0.020053 0.012367 
重慶 0.031641 0.048845 0.012393 -0.038188 0.017975 0.018651 -0.006888 -0.005443 0.034094 -0.014961 
人權宣言 -0.048727 0.018416 0.031561 -0.031679 0.000937 -0.033800 -0.013062 0.013811 -0.018832 -0.004277 
兒玉源太郎 0.001788 -0.008180 -0.043973 -0.010204 0.002673 -0.002339 0.014578 -0.043767 0.041156 -0.048354 
朱 -0.029117 0.027846 -0.006201 -0.000911 -0.035995 -0.037553 -0.037836 0.010301 -0.041995 0.042848 
藩鎮 -0.027185 -0.019405 0.041946 -0.023137 -0.022687 0.030284 0.029892 -0.002696 -0.047778 0.004680 
新莊 -0.039096 -0.038017 -0.000897 -0.025905 -0.000955 -0.046288 0.044519 0.033842 0.033377 -0.019695 
莎士比亞 0.040033 0.004234 -0.022037 -0.025426 -0.037793 0.030583 -0.028134 -0.005669 0.012604 -0.016798 
抗爭 -0.020853 0.022389 0.017786 -0.042598 -0.011130 -0.033440 0.029315 -0.026503 0.015097 -0.040343 
高峰 0.023755 -0.023201 -0.003110 -0.040508 0.002667 0.037621 -0.001688 0.048878 -0.007385 -0.048726 
京杭大運河 0.008426 0.035628 0.045160 0.038072 0.041293 -0.047447 0.036865 0.043327 0.035977 -0.042534 
地理大發現與海外拓殖 -0.030707 0.037352 -0.043460 0.033180 -0.030994 0.015459 -0.007956 -0.012492 -0.012433 -0.002040 
段祺瑞 -0.043448 -0.046739 0.001538 0.030168 -0.010873 -0.011748 0.012482 -0.017604 -0.046170 -0.024706 
日本帝國 0.046960 0.049956 0.039725 0.022200 -0.043463 -0.046840 -0.039127 -0.038219 0.017773 0.037321 
卓越 -0.043661 -0.048149 0.032233 -0.027248 -0.009818 -0.024779 0.026477 -0.045235 -0.048532 0.039705 
臺中市 -0.047931 0.003673 -0.045743 -0.021886 -0.014429 -0.035213 0.037613 0.048262 0.028546 0.008421 
中世紀歐洲與伊斯蘭世界 -0.034402 0.032961 0.007556 0.029887 0.027274 0.040022 -0.025836 0.049498 0.036703 0.002260 
哥德 0.004932 0.012566 0.032950 -0.022514 0.001422 -0.010597 -0.019925 0.048512 -0.009802 -0.024678 
望遠鏡 -0.032858 0.023152 0.022821 -0.009364 0.008212 0.034218 -0.024146 -0.019344 0.042349 0.039522 
大月氏 -0.049139 0.015697 0.033615 0.021877 -0.025598 -0.008931 -0.028928 -0.010905 -0.001959 0.027086 
佛經 -0.031216 -0.026012 -0.001660 -0.030940 -0.034189 0.034370 -0.023138 -0.012697 0.026218 -0.046947 
陸軍 -0.039832 -0.022871 0.039066 0.037849 -0.000177 -0.041151 0.018417 0.021571 -0.027612 -0.022224 
耶路撒冷 0.003336 -0.037968 -0.020575 0.004222 -0.042117 0.042043 0.047498 0.033501 -0.028879 -0.030583 
珍珠港 0.028168 -0.014076 -0.042886 -0.023033 -0.002002 0.006804 -0.045078 0.022505 -0.041449 -0.033546 
四國 0.028610 -0.011156 0.036389 -0.039815 -0.032761 -0.016203 -0.016925 0.008311 -0.015128 0.040175 
行政區劃演變 -0.024829 -0.043855 0.020572 0.015791 0.014240 -0.026003 0.038400 -0.006541 0.026843 -0.042818 
秦淮河 0.027420 -0.019011 -0.035455 0.026012 0.001694 0.011195 0.003906 0.025798 0.000284 0.041890 
山西 0.046490 0.026854 -0.012747 -0.044115 0.018860 0.024492 -0.048337 -0.039006 -0.027423 0.039024 
神聖羅馬帝國 0.007578 -0.009972 -0.015796 0.015764 -0.005942 0.000801 -0.044696 0.025023 -0.024832 -0.023875 
江蘇 0.012439 -0.037886 0.039969 0.023811 0.007172 0.047350 0.002524 -0.023326 0.016064 0.026042 
山區 0.001895 -0.007475 0.040680 -0.031496 0.002145 -0.045824 0.007581 -0.029951 -0.007663 -0.030559 
曹操 -0.031671 -0.049013 -0.013467 -0.028868 -0.000513 -0.043367 0.023795 0.017061 0.002618 -0.042702 
呼韓邪 -0.031815 -0.009959 0.004285 0.048296 0.008768 -0.002116 -0.043951 0.049937 -0.040396 -0.026598 
戒嚴體制的建立 0.034473 0.007536 -0.040244 -0.025591 0.041119 -0.008595 -0.026712 -0.016283 0.002551 -0.003145 
孫吳 -0.010739 0.009138 -0.029669 0.044200 0.021738 -0.016515 0.021021 -0.021248 0.009781 -0.035429 
新建 -0.043817 -0.029176 0.017453 0.035207 0.002380 0.015727 0.033817 0.003206 0.011176 0.033775 
甲午戰 -0.027066 0.001381 -0.040869 -0.029720 -0.026132 -0.012456 0.047809 -0.004445 0.000681 0.044508 
宋教仁 0.003772 0.004912 0.042435 -0.019914 -0.021417 0.018663 0.013193 0.027089 0.048804 -0.017879 
雲林縣 -0.047983 0.043330 0.015997 -0.034401 0.022971 0.011623 0.006726 -0.035591 0.015115 0.039778 
西亞地區 -0.027448 -0.001137 0.042514 -0.039391 -0.009961 0.014275 0.044229 0.031929 -0.039252 -0.019044 
鹽寮 -0.015677 0.036549 0.011243 -0.005782 -0.048141 -0.017717 -0.006915 -0.025624 -0.039102 0.001942 
夏威夷 -0.017163 -0.033260 -0.049496 -0.046660 -0.017938 0.041624 -0.015262 0.019289 0.017322 -0.005659 
臺東縣 -0.047336 0.007600 0.040179 0.045201 -0.031656 -0.048912 0.027197 0.039519 -0.029160 0.007564 
近代歐洲的變革 -0.020062 0.047606 0.024216 -0.040160 0.024963 -0.035225 0.017532 0.015730 0.013837 0.011339 
兩岸關係的轉變 -0.035147 0.008046 0.023120 0.032610 0.005240 -0.005400 -0.045624 -0.001100 0.002756 -0.041795 
十年建設 0.034167 0.005522 0.046463 0.006673 0.014056 -0.027211 -0.049576 -0.027184 -0.029395 0.046013 
庚子後新政與立憲運動 -0.046298 0.014449 0.005377 -0.004494 0.020358 0.014381 0.044934 0.016582 0.039456 -0.019572 
巴勒斯坦地區 0.040839 0.029552 0.025058 0.045399 -0.030347 -0.020271 0.016226 -0.032890 0.032941 0.037425 
亞洲地區 -0.022977 0.028371 -0.042737 -0.002046 -0.003488 0.036995 -0.005817 -0.018373 -0.011246 0.025795 
文獻會 0.020264 0.033757 -0.007187 -0.047417 0.037067 0.024657 -0.027249 0.000172 -0.028845 0.049638 
天秤 0.017630 -0.023625 -0.025909 0.029015 0.041513 0.014003 0.022437 0.008098 -0.016537 -0.029131 
士大夫 0.017755 -0.042799 0.007541 0.029787 -0.013391 -0.028365 0.002811 -0.001433 -0.019440 -0.028285 
復國 -0.016666 0.010023 -0.023828 0.002751 -0.011826 0.021968 -0.024994 0.035057 -0.018607 0.017213 
三權分立 0.003625 -0.036055 -0.047946 0.003572 0.013593 0.009727 0.014218 0.013857 -0.018530 0.017717 
印度河 0.006949 0.005879 0.008820 -0.041774 -0.005692 -0.037547 0.022205 0.026567 -0.034641 -0.008611 
利劍 -0.026813 0.043053 0.034164 0.025502 0.038330 -0.047005 0.039786 0.022603 0.019196 0.026707 
東京 0.046286 -0.034496 0.042346 -0.040498 0.042728 -0.037981 -0.040656 -0.028310 0.043173 0.044960 
靜 0.046753 0.008586 -0.013315 -0.027861 0.006134 0.040501 0.037326 0.026369 -0.035950 -0.037251 
佛陀 -0.015842 0.015462 -0.027936 -0.004359 0.041245 -0.027769 0.006738 -0.015511 0.047647 -0.045512 
愛國志士 -0.030365 -0.000392 -0.032571 0.045045 -0.012683 0.036308 -0.010349 -0.048283 0.011346 0.014903 
尼 0.028378 0.007314 0.018286 -0.019295 0.022672 -0.030351 0.009698 0.004027 0.036594 0.021535 
馬加爾 0.012146 -0.019820 -0.040793 -0.029216 -0.022809 0.029478 0.004575 -0.049791 -0.018604 -0.002766 
新興國家與第三世界 0.011758 0.017622 0.026324 -0.046242 0.044821 -0.044164 0.038538 -0.005635 -0.007175 -0.027336 
區域統合的發展 -0.030402 0.039366 -0.030167 0.000917 -0.003931 0.034074 0.014908 -0.001591 0.019513 0.048802 
第三世界 -0.007889 0.047951 -0.033508 -0.021138 -0.009494 -0.042644 -0.011432 0.044566 0.024155 -0.040562 
西德 -0.037695 -0.008772 0.032120 0.012007 -0.010736 -0.010841 -0.021536 -0.002122 -0.003992 0.033672 
家族 -0.047751 0.024861 0.034100 0.045079 -0.032462 0.025771 -0.019897 -0.031306 -0.036606 -0.041582 
滑鐵盧 0.035577 -0.025172 0.003879 0.005617 0.027087 -0.041206 -0.021945 -0.024821 0.006195 0.040904 
近代民主的革命浪潮 -0.000015 -0.000084 0.049463 -0.033528 0.008731 0.037642 -0.041547 0.005809 -0.031644 -0.028831 
廣建 -0.040271 -0.045772 -0.032077 0.008308 0.004852 0.032042 0.021494 -0.018126 -0.029614 -0.015437 
愛國 -0.031870 0.049678 -0.042108 -0.017897 -0.028104 -0.005467 -0.006067 0.019975 0.021854 0.024251 
歐洲的古典文明 0.030072 0.018492 0.032065 -0.028355 0.042871 0.022966 0.041592 -0.005473 0.033893 0.003709 
契約 0.014499 -0.024290 0.029700 -0.043965 0.039847 0.023006 -0.018146 0.000255 0.031699 -0.030772 
上臺 -0.033081 -0.018318 0.029117 -0.027812 -0.013544 -0.029372 -0.003836 0.014699 -0.032971 -0.037593 
澎 0.021902 0.004573 -0.039801 -0.022670 0.020395 -0.025377 0.042529 -0.039290 0.030704 -0.017339 
浮世繪 0.015582 -0.017140 0.016891 0.011501 0.005920 0.039091 -0.031979 -0.031047 -0.034894 0.049718 
尚義 -0.001846 -0.012169 -0.030298 -0.039949 0.046353 0.025948 0.021271 0.040404 -0.023318 -0.033885 
革命行動 0.046375 -0.013911 -0.021799 0.016145 -0.003424 0.017418 -0.035025 0.008852 0.048437 -0.020296 
利瑪竇 -0.023935 0.002046 0.003522 0.043260 -0.024466 -0.021458 -0.011609 0.003398 -0.047556 0.046150 
紅樓夢 -0.045392 -0.019569 0.020859 0.037685 -0.021265 0.019670 0.019839 0.010957 -0.037665 -0.008571 
牡丹社事件 0.013449 0.048781 0.031970 -0.008980 -0.009250 -0.041032 0.039203 0.038756 -0.034195 -0.025670 
屏東縣 -0.039404 -0.020052 -0.022324 -0.047319 -0.002289 -0.015089 -0.009573 -0.023167 -0.022888 0.048955 
革命黨 -0.006882 -0.045403 -0.049640 -0.007607 -0.000186 0.018788 -0.005981 -0.039461 0.049576 0.027217 
康 0.009650 0.023705 0.006467 -0.037303 0.023816 -0.022798 -0.040451 0.033040 -0.011920 0.041344 
伏羲 0.022885 -0.028941 -0.020996 -0.038557 0.035538 0.034566 -0.001849 0.007811 -0.038431 0.006374 
巴 -0.027917 -0.024239 -0.009958 -0.005705 -0.047638 -0.014394 0.035019 0.031142 0.015552 -0.017342 
紫禁城 0.035562 -0.025273 -0.036786 0.037230 -0.044266 0.007863 0.021912 0.044633 -0.015402 0.038362 
明成祖 0.043207 0.025182 0.036215 -0.000963 0.003662 0.024187 0.049649 0.047701 0.004840 0.011961 
丁日昌 -0.011038 -0.032835 -0.026697 -0.016182 0.043216 -0.034758 -0.039386 -0.039931 0.026474 -0.025255 
丁戊己 0.043335 -0.013972 -0.022202 -0.046513 0.023029 0.032005 -0.038748 -0.015721 0.026257 -0.006685 
智慧 -0.034103 -0.025066 0.004584 -0.009731 0.005795 -0.041734 0.034570 -0.031819 0.020010 -0.007915 
湖南 0.017780 -0.002638 -0.027396 -0.040794 -0.019226 -0.026875 -0.047360 -0.032561 -0.024884 0.015782 
殷 -0.025821 0.049599 -0.022632 -0.029353 -0.023715 -0.036504 -0.010907 0.008031 0.023019 -0.008055 
經濟繁榮 0.036853 0.023247 0.003445 0.042757 -0.027789 0.036607 0.031625 0.048744 -0.028271 -0.006575 
關懷 0.046622 -0.032280 0.036969 -0.035988 0.012497 -0.017503 -0.005505 0.043681 0.018314 0.000887 
中西文化 -0.004132 -0.047255 -0.021866 -0.044298 0.017651 0.036516 0.031021 0.004756 -0.038593 -0.034694 
朝 0.041037 0.030861 -0.046301 0.034428 -0.002756 0.041829 0.046088 -0.035805 0.013705 -0.029527 
侍衛 0.015137 -0.000081 0.029483 -0.025395 -0.037592 0.011913 0.008640 0.037038 0.014465 -0.004512 
資本主義 0.040237 -0.034416 0.022870 -0.029042 0.038339 -0.006944 -0.035815 -0.016365 0.042007 -0.022734 
菲律賓 0.039972 0.003831 0.015305 0.001027 -0.023206 0.026860 0.047293 -0.027849 0.026215 -0.026967 
公東征 -0.047964 0.023451 -0.035205 -0.012337 -0.031406 0.012740 -0.005902 0.041063 -0.038968 0.022829 
西化運動 0.040686 0.028545 0.018411 -0.038469 -0.043878 -0.029579 -0.045206 -0.038341 0.016968 0.012004 
圓山 0.009244 -0.018974 0.024786 0.023607 0.045822 0.002443 0.006140 0.000542 -0.046408 0.033723 
二十世紀初的科學與文藝 0.012592 -0.036879 0.046616 0.007680 0.020703 -0.043343 -0.036044 -0.017876 0.032037 -0.048537 
元老院 -0.030325 0.039870 -0.026843 0.042851 -0.047165 -0.011272 -0.004376 -0.048866 0.027499 -0.038487 
臺灣島 -0.023999 0.021623 0.032730 0.016035 0.015851 0.024632 0.032590 0.035109 0.041736 -0.044527 
大港 0.016141 0.026546 0.005219 0.034459 -0.002554 0.023158 -0.017139 0.006902 0.015567 -0.017241 
宋室南 -0.023773 0.043114 0.034567 -0.011839 0.011877 0.038408 0.043509 0.047176 0.041376 0.013097 
周天子 -0.043546 -0.007384 0.041284 0.012492 0.012466 -0.017705 0.013165 0.006908 -0.024393 -0.000975 
諸國 -0.016418 -0.008345 0.034940 -0.049382 0.004095 -0.012953 0.004526 -0.030113 -0.048730 0.038396 
楚 0.023428 0.014644 0.026666 0.016014 -0.044290 -0.032298 -0.043152 0.015215 -0.009567 0.036873 
沿海地區 -0.006622 -0.043690 0.041660 -0.045030 0.012817 -0.015388 0.048453 -0.020195 0.016730 -0.029567 
靖康 -0.025125 -0.005809 0.031677 0.009087 0.009988 0.005940 0.009222 0.020885 -0.032144 0.047865 
君士坦丁 0.025928 -0.048860 -0.012460 -0.022221 -0.016644 -0.029836 0.033102 -0.021507 0.008069 -0.026729 
河北 -0.006393 -0.042180 -0.048370 -0.019228 -0.016885 0.048573 -0.009399 0.037981 0.040689 0.008565 
齊桓公 0.026544 0.015208 0.030392 0.020607 -0.013977 0.007768 0.041287 -0.007487 0.020599 0.035973 
宋襄公 -0.012564 -0.042906 0.006836 0.045134 0.007901 -0.027837 0.046295 0.005565 -0.033255 0.020534 
晉文公 -0.034460 0.012578 -0.046970 0.010017 0.016132 -0.013515 -0.019180 -0.026573 -0.025366 -0.027400 
秦穆公 -0.010825 -0.031425 0.042609 0.041234 0.042160 -0.021727 0.046619 -0.012300 0.028836 0.010335 
楚莊王 0.038226 0.032310 -0.036734 -0.002428 -0.006006 0.020378 -0.015488 -0.002202 0.015485 0.022215 
廣島 -0.043362 -0.006175 0.029260 0.033134 -0.031296 -0.006535 -0.013116 -0.026552 0.034775 0.029530 
容納 -0.035083 -0.011531 -0.006088 -0.040166 -0.035077 0.048509 0.010178 -0.032811 0.013464 0.048882 
宋太祖 -0.027365 -0.040593 -0.037897 0.009898 -0.004654 -0.030699 -0.012598 -0.023128 0.017374 -0.045317 
馬祖 -0.009076 0.020116 0.002780 -0.001634 -0.000769 0.034941 0.040628 0.008162 -0.036115 0.041661 
都江堰 0.044980 0.016884 -0.038550 -0.014412 -0.045102 -0.017656 -0.006512 0.037035 0.034445 -0.012645 
械鬥與民變 -0.013440 -0.008687 -0.027316 0.039729 -0.007770 -0.031264 -0.016324 -0.027721 -0.012939 0.014616 
林木 0.006485 0.042818 -0.027386 -0.000734 0.005173 0.034157 -0.024548 0.017998 -0.031198 -0.045891 
莊 0.047137 -0.008876 0.011435 0.035487 -0.035767 -0.036043 -0.027866 0.036104 0.028302 0.006810 
基督 0.014963 0.038771 -0.034094 0.014995 0.028983 -0.048698 0.028607 0.008824 0.028256 0.006508 
德意志的建國運動 -0.007031 0.033611 -0.048154 -0.037798 -0.039447 -0.040334 -0.036185 0.001198 -0.042078 -0.017696 
李登輝 -0.046774 0.031306 0.036639 0.021837 0.034140 -0.014659 -0.026733 0.023576 0.045621 0.021114 
唐玄宗 -0.030634 -0.042165 -0.048270 0.021437 -0.048499 0.019926 0.041531 -0.005876 -0.028766 0.030162 
白話文 0.029086 -0.028014 0.005127 0.033855 -0.046542 0.012837 -0.045258 0.001317 -0.021292 -0.000511 
開羅會議 0.046643 0.027861 -0.006100 0.039754 0.032391 0.033800 0.013095 -0.033556 -0.011450 -0.035555 
閩南人 -0.024643 0.037373 0.016681 -0.009889 0.044748 0.035353 0.043347 0.006108 0.010330 -0.031804 
厝 0.020111 0.032750 -0.013834 -0.031285 0.023535 0.015349 0.011319 -0.005278 -0.044818 0.024217 
燕 0.049850 0.029030 0.041614 -0.045332 -0.009177 -0.020549 0.034393 0.027013 0.048300 -0.021202 
大屠殺 0.010083 -0.013435 -0.038657 -0.015117 -0.029755 0.003636 -0.005984 -0.019481 0.041443 -0.026460 
社會契約論 0.035379 -0.026482 -0.024762 0.016588 -0.000504 -0.003307 0.048193 -0.021907 0.025430 0.007857 
拉丁美洲的獨立運動 -0.038129 0.028368 -0.022757 -0.010179 0.042834 -0.037276 0.043997 -0.049602 0.042645 0.001476 
太平洋地區 0.039755 0.022401 0.037866 -0.010066 0.003580 -0.036357 0.030060 -0.001588 -0.000467 -0.043065 
伏爾泰 0.045789 0.022221 0.016678 0.010091 0.036615 -0.018324 -0.030923 -0.044078 -0.020898 0.022087 
邦聯 -0.004208 -0.047758 -0.025189 0.013768 -0.039114 -0.018138 -0.049695 -0.047969 -0.046579 -0.047404 
狄德羅 -0.042853 -0.042812 -0.012540 -0.002745 -0.028101 -0.025447 0.002066 -0.026347 -0.003876 -0.025563 
伊曼 -0.038699 -0.035399 -0.043616 -0.047847 -0.045773 -0.022087 0.004242 0.028014 -0.005093 0.046400 
大將軍 0.016260 0.047331 0.022403 0.027876 -0.006000 -0.019582 0.000778 0.005153 -0.035974 0.022588 
天賦人權 0.019095 -0.013957 -0.022101 -0.005849 -0.008585 0.003358 0.012183 0.040422 -0.043198 0.014912 
田賦 -0.031561 0.031712 -0.020682 0.003517 -0.026770 -0.036665 0.048026 -0.023015 -0.021881 -0.044398 
從政 -0.023013 -0.031871 -0.040332 -0.046175 0.005264 0.034761 0.019440 0.028319 -0.003079 -0.040306 
牛頓 -0.016003 -0.025606 0.041019 -0.049260 0.004901 0.012364 -0.048380 0.040712 -0.041284 -0.012459 
笛卡兒 -0.032211 -0.012578 0.047003 -0.029762 -0.046414 -0.026317 -0.003674 -0.044234 -0.001926 0.007307 
皇姑屯 -0.041754 -0.035561 0.015317 0.021107 0.009326 0.041570 0.044376 -0.027104 -0.048871 -0.042531 
長濱鄉 0.049313 0.045485 0.010217 0.007451 0.019193 0.046687 0.038153 0.011827 -0.031924 0.009315 
治國 0.011499 0.015910 0.035025 -0.008818 0.031818 -0.009987 -0.015897 -0.024901 0.025671 0.029448 
十月革命 0.004373 -0.031120 0.044623 -0.045473 0.009897 0.005336 -0.034766 0.010564 0.039737 0.042281 
羅斯福 -0.010931 -0.032130 -0.042044 -0.037474 0.042688 0.021758 -0.046384 -0.026115 -0.022345 -0.007460 
華爾街 0.040781 0.009169 -0.029468 0.025529 -0.041489 0.026192 0.022882 -0.008961 -0.029129 0.007765 
漢文 -0.038733 -0.015620 -0.033078 -0.038298 0.037250 0.025865 -0.039273 0.020815 0.027393 -0.039192 
狄奧多 -0.008652 0.042915 0.033258 -0.040480 0.022849 0.010817 -0.018591 0.017314 0.044290 0.032332 
納粹黨 0.023407 -0.045497 -0.030264 0.040273 0.035815 0.016399 0.038248 -0.007549 0.020197 -0.026686 
河北省 0.013889 -0.028319 0.003113 0.020561 -0.014279 -0.014226 0.036127 -0.021547 -0.032193 -0.032457 
中文 -0.004199 -0.007698 -0.000790 -0.025200 -0.016302 0.032420 0.043991 -0.009642 0.026379 -0.005879 
慕尼黑 -0.008786 0.022029 -0.024591 -0.002284 -0.045059 0.002626 0.007349 -0.011482 -0.025766 -0.010039 
聯合國成立 0.023761 0.036839 0.013156 -0.033153 -0.048792 0.037993 -0.039230 0.041096 0.041254 0.012291 
區域衝突 0.031137 0.045522 -0.029541 0.005046 -0.036679 0.037935 0.040387 -0.013429 0.021384 0.001149 
才華 -0.022400 -0.047823 -0.005612 0.042976 0.033661 0.022179 -0.003604 -0.003770 -0.014868 0.041887 
北越 -0.033530 0.018721 0.033575 -0.018385 -0.031326 -0.006737 0.005554 0.036674 -0.007932 0.027669 
南越 -0.047369 0.027379 -0.049283 -0.045250 -0.048633 -0.000960 -0.016318 0.032320 0.003326 0.021971 
路德教派 -0.044974 0.043190 0.035071 -0.008516 -0.046188 -0.004826 -0.001837 0.027892 -0.005899 0.021083 
黃河流域 -0.030835 -0.023494 0.014957 -0.021269 0.049640 0.007640 -0.019559 -0.049071 -0.033850 0.016606 
龍山文化 -0.020383 0.045491 -0.029742 0.023717 0.026547 -0.004771 0.038525 -0.025716 -0.039706 -0.042046 
李承晚 -0.027484 0.038622 0.044919 0.016481 -0.001208 0.012041 -0.030515 -0.021379 -0.031085 0.014854 
全美 0.048056 -0.022813 -0.040552 -0.007625 0.019693 -0.030009 -0.028046 0.014915 0.048459 0.039845 
亨利八世 0.032996 -0.022212 0.023416 -0.005437 -0.005865 0.001305 -0.041373 -0.033043 0.031934 0.030779 
建國初期 -0.006845 0.014839 0.047955 0.036522 -0.008939 0.021022 -0.031238 0.013847 0.041409 -0.006682 
帝王 0.045917 -0.016933 -0.041739 -0.035460 -0.044019 -0.010506 -0.019321 -0.007500 0.000519 0.003441 
陝西省 -0.027274 -0.039989 0.006091 0.020219 0.023465 -0.025114 0.024261 -0.039857 0.046957 -0.030064 
海洋 0.031592 -0.031477 -0.017734 0.002974 0.029645 0.015672 -0.006546 -0.043187 0.044983 -0.003096 
超英 -0.030417 0.039265 0.029169 0.032530 0.024716 -0.016856 -0.041235 -0.032137 -0.002084 0.046260 
安徽 0.035333 -0.026784 -0.046756 0.011427 -0.014563 0.043901 -0.020236 -0.013542 -0.039362 0.000230 
甲骨文 -0.008463 0.004164 0.037500 -0.012483 0.027628 0.022359 0.017584 -0.023927 -0.047903 0.023854 
漢字 0.027454 -0.038789 -0.045993 0.016463 0.018671 -0.036757 0.047421 0.032997 -0.032202 0.027483 
陝西 -0.028598 0.031270 -0.023602 0.024242 -0.009988 -0.005907 -0.028967 0.048833 -0.007687 0.029280 
周公輔 0.003265 0.021568 -0.007632 -0.030357 0.049658 -0.012239 0.029239 -0.027007 0.011774 0.017723 
印加 -0.033011 0.022145 0.016174 0.006767 -0.005319 0.024910 0.014423 -0.024794 0.026376 0.014101 
馬雅 -0.016919 -0.031648 0.001138 0.047530 0.023712 -0.043483 -0.016971 0.008009 -0.037122 0.035014 
西南 -0.038889 0.003352 -0.047858 0.024156 0.049448 -0.033629 -0.031934 -0.030745 -0.012900 -0.045122 
黃河 0.012213 0.040623 0.038132 -0.048314 0.011145 0.033574 -0.008395 -0.035393 0.016425 -0.031581 
渡海 -0.038419 0.026454 0.004614 -0.009529 -0.012875 -0.004961 -0.022723 -0.029958 0.032297 -0.046825 
澈底 -0.039026 0.002446 -0.013840 0.008675 0.007269 0.007994 -0.037222 -0.005650 -0.007275 0.031999 
麥哲倫 0.001212 -0.031987 0.018903 0.044774 -0.034476 0.012477 0.012366 0.041631 0.044778 0.035555 
莊子 0.024677 0.042882 -0.046964 -0.029942 0.032397 -0.006160 0.029361 -0.026201 0.037091 -0.035182 
蔣經國 0.037814 0.029591 -0.034680 -0.048872 -0.032541 0.045247 -0.031354 -0.026918 0.032358 -0.046422 
項羽 0.023633 -0.024007 -0.028427 0.012398 0.031842 0.030174 0.049167 0.004518 0.019836 0.030937 
陝北 -0.045798 0.037752 0.039178 -0.001405 0.000742 0.044911 -0.033569 -0.021541 0.027847 -0.016191 
魯 0.003156 0.040843 -0.000418 0.037257 -0.024084 -0.018941 0.005008 0.013069 0.036273 0.019420 
桂 -0.041812 0.044057 -0.039209 0.001237 -0.001816 -0.011967 -0.048969 -0.003175 -0.010941 0.027809 
延平郡王 0.033557 0.001494 0.019876 -0.028801 -0.040070 0.035558 0.004697 -0.048985 0.006714 0.044328 
敦煌 -0.017416 0.025069 -0.024530 -0.001881 0.017599 -0.023827 -0.007239 -0.007759 -0.001193 0.012141 
王權國家的形成 0.010150 0.047008 0.040268 -0.034215 0.004199 0.007732 -0.018954 -0.005083 -0.023529 0.044725 
斯 -0.014798 -0.017650 -0.046472 -0.046700 0.041800 0.035896 -0.013068 -0.046230 -0.035098 -0.011632 
政教建設 -0.046753 -0.008553 -0.006430 -0.002422 -0.045966 0.036644 -0.008133 0.046339 0.015857 -0.015327 
東都 0.048856 0.042464 -0.009723 -0.044154 -0.021402 0.018764 -0.046143 -0.004524 0.020157 0.033052 
紅毛城 0.008160 -0.026125 0.037595 -0.031859 -0.020251 -0.013643 0.019974 0.031844 0.020184 -0.046767 
韓國 -0.018643 -0.043028 0.006030 0.019817 -0.039194 0.001338 0.038849 -0.043581 0.022385 0.047755 
古蘭經 0.045203 -0.041646 -0.044846 0.004036 -0.023346 0.045934 -0.026822 0.002992 0.009766 -0.035530 
鎮區 0.015518 0.002437 0.046100 -0.015724 0.046237 -0.014818 0.012219 0.000664 -0.045602 -0.040959 
民族融合與經濟開發 -0.040314 0.033946 -0.045938 -0.043175 -0.034937 0.029436 -0.015707 0.036348 0.029913 -0.042555 
金碧輝煌 0.009152 -0.019579 -0.019202 0.013286 0.017703 -0.003142 -0.030719 0.017271 0.024008 0.018471 
孫權 -0.028076 0.014714 -0.032870 0.003072 -0.009711 -0.024074 0.011130 0.033473 -0.049060 -0.003780 
三國鼎立 0.045071 0.017488 0.005438 -0.004091 -0.016983 -0.012071 0.030347 0.020305 -0.035971 0.002608 
日耳曼人 0.027228 0.039720 -0.047830 0.044337 0.022644 0.049467 0.036502 0.020930 -0.031842 -0.030141 
榮譽 0.031088 -0.034801 0.040332 0.046208 -0.025009 0.034956 0.040729 0.048827 0.032272 0.013014 
楊堅 -0.004089 -0.026973 -0.008005 0.007185 -0.042560 0.039122 -0.031778 -0.049718 0.001880 -0.007576 
天資聰穎 0.000015 0.000117 0.030792 0.003246 -0.048563 0.039503 -0.029260 -0.033101 0.011551 -0.023747 
不列顛 -0.026715 0.003697 -0.005582 0.043178 0.014990 -0.041048 0.039102 -0.001909 -0.002582 0.002977 
盎格魯 0.009665 0.023805 0.047131 0.031084 -0.004831 0.028133 0.015692 -0.036415 0.009677 0.043886 
盛行於 -0.020337 0.045793 -0.007748 0.028877 0.040607 0.048021 0.006955 -0.034081 0.025085 -0.034419 
莫高窟 0.042850 -0.037175 -0.015338 0.018785 0.013998 -0.047594 -0.004102 -0.047054 -0.040537 -0.007524 
雲岡石窟 -0.039642 0.038377 0.043307 -0.034154 0.004602 -0.029610 -0.045407 -0.019670 -0.019806 -0.030702 
龍門石窟 0.007382 -0.031261 -0.036304 -0.019588 0.040738 -0.011113 -0.043329 -0.025954 0.018723 0.023586 
張陵創 -0.014319 0.045512 0.030399 -0.019353 0.002289 0.015123 -0.010172 -0.007115 -0.016943 0.028191 
哥德人 0.036075 0.018111 0.029547 -0.044972 0.033200 0.039137 -0.031677 -0.009053 -0.029733 -0.036223 
太平 -0.049054 -0.043739 -0.038663 0.024843 -0.046021 -0.003719 0.045474 -0.019853 -0.021014 -0.018678 
隋代的興亡 -0.013260 0.012502 -0.047473 0.006694 -0.025803 0.029720 0.026166 -0.007289 0.021909 -0.035387 
東哥德人 -0.023535 -0.015315 -0.031064 -0.025005 0.004987 -0.047072 -0.020657 0.043678 0.038293 -0.007246 
法蘭克人 0.042191 -0.021526 0.027948 0.024474 -0.028458 0.012196 -0.049487 -0.006599 0.006461 0.002657 
隋煬帝 0.007550 -0.030153 0.011008 0.032668 0.025623 0.049126 -0.025754 0.010042 -0.043707 -0.048451 
邗溝 0.010239 -0.032408 -0.023877 0.022429 -0.041953 -0.036870 -0.013324 0.032079 -0.018265 -0.020531 
廈 0.014514 -0.024190 -0.029636 0.024422 0.011200 -0.026064 0.037997 0.030800 -0.046704 -0.028230 
河 0.023697 -0.043584 0.042365 0.039622 -0.008475 -0.015916 0.004968 -0.027193 0.030545 0.021614 
唐高祖 -0.007330 -0.008363 -0.045181 0.001820 -0.017969 0.041423 0.003409 -0.017485 -0.025385 -0.007521 
布 0.040378 0.046510 -0.003015 0.040117 -0.045212 0.001619 0.000702 0.004649 -0.039297 -0.019347 
高宗 -0.037671 0.031389 -0.002817 0.041426 -0.016571 -0.009352 0.028293 -0.033250 -0.009436 -0.022261 
牛李黨 0.043094 -0.035564 0.035297 0.012975 -0.044351 -0.032701 -0.005811 0.041667 0.005020 0.033150 
盧溝橋事變 -0.031195 0.034129 -0.044730 0.044801 -0.014294 -0.014326 -0.004538 0.010066 -0.003546 0.016612 
宜蘭 0.039658 -0.038243 -0.022388 -0.027742 0.026920 -0.042314 0.030743 0.022923 0.021310 -0.019334 
唐三彩 -0.017590 -0.036079 0.011893 0.038509 -0.015826 0.015562 0.012729 -0.035973 0.012598 0.023161 
基隆市 -0.037119 0.015034 -0.030756 -0.042970 0.026413 -0.025658 -0.019324 0.012480 -0.007614 0.049763 
穆罕默德 -0.001544 0.009825 -0.025137 -0.025890 -0.000854 -0.005623 0.012906 0.005196 -0.015692 0.036449 
吐蕃 -0.029422 0.025832 -0.019495 0.031352 0.036942 0.043831 0.039301 -0.000600 0.026059 -0.007994 
嘉義 0.037256 -0.014095 -0.023007 0.028169 -0.024066 -0.038820 -0.046194 0.035133 -0.018103 0.020537 
西藏 0.045560 0.020711 0.006708 -0.015712 -0.033682 0.017714 0.026929 -0.002254 -0.044858 -0.016045 
魯凱族 0.044122 0.031224 -0.023904 0.002248 -0.015149 -0.019966 0.018240 -0.019597 0.000677 -0.035512 
王子 -0.004361 -0.048766 -0.031836 0.029900 0.047354 -0.027446 -0.011127 0.046581 0.037448 0.027174 
京 -0.010632 0.009843 -0.045016 0.022908 0.021210 0.040001 0.014023 -0.007433 -0.039038 -0.017635 
南門 -0.046371 -0.006035 0.010187 0.007249 0.037863 0.009914 -0.004553 0.009966 -0.044211 0.048225 
永明 -0.031696 0.010826 0.021469 0.041713 0.005322 -0.044856 -0.026035 0.048189 0.008063 0.013231 
基督徒 -0.022659 -0.049535 0.003088 -0.019600 0.020657 -0.043645 0.041962 -0.023036 0.017978 -0.001329 
元帝國的興亡 0.001245 0.048235 0.008365 0.035225 -0.017499 -0.035475 -0.044119 0.048830 0.012292 0.021147 
臺灣海峽 0.049588 0.047298 0.042181 0.038414 0.003549 -0.036559 0.048730 -0.038362 -0.043173 -0.044926 
汴京 0.033502 -0.038869 -0.026517 0.005006 0.023059 0.032207 0.042581 0.021053 -0.031036 -0.004823 
祖宗 -0.021817 0.036024 0.047778 -0.004646 0.019351 0.007735 -0.038934 0.003050 0.030148 0.018996 
契丹 0.035388 0.013579 -0.000363 -0.022380 0.022308 0.047252 0.041879 0.016420 -0.001611 0.049382 
澶 -0.004062 -0.006792 -0.034808 -0.009718 0.025876 -0.009203 0.049280 -0.034737 0.020755 0.017000 
澶淵 0.002216 -0.005360 -0.005362 0.004628 0.000562 0.023723 -0.013412 0.011494 0.045880 0.022826 
女真族 -0.039334 0.020412 -0.035266 -0.012740 0.005936 0.039192 0.008685 0.037340 0.036459 0.000648 
杭州 -0.045703 0.018376 -0.008701 -0.037407 0.003131 0.000682 0.034518 0.007838 -0.018250 -0.020430 
成吉思汗 -0.044821 0.044197 0.041718 -0.024648 -0.032657 0.004482 -0.040405 0.033342 0.010074 0.046504 
鐵木真 0.036945 0.023851 0.047433 -0.046922 0.000330 0.042192 -0.031516 0.032014 0.001312 0.008678 
臺伯河 -0.012711 0.016127 0.016455 -0.031380 0.042911 -0.036772 0.047321 -0.007668 -0.000589 -0.043871 
元世祖 0.020471 -0.024873 0.045853 0.002644 -0.012531 0.037315 -0.003702 0.035585 0.024878 0.024211 
澳門 -0.010190 0.012764 0.034259 0.006126 -0.009549 0.016994 0.042175 -0.021626 -0.012717 -0.043913 
經濟的繁榮 0.000189 -0.038734 -0.005630 -0.037144 -0.015137 0.000114 -0.049228 -0.004887 -0.002240 -0.034767 
密封 0.020554 0.035670 -0.034558 -0.048067 -0.007224 -0.007658 0.039471 -0.019472 -0.018497 -0.002061 
史前文化與原住民族 -0.003589 -0.003670 0.025797 0.010274 0.037823 -0.030348 -0.010281 0.012160 -0.009729 -0.004195 
舊石器 -0.037668 0.011409 0.005316 -0.004897 -0.042300 0.040834 -0.040479 0.012859 0.014883 -0.041753 
明代的政治發展 -0.045551 0.019383 -0.002054 0.046461 0.016663 0.009990 -0.004050 0.013289 -0.002277 0.004991 
太祖 0.022958 -0.008458 -0.025806 0.049699 0.018033 0.039034 0.047638 0.014427 0.045236 0.038576 
拉斐爾 0.044617 -0.005513 -0.006369 -0.002019 0.016693 0.010191 -0.022720 -0.049937 0.040430 0.006853 
史詩 0.035245 -0.047368 0.017389 -0.045216 0.031589 -0.011497 -0.025867 0.049297 -0.044626 -0.034514 
山海關 -0.037775 0.010704 0.020663 0.016396 -0.041772 -0.015681 -0.033481 -0.000957 -0.036298 0.040453 
榮耀 -0.042996 -0.003758 0.005212 -0.025581 -0.018820 0.015804 0.034320 0.006529 -0.046890 -0.009459 
雍 0.027588 -0.017903 0.011856 -0.021733 -0.013422 -0.028566 0.021481 -0.038206 0.037854 -0.030147 
帕德嫩神廟 -0.028952 0.048933 0.032977 -0.002333 -0.025381 -0.027501 0.048511 0.000188 -0.028745 -0.009697 
江西 -0.013983 0.047728 0.025021 -0.014842 -0.027942 0.035600 0.024979 -0.035124 -0.041803 -0.015883 
徽州 -0.014810 -0.037730 0.020996 0.038591 0.044717 0.035152 -0.037982 -0.030666 -0.032376 -0.033665 
白銀 0.007825 -0.028340 0.042972 -0.036369 0.009979 -0.034120 -0.015176 -0.040147 0.045044 -0.002693 
上國 0.032242 0.012813 0.014581 0.036253 0.049289 0.005324 0.045154 -0.021968 0.025027 0.045198 
奧林匹亞 -0.011676 0.042955 -0.026480 -0.034752 0.020654 -0.023665 0.033829 0.023286 0.043707 0.048485 
三國演義 -0.029984 0.002126 -0.015955 -0.045284 -0.028854 0.009578 -0.006769 0.015343 -0.048721 -0.021544 
水滸傳 0.047827 -0.024324 0.049478 -0.033427 0.049396 0.006029 0.029807 -0.043260 0.024500 0.001714 
江青 -0.018674 -0.043230 0.024701 -0.016957 0.018100 -0.000523 0.026563 -0.004671 -0.020810 0.042671 
取材自 0.031647 0.008885 0.028659 -0.030833 -0.033484 0.019023 -0.044431 -0.013225 -0.017267 0.046056 
希臘文化 -0.026016 0.028310 -0.043140 0.035295 0.022964 -0.048418 -0.009540 -0.042946 -0.033426 0.039406 
佛塔 0.010095 0.006645 -0.006125 -0.000407 -0.032672 0.004381 0.018930 -0.035045 0.038721 -0.004427 
入口 -0.019199 -0.006694 0.025836 -0.049464 0.043552 -0.032542 -0.044763 -0.035420 -0.003757 -0.004778 
印度教 -0.021515 -0.041982 -0.047061 0.009413 -0.027856 -0.023836 -0.047299 -0.032158 0.037775 -0.010670 
日增 -0.040408 -0.046678 0.001941 -0.007173 -0.037326 -0.026335 0.016205 0.006969 -0.023990 -0.038316 
抗衡 -0.042871 -0.022932 0.038663 -0.024809 0.026276 -0.026564 0.014694 -0.003001 -0.049792 -0.008614 
種姓制度 -0.006833 0.034920 -0.019513 -0.048769 -0.011856 0.021767 -0.006323 -0.001717 0.038687 0.015352 
臺灣光復 -0.008661 0.002855 0.008859 -0.001512 0.000037 -0.039742 -0.012277 -0.021013 -0.028668 -0.009193 
琿 -0.010660 -0.010338 -0.018213 0.039812 -0.047226 -0.011674 0.032965 -0.022414 0.042087 -0.042210 
阿利安人 -0.048572 -0.000557 0.046341 0.005867 -0.011261 0.025694 -0.020401 -0.034630 0.021460 0.001653 
洪秀全 -0.019077 -0.005888 -0.048846 -0.002370 0.014377 -0.025096 0.004382 0.008940 -0.030978 0.015559 
古老 0.032709 -0.044106 -0.041080 0.048891 0.012695 -0.016194 0.023135 0.032710 0.045905 -0.037013 
遼東半島 0.025729 0.049831 -0.041101 -0.011250 -0.044235 0.008064 0.003241 -0.018593 0.027304 0.040224 
福州 -0.044507 -0.013728 -0.020590 0.004121 0.017218 -0.026344 -0.023856 -0.017430 0.014978 0.038872 
華勢力 0.006570 -0.016618 0.000336 0.002232 -0.015250 0.039369 0.049854 0.009050 0.049747 0.008345 
公正 -0.034906 0.029637 -0.034378 -0.026878 -0.027380 -0.040694 0.021439 0.041512 0.023993 0.018370 
祆教 0.031259 0.046327 -0.004224 -0.047859 0.034146 0.045381 -0.010468 0.030931 -0.005838 0.021486 
湖北省 0.031824 -0.049947 0.000369 -0.017546 -0.025787 0.029820 -0.033170 -0.038902 -0.006738 0.015544 
辛亥革命 0.032608 0.015230 -0.009467 -0.022462 -0.038235 0.027663 -0.007410 0.011113 0.043362 0.006209 
扶清滅 -0.049005 0.036583 -0.008536 -0.016319 0.042310 -0.000740 0.045132 0.017891 -0.031903 -0.030544 
八國 -0.031570 -0.008348 -0.045081 0.042485 -0.049582 0.012776 -0.045660 0.038658 0.005161 0.014076 
占星術 0.042920 0.003288 -0.028281 -0.046635 0.022223 0.006688 0.014157 0.013454 0.018811 0.044170 
巴比倫 0.021536 0.002156 -0.015753 0.036046 0.007919 -0.047716 -0.004907 0.027629 0.012369 0.021651 
丘逢甲 -0.047089 -0.010768 -0.001053 -0.006932 -0.015735 0.016167 -0.043283 -0.025652 0.040717 0.028746 
加爾底亞人 -0.000259 -0.001695 -0.001172 -0.027718 -0.032919 0.022749 -0.039838 0.017088 0.022800 0.030495 
亞述人 -0.048718 -0.041524 -0.044040 0.029353 0.023749 0.016759 -0.019376 -0.047862 -0.045874 0.037248 
巴比倫人 0.035855 -0.043340 0.043976 -0.009743 -0.014285 0.025734 0.019861 -0.028902 0.019266 -0.032829 
革命黨人 0.033344 0.000084 -0.049429 0.013783 -0.039014 0.022527 0.018692 0.023384 0.004352 0.008739 
湖北 -0.012308 -0.021214 -0.009998 -0.045967 0.046634 -0.012199 -0.030499 -0.021278 0.009579 -0.016759 
改革派 0.019409 0.028117 0.015591 0.022920 0.041290 -0.027467 0.028732 -0.010350 -0.038293 0.007280 
革命派 0.038065 -0.008757 0.032220 -0.047328 -0.042349 -0.039488 0.029395 -0.045979 0.026553 -0.044731 
袁世凱與洪憲帝制 -0.045209 -0.018361 0.008835 -0.041673 0.034973 0.030840 -0.006442 -0.022502 0.021503 0.021935 
二次革命 -0.005215 0.045595 -0.009058 0.000237 -0.048422 0.020430 0.044855 0.036058 0.028000 -0.015184 
洪 0.009802 0.024712 0.013113 0.046565 0.037347 -0.013490 0.020981 0.038490 0.004053 -0.033235 
雲南 -0.009335 0.018404 0.011481 0.035789 -0.013773 -0.030882 -0.013806 -0.011104 -0.003268 -0.001555 
軍閥統治 -0.020245 0.046397 0.036240 0.039198 -0.031274 -0.046394 0.043814 0.049190 -0.045331 -0.019167 
黎元洪 -0.016483 0.011232 -0.035852 0.023393 0.044412 0.033138 0.048724 0.001598 0.040561 0.047719 
治安 -0.015039 -0.039241 0.011026 0.012788 -0.025580 -0.028810 0.019870 0.011159 0.043665 0.028203 
陳獨秀 -0.043845 -0.049358 0.044257 -0.047890 0.033945 -0.035948 -0.047241 -0.011775 -0.007700 0.009200 
東亞地區 -0.029266 0.006859 -0.004715 -0.031102 0.024744 0.003325 0.031961 -0.049040 -0.033649 -0.002065 
胡適 0.016391 -0.011803 -0.027881 0.036003 -0.012363 0.038423 0.043610 -0.012160 0.009763 -0.015550 
美索不達米亞 0.007385 0.048759 -0.028171 0.034090 0.015009 0.039073 -0.012100 0.020155 0.043042 0.004094 
顏思齊 -0.002963 0.000459 -0.006952 0.014134 -0.036697 -0.042186 -0.008411 -0.035493 -0.024240 0.000032 
南美洲 -0.009772 -0.024477 0.048471 -0.040074 -0.034473 -0.007503 0.020499 -0.004692 0.019049 -0.014259 
顧問 -0.044095 -0.011009 -0.022644 -0.049434 0.043753 0.048787 -0.007990 0.007286 -0.001895 0.007509 
北伐統一 0.039575 0.001213 -0.041977 0.022969 0.021613 0.002660 -0.012430 -0.022020 -0.035315 0.006938 
吳佩孚 -0.024191 -0.019646 0.020355 0.034361 0.036801 -0.037096 -0.034814 0.030241 0.009610 -0.016557 
孫傳芳 0.000739 -0.035109 -0.041702 0.024782 -0.046423 0.033623 -0.028073 -0.005266 -0.024738 -0.043251 
英國議會政治的發展 -0.035440 0.026112 0.042358 -0.020418 -0.024741 -0.023271 -0.043573 -0.027565 -0.031912 0.029396 
權利法案 0.044031 0.030620 0.032108 -0.008073 -0.043268 -0.025551 -0.018619 -0.002867 -0.028906 0.049236 
四流 -0.045029 0.002827 -0.011322 0.025291 0.016940 -0.008177 0.036047 -0.002071 -0.043649 -0.028069 
馬克思 -0.035236 -0.012538 -0.012735 -0.024034 -0.048608 0.039201 0.048746 -0.038261 -0.002509 0.023460 
林肯 0.004855 0.012062 0.029626 0.035551 0.044656 0.034749 -0.000641 -0.004213 -0.017789 -0.037389 
三級會議 -0.016748 0.049480 -0.043417 -0.046538 -0.017133 -0.033058 0.031833 -0.009886 0.024768 0.043486 
濟南 -0.002975 -0.019621 -0.039484 -0.000575 -0.033780 -0.042931 -0.033325 -0.019930 -0.021518 -0.022002 
維也納會議後的歐洲 0.044806 -0.044264 -0.002127 0.025978 0.021472 0.021733 0.013455 0.008821 0.048236 -0.001625 
汪 0.039291 -0.040660 0.001660 0.030974 0.014444 0.035347 -0.016693 -0.010158 0.002975 0.019655 
共和國 0.019739 -0.029707 -0.006052 0.020076 -0.037482 -0.007362 0.001425 -0.030577 -0.011792 0.002190 
高科技 -0.035532 0.025508 -0.001630 -0.030739 0.047141 -0.028856 0.019568 -0.010835 0.038504 0.014143 
凱薩 0.003363 -0.017787 -0.047379 -0.012682 0.026318 -0.006282 0.028555 0.048482 -0.010004 -0.006007 
英格蘭 0.030368 -0.019554 0.020959 -0.021651 0.047122 -0.008977 -0.029230 -0.032899 -0.007120 0.013026 
弘揚 0.015991 0.005559 0.006705 0.004268 -0.041815 -0.035963 -0.047342 0.047560 0.023914 0.037846 
普及率 0.019803 -0.049284 -0.035260 0.047301 0.022202 0.046547 -0.042773 0.037712 -0.001083 -0.007133 
海倫 0.002936 -0.020607 0.014011 -0.027513 0.028430 -0.032344 -0.043454 -0.006779 -0.014728 0.022813 
荷蘭治理下的臺灣 0.040585 -0.012120 -0.049976 -0.009822 0.005191 0.014278 0.024249 0.040062 0.014426 -0.044774 
回國 0.034509 -0.032222 -0.042648 0.018538 0.032367 -0.006361 0.048032 0.037025 -0.005615 -0.037044 
伽利略 0.025528 -0.031499 0.022125 0.046043 -0.046097 -0.004222 0.042151 0.038213 0.022220 0.026668 
新羅 0.006024 -0.040224 0.044540 -0.006017 -0.009692 -0.043953 -0.040073 -0.044463 -0.003436 -0.002663 
尼克森 0.032443 -0.005858 -0.048645 -0.021040 -0.048849 0.017610 0.006244 0.021227 0.030112 -0.041246 
王后 0.037793 -0.030550 0.008389 -0.024614 0.047565 -0.006056 -0.049954 -0.049681 -0.037878 -0.009981 
拼板舟 0.044144 -0.008635 0.033026 -0.022011 0.004745 0.031337 0.036841 0.003166 -0.029086 0.028047 
李斯 -0.024872 0.035863 0.006711 -0.035692 -0.025549 -0.028609 0.001199 0.047932 -0.013629 0.030064 
海明威 -0.031558 0.011732 -0.012549 -0.042805 0.047501 0.013521 -0.020746 0.023094 0.002438 0.036110 
最後的晚餐 -0.011658 0.023076 0.022318 -0.012688 -0.033722 -0.022548 0.021201 -0.000060 -0.010376 0.031535 
雷馬克 0.038150 0.031807 -0.040057 -0.044362 0.037228 -0.034276 0.003796 0.045073 0.007498 0.009505 
安內 -0.027252 0.020152 -0.036978 -0.004039 0.043359 0.026189 0.042862 -0.017094 0.017194 0.033495 
鄭氏時期的經營 0.011081 -0.046849 0.020813 0.037383 -0.043259 0.014510 0.005780 -0.041835 -0.006094 -0.000206 
羅斯 0.048657 0.041154 -0.038364 -0.033183 -0.048993 -0.043336 0.023996 -0.001610 0.039392 0.000005 
諾貝爾化學獎 -0.029953 0.002327 -0.034625 -0.008510 0.013852 0.011440 0.005518 -0.023567 -0.005527 -0.016460 
喬治 -0.038617 0.025145 -0.024026 0.001442 -0.040466 0.032939 0.047415 -0.027043 -0.048468 0.020128 
玉井 0.022861 0.030898 0.013940 0.032024 0.041373 0.033076 0.048322 0.038939 -0.032986 -0.037694 
日治時期的社會與文化 -0.018762 0.036186 -0.011154 0.026399 -0.035748 0.044078 0.020932 -0.041832 -0.026074 0.007927 
伊朗高原 0.002335 0.015425 0.011823 -0.001955 -0.002884 -0.019017 0.004504 0.009746 -0.005661 -0.037346 
普羅民遮城 0.003534 -0.036659 0.008066 -0.006749 -0.014526 0.004143 -0.022641 0.030586 -0.048114 0.002464 
莒 -0.033719 -0.042528 0.029333 -0.046382 -0.036105 -0.018279 -0.030621 -0.022084 -0.015738 0.036147 
博愛 0.048584 0.020671 -0.033554 -0.021440 -0.031488 -0.047804 -0.025491 -0.008226 -0.044275 -0.032198 
美感 -0.002487 -0.016399 -0.038214 -0.012196 0.049521 -0.013145 -0.036743 -0.042488 -0.030405 -0.040654 
山田 -0.038300 0.047240 0.021799 -0.016112 -0.016321 -0.047701 -0.004807 -0.031706 -0.019244 -0.006996 
荀子 0.003842 0.045375 0.029492 0.014665 -0.013193 -0.027055 0.031451 -0.012404 0.008151 0.033815 
巴爾幹半島的建國運動 0.013196 0.007109 -0.043063 0.035799 0.026288 -0.006483 0.047226 0.011708 0.047290 -0.007869 
承繼 0.018082 0.019356 -0.022235 -0.026735 0.033566 0.041554 0.044275 0.032231 -0.017258 -0.013884 
洪憲元 -0.001617 -0.010658 -0.020328 -0.014146 0.016650 -0.010091 -0.036581 -0.001421 0.000641 0.004247 
墨 -0.001956 0.007106 -0.023083 0.027666 -0.027390 0.019246 -0.002960 -0.019521 0.001181 -0.032188 
成都平原 0.037573 0.008000 0.022818 0.010616 0.000079 -0.019460 0.001584 0.030470 0.011121 -0.006587 
施 0.026541 0.035188 0.022260 -0.033070 0.011752 -0.042418 0.010059 0.046404 -0.003720 -0.044536 
黃鶴樓 -0.023920 0.002147 0.044186 0.011647 0.046887 0.029472 0.044534 0.033943 -0.025958 0.048692 
岷江 0.011386 -0.044835 0.034106 0.005119 -0.016196 0.033125 0.028644 -0.030934 0.025851 -0.049364 
賀知章 -0.015784 0.035844 0.026590 0.015511 -0.047614 0.025768 0.000082 -0.039439 0.009717 -0.015852 
李冰 -0.014609 0.043599 -0.042230 -0.018703 0.046579 0.047438 0.023108 0.012529 -0.027292 -0.020110 
清領前期的社會發展 -0.042706 -0.001845 -0.022159 -0.026231 0.036890 -0.016512 0.001041 -0.013115 -0.036542 0.038841 
堰 0.006369 0.002052 -0.036438 -0.040474 -0.017111 0.027083 -0.011237 -0.034145 0.044662 -0.005211 
湖 0.015625 0.003142 0.030753 -0.037016 0.045709 0.041698 0.005222 0.014479 0.005579 -0.023164 
移民社會 -0.042868 -0.042912 0.046796 0.028868 0.000546 0.023622 0.045923 0.043108 -0.025473 -0.028105 
相國 0.004523 -0.010133 0.043137 -0.015282 0.049158 -0.035542 -0.004562 -0.030095 0.031390 -0.012807 
波士頓 0.045493 -0.039732 0.027783 0.003386 0.032364 0.013618 0.039899 -0.016652 0.020114 0.012770 
岡 -0.005701 0.022392 -0.002194 -0.034465 0.042548 0.040831 -0.020499 0.004726 -0.038794 -0.016023 
迪南 0.004263 -0.011845 -0.048163 0.022142 0.036154 -0.001366 0.041003 -0.049361 -0.035764 0.043977 
華制華 -0.019733 -0.010219 0.002573 -0.043004 0.046191 -0.015120 -0.009775 -0.004497 0.040338 0.006248 
新世界 -0.008743 0.042311 -0.010730 0.049199 -0.005270 0.005232 0.044550 0.034044 0.014706 0.017079 
富士康 -0.017261 0.006096 -0.009750 0.035664 0.005402 0.035667 -0.014578 0.043800 0.039099 0.018071 
小亞細亞 -0.010715 0.049300 0.035394 -0.026381 0.015903 -0.015025 -0.029150 0.047624 0.004337 0.008638 
杜絕 0.047028 0.010399 0.018649 0.003102 -0.009509 -0.042744 0.047903 -0.023820 -0.047198 0.008507 
封丘 0.006161 -0.039317 0.010522 0.009465 0.032486 0.014424 -0.034784 0.030443 -0.009061 0.020216 
德皇威 0.043445 -0.033247 -0.029416 -0.014128 -0.003229 0.038707 -0.014517 0.044203 0.001758 -0.008382 
殖民體制的建立 -0.025302 -0.046977 -0.040033 -0.004201 0.002292 -0.004857 -0.002039 0.046562 -0.042673 -0.021623 
格鬥 -0.032697 -0.035780 -0.046133 0.035536 0.044556 -0.005916 0.030972 0.024434 0.031281 0.006468 
富麗堂皇 -0.047293 0.027882 -0.045959 -0.003316 0.008133 -0.046306 -0.035602 -0.014955 0.011313 0.034682 
巴黎和會與國際聯盟 0.038916 0.016862 0.001309 0.028658 -0.020844 -0.037550 0.042184 0.018434 0.011682 0.017119 
義大利人 0.023001 0.011824 -0.011945 0.001183 -0.042178 0.041640 -0.015161 -0.040047 -0.014291 -0.034306 
潮州 0.003595 -0.036256 -0.029276 -0.033202 -0.029114 0.007866 0.001932 -0.047234 0.038275 0.012633 
泉水 -0.006607 -0.043590 -0.017676 0.023357 -0.015829 0.035542 0.004596 0.010350 0.038327 -0.027025 
